[unifb]
-0.18684

\data\
ngram 1=45
ngram 2=108
ngram 3=97

\1-grams:
-0.481686	</unk>
-1.8406	‚²	-0.00468939
-1.81468	‚Î	-0.155186
-1.8406	‚µ‚å	-0.00468939
-1.82315	‚È	-0.076974
-1.82315	‚Ü	-0.0585669
-1.8406	‚¦	-0.0075037
-1.82315	‚í	-0.00938023
-1.8406	‚ 	-0.00468939
-1.83179	‚«‚å	-0.00938023
-1.83179	‚ä	-0.0075037
-1.8406	‚¹	-0.00468939
-1.82315	‚«	-0.0107208
-1.81468	‚±	-0.0125084
-1.81468	‚ª	-0.120726
-1.83179	‚É	-0.0075037
-1.83179	‚µ	-0.0075037
-1.83179	‚½	-0.0075037
-1.81468	‚¿	-0.102964
-1.8406	‚ç	-0.00938023
-1.82315	‚è	-0.213663
-1.64562	‚·	-0.166785
-1.8406	‚¬‚ã	-0.00468939
-1.83179	‚¯	-0.0075037
-1.81468	‚¢	-0.0117263
-1.8406	‚¶‚å	-0.00468939
-1.83179	‚Å	-0.00468939
-1.8406	‚¾	-0.00938023
-1.83179	‚æ	-0.0075037
-1.83179	‚ë	-0.0075037
-1.8406	‚Ú	-0.00468939
-1.8406	‚Æ	-0.00468939
-1.8406	‚¨	-0.00468939
-1.82315	‚Ç	-0.076974
-1.83179	‚Ñ	-0.0075037
-1.83179	‚Å‚¡	-0.102964
-1.81468	‚ñ	-0.13545
-1.8406	‚®	-0.102964
-1.8406	‚Ø	-0.0075037
-1.83179	‚Â	-0.102964
-1.83179	‚Õ	-0.102964
-1.8406	‚×	-0.00468939
-1.8406	‚â	-0.00468939
-1.8406	‚Û	-0.00468939
-1.8406	‚Ï	-0.00468939

\2-grams:
-0.443869	‚É </unk>
-0.997568	‚É ‚È	-0.0555882
-0.998621	‚µ ‚½	-0.0555882
-0.998621	‚µ ‚Â	-0.0555882
-0.34868	‚½ </unk>
-0.43949	‚¿ ‚ç	-0.184632
-0.209637	‚ª </unk>
-0.540584	‚± </unk>
-1.26841	‚± ‚È	-0.0555882
-1.26841	‚± ‚í	-0.0555882
-1.26664	‚± ‚ª	-0.0555882
-1.26664	‚± ‚¿	-0.0555882
-1.27019	‚± ‚ë	-0.0555882
-0.397687	‚ç </unk>
-1.08737	‚ç ‚ª	-0.0842686
-0.432944	‚« </unk>
-1.15891	‚« ‚Î	-0.0555882
-1.16177	‚« ‚ä	-0.0555882
-0.87496	‚¹ ‚«	-0.0555882
-0.999678	‚ä ‚¹	-0.0555882
-0.998621	‚ä ‚µ	-0.0555882
-0.23275	‚· </unk>
-1.34531	‚· ‚Ø	-0.0842686
-1.34387	‚· ‚Â	-0.0555882
-0.304495	‚è </unk>
-0.690356	‚è ‚ñ	-0.0842686
-1.9158	<unk> ‚²	-0.0555882
-1.75581	<unk> ‚Î	-0.0842686
-1.37272	<unk> ‚È	-0.186701
-1.11173	<unk> ‚Ü	-0.243101
-1.56673	<unk> ‚¦	-0.0842686
-1.9158	<unk> ‚ 	-0.0555882
-1.49172	<unk> ‚«‚å	-0.101808
-1.56205	<unk> ‚«	-0.0842686
-1.28008	<unk> ‚±	-0.122188
-1.48777	<unk> ‚ª	-0.101808
-1.76315	<unk> ‚É	-0.0842686
-1.91057	<unk> ‚µ	-0.0555882
-1.91057	<unk> ‚½	-0.0555882
-1.64757	<unk> ‚¿	-0.292323
-1.56205	<unk> ‚è	-0.0842686
-1.67427	<unk> ‚·	-0.0842686
-1.9158	<unk> ‚¬‚ã	-0.0555882
-1.91057	<unk> ‚¯	-0.0555882
-1.32326	<unk> ‚¢	-0.184632
-1.76315	<unk> ‚Å	-0.18989
-1.37574	<unk> ‚¾	-0.101808
-1.91057	<unk> ‚æ	-0.0555882
-1.91057	<unk> ‚ë	-0.0555882
-1.9158	<unk> ‚Ú	-0.0555882
-1.9158	<unk> ‚Æ	-0.0555882
-1.48974	<unk> ‚Ç	-0.101808
-1.76315	<unk> ‚Ñ	-0.0842686
-1.91057	<unk> ‚Å‚¡	-0.0555882
-1.9003	<unk> ‚ñ	-0.0555882
-1.76315	<unk> ‚Õ	-0.0842686
-1.9158	<unk> ‚×	-0.0555882
-1.9158	<unk> ‚Û	-0.0555882
-0.443869	‚¦ </unk>
-0.997568	‚¦ ‚í	-0.0555882
-0.316195	‚Ü </unk>
-1.32106	‚Ü ‚è	-0.186701
-1.27782	‚Ü ‚·	-0.0555882
-0.563553	‚È </unk>
-0.61796	‚È ‚Ü	-0.101808
-1.17144	‚È ‚è	-0.0555882
-0.386833	‚µ‚å </unk>
-0.234965	‚Î </unk>
-1.18493	‚Î ‚µ‚å	-0.0555882
-0.874113	‚² ‚Î	-0.0555882
-0.328003	‚í </unk>
-0.386833	‚  </unk>
-0.397687	‚«‚å </unk>
-1.08986	‚«‚å ‚ä	-0.0555882
-0.875809	‚¬‚ã ‚¯	-0.0555882
-0.246261	‚Õ </unk>
-0.246261	‚Â </unk>
-0.443869	‚Ø </unk>
-0.971383	‚Ø ‚·	-0.0555882
-0.433225	‚® ‚·	-0.18989
-0.276834	‚ñ </unk>
-1.24347	‚ñ ‚®	-0.0842686
-1.24347	‚ñ ‚Ï	-0.0555882
-0.438806	‚Å‚¡ ‚ñ	-0.18989
-0.876659	‚× ‚â	-0.0555882
-0.386833	‚Ú </unk>
-0.386833	‚Û </unk>
-0.386833	‚Ï </unk>
-0.386833	‚â </unk>
-0.443869	‚Ñ </unk>
-0.998621	‚Ñ ‚Å‚¡	-0.0555882
-0.297251	‚Ç </unk>
-1.17019	‚Ç ‚±	-0.0555882
-0.87496	‚¨ ‚«	-0.0555882
-0.876659	‚Æ ‚¨	-0.0555882
-0.443869	‚¯ </unk>
-0.996516	‚¯ ‚¢	-0.0555882
-0.459606	‚¢ </unk>
-1.22227	‚¢ ‚¶‚å	-0.0555882
-1.21905	‚¢ ‚Ç	-0.0555882
-1.21745	‚¢ ‚ñ	-0.0555882
-0.87496	‚¶‚å ‚í	-0.0555882
-0.853746	‚Å ‚·	-0.0842686
-0.480728	‚¾ </unk>
-1.08737	‚¾ ‚¢	-0.0555882
-1.08986	‚¾ ‚æ	-0.0555882
-0.34868	‚æ </unk>
-0.34868	‚ë </unk>

\3-grams:
-0.403557	<unk> ‚É </unk>
-0.698261	<unk> ‚É ‚È
-0.620056	‚ä ‚µ ‚Â
-0.620056	<unk> ‚µ ‚½
-0.272745	‚µ ‚½ </unk>
-0.272745	<unk> ‚½ </unk>
-0.19547	<unk> ‚¿ ‚ç
-0.335151	‚± ‚¿ ‚ç
-0.169736	‚± ‚ª </unk>
-0.147067	‚ç ‚ª </unk>
-0.132431	<unk> ‚ª </unk>
-0.698	‚Ç ‚± ‚ë
-0.596317	<unk> ‚± </unk>
-0.952808	<unk> ‚± ‚È
-0.952808	<unk> ‚± ‚í
-0.952289	<unk> ‚± ‚ª
-0.952289	<unk> ‚± ‚¿
-0.380947	‚¿ ‚ç </unk>
-0.555462	‚¿ ‚ç ‚ª
-0.396057	<unk> ‚« </unk>
-0.753073	<unk> ‚« ‚ä
-0.67021	‚¨ ‚« ‚Î
-0.33079	‚¹ ‚« </unk>
-0.572233	‚ä ‚¹ ‚«
-0.620056	‚« ‚ä ‚µ
-0.620429	‚«‚å ‚ä ‚¹
-0.187441	‚Ø ‚· </unk>
-0.187441	‚Ü ‚· </unk>
-0.248825	<unk> ‚· </unk>
-0.798958	<unk> ‚· ‚Â
-0.16194	‚Å ‚· </unk>
-0.455444	‚® ‚· ‚Ø
-0.165233	‚Ü ‚è </unk>
-0.240945	‚È ‚è </unk>
-0.394892	<unk> ‚è ‚ñ
-0.403557	<unk> ‚¦ </unk>
-0.698261	<unk> ‚¦ ‚í
-0.418014	<unk> ‚Ü </unk>
-0.504391	<unk> ‚Ü ‚è
-1.01512	<unk> ‚Ü ‚·
-0.190437	‚È ‚Ü </unk>
-0.673609	‚É ‚È ‚è
-0.281154	<unk> ‚È ‚Ü
-0.413521	‚± ‚È </unk>
-0.29946	‚Î ‚µ‚å </unk>
-0.16335	<unk> ‚Î </unk>
-0.677193	‚² ‚Î ‚µ‚å
-0.189125	‚« ‚Î </unk>
-0.571876	<unk> ‚² ‚Î
-0.257977	‚± ‚í </unk>
-0.257977	‚¦ ‚í </unk>
-0.257977	‚¶‚å ‚í </unk>
-0.29946	<unk> ‚  </unk>
-0.315354	<unk> ‚«‚å </unk>
-0.794971	<unk> ‚«‚å ‚ä
-0.57259	<unk> ‚¬‚ã ‚¯
-0.170503	<unk> ‚Õ </unk>
-0.197687	‚µ ‚Â </unk>
-0.197687	‚· ‚Â </unk>
-0.403557	‚· ‚Ø </unk>
-0.688213	‚· ‚Ø ‚·
-0.27865	‚ñ ‚® ‚·
-0.282752	‚è ‚ñ </unk>
-0.77544	‚è ‚ñ ‚Ï
-0.220584	<unk> ‚ñ </unk>
-0.445497	‚Å‚¡ ‚ñ ‚®
-0.220584	‚¢ ‚ñ </unk>
-0.334696	‚Ñ ‚Å‚¡ ‚ñ
-0.334696	<unk> ‚Å‚¡ ‚ñ
-0.572947	<unk> ‚× ‚â
-0.29946	<unk> ‚Ú </unk>
-0.29946	<unk> ‚Û </unk>
-0.29946	‚ñ ‚Ï </unk>
-0.29946	‚× ‚â </unk>
-0.403557	<unk> ‚Ñ </unk>
-0.698657	<unk> ‚Ñ ‚Å‚¡
-0.255503	<unk> ‚Ç </unk>
-0.821282	<unk> ‚Ç ‚±
-0.235646	‚¢ ‚Ç </unk>
-0.572233	‚Æ ‚¨ ‚«
-0.572947	<unk> ‚Æ ‚¨
-0.338056	<unk> ‚¯ </unk>
-0.619311	‚¬‚ã ‚¯ ‚¢
-0.361627	<unk> ‚¢ </unk>
-0.901316	<unk> ‚¢ ‚Ç
-0.90086	<unk> ‚¢ ‚ñ
-0.686686	‚¯ ‚¢ ‚¶‚å
-0.348413	‚¾ ‚¢ </unk>
-0.572233	‚¢ ‚¶‚å ‚í
-0.382007	<unk> ‚Å ‚·
-0.479594	<unk> ‚¾ </unk>
-0.794101	<unk> ‚¾ ‚¢
-0.794971	<unk> ‚¾ ‚æ
-0.272745	‚¾ ‚æ </unk>
-0.272745	<unk> ‚æ </unk>
-0.272745	‚± ‚ë </unk>
-0.272745	<unk> ‚ë </unk>
