[unifb]
-0.235169

\data\
ngram 1=34
ngram 2=66
ngram 3=47

\1-grams:
-0.413905	</unk>
-1.75875	‚±	-0.0153382
-1.73919	‚Ì	-0.012373
-1.73919	‚Î	-0.012373
-1.73919	‚µ	-0.012373
-1.73919	‚È	-0.11248
-1.72046	‚Ü	-0.0153382
-1.75875	‚¦	-0.012373
-1.75875	‚í	-0.00783125
-1.75875	‚ 	-0.00783125
-1.75875	‚«‚å	-0.00783125
-1.75875	‚¨	-0.00783125
-1.75875	‚ä	-0.00783125
-1.73919	‚¹	-0.012373
-1.51605	‚«	-0.0966379
-1.75875	‚ª	-0.0153382
-1.75875	‚¤	-0.00783125
-1.75875	‚É	-0.012373
-1.75875	‚½	-0.00783125
-1.73919	‚¿	-0.11248
-1.75875	‚ç	-0.012373
-1.75875	‚¾	-0.0966379
-1.75875	‚è	-0.00783125
-1.72046	‚·	-0.012373
-1.75875	‚¬‚ã	-0.00783125
-1.75875	‚¯	-0.00783125
-1.75875	‚¢	-0.00783125
-1.75875	‚¶‚å	-0.00783125
-1.73919	‚Å	-0.012373
-1.75875	‚É‚á	-0.00783125
-1.75875	‚æ	-0.00783125
-1.73919	‚ë	-0.012373
-1.75875	‚Ú	-0.00783125
-1.75875	‚Æ	-0.00783125

\2-grams:
-0.237908	‚« </unk>
-0.324322	‚ë </unk>
-0.352382	‚í </unk>
-0.948018	‚è ‚Ü	-0.0435907
-1.15338	<unk> ‚±	-0.0824268
-1.74144	<unk> ‚Ì	-0.0435907
-1.74144	<unk> ‚Î	-0.0435907
-1.74144	<unk> ‚È	-0.0435907
-1.73051	<unk> ‚Ü	-0.0435907
-1.35694	<unk> ‚í	-0.166998
-1.75266	<unk> ‚ 	-0.0435907
-1.75266	<unk> ‚«‚å	-0.0435907
-1.75266	<unk> ‚¨	-0.0435907
-1.5888	<unk> ‚¹	-0.0674014
-1.59882	<unk> ‚«	-0.0435907
-1.15338	<unk> ‚ª	-0.0824268
-1.75266	<unk> ‚¤	-0.0435907
-1.35694	<unk> ‚É	-0.0674014
-1.74144	<unk> ‚¿	-0.0435907
-1.15338	<unk> ‚¾	-0.0824268
-1.47011	<unk> ‚·	-0.16339
-1.75266	<unk> ‚¬‚ã	-0.0435907
-1.74144	<unk> ‚Å	-0.0435907
-1.75266	<unk> ‚É‚á	-0.0435907
-1.75266	<unk> ‚æ	-0.0435907
-1.5888	<unk> ‚ë	-0.0674014
-1.75266	<unk> ‚Ú	-0.0435907
-1.75266	<unk> ‚Æ	-0.0435907
-0.352382	‚ä </unk>
-0.953652	‚¨ ‚ä	-0.0435907
-0.90987	‚Æ ‚«	-0.0435907
-0.352382	‚«‚å </unk>
-1.05806	‚µ ‚Ì	-0.0435907
-1.06148	‚µ ‚½	-0.0435907
-0.352382	‚¶‚å </unk>
-0.352382	‚Ú </unk>
-0.308228	‚ª </unk>
-0.324322	‚Å </unk>
-0.47862	‚È ‚Ü	-0.166998
-0.324322	‚É </unk>
-0.480052	‚¿ ‚ç	-0.0674014
-1.05806	‚Ì ‚Î	-0.0435907
-1.05806	‚Ì ‚È	-0.0435907
-0.953652	‚¯ ‚¢	-0.0435907
-0.352382	‚  </unk>
-0.352382	‚¤ </unk>
-0.352382	‚½ </unk>
-0.352382	‚É‚á </unk>
-0.424196	‚Ü </unk>
-1.13845	‚Ü ‚µ	-0.0435907
-1.14243	‚Ü ‚¦	-0.0674014
-0.395759	‚ç </unk>
-1.05806	‚ç ‚Å	-0.0435907
-0.2835	‚¾ </unk>
-1.15747	‚¾ ‚è	-0.0435907
-0.352382	‚æ </unk>
-0.324322	‚¦ </unk>
-0.324322	‚· </unk>
-0.362353	‚± </unk>
-1.13845	‚± ‚¿	-0.0435907
-0.953652	‚¬‚ã ‚¯	-0.0435907
-0.395759	‚Î </unk>
-1.05806	‚Î ‚µ	-0.0435907
-0.953652	‚¢ ‚¶‚å	-0.0435907
-0.395759	‚¹ </unk>
-1.0089	‚¹ ‚«	-0.0435907

\3-grams:
-0.209961	‚¹ ‚« </unk>
-0.209961	‚Æ ‚« </unk>
-0.209961	<unk> ‚« </unk>
-0.258732	<unk> ‚ë </unk>
-0.22696	<unk> ‚í </unk>
-0.713176	‚¾ ‚è ‚Ü
-0.305499	‚¨ ‚ä </unk>
-0.716148	<unk> ‚¨ ‚ä
-0.692569	<unk> ‚Æ ‚«
-0.305499	<unk> ‚«‚å </unk>
-0.767932	‚Î ‚µ ‚Ì
-0.769525	‚Ü ‚µ ‚½
-0.305499	‚¢ ‚¶‚å </unk>
-0.305499	<unk> ‚Ú </unk>
-0.232457	<unk> ‚ª </unk>
-0.282472	‚ç ‚Å </unk>
-0.282472	<unk> ‚Å </unk>
-0.405568	‚Ì ‚È ‚Ü
-0.405568	<unk> ‚È ‚Ü
-0.258732	<unk> ‚É </unk>
-0.406667	<unk> ‚¿ ‚ç
-0.406667	‚± ‚¿ ‚ç
-0.767932	<unk> ‚Ì ‚Î
-0.767932	‚µ ‚Ì ‚È
-0.716148	‚¬‚ã ‚¯ ‚¢
-0.305499	<unk> ‚  </unk>
-0.305499	<unk> ‚¤ </unk>
-0.305499	‚µ ‚½ </unk>
-0.305499	<unk> ‚É‚á </unk>
-0.494318	‚È ‚Ü ‚¦
-0.363167	‚è ‚Ü </unk>
-0.803553	<unk> ‚Ü ‚µ
-0.380487	‚¿ ‚ç </unk>
-0.829553	‚¿ ‚ç ‚Å
-0.261586	<unk> ‚¾ </unk>
-0.927255	<unk> ‚¾ ‚è
-0.305499	<unk> ‚æ </unk>
-0.258732	‚Ü ‚¦ </unk>
-0.204716	<unk> ‚· </unk>
-0.321442	<unk> ‚± </unk>
-0.91802	<unk> ‚± ‚¿
-0.716148	<unk> ‚¬‚ã ‚¯
-0.340558	<unk> ‚Î </unk>
-0.767932	‚Ì ‚Î ‚µ
-0.716148	‚¯ ‚¢ ‚¶‚å
-0.380487	<unk> ‚¹ </unk>
-0.804078	<unk> ‚¹ ‚«
