[unifb]
-0.251367

\data\
ngram 1=45
ngram 2=93
ngram 3=73

\1-grams:
-0.385585	</unk>
-1.90203	‚²	-0.0065842
-1.89026	‚Î	-0.0131017
-1.6842	‚µ	-0.0131017
-1.90203	‚Ì	-0.0065842
-1.90203	‚È	-0.0098512
-1.87881	‚Ü	-0.0131017
-1.90203	‚Ö	-0.0065842
-1.89026	‚í	-0.0920695
-1.90203	‚«‚å	-0.0065842
-1.90203	‚ä	-0.108393
-1.90203	‚¹	-0.0065842
-1.66306	‚«	-0.0663232
-1.90203	‚Ó‚§	-0.0065842
-1.89026	‚±	-0.0098512
-1.87881	‚ª	-0.108393
-1.90203	‚É	-0.0118035
-1.89026	‚½	-0.0098512
-1.90203	‚¿	-0.0098512
-1.90203	‚ç	-0.0065842
-1.87881	‚è	-0.108393
-1.89026	‚·	-0.0098512
-1.90203	‚¬‚ã	-0.0065842
-1.89026	‚¯	-0.0098512
-1.85676	‚¢	-0.124201
-1.90203	‚¶‚å	-0.0065842
-1.86764	‚Å	-0.0131017
-1.90203	‚¾	-0.108393
-1.90203	‚æ	-0.0140275
-1.90203	‚ë	-0.0065842
-1.90203	‚Ú	-0.0065842
-1.90203	‚Æ	-0.0065842
-1.90203	‚Ç	-0.0065842
-1.90203	‚µ‚å	-0.0065842
-1.90203	‚Ñ	-0.0065842
-1.90203	‚Å‚¡	-0.0065842
-1.87881	‚ñ	-0.0131017
-1.90203	‚®	-0.0065842
-1.90203	‚Ø	-0.0065842
-1.90203	‚¨	-0.0065842
-1.89026	‚Â	-0.0098512
-1.90203	‚Õ	-0.134257
-1.90203	‚×	-0.0065842
-1.90203	‚â	-0.0065842
-1.90203	‚Ï	-0.0065842

\2-grams:
-0.264836	‚ª </unk>
-1.04352	‚ª ‚¢	-0.0634068
-0.274464	‚¿ </unk>
-0.308495	‚ç </unk>
-0.264836	‚è </unk>
-1.04563	‚è ‚Ü	-0.0634068
-0.366955	‚± </unk>
-0.951037	‚± ‚¿	-0.0990421
-0.308495	‚Ó‚§ </unk>
-0.274464	‚½ </unk>
-0.227908	‚« </unk>
-1.27316	‚« ‚Î	-0.0634068
-0.810748	‚¹ ‚«	-0.0634068
-0.366955	‚· </unk>
-0.951037	‚· ‚Ø	-0.0634068
-0.531029	‚ä ‚µ	-0.0990421
-1.04775	‚ä ‚¹	-0.0634068
-0.255234	‚É </unk>
-0.297883	‚Ü </unk>
-1.11269	‚Ü ‚Ö	-0.0634068
-0.948916	‚È ‚Ü	-0.0634068
-0.948916	‚È ‚è	-0.0634068
-0.308495	‚Ì </unk>
-0.43464	‚µ </unk>
-1.11269	‚µ ‚Ì	-0.0634068
-1.11128	‚µ ‚½	-0.0634068
-1.11128	‚µ ‚Â	-0.0634068
-0.43464	‚Î </unk>
-0.820706	‚Î ‚µ	-0.0990421
-1.11269	‚Î ‚µ‚å	-0.0634068
-0.308495	‚² </unk>
-1.93339	<unk> ‚²	-0.0634068
-1.35605	<unk> ‚Î	-0.121946
-1.5562	<unk> ‚È	-0.0990421
-1.55187	<unk> ‚Ü	-0.0990421
-1.22057	<unk> ‚í	-0.200995
-1.93339	<unk> ‚«‚å	-0.0634068
-1.35743	<unk> ‚ä	-0.121946
-1.29008	<unk> ‚«	-0.149719
-1.93339	<unk> ‚Ó‚§	-0.0634068
-1.46199	<unk> ‚±	-0.195754
-1.92315	<unk> ‚ª	-0.0634068
-1.35743	<unk> ‚É	-0.121946
-1.92824	<unk> ‚½	-0.0634068
-1.93339	<unk> ‚ç	-0.0634068
-1.73217	<unk> ‚è	-0.0990421
-1.73545	<unk> ‚·	-0.0990421
-1.93339	<unk> ‚¬‚ã	-0.0634068
-1.45677	<unk> ‚¢	-0.121946
-1.49687	<unk> ‚Å	-0.137927
-1.03484	<unk> ‚¾	-0.325768
-1.5562	<unk> ‚ë	-0.188015
-1.93339	<unk> ‚Ú	-0.0634068
-1.93339	<unk> ‚Ç	-0.0634068
-1.93339	<unk> ‚Ñ	-0.0634068
-1.92315	<unk> ‚ñ	-0.0634068
-1.93339	<unk> ‚¨	-0.0634068
-1.92824	<unk> ‚Â	-0.0634068
-1.5562	<unk> ‚Õ	-0.0990421
-1.93339	<unk> ‚×	-0.0634068
-0.832778	‚Ö ‚í	-0.0634068
-0.200964	‚í </unk>
-0.308495	‚«‚å </unk>
-0.832778	‚¬‚ã ‚¯	-0.0634068
-0.833658	‚× ‚â	-0.0634068
-0.443205	‚Õ ‚¢	-0.0990421
-0.274464	‚Â </unk>
-0.308495	‚Ø </unk>
-0.308495	‚® </unk>
-0.43464	‚ñ </unk>
-1.11128	‚ñ ‚¯	-0.0634068
-1.11269	‚ñ ‚®	-0.0634068
-1.11269	‚ñ ‚Ï	-0.0634068
-0.8319	‚Å‚¡ ‚ñ	-0.0634068
-0.8319	‚¨ ‚ª	-0.0634068
-0.8319	‚µ‚å ‚ª	-0.0634068
-0.308495	‚Ï </unk>
-0.308495	‚â </unk>
-0.833658	‚Ñ ‚Å‚¡	-0.0634068
-0.308495	‚Ç </unk>
-0.810748	‚Æ ‚«	-0.0634068
-0.833658	‚Ú ‚Æ	-0.0634068
-0.234231	‚æ </unk>
-0.366955	‚¯ </unk>
-0.946805	‚¯ ‚¢	-0.0634068
-0.324282	‚¢ </unk>
-1.28167	‚¢ ‚¶‚å	-0.0634068
-0.786067	‚¢ ‚ñ	-0.0990421
-0.308495	‚¶‚å </unk>
-0.242862	‚Å </unk>
-0.463667	‚¾ </unk>
-0.538768	‚¾ ‚æ	-0.149719
-0.308495	‚ë </unk>

\3-grams:
-0.230653	<unk> ‚ª </unk>
-0.746842	‚µ‚å ‚ª ‚¢
-0.230653	‚¨ ‚ª </unk>
-0.225014	‚± ‚¿ </unk>
-0.266763	<unk> ‚ç </unk>
-0.747803	‚È ‚è ‚Ü
-0.217578	<unk> ‚è </unk>
-0.470632	<unk> ‚± </unk>
-0.447594	<unk> ‚± ‚¿
-0.266763	<unk> ‚Ó‚§ </unk>
-0.23867	‚µ ‚½ </unk>
-0.23867	<unk> ‚½ </unk>
-0.199634	‚¹ ‚« </unk>
-0.176901	<unk> ‚« </unk>
-0.836853	‚Æ ‚« ‚Î
-0.625211	‚ä ‚¹ ‚«
-0.357321	<unk> ‚· </unk>
-0.782419	<unk> ‚· ‚Ø
-0.451878	<unk> ‚ä ‚µ
-0.89235	<unk> ‚ä ‚¹
-0.203514	<unk> ‚É </unk>
-0.777013	‚È ‚Ü ‚Ö
-0.24294	<unk> ‚Ü </unk>
-0.258045	‚è ‚Ü </unk>
-0.781176	<unk> ‚È ‚Ü
-0.781176	<unk> ‚È ‚è
-0.266763	‚µ ‚Ì </unk>
-0.413743	‚ä ‚µ </unk>
-0.868944	‚ä ‚µ ‚Â
-0.869639	‚Î ‚µ ‚Ì
-0.868944	‚Î ‚µ ‚½
-0.367306	‚« ‚Î </unk>
-0.633333	<unk> ‚Î ‚µ
-0.929392	<unk> ‚Î ‚µ‚å
-0.266763	<unk> ‚² </unk>
-0.638045	‚Ü ‚Ö ‚í
-0.127042	<unk> ‚í </unk>
-0.176742	‚Ö ‚í </unk>
-0.266763	<unk> ‚«‚å </unk>
-0.638045	<unk> ‚¬‚ã ‚¯
-0.638552	<unk> ‚× ‚â
-0.34879	<unk> ‚Õ ‚¢
-0.23867	‚µ ‚Â </unk>
-0.23867	<unk> ‚Â </unk>
-0.266763	‚· ‚Ø </unk>
-0.266763	‚ñ ‚® </unk>
-0.367306	<unk> ‚ñ </unk>
-0.868944	‚¢ ‚ñ ‚¯
-0.869639	‚¢ ‚ñ ‚Ï
-0.777013	‚Å‚¡ ‚ñ ‚®
-0.637539	‚Ñ ‚Å‚¡ ‚ñ
-0.637539	<unk> ‚¨ ‚ª
-0.637539	‚Î ‚µ‚å ‚ª
-0.266763	‚ñ ‚Ï </unk>
-0.266763	‚× ‚â </unk>
-0.638552	<unk> ‚Ñ ‚Å‚¡
-0.266763	<unk> ‚Ç </unk>
-0.625211	‚Ú ‚Æ ‚«
-0.638552	<unk> ‚Ú ‚Æ
-0.181499	‚¾ ‚æ </unk>
-0.700077	‚¬‚ã ‚¯ ‚¢
-0.314093	‚ñ ‚¯ </unk>
-0.321026	‚Õ ‚¢ </unk>
-0.67844	‚Õ ‚¢ ‚ñ
-0.297217	<unk> ‚¢ </unk>
-0.720137	<unk> ‚¢ ‚ñ
-0.839647	‚¯ ‚¢ ‚¶‚å
-0.279664	‚ª ‚¢ </unk>
-0.266763	‚¢ ‚¶‚å </unk>
-0.190372	<unk> ‚Å </unk>
-0.693382	<unk> ‚¾ </unk>
-0.211481	<unk> ‚¾ ‚æ
-0.168856	<unk> ‚ë </unk>
