[unifb]
-0.264987

\data\
ngram 1=42
ngram 2=95
ngram 3=73

\1-grams:
-0.392856	</unk>
-1.87357	‚¤	-0.0200198
-1.85004	‚±	-0.436203
-1.82771	‚Ì	-0.156222
-1.85004	‚Î	-0.0293017
-1.85004	‚µ	-0.0293017
-1.87357	‚È	-0.026258
-1.48693	‚Ü	-0.180622
-1.87357	‚¦	-0.0200198
-1.87357	‚í	-0.0200198
-1.87357	‚ 	-0.0200198
-1.85004	‚«‚å	-0.156222
-1.85004	‚ä	-0.20634
-1.87357	‚¹	-0.156222
-1.87357	‚«	-0.0857473
-1.85004	‚ª	-0.026258
-1.85004	‚É	-0.026258
-1.87357	‚½	-0.0200198
-1.87357	‚¿	-0.0200198
-1.87357	‚ç	-0.0200198
-1.82771	‚è	-0.129199
-1.80648	‚·	-0.336305
-1.85004	‚«‚ã	-0.026258
-1.87357	‚¸	-0.0200198
-1.87357	‚¯	-0.026258
-1.87357	‚¢	-0.156222
-1.87357	‚¶‚å	-0.0200198
-1.87357	‚Å	-0.0293017
-1.87357	‚¬‚ã	-0.0200198
-1.82771	‚¾	-0.156222
-1.87357	‚æ	-0.026258
-1.87357	‚ë	-0.0200198
-1.85004	‚Ú	-0.026258
-1.85004	‚Æ	-0.026258
-1.85004	‚Ç	-0.026258
-1.87357	‚É‚á	-0.0200198
-1.87357	‚²	-0.0200198
-1.87357	‚ð	-0.0200198
-1.87357	‚Ý	-0.0200198
-1.87357	‚Å‚¡	-0.0200198
-1.87357	‚¬	-0.0200198
-1.87357	‚Ø	-0.0200198

\2-grams:
-0.337095	‚ç </unk>
-0.178035	‚· </unk>
-0.421492	‚è </unk>
-0.638121	‚è ‚Ü	-0.157271
-0.337095	‚¿ </unk>
-0.337095	‚½ </unk>
-0.309945	‚É </unk>
-0.378473	‚ª </unk>
-1.07445	‚ª ‚Ì	-0.0424602
-0.469191	‚«‚å </unk>
-0.591151	‚«‚å ‚ä	-0.157271
-1.97735	<unk> ‚¤	-0.0424602
-1.15305	<unk> ‚±	-0.222
-1.95081	<unk> ‚Ì	-0.0424602
-1.96388	<unk> ‚µ	-0.0424602
-1.25878	<unk> ‚È	-0.232745
-1.71906	<unk> ‚Ü	-0.0424602
-1.97735	<unk> ‚¦	-0.0424602
-1.97735	<unk> ‚í	-0.0424602
-1.97735	<unk> ‚ 	-0.0424602
-1.58964	<unk> ‚«‚å	-0.0670232
-1.96388	<unk> ‚ä	-0.0424602
-0.888073	<unk> ‚«	-0.158817
-1.81134	<unk> ‚ª	-0.0670232
-1.96388	<unk> ‚É	-0.0424602
-1.97735	<unk> ‚½	-0.0424602
-1.97735	<unk> ‚¿	-0.0424602
-1.97735	<unk> ‚ç	-0.0424602
-1.58407	<unk> ‚è	-0.0670232
-1.68449	<unk> ‚·	-0.157741
-1.81134	<unk> ‚«‚ã	-0.0670232
-1.97735	<unk> ‚¸	-0.0424602
-1.39522	<unk> ‚¯	-0.157741
-1.25878	<unk> ‚¢	-0.158062
-1.25878	<unk> ‚Å	-0.158062
-1.97735	<unk> ‚¬‚ã	-0.0424602
-1.8021	<unk> ‚¾	-0.0670232
-1.97735	<unk> ‚ë	-0.0424602
-1.96388	<unk> ‚Ú	-0.0424602
-1.96388	<unk> ‚Æ	-0.0424602
-1.96388	<unk> ‚Ç	-0.0424602
-1.97735	<unk> ‚²	-0.0424602
-1.97735	<unk> ‚ð	-0.0424602
-1.97735	<unk> ‚Ý	-0.0424602
-1.97735	<unk> ‚¬	-0.0424602
-1.97735	<unk> ‚Ø	-0.0424602
-0.358925	‚« </unk>
-1.40153	‚« ‚Î	-0.0670232
-1.27998	‚« ‚Ü	-0.0424602
-1.40153	‚« ‚É	-0.0424602
-1.39591	‚« ‚¾	-0.0424602
-1.40153	‚« ‚Ç	-0.0424602
-0.406398	‚Î </unk>
-1.15683	‚Î ‚µ	-0.0670232
-1.16068	‚Î ‚É‚á	-0.0424602
-0.232093	‚¹ </unk>
-0.469191	‚Ì </unk>
-0.591151	‚Ì ‚Î	-0.157271
-0.504286	‚ä ‚¹	-0.0830588
-0.144461	‚± </unk>
-0.346488	‚µ </unk>
-1.15301	‚µ ‚Ì	-0.0424602
-0.378473	‚È </unk>
-1.00247	‚È ‚Ü	-0.0670232
-0.222382	‚Ü </unk>
-1.33585	‚Ü ‚è	-0.0424602
-0.378473	‚Ú </unk>
-1.07775	‚Ú ‚Æ	-0.0424602
-0.337095	‚í </unk>
-0.977679	‚Ý ‚Å‚¡	-0.0424602
-1.00247	‚Ç ‚Ü	-0.0424602
-1.07775	‚Ç ‚Ú	-0.0424602
-0.9749	‚¤ ‚±	-0.0424602
-0.309945	‚¯ </unk>
-0.9749	‚  ‚«‚å	-0.0424602
-0.309945	‚Æ </unk>
-0.337095	‚Å‚¡ </unk>
-0.337095	‚¬‚ã </unk>
-0.337095	‚ë </unk>
-0.337095	‚¦ </unk>
-0.97214	‚É‚á ‚è	-0.0424602
-0.337095	‚² </unk>
-0.337095	‚ð </unk>
-0.337095	‚¬ </unk>
-0.337095	‚Ø </unk>
-0.309945	‚æ </unk>
-0.469191	‚¾ </unk>
-0.59203	‚¾ ‚æ	-0.0670232
-0.346488	‚Å </unk>
-1.14923	‚Å ‚·	-0.0424602
-0.337095	‚¶‚å </unk>
-0.277376	‚¢ </unk>
-1.1718	‚¢ ‚¶‚å	-0.0424602
-0.337095	‚¸ </unk>
-0.309945	‚«‚ã </unk>

\3-grams:
-0.253871	<unk> ‚ç </unk>
-0.140117	‚Å ‚· </unk>
-0.0979234	<unk> ‚· </unk>
-0.381647	<unk> ‚è </unk>
-0.506939	<unk> ‚è ‚Ü
-0.309172	‚Ü ‚è </unk>
-0.433328	‚É‚á ‚è ‚Ü
-0.253871	<unk> ‚¿ </unk>
-0.253871	<unk> ‚½ </unk>
-0.235307	<unk> ‚É </unk>
-0.235307	‚« ‚É </unk>
-0.35371	<unk> ‚ª </unk>
-0.6794	<unk> ‚ª ‚Ì
-0.411473	<unk> ‚«‚å </unk>
-0.482019	<unk> ‚«‚å ‚ä
-0.40866	‚  ‚«‚å ‚ä
-0.432772	<unk> ‚« </unk>
-0.79366	<unk> ‚« ‚Î
-1.05114	<unk> ‚« ‚Ü
-1.07466	<unk> ‚« ‚É
-1.07369	<unk> ‚« ‚¾
-1.07466	<unk> ‚« ‚Ç
-0.371955	‚« ‚Î </unk>
-0.702005	‚« ‚Î ‚É‚á
-0.439825	‚Ì ‚Î ‚µ
-0.127142	‚ä ‚¹ </unk>
-0.40866	<unk> ‚Ì ‚Î
-0.338756	‚µ ‚Ì </unk>
-0.40866	‚ª ‚Ì ‚Î
-0.275849	‚«‚å ‚ä ‚¹
-0.359727	<unk> ‚ä ‚¹
-0.063057	<unk> ‚± </unk>
-0.11465	‚¤ ‚± </unk>
-0.260208	<unk> ‚µ </unk>
-0.332317	‚Î ‚µ </unk>
-0.700127	‚Î ‚µ ‚Ì
-0.340017	<unk> ‚È </unk>
-0.538464	<unk> ‚È ‚Ü
-0.17301	‚« ‚Ü </unk>
-0.17301	‚Ç ‚Ü </unk>
-0.142836	‚È ‚Ü </unk>
-0.661777	<unk> ‚Ü ‚è
-0.13924	‚è ‚Ü </unk>
-0.281447	<unk> ‚Ú </unk>
-0.604501	‚Ç ‚Ú ‚Æ
-0.253871	<unk> ‚í </unk>
-0.574525	<unk> ‚Ý ‚Å‚¡
-0.582405	‚« ‚Ç ‚Ü
-0.604501	<unk> ‚Ç ‚Ú
-0.573623	<unk> ‚¤ ‚±
-0.158775	<unk> ‚¯ </unk>
-0.573623	<unk> ‚  ‚«‚å
-0.235307	<unk> ‚Æ </unk>
-0.235307	‚Ú ‚Æ </unk>
-0.253871	‚Ý ‚Å‚¡ </unk>
-0.253871	<unk> ‚¬‚ã </unk>
-0.253871	<unk> ‚ë </unk>
-0.253871	<unk> ‚¦ </unk>
-0.572722	‚Î ‚É‚á ‚è
-0.253871	<unk> ‚² </unk>
-0.253871	<unk> ‚ð </unk>
-0.253871	<unk> ‚¬ </unk>
-0.253871	<unk> ‚Ø </unk>
-0.19166	‚¾ ‚æ </unk>
-0.319186	<unk> ‚¾ ‚æ
-0.338756	‚« ‚¾ </unk>
-0.227753	<unk> ‚Å </unk>
-0.820897	<unk> ‚Å ‚·
-0.253871	‚¢ ‚¶‚å </unk>
-0.198182	<unk> ‚¢ </unk>
-0.826477	<unk> ‚¢ ‚¶‚å
-0.253871	<unk> ‚¸ </unk>
-0.19166	<unk> ‚«‚ã </unk>
