[unifb]
-0.262631

\data\
ngram 1=48
ngram 2=112
ngram 3=94

\1-grams:
-0.394832	</unk>
-1.94231	‚²	-0.0124076
-1.93203	‚Î	-0.0159546
-1.93203	‚µ	-0.0159546
-1.94231	‚Ì	-0.0124076
-1.922	‚È	-0.161531
-1.5053	‚Ü	-0.0794223
-1.93203	‚Ö	-0.0148904
-1.91219	‚í	-0.0165458
-1.94231	‚ 	-0.0124076
-1.93203	‚«‚å	-0.0148904
-1.94231	‚¤	-0.0124076
-1.91219	‚ä	-0.0165458
-1.94231	‚¹	-0.0124076
-1.72686	‚«	-0.0794223
-1.94231	‚±	-0.0165458
-1.93203	‚¨	-0.0148904
-1.91219	‚ª	-0.125384
-1.94231	‚¬‚å	-0.0124076
-1.94231	‚É	-0.0159546
-1.94231	‚½	-0.0124076
-1.93203	‚¿	-0.491525
-1.94231	‚ç	-0.0124076
-1.922	‚è	-0.0159546
-1.91219	‚·	-0.0173736
-1.94231	‚¬‚ã	-0.0124076
-1.93203	‚¯	-0.0148904
-1.60688	‚¢	-0.0718015
-1.94231	‚¶‚å	-0.0124076
-1.93203	‚Å	-0.0148904
-1.93203	‚¾	-0.0148904
-1.94231	‚æ	-0.0148904
-1.93203	‚ë	-0.0148904
-1.93203	‚Ú	-0.0148904
-1.94231	‚Æ	-0.0124076
-1.93203	‚Ç	-0.0159546
-1.94231	‚µ‚å	-0.0124076
-1.94231	‚Ñ	-0.0124076
-1.94231	‚Å‚¡	-0.0124076
-1.91219	‚ñ	-0.0165458
-1.94231	‚®	-0.0124076
-1.94231	‚Ø	-0.235455
-1.94231	‚Â	-0.0124076
-1.93203	‚Õ	-0.161531
-1.94231	‚Ï	-0.235455
-1.94231	‚×	-0.235455
-1.94231	‚â	-0.0148904
-1.94231	‚ê	-0.0124076

\2-grams:
-0.955992	‚Ñ ‚Å‚¡	-0.0459458
-0.463111	‚« </unk>
-1.37734	‚« ‚Î	-0.0459458
-1.37347	‚« ‚ä	-0.0459458
-1.37734	‚« ‚¾	-0.0459458
-0.817309	‚« ‚Ç	-0.0712708
-2.02953	<unk> ‚²	-0.0459458
-1.44656	<unk> ‚Î	-0.166858
-1.64557	<unk> ‚µ	-0.0712708
-1.86527	<unk> ‚È	-0.0712708
-1.27639	<unk> ‚Ü	-0.106588
-2.02367	<unk> ‚Ö	-0.0459458
-2.01219	<unk> ‚í	-0.0459458
-2.02953	<unk> ‚ 	-0.0459458
-1.86933	<unk> ‚«‚å	-0.0712708
-2.02953	<unk> ‚¤	-0.0459458
-1.74945	<unk> ‚ä	-0.0873384
-2.02953	<unk> ‚¹	-0.0459458
-1.52381	<unk> ‚«	-0.0873384
-1.0544	<unk> ‚±	-0.273061
-2.02367	<unk> ‚¨	-0.0459458
-1.66062	<unk> ‚ª	-0.0984473
-2.02953	<unk> ‚¬‚å	-0.0459458
-1.20809	<unk> ‚É	-0.231949
-2.02953	<unk> ‚½	-0.0459458
-2.02367	<unk> ‚¿	-0.0459458
-2.02953	<unk> ‚ç	-0.0459458
-1.86527	<unk> ‚è	-0.0712708
-1.30834	<unk> ‚·	-0.165635
-2.02953	<unk> ‚¬‚ã	-0.0459458
-1.06908	<unk> ‚¢	-0.163595
-2.02367	<unk> ‚Å	-0.0459458
-1.64557	<unk> ‚¾	-0.168688
-1.86933	<unk> ‚ë	-0.0712708
-2.02367	<unk> ‚Ú	-0.0459458
-2.02953	<unk> ‚Æ	-0.0459458
-2.02953	<unk> ‚Ñ	-0.0459458
-1.86124	<unk> ‚ñ	-0.0712708
-1.64557	<unk> ‚Õ	-0.0712708
-2.02953	<unk> ‚ê	-0.0459458
-0.306935	‚â </unk>
-0.334589	‚¬‚å </unk>
-0.481259	‚Ø ‚·	-0.0712708
-0.273569	‚È </unk>
-1.0862	‚È ‚Ü	-0.0459458
-0.334589	‚¶‚å </unk>
-0.321651	‚· </unk>
-1.36818	‚· ‚Å	-0.0459458
-1.3703	‚· ‚Ø	-0.0712708
-0.334589	‚² </unk>
-0.334589	‚ê </unk>
-0.930838	‚¹ ‚«	-0.0459458
-0.334589	‚µ‚å </unk>
-0.345892	‚Î </unk>
-1.1545	‚Î ‚µ‚å	-0.0459458
-0.955028	‚¬‚ã ‚¯	-0.0459458
-0.334589	‚Æ </unk>
-0.334589	‚¤ </unk>
-0.379267	‚ë </unk>
-1.06753	‚ë ‚Ú	-0.0459458
-0.334589	‚  </unk>
-0.334589	‚Â </unk>
-0.306935	‚Ú </unk>
-0.306935	‚«‚å </unk>
-0.334589	‚½ </unk>
-0.273569	‚Õ </unk>
-1.11035	‚Õ ‚¢	-0.0459458
-0.481991	‚Ï ‚×	-0.0712708
-0.137468	‚¿ </unk>
-0.291024	‚É </unk>
-0.324882	‚ä </unk>
-1.22164	‚ä ‚µ	-0.0459458
-0.345892	‚è </unk>
-1.06413	‚è ‚Ü	-0.0459458
-0.306935	‚¨ </unk>
-0.379267	‚Å </unk>
-1.06519	‚Å ‚·	-0.0459458
-0.422299	‚Ü </unk>
-0.817309	‚Ü ‚Ö	-0.168688
-1.3754	‚Ü ‚è	-0.0459458
-1.37347	‚Ü ‚·	-0.0459458
-0.266395	‚ª </unk>
-1.23142	‚ª ‚Õ	-0.0459458
-0.334589	‚® </unk>
-0.306935	‚æ </unk>
-0.28068	‚í </unk>
-0.334589	‚ç </unk>
-0.481991	‚× ‚â	-0.0712708
-0.408707	‚µ </unk>
-1.1545	‚µ ‚Ì	-0.0459458
-1.1545	‚µ ‚Â	-0.0459458
-0.379267	‚¯ </unk>
-1.01477	‚¯ ‚¢	-0.0459458
-0.954066	‚Ì ‚È	-0.0459458
-0.433765	‚¢ </unk>
-1.36221	‚¢ ‚«	-0.0712708
-1.41576	‚¢ ‚¶‚å	-0.0459458
-1.41364	‚¢ ‚Ç	-0.0459458
-0.859048	‚¢ ‚ñ	-0.168688
-1.18271	‚ñ ‚«	-0.0459458
-1.22164	‚ñ ‚¯	-0.0459458
-1.22322	‚ñ ‚®	-0.0459458
-1.22322	‚ñ ‚Ï	-0.0712708
-0.791191	‚Ö ‚í	-0.166858
-0.379267	‚¾ </unk>
-1.06871	‚¾ ‚æ	-0.0712708
-0.291024	‚Ç </unk>
-0.953106	‚Å‚¡ ‚ñ	-0.0459458
-0.429613	‚± </unk>
-1.2185	‚± ‚í	-0.0459458
-1.22164	‚± ‚¨	-0.0459458
-1.22164	‚± ‚¿	-0.0873384

\3-grams:
-0.613811	<unk> ‚Ñ ‚Å‚¡
-0.802393	‚¢ ‚« ‚¾
-0.619601	‚¢ ‚« ‚Ç
-0.732417	‚ñ ‚« ‚ä
-0.467662	<unk> ‚« </unk>
-0.861283	<unk> ‚« ‚Î
-0.674184	<unk> ‚« ‚Ç
-0.354501	‚¹ ‚« </unk>
-0.206755	‚× ‚â </unk>
-0.26524	<unk> ‚¬‚å </unk>
-0.301615	‚· ‚Ø ‚·
-0.186644	<unk> ‚È </unk>
-0.659683	‚Ì ‚È ‚Ü
-0.26524	‚¢ ‚¶‚å </unk>
-0.31635	‚Ø ‚· </unk>
-0.800556	‚Ø ‚· ‚Å
-0.255819	‚Å ‚· </unk>
-0.32255	<unk> ‚· </unk>
-0.620996	<unk> ‚· ‚Ø
-0.255819	‚Ü ‚· </unk>
-0.26524	<unk> ‚² </unk>
-0.26524	<unk> ‚ê </unk>
-0.603904	<unk> ‚¹ ‚«
-0.26524	‚Î ‚µ‚å </unk>
-0.271848	<unk> ‚Î </unk>
-0.810056	<unk> ‚Î ‚µ‚å
-0.273408	‚« ‚Î </unk>
-0.613438	<unk> ‚¬‚ã ‚¯
-0.26524	<unk> ‚Æ </unk>
-0.26524	<unk> ‚¤ </unk>
-0.358141	<unk> ‚ë </unk>
-0.720677	<unk> ‚ë ‚Ú
-0.26524	<unk> ‚  </unk>
-0.26524	‚µ ‚Â </unk>
-0.24501	‚ë ‚Ú </unk>
-0.24501	<unk> ‚Ú </unk>
-0.206755	<unk> ‚«‚å </unk>
-0.26524	<unk> ‚½ </unk>
-0.186644	<unk> ‚Õ </unk>
-0.667237	‚ª ‚Õ ‚¢
-0.301976	‚ñ ‚Ï ‚×
-0.113991	<unk> ‚¿ </unk>
-0.0873678	‚± ‚¿ </unk>
-0.130199	<unk> ‚É </unk>
-0.189602	<unk> ‚ä </unk>
-0.698441	‚« ‚ä ‚µ
-0.273408	‚Ü ‚è </unk>
-0.334118	<unk> ‚è </unk>
-0.719529	<unk> ‚è ‚Ü
-0.24501	‚± ‚¨ </unk>
-0.24501	<unk> ‚¨ </unk>
-0.652877	<unk> ‚Å ‚·
-0.297179	‚· ‚Å </unk>
-0.732417	‚è ‚Ü ‚·
-0.324165	<unk> ‚Ü </unk>
-0.762164	<unk> ‚Ü ‚Ö
-0.957152	<unk> ‚Ü ‚è
-0.554788	‚È ‚Ü ‚Ö
-0.206159	<unk> ‚ª </unk>
-0.877402	<unk> ‚ª ‚Õ
-0.26524	‚ñ ‚® </unk>
-0.206755	‚¾ ‚æ </unk>
-0.225488	<unk> ‚í </unk>
-0.160175	‚Ö ‚í </unk>
-0.225488	‚± ‚í </unk>
-0.26524	<unk> ‚ç </unk>
-0.301976	‚Ï ‚× ‚â
-0.680306	‚ä ‚µ ‚Â
-0.378894	<unk> ‚µ </unk>
-0.748026	<unk> ‚µ ‚Ì
-0.297179	‚ñ ‚¯ </unk>
-0.635622	‚¬‚ã ‚¯ ‚¢
-0.613065	‚µ ‚Ì ‚È
-0.405861	<unk> ‚¢ </unk>
-0.746343	<unk> ‚¢ ‚«
-1.04515	<unk> ‚¢ ‚Ç
-0.858658	<unk> ‚¢ ‚ñ
-0.573693	‚Õ ‚¢ ‚ñ
-0.740324	‚¯ ‚¢ ‚¶‚å
-0.490966	‚¢ ‚ñ ‚Ï
-0.698843	‚Å‚¡ ‚ñ ‚®
-0.756108	<unk> ‚ñ ‚«
-0.766657	<unk> ‚ñ ‚¯
-0.401996	‚Ü ‚Ö ‚í
-0.542451	<unk> ‚Ö ‚í
-0.466889	<unk> ‚¾ ‚æ
-0.297179	‚« ‚¾ </unk>
-0.197242	‚« ‚Ç </unk>
-0.233216	‚¢ ‚Ç </unk>
-0.612692	‚Ñ ‚Å‚¡ ‚ñ
-0.485445	<unk> ‚± </unk>
-1.00496	<unk> ‚± ‚í
-1.00583	<unk> ‚± ‚¨
-0.564826	<unk> ‚± ‚¿
