[unifb]
-0.239052

\data\
ngram 1=43
ngram 2=110
ngram 3=108

\1-grams:
-0.476215	</unk>
-1.65137	‚±	-0.0358301
-1.8376	‚Ì	-0.122509
-1.81677	‚Î	-0.15984
-1.7969	‚µ	-0.0848601
-1.8376	‚½	-0.0200412
-1.65137	‚È	-0.214338
-1.7969	‚Ü	-0.15984
-1.85947	‚¦	-0.210022
-1.63769	‚í	-0.214338
-1.85947	‚¬‚å	-0.0200412
-1.85947	‚¤	-0.0127941
-1.81677	‚ä	-0.0975083
-1.85947	‚¹	-0.0127941
-1.81677	‚«	-0.133276
-1.81677	‚ª	-0.0806205
-1.85947	‚É	-0.0200412
-1.81677	‚¿	-0.345156
-1.85947	‚ç	-0.0975083
-1.7969	‚è	-0.0303618
-1.7969	‚·	-0.491625
-1.8376	‚¯	-0.107554
-1.54256	‚¢	-0.193207
-1.85947	‚¶‚å	-0.0127941
-1.81677	‚Å	-0.107554
-1.8376	‚¾	-0.193207
-1.8376	‚æ	-0.242688
-1.81677	‚ë	-0.0902935
-1.85947	‚Ú	-0.122509
-1.85947	‚Æ	-0.0200412
-1.85947	‚¨	-0.0127941
-1.68009	‚Ç	-0.0247067
-1.85947	‚µ‚å	-0.0200412
-1.8376	‚Ý	-0.122509
-1.81677	‚ñ	-0.0975083
-1.85947	‚®	-0.122509
-1.85947	‚Ø	-0.0127941
-1.85947	‚Å‚¡	-0.0127941
-1.85947	‚Â	-0.0127941
-1.85947	‚²	-0.0127941
-1.85947	‚Õ	-0.0127941
-1.85947	‚×	-0.0127941
-1.85947	‚â	-0.0127941

\2-grams:
-0.261764	‚ç </unk>
-0.991002	‚ç ‚ª	-0.150577
-0.0667	‚· </unk>
-0.524485	‚¯ </unk>
-0.456968	‚¯ ‚¢	-0.241656
-0.328289	‚¹ </unk>
-0.443359	‚è </unk>
-1.04966	‚è ‚Ü	-0.348952
-1.01391	‚è ‚¢	-0.0988357
-1.05175	‚è ‚ñ	-0.0988357
-0.272852	‚ª </unk>
-1.16414	‚ª ‚¾	-0.0988357
-1.16181	‚ª ‚ë	-0.0988357
-0.15934	‚¿ ‚ç	-0.337753
-0.562495	‚ä </unk>
-0.994287	‚ä ‚¹	-0.0988357
-0.550831	‚ä ‚¯	-0.150577
-0.666181	‚¤ ‚ä	-0.0988357
-0.417189	‚¬‚å </unk>
-0.806129	‚¬‚å ‚¤	-0.0988357
-0.417189	‚É </unk>
-0.789748	‚É ‚È	-0.150577
-0.695773	‚È </unk>
-0.682922	‚È ‚Ü	-0.257873
-0.468955	‚È ‚è	-0.348952
-0.405724	‚« </unk>
-0.889228	‚« ‚Î	-0.241656
-0.7334	‚« ‚ä	-0.150577
-0.234371	‚µ </unk>
-1.11753	‚µ ‚Â	-0.0988357
-0.417189	‚½ </unk>
-0.806129	‚½ ‚×	-0.0988357
-0.634227	‚Î </unk>
-0.407409	‚Î ‚µ	-0.182623
-1.06602	‚Î ‚µ‚å	-0.150577
-0.208848	‚Ì </unk>
-0.546288	‚± </unk>
-1.2087	‚± ‚±	-0.204475
-1.24013	‚± ‚Ì	-0.0988357
-1.2087	‚± ‚È	-0.0988357
-1.20592	‚± ‚í	-0.0988357
-1.23715	‚± ‚ª	-0.0988357
-1.23715	‚± ‚¿	-0.150577
-1.23715	‚± ‚ë	-0.150577
-0.98574	<unk> ‚±	-0.558033
-2.09503	<unk> ‚Ì	-0.0988357
-1.32277	<unk> ‚Î	-0.276207
-1.41677	<unk> ‚µ	-0.340324
-1.63777	<unk> ‚½	-0.257873
-1.35395	<unk> ‚È	-0.340324
-2.07996	<unk> ‚Ü	-0.0988357
-1.40113	<unk> ‚í	-0.340324
-1.55934	<unk> ‚¬‚å	-0.257873
-2.08743	<unk> ‚ä	-0.0988357
-1.27814	<unk> ‚«	-0.232411
-1.24105	<unk> ‚ª	-0.337753
-1.24321	<unk> ‚É	-0.47712
-1.5549	<unk> ‚¿	-0.257873
-1.74079	<unk> ‚·	-0.150577
-2.09503	<unk> ‚¯	-0.0988357
-1.39383	<unk> ‚¢	-0.268592
-1.23768	<unk> ‚Å	-0.455767
-0.934285	<unk> ‚¾	-0.48594
-2.09503	<unk> ‚æ	-0.0988357
-1.5549	<unk> ‚ë	-0.257873
-2.03165	<unk> ‚Ç	-0.0988357
-1.88004	<unk> ‚Ý	-0.150577
-2.08743	<unk> ‚ñ	-0.0988357
-1.75109	<unk> ‚®	-0.150577
-2.10277	<unk> ‚Ø	-0.0988357
-2.10277	<unk> ‚Å‚¡	-0.0988357
-2.10277	<unk> ‚Õ	-0.0988357
-0.408496	‚Ü ‚¦	-0.268592
-1.0611	‚Ü ‚è	-0.0988357
-1.0611	‚Ü ‚·	-0.257873
-0.24984	‚¦ ‚í	-0.343842
-0.665038	‚Õ ‚è	-0.0988357
-0.328289	‚Â </unk>
-0.665038	‚Ø ‚·	-0.0988357
-0.208848	‚® </unk>
-0.261764	‚ñ </unk>
-0.991002	‚ñ ‚«	-0.0988357
-0.360613	‚Ý ‚è	-0.150577
-0.668477	‚× ‚â	-0.0988357
-0.328289	‚¨ </unk>
-0.328289	‚Å‚¡ </unk>
-0.666181	‚² ‚¿	-0.0988357
-0.328289	‚â </unk>
-0.276417	‚µ‚å </unk>
-0.175912	‚í </unk>
-1.12756	‚í ‚²	-0.0988357
-0.476526	‚Ç </unk>
-0.889128	‚Ç ‚±	-0.241656
-0.9034	‚Ç ‚Ü	-0.0988357
-0.417189	‚Æ </unk>
-0.806129	‚Æ ‚¨	-0.0988357
-0.361838	‚Ú ‚Æ	-0.150577
-0.128304	‚æ </unk>
-0.504067	‚¢ </unk>
-1.17641	‚¢ ‚¶‚å	-0.241656
-0.730029	‚¢ ‚Ç	-0.257873
-0.735401	‚¢ ‚ñ	-0.150577
-0.328289	‚¶‚å </unk>
-0.524485	‚Å </unk>
-0.465787	‚Å ‚·	-0.40187
-0.426794	‚¾ </unk>
-0.722724	‚¾ ‚¢	-0.150577
-0.736086	‚¾ ‚æ	-0.337753
-0.38133	‚ë </unk>
-0.621329	‚ë ‚Ú	-0.150577

\3-grams:
-0.20504	‚¿ ‚ç </unk>
-0.586907	‚¿ ‚ç ‚ª
-0.0312744	‚Ü ‚· </unk>
-0.0206376	‚Å ‚· </unk>
-0.0384476	<unk> ‚· </unk>
-0.0483934	‚Ø ‚· </unk>
-0.318102	<unk> ‚¯ </unk>
-0.212757	‚ä ‚¯ ‚¢
-0.216706	‚ä ‚¹ </unk>
-0.380016	‚Ý ‚è </unk>
-0.584882	‚Ý ‚è ‚¢
-0.278854	‚Ü ‚è </unk>
-0.487987	‚Õ ‚è ‚ñ
-0.245533	‚È ‚è ‚Ü
-0.133179	<unk> ‚ª </unk>
-0.883036	<unk> ‚ª ‚ë
-0.284042	‚ç ‚ª </unk>
-0.613978	‚ç ‚ª ‚¾
-0.18409	‚± ‚ª </unk>
-0.0705201	<unk> ‚¿ ‚ç
-0.087652	‚± ‚¿ ‚ç
-0.112082	‚² ‚¿ ‚ç
-0.475736	‚¤ ‚ä ‚¹
-0.330036	<unk> ‚ä ‚¯
-0.437212	‚« ‚ä </unk>
-0.431971	‚« ‚ä ‚¯
-0.377684	‚¬‚å ‚¤ ‚ä
-0.273523	<unk> ‚¬‚å </unk>
-0.615662	<unk> ‚¬‚å ‚¤
-0.236829	<unk> ‚É </unk>
-0.558919	<unk> ‚É ‚È
-0.48311	<unk> ‚È </unk>
-0.48017	<unk> ‚È ‚Ü
-0.60649	<unk> ‚È ‚è
-0.216785	‚É ‚È ‚è
-0.383989	‚± ‚È ‚Ü
-0.402094	‚ñ ‚« ‚ä
-0.335181	<unk> ‚« </unk>
-0.583	<unk> ‚« ‚Î
-0.761821	<unk> ‚« ‚ä
-0.140279	<unk> ‚µ </unk>
-0.823176	<unk> ‚µ ‚Â
-0.102002	‚Î ‚µ </unk>
-0.273523	<unk> ‚½ </unk>
-0.615662	<unk> ‚½ ‚×
-0.254876	‚« ‚Î </unk>
-0.288415	<unk> ‚Î ‚µ
-0.542141	<unk> ‚Î ‚µ‚å
-0.144333	<unk> ‚Ì </unk>
-0.144333	‚± ‚Ì </unk>
-0.456628	<unk> ‚± </unk>
-0.519404	<unk> ‚± ‚±
-1.09568	<unk> ‚± ‚Ì
-0.812289	<unk> ‚± ‚¿
-0.576794	‚± ‚± </unk>
-0.775344	‚± ‚± ‚È
-0.774896	‚± ‚± ‚í
-0.779806	‚± ‚± ‚ª
-0.341672	‚Ç ‚± ‚ë
-0.153356	‚È ‚Ü ‚¦
-0.489861	‚Ç ‚Ü ‚è
-0.246375	‚è ‚Ü ‚·
-0.260825	<unk> ‚Ü ‚¦
-0.0894201	‚Ü ‚¦ ‚í
-0.377248	<unk> ‚Õ ‚è
-0.216706	‚µ ‚Â </unk>
-0.377248	<unk> ‚Ø ‚·
-0.111926	<unk> ‚® </unk>
-0.177362	‚è ‚ñ </unk>
-0.136315	‚¢ ‚ñ </unk>
-0.474997	<unk> ‚ñ ‚«
-0.177631	<unk> ‚Ý ‚è
-0.378558	‚½ ‚× ‚â
-0.216706	‚Æ ‚¨ </unk>
-0.216706	<unk> ‚Å‚¡ </unk>
-0.377684	‚í ‚² ‚¿
-0.216706	‚× ‚â </unk>
-0.142786	‚Î ‚µ‚å </unk>
-0.0643698	‚¦ ‚í </unk>
-0.122068	<unk> ‚í </unk>
-0.825039	<unk> ‚í ‚²
-0.12302	‚± ‚í </unk>
-0.388338	‚¢ ‚Ç ‚±
-0.643997	‚¢ ‚Ç ‚Ü
-0.295357	<unk> ‚Ç </unk>
-0.366359	‚Ú ‚Æ </unk>
-0.52952	‚Ú ‚Æ ‚¨
-0.178108	‚ë ‚Ú ‚Æ
-0.0389051	‚¾ ‚æ </unk>
-0.0912197	<unk> ‚æ </unk>
-0.336904	‚¯ ‚¢ ‚¶‚å
-0.562289	<unk> ‚¢ </unk>
-0.428991	<unk> ‚¢ ‚Ç
-0.65967	<unk> ‚¢ ‚ñ
-0.402784	‚è ‚¢ ‚ñ
-0.41018	‚¾ ‚¢ </unk>
-0.504099	‚¾ ‚¢ ‚Ç
-0.159057	‚¢ ‚¶‚å </unk>
-0.735694	<unk> ‚Å </unk>
-0.147857	<unk> ‚Å ‚·
-0.392309	<unk> ‚¾ </unk>
-0.988494	<unk> ‚¾ ‚¢
-0.3569	<unk> ‚¾ ‚æ
-0.398377	‚ª ‚¾ ‚¢
-0.260612	<unk> ‚ë </unk>
-0.548613	<unk> ‚ë ‚Ú
-0.185603	‚± ‚ë </unk>
-0.360037	‚ª ‚ë ‚Ú
