[unifb]
-0.248726

\data\
ngram 1=45
ngram 2=97
ngram 3=76

\1-grams:
-0.373754	</unk>
-1.90273	‚²	-0.00745652
-1.90273	‚Ì	-0.00745652
-1.90273	‚Î	-0.0108228
-1.89415	‚µ	-0.0108228
-1.89415	‚È	-0.00972516
-1.88573	‚Ü	-0.0108228
-1.90273	‚Ö	-0.00972516
-1.88573	‚í	-0.0108228
-1.90273	‚«‚å	-0.00745652
-1.90273	‚ä	-0.00972516
-1.90273	‚¹	-0.00745652
-1.86937	‚«	-0.0114701
-1.89415	‚Ó‚§	-0.00972516
-1.88573	‚±	-0.0114701
-1.90273	‚ª	-0.00745652
-1.89415	‚É	-0.00972516
-1.90273	‚½	-0.00972516
-1.90273	‚¿	-0.00745652
-1.90273	‚ç	-0.00972516
-1.90273	‚¬‚å	-0.00745652
-1.89415	‚è	-0.00972516
-1.67485	‚·	-0.011897
-1.89415	‚¬‚ã	-0.00972516
-1.89415	‚¯	-0.110857
-1.88573	‚¢	-0.0114701
-1.90273	‚¶‚å	-0.00972516
-1.90273	‚Å	-0.00972516
-1.90273	‚¾	-0.00745652
-1.90273	‚æ	-0.00745652
-1.90273	‚ë	-0.00972516
-1.90273	‚Ú	-0.00745652
-1.90273	‚Æ	-0.00745652
-1.90273	‚Ç	-0.00745652
-1.90273	‚µ‚å	-0.00745652
-1.89415	‚Á	-0.00972516
-1.90273	‚Ý	-0.00745652
-1.89415	‚Å‚¡	-0.00972516
-1.88573	‚ñ	-0.0108228
-1.90273	‚®	-0.00745652
-1.90273	‚Ø	-0.00745652
-1.90273	‚Ñ	-0.00745652
-1.90273	‚Â	-0.00745652
-1.90273	‚×	-0.00745652
-1.90273	‚â	-0.00745652

\2-grams:
-0.369465	‚É </unk>
-1.39798	‚É ‚«	-0.0133798
-0.369465	‚½ </unk>
-1.40836	‚½ ‚×	-0.0133798
-1.37193	‚¿ ‚ç	-0.024313
-0.342631	‚ç </unk>
-0.356137	‚ª </unk>
-0.344424	‚± </unk>
-1.46899	‚± ‚¿	-0.0604479
-0.369465	‚Ó‚§ </unk>
-1.40314	‚Ó‚§ ‚±	-0.0133798
-0.369465	‚ä </unk>
-1.40574	‚ä ‚µ	-0.0133798
-0.342631	‚è </unk>
-0.356137	‚¬‚å </unk>
-1.95162	<unk> ‚²	-0.0133798
-1.39035	<unk> ‚Ì	-0.10291
-1.25596	<unk> ‚Î	-0.0720949
-1.81712	<unk> ‚È	-0.024313
-1.46779	<unk> ‚Ü	-0.0720949
-1.81301	<unk> ‚í	-0.024313
-1.39035	<unk> ‚«‚å	-0.10291
-1.586	<unk> ‚ä	-0.024313
-1.95162	<unk> ‚¹	-0.0133798
-1.62899	<unk> ‚«	-0.0720949
-1.81712	<unk> ‚Ó‚§	-0.024313
-1.34768	<unk> ‚±	-0.0720949
-1.95162	<unk> ‚ª	-0.0133798
-1.94602	<unk> ‚É	-0.0133798
-1.586	<unk> ‚½	-0.024313
-1.95162	<unk> ‚¬‚å	-0.0133798
-1.79071	<unk> ‚·	-0.0133798
-1.94602	<unk> ‚¬‚ã	-0.0133798
-1.38881	<unk> ‚¯	-0.0334172
-1.52079	<unk> ‚¢	-0.0334172
-1.586	<unk> ‚Å	-0.024313
-1.95162	<unk> ‚¾	-0.0133798
-1.586	<unk> ‚ë	-0.024313
-1.95162	<unk> ‚Ú	-0.0133798
-1.95162	<unk> ‚Ç	-0.0133798
-1.94602	<unk> ‚Á	-0.0133798
-1.95162	<unk> ‚Ý	-0.0133798
-1.94602	<unk> ‚Å‚¡	-0.0133798
-1.81301	<unk> ‚ñ	-0.024313
-1.95162	<unk> ‚Ñ	-0.0133798
-1.95162	<unk> ‚Â	-0.0133798
-1.95162	<unk> ‚â	-0.0133798
-0.344424	‚« </unk>
-1.46609	‚« ‚É	-0.0133798
-0.356137	‚Ì </unk>
-0.356137	‚¹ </unk>
-0.356137	‚² </unk>
-0.369465	‚È </unk>
-1.40574	‚È ‚è	-0.0133798
-0.331942	‚µ </unk>
-0.38062	‚Î </unk>
-1.43769	‚Î ‚µ	-0.024313
-1.44045	‚Î ‚µ‚å	-0.0133798
-1.44045	‚Ü ‚Ö	-0.024313
-1.43769	‚Ü ‚è	-0.0133798
-1.35396	‚Ü ‚·	-0.0133798
-0.369465	‚Ö </unk>
-1.40314	‚Ö ‚í	-0.0133798
-0.3556	‚í </unk>
-1.43769	‚í ‚¬‚ã	-0.0133798
-0.356137	‚«‚å </unk>
-0.335222	‚· </unk>
-1.4946	‚· ‚Ø	-0.0133798
-1.36946	‚Ñ ‚Å‚¡	-0.0133798
-1.2938	‚Ø ‚·	-0.0133798
-1.2938	‚® ‚·	-0.0133798
-0.3556	‚ñ </unk>
-1.44045	‚ñ ‚®	-0.0133798
-0.342631	‚Å‚¡ </unk>
-0.356137	‚Ý </unk>
-0.356137	‚µ‚å </unk>
-0.369465	‚Á </unk>
-1.40574	‚Á ‚Á	-0.0133798
-0.356137	‚× </unk>
-0.356137	‚â </unk>
-0.356137	‚Â </unk>
-0.356137	‚Ç </unk>
-0.356137	‚Æ </unk>
-1.37193	‚Ú ‚Æ	-0.0133798
-0.342631	‚ë </unk>
-0.356137	‚æ </unk>
-0.394277	‚¯ </unk>
-0.925143	‚¯ ‚¢	-0.0604479
-0.369465	‚¬‚ã </unk>
-1.40574	‚¬‚ã ‚¯	-0.0133798
-0.366661	‚¢ </unk>
-1.46899	‚¢ ‚¶‚å	-0.024313
-1.46322	‚¢ ‚ñ	-0.0133798
-0.342631	‚¶‚å </unk>
-0.369465	‚Å </unk>
-1.32594	‚Å ‚·	-0.0133798
-1.37193	‚¾ ‚æ	-0.0133798

\3-grams:
-0.262034	<unk> ‚É </unk>
-0.618238	‚« ‚É ‚«
-0.345407	<unk> ‚½ </unk>
-0.714699	<unk> ‚½ ‚×
-0.402168	‚± ‚¿ ‚ç
-0.196244	‚¿ ‚ç </unk>
-0.253756	<unk> ‚ª </unk>
-0.246403	‚Ó‚§ ‚± </unk>
-0.333879	<unk> ‚± </unk>
-0.553069	<unk> ‚± ‚¿
-0.345407	<unk> ‚Ó‚§ </unk>
-0.713992	<unk> ‚Ó‚§ ‚±
-0.345407	<unk> ‚ä </unk>
-0.714345	<unk> ‚ä ‚µ
-0.24527	‚Ü ‚è </unk>
-0.24527	‚È ‚è </unk>
-0.253756	<unk> ‚¬‚å </unk>
-0.216317	<unk> ‚« </unk>
-0.866935	<unk> ‚« ‚É
-0.246403	‚É ‚« </unk>
-0.150878	<unk> ‚Ì </unk>
-0.253756	<unk> ‚¹ </unk>
-0.253756	<unk> ‚² </unk>
-0.345407	<unk> ‚È </unk>
-0.714345	<unk> ‚È ‚è
-0.191128	‚Î ‚µ </unk>
-0.238485	‚ä ‚µ </unk>
-0.485811	<unk> ‚Î </unk>
-0.551106	<unk> ‚Î ‚µ
-0.863626	<unk> ‚Î ‚µ‚å
-0.551284	<unk> ‚Ü ‚Ö
-0.863259	<unk> ‚Ü ‚è
-0.851139	<unk> ‚Ü ‚·
-0.345407	‚Ü ‚Ö </unk>
-0.713992	‚Ü ‚Ö ‚í
-0.336615	<unk> ‚í </unk>
-0.718541	<unk> ‚í ‚¬‚ã
-0.253421	‚Ö ‚í </unk>
-0.150878	<unk> ‚«‚å </unk>
-0.240573	‚Å ‚· </unk>
-0.240573	<unk> ‚· </unk>
-0.629763	‚® ‚· ‚Ø
-0.240573	‚Ü ‚· </unk>
-0.240573	‚Ø ‚· </unk>
-0.614383	<unk> ‚Ñ ‚Å‚¡
-0.603046	‚· ‚Ø ‚·
-0.603046	‚ñ ‚® ‚·
-0.336615	<unk> ‚ñ </unk>
-0.718891	<unk> ‚ñ ‚®
-0.253421	‚¢ ‚ñ </unk>
-0.24527	<unk> ‚Å‚¡ </unk>
-0.24527	‚Ñ ‚Å‚¡ </unk>
-0.253756	<unk> ‚Ý </unk>
-0.253756	‚Î ‚µ‚å </unk>
-0.619249	<unk> ‚Á ‚Á
-0.262034	‚Á ‚Á </unk>
-0.253756	‚½ ‚× </unk>
-0.253756	<unk> ‚â </unk>
-0.253756	<unk> ‚Â </unk>
-0.253756	<unk> ‚Ç </unk>
-0.253756	‚Ú ‚Æ </unk>
-0.614725	<unk> ‚Ú ‚Æ
-0.196244	<unk> ‚ë </unk>
-0.253756	‚¾ ‚æ </unk>
-0.289888	<unk> ‚¯ </unk>
-0.681689	<unk> ‚¯ ‚¢
-0.518295	‚¬‚ã ‚¯ ‚¢
-0.619249	<unk> ‚¬‚ã ‚¯
-0.262034	‚í ‚¬‚ã </unk>
-0.276994	<unk> ‚¢ </unk>
-0.798988	<unk> ‚¢ ‚ñ
-0.408089	‚¯ ‚¢ ‚¶‚å
-0.196244	‚¢ ‚¶‚å </unk>
-0.345407	<unk> ‚Å </unk>
-0.702625	<unk> ‚Å ‚·
-0.614725	<unk> ‚¾ ‚æ
