[unifb]
-0.233738

\data\
ngram 1=36
ngram 2=67
ngram 3=51

\1-grams:
-0.469383	</unk>
-1.78417	‚²	-0.008188
-1.78417	‚Ì	-0.008188
-1.78417	‚Î	-0.0120549
-1.76709	‚µ	-0.0120549
-1.78417	‚¾	-0.0143072
-1.3617	‚Ü	-0.0157816
-1.76709	‚¦	-0.0143072
-1.78417	‚í	-0.008188
-1.78417	‚Í	-0.143158
-1.78417	‚«‚å	-0.008188
-1.78417	‚¨	-0.008188
-1.78417	‚ä	-0.008188
-1.78417	‚¹	-0.008188
-1.25943	‚«	-0.197951
-1.75066	‚±	-0.0157816
-1.78417	‚ª	-0.008188
-1.78417	‚É	-0.008188
-1.78417	‚½	-0.008188
-1.78417	‚¿	-0.008188
-1.78417	‚ç	-0.008188
-1.78417	‚è‚á	-0.008188
-1.76709	‚è	-0.0120549
-1.76709	‚·	-0.0120549
-1.78417	‚¬‚ã	-0.008188
-1.78417	‚¸	-0.008188
-1.78417	‚¯	-0.008188
-1.78417	‚¢	-0.008188
-1.78417	‚¶‚å	-0.008188
-1.78417	‚Å	-0.008188
-1.78417	‚È	-0.008188
-1.78417	‚æ	-0.143158
-1.78417	‚ë	-0.0120549
-1.78417	‚Ú	-0.008188
-1.78417	‚Æ	-0.008188
-1.78417	‚É‚á	-0.008188

\2-grams:
-0.44349	‚Î </unk>
-1.09827	‚Î ‚µ	-0.0357273
-1.02636	‚¯ ‚¢	-0.0357273
-0.407268	‚ç </unk>
-0.44349	‚µ </unk>
-1.1014	‚µ ‚½	-0.0357273
-0.407268	‚¢ </unk>
-0.371566	‚· </unk>
-0.407268	‚² </unk>
-0.887219	‚¹ ‚«	-0.0357273
-0.371566	‚è </unk>
-1.72834	<unk> ‚²	-0.0357273
-1.72834	<unk> ‚Ì	-0.0357273
-1.33711	<unk> ‚Î	-0.0603529
-0.997153	<unk> ‚¾	-0.139645
-1.27599	<unk> ‚Ü	-0.1317
-1.33381	<unk> ‚¦	-0.0603529
-1.72834	<unk> ‚í	-0.0357273
-1.33711	<unk> ‚Í	-0.0603529
-1.72834	<unk> ‚«‚å	-0.0357273
-1.30807	<unk> ‚«	-0.0603529
-1.24685	<unk> ‚±	-0.0783821
-1.72834	<unk> ‚ª	-0.0357273
-1.72834	<unk> ‚É	-0.0357273
-1.72834	<unk> ‚è‚á	-0.0357273
-1.72834	<unk> ‚¬‚ã	-0.0357273
-1.72834	<unk> ‚¸	-0.0357273
-1.72834	<unk> ‚¶‚å	-0.0357273
-1.72834	<unk> ‚Å	-0.0357273
-1.33711	<unk> ‚ë	-0.0603529
-1.72834	<unk> ‚Ú	-0.0357273
-1.72834	<unk> ‚É‚á	-0.0357273
-1.02636	‚ä ‚¹	-0.0357273
-0.300902	‚Í </unk>
-0.371566	‚ë </unk>
-0.348311	‚¦ </unk>
-1.21021	‚Ü ‚µ	-0.0357273
-1.21021	‚Ü ‚¦	-0.121145
-1.21021	‚Ü ‚è	-0.0357273
-1.21021	‚Ü ‚·	-0.0357273
-1.02356	‚Å ‚·	-0.0357273
-0.407268	‚É </unk>
-0.407268	‚½ </unk>
-1.02636	‚¨ ‚ä	-0.0357273
-0.887219	‚Æ ‚«	-0.0357273
-0.407268	‚í </unk>
-0.300902	‚æ </unk>
-0.407268	‚è‚á </unk>
-1.02356	‚É‚á ‚è	-0.0357273
-0.407268	‚Ì </unk>
-1.02636	‚¸ ‚¯	-0.0357273
-1.02636	‚¿ ‚ç	-0.0357273
-0.407268	‚¬‚ã </unk>
-1.02636	‚Ú ‚Æ	-0.0357273
-1.02636	‚«‚å ‚¨	-0.0357273
-0.276929	‚« </unk>
-1.12099	‚« ‚Ü	-0.0357273
-0.491813	‚± </unk>
-1.20647	‚± ‚±	-0.0357273
-1.21398	‚± ‚¿	-0.0357273
-1.21398	‚± ‚È	-0.0357273
-0.407268	‚¶‚å </unk>
-0.470652	‚¾ </unk>
-1.03932	‚¾ ‚Ü	-0.0357273
-1.16262	‚¾ ‚æ	-0.0603529
-0.407268	‚ª </unk>
-0.407268	‚È </unk>

\3-grams:
-0.40131	<unk> ‚Î </unk>
-0.720879	<unk> ‚Î ‚µ
-0.60982	‚¸ ‚¯ ‚¢
-0.306942	‚¿ ‚ç </unk>
-0.330545	‚Î ‚µ </unk>
-0.632393	‚Ü ‚µ ‚½
-0.306942	‚¯ ‚¢ </unk>
-0.283017	‚Ü ‚· </unk>
-0.283017	‚Å ‚· </unk>
-0.306942	<unk> ‚² </unk>
-0.560397	‚ä ‚¹ ‚«
-0.283017	‚Ü ‚è </unk>
-0.283017	‚É‚á ‚è </unk>
-0.60982	‚¨ ‚ä ‚¹
-0.199646	<unk> ‚Í </unk>
-0.239502	<unk> ‚ë </unk>
-0.226698	<unk> ‚¦ </unk>
-0.194435	‚Ü ‚¦ </unk>
-0.492023	<unk> ‚Ü ‚¦
-0.836848	<unk> ‚Ü ‚·
-0.660506	‚¾ ‚Ü ‚è
-0.660506	‚« ‚Ü ‚µ
-0.608927	<unk> ‚Å ‚·
-0.306942	<unk> ‚É </unk>
-0.306942	‚µ ‚½ </unk>
-0.60982	‚«‚å ‚¨ ‚ä
-0.560397	‚Ú ‚Æ ‚«
-0.306942	<unk> ‚í </unk>
-0.199646	‚¾ ‚æ </unk>
-0.306942	<unk> ‚è‚á </unk>
-0.608927	<unk> ‚É‚á ‚è
-0.306942	<unk> ‚Ì </unk>
-0.60982	<unk> ‚¸ ‚¯
-0.60982	‚± ‚¿ ‚ç
-0.306942	<unk> ‚¬‚ã </unk>
-0.60982	<unk> ‚Ú ‚Æ
-0.60982	<unk> ‚«‚å ‚¨
-0.216554	‚¹ ‚« </unk>
-0.216554	‚Æ ‚« </unk>
-0.283133	<unk> ‚« </unk>
-0.727779	<unk> ‚« ‚Ü
-0.823425	<unk> ‚± ‚±
-0.825513	<unk> ‚± ‚¿
-0.825513	<unk> ‚± ‚È
-0.360948	‚± ‚± </unk>
-0.306942	<unk> ‚¶‚å </unk>
-0.54333	<unk> ‚¾ </unk>
-0.84045	<unk> ‚¾ ‚Ü
-0.550603	<unk> ‚¾ ‚æ
-0.306942	<unk> ‚ª </unk>
-0.306942	‚± ‚È </unk>
