[unifb]
-0.236893

\data\
ngram 1=48
ngram 2=120
ngram 3=113

\1-grams:
-0.428441	</unk>
-1.87791	‚±	-0.0225777
-1.91426	‚Ì	-0.0120474
-1.8897	‚Î	-0.0207627
-1.87791	‚µ	-0.111344
-1.91426	‚È	-0.0192179
-1.90181	‚Ü	-0.0729478
-1.44658	‚í	-0.111344
-1.91426	‚¬‚å	-0.0120474
-1.8897	‚ä	-0.0967255
-1.90181	‚¹	-0.172838
-1.86644	‚«	-0.0225777
-1.86644	‚ª	-0.0207627
-1.90181	‚¶‚å	-0.0192179
-1.90181	‚É	-0.0167286
-1.90181	‚½	-0.0192179
-1.91426	‚¿	-0.0120474
-1.91426	‚ç	-0.0167286
-1.90181	‚«‚å	-0.0167286
-1.87791	‚è	-0.187307
-1.86644	‚·	-0.0864481
-1.91426	‚¨	-0.0167286
-1.8897	‚¬‚ã	-0.0167286
-1.90181	‚¯	-0.13381
-1.8897	‚¢	-0.0967255
-1.91426	‚Å	-0.0120474
-1.90181	‚¦	-0.0167286
-1.90181	‚¾	-0.0192179
-1.87791	‚æ	-0.0207627
-1.90181	‚ë	-0.0167286
-1.91426	‚Ú	-0.0120474
-1.91426	‚Æ	-0.0120474
-1.87791	‚Ç	-0.13381
-1.91426	‚²	-0.0120474
-1.91426	‚µ‚å	-0.0120474
-1.91426	‚Ñ	-0.0120474
-1.91426	‚Å‚¡	-0.0120474
-1.87791	‚ñ	-0.0967255
-1.90181	‚®	-0.0167286
-1.91426	‚Ø	-0.0120474
-1.91426	‚µ‚á	-0.0120474
-1.8897	‚ 	-0.217607
-1.91426	‚¤	-0.0120474
-1.91426	‚Â	-0.0120474
-1.8897	‚×	-0.13381
-1.90181	‚â	-0.0192179
-1.91426	‚Û	-0.0120474
-1.91426	‚Ï	-0.0120474

\2-grams:
-0.406169	‚¨ </unk>
-1.05223	‚¨ ‚«	-0.044179
-1.05223	‚® ‚·	-0.044179
-1.05518	‚® ‚ 	-0.044179
-0.291826	‚ª </unk>
-0.967675	‚Ñ ‚Å‚¡	-0.044179
-0.962542	‚Å ‚·	-0.0728014
-0.362982	‚Ì </unk>
-0.963819	‚Å‚¡ ‚ñ	-0.044179
-0.36709	‚¶‚å </unk>
-1.03122	‚¶‚å ‚í	-0.044179
-0.322192	‚¢ </unk>
-1.24731	‚¢ ‚¶‚å	-0.0728014
-1.24361	‚¢ ‚ñ	-0.044179
-0.392101	‚± </unk>
-1.27968	‚± ‚±	-0.044179
-1.28628	‚± ‚¿	-0.142275
-1.28407	‚± ‚ë	-0.044179
-0.965101	‚Ï ‚×	-0.044179
-0.617196	‚¯ ‚¢	-0.142275
-1.13367	‚¯ ‚ñ	-0.044179
-0.963819	‚Û ‚è	-0.044179
-1.31961	<unk> ‚±	-0.166203
-2.02516	<unk> ‚Ì	-0.044179
-1.59739	<unk> ‚Î	-0.092894
-2.00496	<unk> ‚µ	-0.044179
-1.18276	<unk> ‚È	-0.270297
-1.18177	<unk> ‚Ü	-0.128417
-1.43698	<unk> ‚í	-0.218817
-2.02516	<unk> ‚¬‚å	-0.044179
-1.43755	<unk> ‚ä	-0.10779
-1.59227	<unk> ‚«	-0.152772
-1.38612	<unk> ‚ª	-0.278695
-2.01832	<unk> ‚¶‚å	-0.044179
-1.59997	<unk> ‚É	-0.152772
-1.59997	<unk> ‚½	-0.092894
-1.85767	<unk> ‚«‚å	-0.0728014
-1.67512	<unk> ‚è	-0.0728014
-1.99843	<unk> ‚·	-0.044179
-1.68445	<unk> ‚¨	-0.0728014
-1.7371	<unk> ‚¬‚ã	-0.152772
-1.68132	<unk> ‚¯	-0.0728014
-1.43755	<unk> ‚¢	-0.10779
-1.68445	<unk> ‚Å	-0.142275
-2.01832	<unk> ‚¦	-0.044179
-1.59997	<unk> ‚¾	-0.092894
-2.00496	<unk> ‚æ	-0.044179
-1.68132	<unk> ‚ë	-0.142275
-2.02516	<unk> ‚Ú	-0.044179
-2.02516	<unk> ‚Æ	-0.044179
-1.73357	<unk> ‚Ç	-0.152772
-2.02516	<unk> ‚²	-0.044179
-2.02516	<unk> ‚Ñ	-0.044179
-2.01832	<unk> ‚®	-0.044179
-2.02516	<unk> ‚Ø	-0.044179
-1.67821	<unk> ‚ 	-0.142275
-2.02516	<unk> ‚¤	-0.044179
-2.01159	<unk> ‚×	-0.044179
-2.01832	<unk> ‚â	-0.044179
-0.39884	‚è </unk>
-1.25486	‚è ‚Ü	-0.0728014
-0.740203	‚è ‚ñ	-0.0728014
-0.362982	‚¤ </unk>
-0.362982	‚µ‚á </unk>
-0.309147	‚« </unk>
-1.27968	‚« ‚Ç	-0.044179
-0.362982	‚µ‚å </unk>
-0.965101	‚² ‚Î	-0.044179
-0.306593	‚â </unk>
-0.406169	‚¬‚ã </unk>
-1.05666	‚¬‚ã ‚¯	-0.044179
-0.239011	‚· </unk>
-0.362982	‚Â </unk>
-0.328217	‚ë </unk>
-0.452961	‚Ü </unk>
-1.3598	‚Ü ‚µ	-0.044179
-1.3598	‚Ü ‚è	-0.044179
-0.868817	‚Ü ‚·	-0.142275
-1.36451	‚Ü ‚¦	-0.044179
-0.967675	‚¿ ‚ç	-0.0728014
-0.36709	‚½ </unk>
-1.12727	‚½ ‚×	-0.044179
-0.48614	‚× </unk>
-0.617645	‚× ‚â	-0.0728014
-0.406169	‚ç </unk>
-1.05223	‚ç ‚ª	-0.044179
-0.461093	‚Î </unk>
-1.1852	‚Î ‚µ	-0.044179
-1.19076	‚Î ‚µ‚å	-0.044179
-1.19076	‚Î ‚µ‚á	-0.044179
-0.328217	‚¦ </unk>
-0.362982	‚Æ </unk>
-0.362982	‚¬‚å </unk>
-0.437401	‚¾ </unk>
-0.856754	‚¾ ‚æ	-0.0728014
-0.4346	‚µ </unk>
-0.683326	‚µ ‚Â	-0.142275
-0.962542	‚Ø ‚·	-0.044179
-0.538876	‚¹ ‚«	-0.152772
-0.29108	‚í </unk>
-1.19813	‚í ‚Û	-0.044179
-0.362982	‚Ú </unk>
-0.36709	‚È </unk>
-1.12561	‚È ‚è	-0.142275
-0.291826	‚æ </unk>
-0.328217	‚É </unk>
-0.368366	‚ñ </unk>
-1.24178	‚ñ ‚«	-0.044179
-1.24731	‚ñ ‚®	-0.044179
-1.24917	‚ñ ‚Ï	-0.044179
-0.519506	‚ä </unk>
-1.24361	‚ä ‚µ	-0.044179
-0.637394	‚ä ‚¹	-0.152772
-0.305691	‚Ç </unk>
-1.13367	‚Ç ‚±	-0.044179
-1.05518	‚«‚å ‚ä	-0.044179
-1.0537	‚«‚å ‚æ	-0.044179
-0.552971	‚  </unk>
-1.33928	‚  ‚ª	-0.044179
-0.459638	‚  ‚ 	-0.119281

\3-grams:
-0.370149	<unk> ‚¨ </unk>
-0.660491	<unk> ‚¨ ‚«
-0.580747	‚ñ ‚® ‚·
-0.58155	<unk> ‚® ‚ 
-0.218906	‚  ‚ª </unk>
-0.218906	‚ç ‚ª </unk>
-0.10819	<unk> ‚ª </unk>
-0.555961	<unk> ‚Ñ ‚Å‚¡
-0.39404	<unk> ‚Å ‚·
-0.2663	<unk> ‚Ì </unk>
-0.554748	‚Ñ ‚Å‚¡ ‚ñ
-0.34513	‚¢ ‚¶‚å </unk>
-0.654554	‚¢ ‚¶‚å ‚í
-0.268956	<unk> ‚¶‚å </unk>
-0.218466	<unk> ‚¢ </unk>
-0.83091	<unk> ‚¢ ‚ñ
-0.433542	‚¯ ‚¢ ‚¶‚å
-0.39945	<unk> ‚± </unk>
-0.890539	<unk> ‚± ‚±
-0.616019	<unk> ‚± ‚¿
-0.632837	‚Ç ‚± ‚ë
-0.284936	‚± ‚± </unk>
-0.555152	‚ñ ‚Ï ‚×
-0.490707	<unk> ‚¯ ‚¢
-0.681615	<unk> ‚¯ ‚ñ
-0.413198	‚¬‚ã ‚¯ ‚¢
-0.554748	‚í ‚Û ‚è
-0.365518	<unk> ‚è </unk>
-0.549264	<unk> ‚è ‚ñ
-0.289184	‚Ü ‚è </unk>
-0.434312	‚È ‚è ‚Ü
-0.471079	‚Û ‚è ‚ñ
-0.2663	<unk> ‚¤ </unk>
-0.2663	‚Î ‚µ‚á </unk>
-0.23068	‚¨ ‚« </unk>
-0.153131	‚¹ ‚« </unk>
-0.24545	<unk> ‚« </unk>
-0.781884	<unk> ‚« ‚Ç
-0.23068	‚ñ ‚« </unk>
-0.2663	‚Î ‚µ‚å </unk>
-0.555152	<unk> ‚² ‚Î
-0.228954	<unk> ‚â </unk>
-0.184755	‚× ‚â </unk>
-0.291632	<unk> ‚¬‚ã </unk>
-0.730935	<unk> ‚¬‚ã ‚¯
-0.148513	‚Å ‚· </unk>
-0.182092	<unk> ‚· </unk>
-0.182092	‚® ‚· </unk>
-0.144665	‚Ü ‚· </unk>
-0.182092	‚Ø ‚· </unk>
-0.207028	‚µ ‚Â </unk>
-0.190432	<unk> ‚ë </unk>
-0.243469	‚± ‚ë </unk>
-0.399027	‚è ‚Ü </unk>
-0.601341	‚è ‚Ü ‚·
-0.466326	<unk> ‚Ü </unk>
-0.948638	<unk> ‚Ü ‚µ
-0.948638	<unk> ‚Ü ‚è
-0.815732	<unk> ‚Ü ‚·
-0.949439	<unk> ‚Ü ‚¦
-0.394963	‚± ‚¿ ‚ç
-0.279647	<unk> ‚½ </unk>
-0.74697	<unk> ‚½ ‚×
-0.413425	‚½ ‚× ‚â
-0.341981	‚Ï ‚× </unk>
-0.413425	<unk> ‚× ‚â
-0.370149	‚¿ ‚ç </unk>
-0.660491	‚¿ ‚ç ‚ª
-0.467494	<unk> ‚Î </unk>
-0.760653	<unk> ‚Î ‚µ
-0.761893	<unk> ‚Î ‚µ‚á
-0.614429	‚² ‚Î ‚µ‚å
-0.243469	‚Ü ‚¦ </unk>
-0.243469	<unk> ‚¦ </unk>
-0.2663	<unk> ‚Æ </unk>
-0.2663	<unk> ‚¬‚å </unk>
-0.453005	<unk> ‚¾ </unk>
-0.45332	<unk> ‚¾ ‚æ
-0.445393	‚ä ‚µ ‚Â
-0.311317	‚Ü ‚µ </unk>
-0.445393	<unk> ‚µ ‚Â
-0.311317	‚Î ‚µ </unk>
-0.554345	<unk> ‚Ø ‚·
-0.232668	‚ä ‚¹ ‚«
-0.173202	<unk> ‚í </unk>
-0.875676	<unk> ‚í ‚Û
-0.218395	‚¶‚å ‚í </unk>
-0.2663	<unk> ‚Ú </unk>
-0.245204	<unk> ‚È </unk>
-0.64498	<unk> ‚È ‚è
-0.218906	<unk> ‚æ </unk>
-0.177059	‚¾ ‚æ </unk>
-0.218906	‚«‚å ‚æ </unk>
-0.160799	<unk> ‚É </unk>
-0.345959	‚è ‚ñ </unk>
-0.706841	‚è ‚ñ ‚Ï
-0.26978	‚¢ ‚ñ </unk>
-0.625962	‚Å‚¡ ‚ñ ‚®
-0.624886	‚¯ ‚ñ ‚«
-0.556301	<unk> ‚ä </unk>
-0.83091	<unk> ‚ä ‚µ
-0.447399	<unk> ‚ä ‚¹
-0.423298	‚«‚å ‚ä ‚¹
-0.228343	‚« ‚Ç </unk>
-0.243705	<unk> ‚Ç </unk>
-0.750835	<unk> ‚Ç ‚±
-0.661307	<unk> ‚«‚å ‚ä
-0.660899	<unk> ‚«‚å ‚æ
-0.249548	<unk> ‚  ‚ 
-0.465545	‚  ‚  </unk>
-0.899808	‚  ‚  ‚ª
-0.426475	‚  ‚  ‚ 
-0.326398	‚® ‚  ‚ 
