[unifb]
-0.301736

\data\
ngram 1=45
ngram 2=121
ngram 3=112

\1-grams:
-0.33965	</unk>
-1.91567	‚±	-0.110011
-1.93134	‚Ì	-0.018391
-1.93134	‚Î	-0.018391
-1.9476	‚µ‚å	-0.00989528
-1.91567	‚È	-0.0788702
-1.52628	‚Ü	-0.0206023
-1.93134	‚¦	-0.128809
-1.9476	‚í	-0.0857875
-1.93134	‚ 	-0.018391
-1.93134	‚«‚å	-0.108395
-1.9476	‚¤	-0.015141
-1.91567	‚ä	-0.0735365
-1.9476	‚¹	-0.00989528
-1.9476	‚«	-0.160303
-1.93134	‚ª	-0.108395
-1.93134	‚É	-0.0206023
-1.91567	‚µ	-0.142454
-1.90054	‚½	-0.216969
-1.91567	‚¿	-0.160303
-1.93134	‚ç	-0.0206023
-1.90054	‚è	-0.0251358
-1.90054	‚·	-0.0857875
-1.9476	‚¬‚ã	-0.128809
-1.9476	‚¯	-0.015141
-1.90054	‚¢	-0.118465
-1.9476	‚¶‚å	-0.00989528
-1.9476	‚Å	-0.015141
-1.91567	‚¾	-0.0857875
-1.93134	‚æ	-0.267088
-1.91567	‚ñ	-0.0857875
-1.91567	‚ë	-0.095118
-1.9476	‚Ú	-0.00989528
-1.9476	‚Æ	-0.00989528
-1.9476	‚¨	-0.00989528
-1.9476	‚Ç	-0.018391
-1.9476	‚Á	-0.00989528
-1.9476	‚Ý	-0.00989528
-1.9476	‚®	-0.00989528
-1.9476	‚Ø	-0.00989528
-1.93134	‚Â	-0.018391
-1.9476	‚¬‚å	-0.015141
-1.9476	‚×	-0.018391
-1.93134	‚â	-0.015141
-1.9476	‚Õ	-0.015141

\2-grams:
-0.277414	‚ª </unk>
-1.02396	‚ª ‚½	-0.0514395
-0.26181	‚É </unk>
-1.06979	‚É ‚È	-0.0936355
-0.487052	‚µ </unk>
-0.804052	‚µ ‚½	-0.0936355
-1.15209	‚µ ‚ë	-0.0514395
-0.80542	‚µ ‚Â	-0.0936355
-0.332394	‚½ </unk>
-0.615583	‚½ ‚×	-0.12903
-0.29319	‚¿ </unk>
-0.766958	‚¿ ‚ç	-0.147418
-0.26181	‚ç </unk>
-1.07131	‚ç ‚ª	-0.0936355
-0.2757	‚è </unk>
-0.90253	‚è ‚Ü	-0.112837
-1.21447	‚è ‚ñ	-0.0514395
-0.24114	‚ä </unk>
-1.18792	‚ä ‚¹	-0.0514395
-1.18465	‚ä ‚µ	-0.0936355
-0.29319	‚« </unk>
-0.7663	‚« ‚ä	-0.12903
-0.331886	‚¤ </unk>
-0.971589	‚¤ ‚ä	-0.0514395
-0.212101	‚«‚å </unk>
-0.285622	‚¹ </unk>
-0.371046	‚Î </unk>
-1.0266	‚Î ‚µ‚å	-0.0514395
-1.02365	‚Î ‚µ	-0.0514395
-0.229129	‚í </unk>
-1.11441	‚í ‚ 	-0.0514395
-0.23538	‚¦ </unk>
-0.327426	‚Ü </unk>
-1.06827	‚Ü ‚è	-0.0514395
-1.06827	‚Ü ‚·	-0.0936355
-0.260002	‚È </unk>
-1.09024	‚È ‚Ü	-0.0514395
-1.14881	‚È ‚è	-0.0514395
-0.285622	‚µ‚å </unk>
-0.371046	‚Ì </unk>
-1.02512	‚Ì ‚Î	-0.0514395
-1.02365	‚Ì ‚È	-0.0514395
-0.282616	‚± </unk>
-1.247	‚± ‚±	-0.0936355
-1.24869	‚± ‚Ì	-0.0514395
-1.247	‚± ‚¿	-0.17688
-1.247	‚± ‚ë	-0.0514395
-1.05459	<unk> ‚±	-0.337081
-1.76778	<unk> ‚Ì	-0.0936355
-1.76778	<unk> ‚Î	-0.0936355
-1.58482	<unk> ‚È	-0.12903
-1.96913	<unk> ‚Ü	-0.0514395
-1.83207	<unk> ‚¦	-0.0936355
-1.27953	<unk> ‚í	-0.224589
-1.76778	<unk> ‚ 	-0.0936355
-1.62703	<unk> ‚«‚å	-0.12903
-1.76933	<unk> ‚¤	-0.0936355
-1.45724	<unk> ‚ä	-0.17688
-1.21169	<unk> ‚«	-0.260545
-1.458	<unk> ‚ª	-0.214469
-1.38334	<unk> ‚É	-0.202337
-1.58482	<unk> ‚µ	-0.12903
-2.08364	<unk> ‚¿	-0.0514395
-1.58583	<unk> ‚ç	-0.147418
-1.45649	<unk> ‚è	-0.159239
-1.76933	<unk> ‚¬‚ã	-0.0936355
-1.58685	<unk> ‚¯	-0.147418
-1.38207	<unk> ‚¢	-0.185385
-1.76933	<unk> ‚Å	-0.0936355
-1.02355	<unk> ‚¾	-0.397357
-2.08686	<unk> ‚æ	-0.0514395
-1.45724	<unk> ‚ñ	-0.17688
-1.76623	<unk> ‚ë	-0.0936355
-2.09009	<unk> ‚Ú	-0.0514395
-2.09009	<unk> ‚Æ	-0.0514395
-2.09009	<unk> ‚Á	-0.0514395
-1.58685	<unk> ‚Ý	-0.166619
-2.08686	<unk> ‚Â	-0.0514395
-1.58685	<unk> ‚¬‚å	-0.147418
-2.08686	<unk> ‚â	-0.0514395
-1.76933	<unk> ‚Õ	-0.0936355
-0.291383	‚  </unk>
-1.02365	‚  ‚¿	-0.0514395
-0.229129	‚· </unk>
-1.11594	‚· ‚Ø	-0.0514395
-0.249738	‚Õ </unk>
-0.331886	‚â </unk>
-0.971589	‚â ‚¾	-0.0514395
-0.291383	‚× </unk>
-1.02512	‚× ‚â	-0.0514395
-0.249738	‚¬‚å </unk>
-0.224093	‚Â </unk>
-0.910563	‚Ø ‚·	-0.0514395
-0.910563	‚® ‚·	-0.0514395
-0.910563	‚Ý ‚è	-0.147418
-0.291383	‚Ç </unk>
-0.967411	‚Ç ‚Ü	-0.0514395
-0.285622	‚Á </unk>
-0.285622	‚¨ </unk>
-0.914637	‚Æ ‚¨	-0.0514395
-0.285622	‚Ú </unk>
-0.456196	‚¢ </unk>
-1.21622	‚¢ ‚½	-0.0514395
-1.22112	‚¢ ‚¶‚å	-0.0514395
-1.21785	‚¢ ‚ñ	-0.0514395
-0.683362	‚¢ ‚Ç	-0.17688
-0.23538	‚¬‚ã </unk>
-0.249738	‚¯ </unk>
-0.285622	‚¶‚å </unk>
-0.331886	‚Å </unk>
-0.97018	‚Å ‚·	-0.0514395
-0.447847	‚¾ </unk>
-1.11289	‚¾ ‚±	-0.0514395
-1.11137	‚¾ ‚¢	-0.147418
-0.766216	‚¾ ‚æ	-0.24423
-0.139648	‚æ </unk>
-0.370523	‚ñ </unk>
-0.764848	‚ñ ‚½	-0.0936355
-1.11594	‚ñ ‚®	-0.0514395
-0.250092	‚ë </unk>
-1.07004	‚ë ‚¢	-0.0514395

\3-grams:
-0.283406	‚ç ‚ª </unk>
-0.699881	‚ç ‚ª ‚½
-0.112613	<unk> ‚ª </unk>
-0.263093	<unk> ‚É </unk>
-0.598675	<unk> ‚É ‚È
-0.533384	‚Î ‚µ ‚½
-0.430745	‚ä ‚µ </unk>
-0.610039	‚ä ‚µ ‚Â
-0.669093	<unk> ‚µ ‚½
-0.807501	<unk> ‚µ ‚ë
-0.66977	<unk> ‚µ ‚Â
-0.219228	‚µ ‚½ </unk>
-0.258587	‚¢ ‚½ </unk>
-0.358037	‚ñ ‚½ ‚×
-0.438418	‚ª ‚½ ‚×
-0.317664	‚± ‚¿ </unk>
-0.477277	‚± ‚¿ ‚ç
-0.230478	‚  ‚¿ </unk>
-0.516305	<unk> ‚¿ ‚ç
-0.142922	‚¿ ‚ç </unk>
-0.349549	<unk> ‚ç </unk>
-0.488132	<unk> ‚ç ‚ª
-0.284944	<unk> ‚è </unk>
-0.765573	<unk> ‚è ‚Ü
-0.881837	<unk> ‚è ‚ñ
-0.217709	‚Ü ‚è </unk>
-0.14941	‚Ý ‚è </unk>
-0.574944	‚È ‚è ‚Ü
-0.284985	<unk> ‚ä </unk>
-0.565559	<unk> ‚ä ‚µ
-0.666485	‚¤ ‚ä ‚¹
-0.147387	‚« ‚ä </unk>
-0.270045	<unk> ‚« </unk>
-0.50708	<unk> ‚« ‚ä
-0.323685	<unk> ‚¤ </unk>
-0.680749	<unk> ‚¤ ‚ä
-0.131341	<unk> ‚«‚å </unk>
-0.22497	‚ä ‚¹ </unk>
-0.61976	‚Ì ‚Î ‚µ‚å
-0.351809	<unk> ‚Î </unk>
-0.699772	<unk> ‚Î ‚µ
-0.147992	<unk> ‚í </unk>
-0.946858	<unk> ‚í ‚ 
-0.161202	<unk> ‚¦ </unk>
-0.255065	‚È ‚Ü </unk>
-0.633025	‚Ç ‚Ü ‚è
-0.41616	‚è ‚Ü ‚·
-0.255065	<unk> ‚Ü </unk>
-0.319333	<unk> ‚È </unk>
-0.787654	<unk> ‚È ‚Ü
-0.806497	<unk> ‚È ‚è
-0.17642	‚É ‚È </unk>
-0.206131	‚Ì ‚È </unk>
-0.22497	‚Î ‚µ‚å </unk>
-0.351809	<unk> ‚Ì </unk>
-0.700288	<unk> ‚Ì ‚Î
-0.61879	‚± ‚Ì ‚È
-0.287309	‚± ‚± </unk>
-0.76637	‚± ‚± ‚Ì
-0.448925	<unk> ‚± </unk>
-0.826959	<unk> ‚± ‚±
-0.520345	<unk> ‚± ‚¿
-1.13938	<unk> ‚± ‚ë
-0.222775	‚¾ ‚± </unk>
-0.29386	<unk> ‚  </unk>
-0.699772	<unk> ‚  ‚¿
-0.229165	‚í ‚  </unk>
-0.183045	‚Å ‚· </unk>
-0.647155	‚® ‚· ‚Ø
-0.183045	‚Ø ‚· </unk>
-0.157286	‚Ü ‚· </unk>
-0.170117	<unk> ‚Õ </unk>
-0.258228	<unk> ‚â </unk>
-0.600897	‚× ‚â ‚¾
-0.250511	‚½ ‚× </unk>
-0.764635	‚½ ‚× ‚â
-0.137194	<unk> ‚¬‚å </unk>
-0.154116	‚µ ‚Â </unk>
-0.17924	<unk> ‚Â </unk>
-0.578096	‚· ‚Ø ‚·
-0.578096	‚ñ ‚® ‚·
-0.295947	<unk> ‚Ý ‚è
-0.205154	‚¢ ‚Ç </unk>
-0.808377	‚¢ ‚Ç ‚Ü
-0.22497	<unk> ‚Á </unk>
-0.22497	‚Æ ‚¨ </unk>
-0.579681	<unk> ‚Æ ‚¨
-0.22497	<unk> ‚Ú </unk>
-0.293259	‚¾ ‚¢ ‚Ç
-0.67346	‚ë ‚¢ ‚½
-0.431525	<unk> ‚¢ </unk>
-0.931571	<unk> ‚¢ ‚¶‚å
-0.930573	<unk> ‚¢ ‚ñ
-0.68965	<unk> ‚¢ ‚Ç
-0.161202	<unk> ‚¬‚ã </unk>
-0.137194	<unk> ‚¯ </unk>
-0.22497	‚¢ ‚¶‚å </unk>
-0.323685	<unk> ‚Å </unk>
-0.680214	<unk> ‚Å ‚·
-1.14794	<unk> ‚¾ ‚±
-0.671262	<unk> ‚¾ ‚¢
-0.29881	<unk> ‚¾ ‚æ
-0.337017	‚â ‚¾ </unk>
-0.0654999	‚¾ ‚æ </unk>
-0.11389	<unk> ‚æ </unk>
-0.647155	‚¢ ‚ñ ‚®
-0.241008	<unk> ‚ñ </unk>
-0.715287	<unk> ‚ñ ‚½
-0.51531	‚è ‚ñ ‚½
-0.198766	‚± ‚ë </unk>
-0.170335	<unk> ‚ë </unk>
-0.633568	‚µ ‚ë ‚¢
