[unifb]
-0.196843

\data\
ngram 1=15
ngram 2=21
ngram 3=17

\1-grams:
-0.779567	</unk>
-1.46233	</s>	-0.0334118
-1.46233	‚¦	-0.0334118
-1.10587	<s>	-0.050133
-1.46233	‚«	-0.0334118
-1.46233	‚±	-0.0334118
-1.46233	‚¹	-0.0334118
-1.36098	‚Ì	-0.050133
-1.46233	‚Î	-0.0334118
-1.46233	‚È	-0.0334118
-1.46233	‚Ü	-0.0334118
-1.46233	‚µ‚ã	-0.0334118
-1.46233	‚ä	-0.0334118
-1.10587	‚í	-0.050133
-1.46233	‚«‚å	-0.0334118

\2-grams:
-1.39299	<unk> ‚¦	-0.00704004
-1.08029	<unk> <s>	-0.00704004
-1.3074	<unk> ‚Ì	-0.00704004
-1.39299	<unk> ‚µ‚ã	-0.00704004
-1.05661	‚í ‚í	-0.00704004
-1.34795	‚í ‚«‚å	-0.00704004
-1.05661	<s> <s>	-0.00704004
-1.34795	<s> ‚±	-0.00704004
-1.22965	‚± ‚Ì	-0.00704004
-1.34795	‚Ì ‚Î	-0.00704004
-1.34795	‚Ì ‚È	-0.00704004
-0.745857	</s> </unk>
-1.30092	‚¹ ‚«	-0.00704004
-1.30092	‚«‚å ‚ä	-0.00704004
-1.30092	‚« </s>	-0.00704004
-0.745857	‚Ü </unk>
-1.30092	‚ä ‚¹	-0.00704004
-1.03065	‚¦ ‚í	-0.00704004
-1.30092	‚È ‚Ü	-0.00704004
-0.745857	‚µ‚ã </unk>
-0.745857	‚Î </unk>

\3-grams:
-0.694692	‚¦ ‚í ‚í
-0.783964	‚í ‚í ‚«‚å
-0.694692	<unk> <s> <s>
-0.783964	<s> <s> ‚±
-0.752655	<s> ‚± ‚Ì
-0.783964	‚± ‚Ì ‚Î
-0.783964	<unk> ‚Ì ‚È
-0.549372	‚« </s> </unk>
-0.772264	‚ä ‚¹ ‚«
-0.772264	‚í ‚«‚å ‚ä
-0.772264	‚¹ ‚« </s>
-0.549372	‚È ‚Ü </unk>
-0.772264	‚«‚å ‚ä ‚¹
-0.684639	<unk> ‚¦ ‚í
-0.772264	‚Ì ‚È ‚Ü
-0.549372	<unk> ‚µ‚ã </unk>
-0.549372	‚Ì ‚Î </unk>
