[unifb]
-0.202291

\data\
ngram 1=15
ngram 2=22
ngram 3=17

\1-grams:
-0.928925	</unk>
-1.41361	</s>	-0.0326919
-1.41361	‚¦	-0.0326919
-1.11153	<s>	-0.0555144
-1.41361	‚«	-0.0326919
-1.41361	‚±	-0.0326919
-1.41361	‚¹	-0.0326919
-1.28351	‚Ì	-0.0555144
-1.41361	‚Î	-0.0326919
-1.41361	‚È	-0.0326919
-1.41361	‚Ü	-0.0326919
-1.41361	‚µ‚ã	-0.0326919
-1.41361	‚ä	-0.0326919
-1.11153	‚í	-0.0555144
-1.41361	‚«‚å	-0.0326919

\2-grams:
-1.0878	<unk> </s>	-0.0563395
-0.958172	<unk> <s>	-0.0563395
-1.03823	<unk> ‚Ì	-0.0563395
-1.0878	<unk> ‚µ‚ã	-0.0563395
-1.0878	<unk> ‚ä	-0.0563395
-0.808832	‚í ‚í	-0.0563395
-0.907701	‚í ‚«‚å	-0.0563395
-0.808832	<s> <s>	-0.0563395
-0.907701	<s> ‚±	-0.0563395
-0.647594	‚± </unk>
-0.907701	‚Ì ‚Î	-0.0563395
-0.907701	‚Ì ‚È	-0.0563395
-0.647594	</s> </unk>
-0.808123	‚¹ ‚«	-0.0563395
-0.647594	‚«‚å </unk>
-0.647594	‚« </unk>
-0.808123	‚Ü ‚¦	-0.0563395
-0.808123	‚ä ‚¹	-0.0563395
-0.722151	‚¦ ‚í	-0.0563395
-0.808123	‚È ‚Ü	-0.0563395
-0.776272	‚µ‚ã ‚Ì	-0.0563395
-0.647594	‚Î </unk>

\3-grams:
-0.676302	‚¦ ‚í ‚í
-0.741909	‚í ‚í ‚«‚å
-0.676302	<unk> <s> <s>
-0.741909	<s> <s> ‚±
-0.559165	<s> ‚± </unk>
-0.741909	<unk> ‚Ì ‚Î
-0.741909	‚µ‚ã ‚Ì ‚È
-0.559165	<unk> </s> </unk>
-0.675814	‚ä ‚¹ ‚«
-0.559165	‚í ‚«‚å </unk>
-0.559165	‚¹ ‚« </unk>
-0.675814	‚È ‚Ü ‚¦
-0.675814	<unk> ‚ä ‚¹
-0.614803	‚Ü ‚¦ ‚í
-0.675814	‚Ì ‚È ‚Ü
-0.65362	<unk> ‚µ‚ã ‚Ì
-0.559165	‚Ì ‚Î </unk>
