[unifb]
-0.140866

\data\
ngram 1=16
ngram 2=20
ngram 3=17

\1-grams:
-0.980226	</unk>
-1.42152	</s>	-0.010782
-1.42152	‚¤	-0.010782
-1.42152	‚¦	-0.010782
-1.42152	<s>	-0.010782
-1.42152	‚«	-0.010782
-1.42152	‚±	-0.010782
-1.42152	‚¹	-0.010782
-1.14708	‚Ì	-0.0199687
-1.42152	‚Î	-0.010782
-1.42152	‚È	-0.010782
-1.42152	‚Ü	-0.010782
-1.42152	‚µ‚ã	-0.010782
-1.42152	‚ä	-0.010782
-1.14708	‚í	-0.0199687
-1.42152	‚«‚å	-0.010782

\2-grams:
-1.1514	<unk> ‚¤	-0.0247916
-1.1514	<unk> <s>	-0.0247916
-1.1514	<unk> ‚ä	-0.0247916
-0.961539	‚í ‚í	-0.0247916
-1.1033	‚í ‚«‚å	-0.0247916
-0.811529	<s> </unk>
-1.03967	‚¤ ‚±	-0.0247916
-0.910789	‚± ‚Ì	-0.0247916
-1.1033	‚Ì ‚Î	-0.0247916
-1.1033	‚Ì ‚È	-0.0247916
-0.811529	</s> </unk>
-1.03967	‚¹ ‚«	-0.0247916
-0.811529	‚«‚å </unk>
-1.03967	‚« </s>	-0.0247916
-1.03967	‚Ü ‚¦	-0.0247916
-1.03967	‚ä ‚¹	-0.0247916
-0.910789	‚¦ ‚í	-0.0247916
-1.03967	‚È ‚Ü	-0.0247916
-0.910789	‚µ‚ã ‚Ì	-0.0247916
-1.03967	‚Î ‚µ‚ã	-0.0247916

\3-grams:
-0.902709	‚¦ ‚í ‚í
-1.02126	‚í ‚í ‚«‚å
-0.771125	<unk> <s> </unk>
-0.968834	<unk> ‚¤ ‚±
-0.858825	‚¤ ‚± ‚Ì
-1.02126	‚± ‚Ì ‚Î
-1.02126	‚µ‚ã ‚Ì ‚È
-0.771125	‚« </s> </unk>
-0.968834	‚ä ‚¹ ‚«
-0.771125	‚í ‚«‚å </unk>
-0.968834	‚¹ ‚« </s>
-0.968834	‚È ‚Ü ‚¦
-0.968834	<unk> ‚ä ‚¹
-0.858825	‚Ü ‚¦ ‚í
-0.968834	‚Ì ‚È ‚Ü
-0.858825	‚Î ‚µ‚ã ‚Ì
-0.968834	‚Ì ‚Î ‚µ‚ã
