[unifb]
-0.211555

\data\
ngram 1=15
ngram 2=20
ngram 3=17

\1-grams:
-1.02803	</unk>
-1.38971	</s>	-0.0240189
-1.38971	‚¦	-0.0240189
-1.11036	<s>	-0.0437755
-1.38971	‚«	-0.0240189
-1.38971	‚µ	-0.0240189
-1.38971	‚²	-0.0240189
-1.38971	‚¹	-0.0240189
-1.24447	‚Ì	-0.0437755
-1.38971	‚Î	-0.0240189
-1.38971	‚È	-0.0240189
-1.38971	‚Ü	-0.0240189
-1.38971	‚ä	-0.0240189
-1.11036	‚í	-0.0437755
-1.38971	‚«‚å	-0.0240189

\2-grams:
-0.974491	<unk> <s>	-0.0221434
-1.13458	<unk> ‚È	-0.0221434
-0.974491	<unk> ‚í	-0.0221434
-0.945104	‚í ‚í	-0.0221434
-1.09796	‚í ‚«‚å	-0.0221434
-0.945104	<s> <s>	-0.0221434
-1.09796	<s> ‚²	-0.0221434
-0.983665	‚² ‚Ì	-0.0221434
-0.891817	‚Ì </unk>
-1.09796	‚Ì ‚Î	-0.0221434
-0.857615	</s> </unk>
-1.05331	‚¹ ‚«	-0.0221434
-1.05331	‚«‚å ‚ä	-0.0221434
-1.05331	‚« </s>	-0.0221434
-1.05331	‚Ü ‚¦	-0.0221434
-1.05331	‚ä ‚¹	-0.0221434
-0.857615	‚¦ </unk>
-1.05331	‚È ‚Ü	-0.0221434
-0.983665	‚µ ‚Ì	-0.0221434
-1.05331	‚Î ‚µ	-0.0221434

\3-grams:
-0.30142	<unk> ‚í ‚í
-0.318265	‚í ‚í ‚«‚å
-0.30142	<unk> <s> <s>
-0.318265	<s> <s> ‚²
-0.306178	<s> ‚² ‚Ì
-0.318265	‚² ‚Ì ‚Î
-0.29421	‚µ ‚Ì </unk>
-0.289166	‚« </s> </unk>
-0.313879	‚ä ‚¹ ‚«
-0.313879	‚í ‚«‚å ‚ä
-0.313879	‚¹ ‚« </s>
-0.313879	‚È ‚Ü ‚¦
-0.313879	‚«‚å ‚ä ‚¹
-0.289166	‚Ü ‚¦ </unk>
-0.313879	<unk> ‚È ‚Ü
-0.306178	‚Î ‚µ ‚Ì
-0.313879	‚Ì ‚Î ‚µ
