[unifb]
-0.16636

\data\
ngram 1=15
ngram 2=21
ngram 3=17

\1-grams:
-0.878842	</unk>
-1.44842	</s>	-0.0319095
-1.44842	‚¦	-0.0319095
-1.09841	<s>	-0.0472369
-1.44842	‚«	-0.0319095
-1.44842	‚²	-0.0319095
-1.44842	‚¹	-0.0319095
-1.09841	‚Ì	-0.0472369
-1.44842	‚Î	-0.0319095
-1.44842	‚È	-0.0319095
-1.44842	‚Ü	-0.0319095
-1.44842	‚µ‚ã	-0.0319095
-1.44842	‚ä	-0.0319095
-1.35704	‚í	-0.0472369
-1.44842	‚«‚å	-0.0319095

\2-grams:
-0.857517	<unk> ‚¦	-0.103502
-0.791277	<unk> <s>	-0.103502
-0.857517	<unk> ‚È	-0.103502
-0.857517	<unk> ‚ä	-0.103502
-0.702905	‚í ‚í	-0.103502
-0.715169	‚í ‚«‚å	-0.103502
-0.6539	<s> <s>	-0.103502
-0.715169	<s> ‚²	-0.103502
-0.560873	‚² ‚Ì	-0.103502
-0.590772	‚Ì </unk>
-0.715169	‚Ì ‚Î	-0.103502
-0.500038	</s> </unk>
-0.61959	‚¹ ‚«	-0.103502
-0.500038	‚«‚å </unk>
-0.61959	‚« </s>	-0.103502
-0.500038	‚Ü </unk>
-0.61959	‚ä ‚¹	-0.103502
-0.607864	‚¦ ‚í	-0.103502
-0.61959	‚È ‚Ü	-0.103502
-0.560873	‚µ‚ã ‚Ì	-0.103502
-0.61959	‚Î ‚µ‚ã	-0.103502

\3-grams:
-0.470037	‚¦ ‚í ‚í
-0.47591	‚í ‚í ‚«‚å
-0.445707	<unk> <s> <s>
-0.47591	<s> <s> ‚²
-0.395729	<s> ‚² ‚Ì
-0.47591	‚² ‚Ì ‚Î
-0.412331	‚µ‚ã ‚Ì </unk>
-0.36039	‚« </s> </unk>
-0.427851	‚ä ‚¹ ‚«
-0.36039	‚í ‚«‚å </unk>
-0.427851	‚¹ ‚« </s>
-0.36039	‚È ‚Ü </unk>
-0.427851	<unk> ‚ä ‚¹
-0.421593	<unk> ‚¦ ‚í
-0.427851	<unk> ‚È ‚Ü
-0.395729	‚Î ‚µ‚ã ‚Ì
-0.427851	‚Ì ‚Î ‚µ‚ã
