[unifb]
-0.254212

\data\
ngram 1=15
ngram 2=22
ngram 3=17

\1-grams:
-0.76383	</unk>
-1.46592	</s>	-0.0466372
-1.46592	‚¦	-0.0466372
-1.11779	<s>	-0.0705095
-1.46592	‚«	-0.0466372
-1.46592	‚µ	-0.0466372
-1.46592	‚±	-0.0466372
-1.46592	‚¹	-0.0466372
-1.11779	‚Ì	-0.0705095
-1.46592	‚Î	-0.0466372
-1.46592	‚È	-0.0466372
-1.46592	‚Ü	-0.0466372
-1.46592	‚ä	-0.0466372
-1.11779	‚í	-0.0705095
-1.46592	‚«‚å	-0.0466372

\2-grams:
-1.20602	<unk> </s>	-0.0485468
-1.0125	<unk> <s>	-0.0485468
-1.20602	<unk> ‚«	-0.0485468
-1.20602	<unk> ‚µ	-0.0485468
-1.0125	<unk> ‚í	-0.0485468
-0.870483	‚í ‚í	-0.0485468
-1.00652	‚í ‚«‚å	-0.0485468
-0.870483	<s> <s>	-0.0485468
-1.00652	<s> ‚±	-0.0485468
-0.759593	‚± ‚Ì	-0.0485468
-1.00652	‚Ì ‚Î	-0.0485468
-1.00652	‚Ì ‚È	-0.0485468
-0.585364	</s> </unk>
-0.585364	‚¹ </unk>
-0.865349	‚«‚å ‚ä	-0.0485468
-0.585364	‚« </unk>
-0.865349	‚Ü ‚¦	-0.0485468
-0.865349	‚ä ‚¹	-0.0485468
-0.585364	‚¦ </unk>
-0.865349	‚È ‚Ü	-0.0485468
-0.759593	‚µ ‚Ì	-0.0485468
-0.585364	‚Î </unk>

\3-grams:
-0.458394	<unk> ‚í ‚í
-0.493879	‚í ‚í ‚«‚å
-0.458394	<unk> <s> <s>
-0.493879	<s> <s> ‚±
-0.423018	<s> ‚± ‚Ì
-0.493879	‚± ‚Ì ‚Î
-0.493879	‚µ ‚Ì ‚È
-0.354333	<unk> </s> </unk>
-0.354333	‚ä ‚¹ </unk>
-0.45689	‚í ‚«‚å ‚ä
-0.354333	<unk> ‚« </unk>
-0.45689	‚È ‚Ü ‚¦
-0.45689	‚«‚å ‚ä ‚¹
-0.354333	‚Ü ‚¦ </unk>
-0.45689	‚Ì ‚È ‚Ü
-0.423018	<unk> ‚µ ‚Ì
-0.354333	‚Ì ‚Î </unk>
