[unifb]
-0.0960196

\data\
ngram 1=15
ngram 2=20
ngram 3=17

\1-grams:
-1.03696	</unk>
-1.42372	</s>	-0.0324693
-1.42372	‚¦	-0.0324693
-1.06442	<s>	-0.040426
-1.42372	‚«	-0.0324693
-1.42372	‚²	-0.0324693
-1.42372	‚¹	-0.0324693
-1.36328	‚Ì	-0.040426
-1.42372	‚Î	-0.0324693
-1.42372	‚È	-0.0324693
-1.42372	‚Ü	-0.0324693
-1.42372	‚µ‚ã	-0.0324693
-1.42372	‚ä	-0.0324693
-1.36328	‚í	-0.040426
-1.42372	‚«‚å	-0.0324693

\2-grams:
-0.807617	<unk> <s>	-0.0901165
-0.917702	<unk> ‚¹	-0.0901165
-0.917702	<unk> ‚ä	-0.0901165
-0.802749	‚í ‚í	-0.0901165
-0.81455	‚í ‚«‚å	-0.0901165
-0.722031	<s> <s>	-0.0901165
-0.81455	<s> ‚²	-0.0901165
-0.652489	‚² ‚Ì	-0.0901165
-0.81455	‚Ì ‚Î	-0.0901165
-0.81455	‚Ì ‚È	-0.0901165
-0.581666	</s> </unk>
-0.661506	‚¹ ‚«	-0.0901165
-0.581666	‚«‚å </unk>
-0.661506	‚« </s>	-0.0901165
-0.661506	‚Ü ‚¦	-0.0901165
-0.581666	‚ä </unk>
-0.652489	‚¦ ‚í	-0.0901165
-0.661506	‚È ‚Ü	-0.0901165
-0.652489	‚µ‚ã ‚Ì	-0.0901165
-0.661506	‚Î ‚µ‚ã	-0.0901165

\3-grams:
-0.466823	‚¦ ‚í ‚í
-0.471042	‚í ‚í ‚«‚å
-0.435949	<unk> <s> <s>
-0.471042	<s> <s> ‚²
-0.40646	<s> ‚² ‚Ì
-0.471042	‚² ‚Ì ‚Î
-0.471042	‚µ‚ã ‚Ì ‚È
-0.373605	‚« </s> </unk>
-0.410437	<unk> ‚¹ ‚«
-0.373605	‚í ‚«‚å </unk>
-0.410437	‚¹ ‚« </s>
-0.410437	‚È ‚Ü ‚¦
-0.373605	<unk> ‚ä </unk>
-0.40646	‚Ü ‚¦ ‚í
-0.410437	‚Ì ‚È ‚Ü
-0.40646	‚Î ‚µ‚ã ‚Ì
-0.410437	‚Ì ‚Î ‚µ‚ã
