[unifb]
-0.0180008

\data\
ngram 1=15
ngram 2=20
ngram 3=17

\1-grams:
-1.33258	</unk>
-1.39355	</s>	-0.00424125
-1.39355	‚¦	-0.00424125
-1.39355	<s>	-0.00709595
-1.39355	‚«	-0.00424125
-1.39355	‚¹	-0.00424125
-1.37226	‚Ì	-0.00709595
-1.39355	‚Î	-0.00424125
-1.39355	‚È	-0.00424125
-1.39355	‚Ó‚§	-0.00424125
-1.39355	‚Ü	-0.00424125
-1.39355	‚µ‚ã	-0.00424125
-1.39355	‚ä	-0.00424125
-1.37226	‚í	-0.00709595
-1.39355	‚«‚å	-0.00424125

\2-grams:
-0.447677	<unk> <s>	-0.302793
-0.764295	<unk> ‚È	-0.190386
-0.764295	<unk> ‚Ü	-0.190386
-0.5652	‚í ‚í	-0.190386
-0.566816	‚í ‚«‚å	-0.190386
-0.561985	<s> </unk>
-0.566816	<s> ‚Ó‚§	-0.190386
-0.417602	‚Ó‚§ ‚Ì	-0.190386
-0.561985	‚Ì </unk>
-0.566816	‚Ì ‚Î	-0.190386
-0.414637	</s> </unk>
-0.419092	‚¹ ‚«	-0.190386
-0.419092	‚«‚å ‚ä	-0.190386
-0.419092	‚« </s>	-0.190386
-0.419092	‚Ü ‚¦	-0.190386
-0.419092	‚ä ‚¹	-0.190386
-0.417602	‚¦ ‚í	-0.190386
-0.414637	‚È </unk>
-0.417602	‚µ‚ã ‚Ì	-0.190386
-0.419092	‚Î ‚µ‚ã	-0.190386

\3-grams:
-0.40509	‚¦ ‚í ‚í
-0.406021	‚í ‚í ‚«‚å
-0.475686	<unk> <s> </unk>
-0.478583	<unk> <s> ‚Ó‚§
-0.314028	<s> ‚Ó‚§ ‚Ì
-0.406021	‚Ó‚§ ‚Ì ‚Î
-0.403235	‚µ‚ã ‚Ì </unk>
-0.312079	‚« </s> </unk>
-0.315006	‚ä ‚¹ ‚«
-0.315006	‚í ‚«‚å ‚ä
-0.315006	‚¹ ‚« </s>
-0.315006	<unk> ‚Ü ‚¦
-0.315006	‚«‚å ‚ä ‚¹
-0.314028	‚Ü ‚¦ ‚í
-0.312079	<unk> ‚È </unk>
-0.314028	‚Î ‚µ‚ã ‚Ì
-0.315006	‚Ì ‚Î ‚µ‚ã
