[unifb]
-0.0585356

\data\
ngram 1=15
ngram 2=21
ngram 3=17

\1-grams:
-1.37484	</unk>
-1.43458	</s>	-0.00962748
-1.43458	‚¦	-0.00962748
-1.0828	<s>	-0.0124097
-1.43458	‚©	-0.00962748
-1.43458	‚«	-0.00962748
-1.43458	‚¹	-0.00962748
-1.41374	‚Ì	-0.0124097
-1.43458	‚Î	-0.00962748
-1.43458	‚È	-0.00962748
-1.43458	‚Ü	-0.00962748
-1.43458	‚µ‚ã	-0.00962748
-1.43458	‚ä	-0.00962748
-1.0828	‚í	-0.0124097
-1.43458	‚«‚å	-0.00962748

\2-grams:
-0.821689	<unk> <s>	-0.0772896
-0.9081	<unk> ‚È	-0.0772896
-0.9081	<unk> ‚Ü	-0.0772896
-0.821689	<unk> ‚í	-0.0772896
-0.707783	‚í ‚í	-0.0772896
-0.788978	‚í ‚«‚å	-0.0772896
-0.707783	<s> <s>	-0.0772896
-0.788978	<s> ‚©	-0.0772896
-0.709272	‚© ‚Ì	-0.0772896
-0.778553	‚Ì </unk>
-0.788978	‚Ì ‚Î	-0.0772896
-0.702596	</s> </unk>
-0.712648	‚¹ ‚«	-0.0772896
-0.712648	‚«‚å ‚ä	-0.0772896
-0.712648	‚« </s>	-0.0772896
-0.712648	‚Ü ‚¦	-0.0772896
-0.712648	‚ä ‚¹	-0.0772896
-0.702596	‚¦ </unk>
-0.702596	‚È </unk>
-0.709272	‚µ‚ã ‚Ì	-0.0772896
-0.712648	‚Î ‚µ‚ã	-0.0772896

\3-grams:
-0.496809	<unk> ‚í ‚í
-0.53725	‚í ‚í ‚«‚å
-0.496809	<unk> <s> <s>
-0.53725	<s> <s> ‚©
-0.497585	<s> ‚© ‚Ì
-0.53725	‚© ‚Ì ‚Î
-0.53227	‚µ‚ã ‚Ì </unk>
-0.494097	‚« </s> </unk>
-0.499339	‚ä ‚¹ ‚«
-0.499339	‚í ‚«‚å ‚ä
-0.499339	‚¹ ‚« </s>
-0.499339	<unk> ‚Ü ‚¦
-0.499339	‚«‚å ‚ä ‚¹
-0.494097	‚Ü ‚¦ </unk>
-0.494097	<unk> ‚È </unk>
-0.497585	‚Î ‚µ‚ã ‚Ì
-0.499339	‚Ì ‚Î ‚µ‚ã
