[unifb]
-0.126425

\data\
ngram 1=15
ngram 2=19
ngram 3=17

\1-grams:
-1.27654	</unk>
-1.38301	</s>	-0.0286182
-1.38301	‚¦	-0.0286182
-1.27654	<s>	-0.0466427
-1.38301	‚«	-0.0286182
-1.38301	‚±	-0.0286182
-1.38301	‚¹	-0.0286182
-1.06081	‚Ì	-0.0466427
-1.38301	‚Î	-0.0286182
-1.38301	‚È	-0.0286182
-1.38301	‚Ü	-0.0286182
-1.38301	‚µ‚ã	-0.0286182
-1.38301	‚ä	-0.0286182
-1.27654	‚í	-0.0466427
-1.38301	‚«‚å	-0.0286182

\2-grams:
-0.963742	<unk> <s>	-0.0329001
-1.00594	<unk> ‚µ‚ã	-0.0329001
-0.963742	‚í ‚í	-0.0329001
-1.00594	‚í ‚«‚å	-0.0329001
-0.963742	<s> <s>	-0.0329001
-1.00594	<s> ‚±	-0.0329001
-0.813752	‚± ‚Ì	-0.0329001
-1.00594	‚Ì ‚Î	-0.0329001
-1.00594	‚Ì ‚È	-0.0329001
-0.913648	</s> </unk>
-0.953366	‚¹ ‚«	-0.0329001
-0.953366	‚«‚å ‚ä	-0.0329001
-0.953366	‚« </s>	-0.0329001
-0.953366	‚Ü ‚¦	-0.0329001
-0.953366	‚ä ‚¹	-0.0329001
-0.913648	‚¦ ‚í	-0.0329001
-0.953366	‚È ‚Ü	-0.0329001
-0.813752	‚µ‚ã ‚Ì	-0.0329001
-0.913648	‚Î </unk>

\3-grams:
-0.414207	‚¦ ‚í ‚í
-0.422103	‚í ‚í ‚«‚å
-0.414207	<unk> <s> <s>
-0.422103	<s> <s> ‚±
-0.380675	<s> ‚± ‚Ì
-0.422103	‚± ‚Ì ‚Î
-0.422103	‚µ‚ã ‚Ì ‚È
-0.403996	‚« </s> </unk>
-0.412168	‚ä ‚¹ ‚«
-0.412168	‚í ‚«‚å ‚ä
-0.412168	‚¹ ‚« </s>
-0.412168	‚È ‚Ü ‚¦
-0.412168	‚«‚å ‚ä ‚¹
-0.403996	‚Ü ‚¦ ‚í
-0.412168	‚Ì ‚È ‚Ü
-0.380675	<unk> ‚µ‚ã ‚Ì
-0.403996	‚Ì ‚Î </unk>
