[unifb]
-0.246618

\data\
ngram 1=15
ngram 2=21
ngram 3=17

\1-grams:
-0.814348	</unk>
-1.43184	</s>	-0.0865738
-1.43184	‚¦	-0.0865738
-1.09237	<s>	-0.115057
-1.43184	‚«	-0.0865738
-1.43184	‚µ	-0.0865738
-1.43184	‚±	-0.0865738
-1.43184	‚¹	-0.0865738
-1.28968	‚Ì	-0.115057
-1.43184	‚Î	-0.0865738
-1.43184	‚È	-0.0865738
-1.43184	‚Ü	-0.0865738
-1.43184	‚ä	-0.0865738
-1.09237	‚í	-0.115057
-1.43184	‚«‚å	-0.0865738

\2-grams:
-0.879133	<unk> <s>	-0.0524945
-1.19949	<unk> ‚µ	-0.0346445
-1.19949	<unk> ‚¹	-0.0346445
-1.1238	<unk> ‚Ì	-0.0346445
-0.890882	‚í ‚í	-0.0346445
-1.04715	‚í ‚«‚å	-0.0346445
-0.714876	<s> </unk>
-1.04715	<s> ‚±	-0.0346445
-0.661036	‚± </unk>
-1.04715	‚Ì ‚Î	-0.0346445
-1.04715	‚Ì ‚È	-0.0346445
-0.661036	</s> </unk>
-0.955331	‚¹ ‚«	-0.0346445
-0.955331	‚«‚å ‚ä	-0.0346445
-0.955331	‚« </s>	-0.0346445
-0.955331	‚Ü ‚¦	-0.0346445
-0.661036	‚ä </unk>
-0.820117	‚¦ ‚í	-0.0346445
-0.955331	‚È ‚Ü	-0.0346445
-0.906363	‚µ ‚Ì	-0.0346445
-0.661036	‚Î </unk>

\3-grams:
-0.570447	‚¦ ‚í ‚í
-0.626573	‚í ‚í ‚«‚å
-0.577003	<unk> <s> </unk>
-0.730653	<unk> <s> ‚±
-0.463282	<s> ‚± </unk>
-0.626573	<unk> ‚Ì ‚Î
-0.626573	‚µ ‚Ì ‚È
-0.463282	‚« </s> </unk>
-0.595165	<unk> ‚¹ ‚«
-0.595165	‚í ‚«‚å ‚ä
-0.595165	‚¹ ‚« </s>
-0.595165	‚È ‚Ü ‚¦
-0.463282	‚«‚å ‚ä </unk>
-0.54066	‚Ü ‚¦ ‚í
-0.595165	‚Ì ‚È ‚Ü
-0.576591	<unk> ‚µ ‚Ì
-0.463282	‚Ì ‚Î </unk>
