[unifb]
-0.085422

\data\
ngram 1=15
ngram 2=24
ngram 3=17

\1-grams:
-0.944802	</unk>
-1.40922	</s>	-0.0211399
-1.40922	‚¦	-0.0211399
-1.40922	<s>	-0.0331161
-1.40922	‚«	-0.0211399
-1.40922	‚±	-0.0211399
-1.40922	‚¹	-0.0211399
-1.34592	‚Ì	-0.0331161
-1.40922	‚Î	-0.0211399
-1.40922	‚È	-0.0211399
-1.40922	‚Ü	-0.0211399
-1.40922	‚µ‚ã	-0.0211399
-1.40922	‚ä	-0.0211399
-1.34592	‚í	-0.0331161
-1.40922	‚«‚å	-0.0211399

\2-grams:
-1.0325	<unk> </s>	-0.161419
-1.0325	<unk> ‚¦	-0.161419
-0.701211	<unk> <s>	-0.251194
-1.02299	<unk> ‚Ì	-0.161419
-1.0325	<unk> ‚È	-0.161419
-1.0325	<unk> ‚Ü	-0.161419
-1.02299	<unk> ‚í	-0.161419
-0.611033	‚í ‚í	-0.161419
-0.617159	‚í ‚«‚å	-0.161419
-0.547782	<s> </unk>
-0.617159	<s> ‚±	-0.161419
-0.466585	‚± ‚Ì	-0.161419
-0.547782	‚Ì </unk>
-0.617159	‚Ì ‚Î	-0.161419
-0.410353	</s> </unk>
-0.471982	‚¹ ‚«	-0.161419
-0.471982	‚«‚å ‚ä	-0.161419
-0.410353	‚« </unk>
-0.410353	‚Ü </unk>
-0.471982	‚ä ‚¹	-0.161419
-0.410353	‚¦ </unk>
-0.410353	‚È </unk>
-0.410353	‚µ‚ã </unk>
-0.471982	‚Î ‚µ‚ã	-0.161419

\3-grams:
-0.425164	<unk> ‚í ‚í
-0.428455	‚í ‚í ‚«‚å
-0.464948	<unk> <s> </unk>
-0.505188	<unk> <s> ‚±
-0.341429	<s> ‚± ‚Ì
-0.428455	‚± ‚Ì ‚Î
-0.389938	<unk> ‚Ì </unk>
-0.305729	<unk> </s> </unk>
-0.344765	‚ä ‚¹ ‚«
-0.344765	‚í ‚«‚å ‚ä
-0.305729	‚¹ ‚« </unk>
-0.305729	<unk> ‚Ü </unk>
-0.344765	‚«‚å ‚ä ‚¹
-0.305729	<unk> ‚¦ </unk>
-0.305729	<unk> ‚È </unk>
-0.305729	‚Î ‚µ‚ã </unk>
-0.344765	‚Ì ‚Î ‚µ‚ã
