[unifb]
-0.0682719

\data\
ngram 1=15
ngram 2=21
ngram 3=17

\1-grams:
-1.24699	</unk>
-1.4002	</s>	-0.0073359
-1.4002	‚¦	-0.0073359
-1.13642	<s>	-0.0134407
-1.4002	‚«	-0.0073359
-1.4002	‚µ	-0.0073359
-1.4002	‚²	-0.0073359
-1.4002	‚¹	-0.0073359
-1.34292	‚Ì	-0.0134407
-1.4002	‚Î	-0.0073359
-1.4002	‚È	-0.0073359
-1.4002	‚Ü	-0.0073359
-1.4002	‚ä	-0.0073359
-1.34292	‚í	-0.0134407
-1.4002	‚«‚å	-0.0073359

\2-grams:
-1.31679	<unk> ‚¦	-0.00701489
-1.09617	<unk> <s>	-0.00701489
-1.31679	<unk> ‚µ	-0.00701489
-1.31679	<unk> ‚²	-0.00701489
-1.23998	‚í ‚í	-0.00701489
-1.28328	‚í ‚«‚å	-0.00701489
-1.16451	<s> </unk>
-1.07341	<s> <s>	-0.00701489
-1.21682	‚² ‚Ì	-0.00701489
-1.28328	‚Ì ‚Î	-0.00701489
-1.28328	‚Ì ‚È	-0.00701489
-1.14424	</s> </unk>
-1.25824	‚¹ ‚«	-0.00701489
-1.25824	‚«‚å ‚ä	-0.00701489
-1.25824	‚« </s>	-0.00701489
-1.14424	‚Ü </unk>
-1.25824	‚ä ‚¹	-0.00701489
-1.21682	‚¦ ‚í	-0.00701489
-1.25824	‚È ‚Ü	-0.00701489
-1.21682	‚µ ‚Ì	-0.00701489
-1.14424	‚Î </unk>

\3-grams:
-0.686183	‚¦ ‚í ‚í
-0.695994	‚í ‚í ‚«‚å
-0.640846	<unk> <s> <s>
-0.667202	<s> <s> </unk>
-0.68062	<unk> ‚² ‚Ì
-0.695994	‚² ‚Ì ‚Î
-0.695994	‚µ ‚Ì ‚È
-0.661674	‚« </s> </unk>
-0.690412	‚ä ‚¹ ‚«
-0.690412	‚í ‚«‚å ‚ä
-0.690412	‚¹ ‚« </s>
-0.661674	‚È ‚Ü </unk>
-0.690412	‚«‚å ‚ä ‚¹
-0.68062	<unk> ‚¦ ‚í
-0.690412	‚Ì ‚È ‚Ü
-0.68062	<unk> ‚µ ‚Ì
-0.661674	‚Ì ‚Î </unk>
