[unifb]
-0.081563

\data\
ngram 1=15
ngram 2=21
ngram 3=17

\1-grams:
-0.892356	</unk>
-1.42439	</s>	-0.0137396
-1.42439	‚¦	-0.0137396
-1.3755	<s>	-0.0216114
-1.42439	‚«	-0.0137396
-1.42439	‚µ	-0.0137396
-1.42439	‚±	-0.0137396
-1.42439	‚¹	-0.0137396
-1.3755	‚Ì	-0.0216114
-1.42439	‚Î	-0.0137396
-1.42439	‚È	-0.0137396
-1.42439	‚Ü	-0.0137396
-1.42439	‚ä	-0.0137396
-1.3755	‚í	-0.0216114
-1.42439	‚«‚å	-0.0137396

\2-grams:
-1.11543	<unk> </s>	-0.0619379
-0.892319	<unk> <s>	-0.0885463
-1.11543	<unk> ‚È	-0.0619379
-1.11543	<unk> ‚ä	-0.0619379
-0.897654	‚í ‚í	-0.0619379
-0.91039	‚í ‚«‚å	-0.0619379
-0.706157	<s> </unk>
-0.91039	<s> ‚±	-0.0619379
-0.770992	‚± ‚Ì	-0.0619379
-0.706157	‚Ì </unk>
-0.91039	‚Ì ‚Î	-0.0619379
-0.612589	</s> </unk>
-0.781076	‚¹ ‚«	-0.0619379
-0.612589	‚«‚å </unk>
-0.612589	‚« </unk>
-0.781076	‚Ü ‚¦	-0.0619379
-0.781076	‚ä ‚¹	-0.0619379
-0.770992	‚¦ ‚í	-0.0619379
-0.781076	‚È ‚Ü	-0.0619379
-0.770992	‚µ ‚Ì	-0.0619379
-0.781076	‚Î ‚µ	-0.0619379

\3-grams:
-0.308651	‚¦ ‚í ‚í
-0.310538	‚í ‚í ‚«‚å
-0.44446	<unk> <s> </unk>
-0.48792	<unk> <s> ‚±
-0.287126	<s> ‚± ‚Ì
-0.310538	‚± ‚Ì ‚Î
-0.273962	‚µ ‚Ì </unk>
-0.252045	<unk> </s> </unk>
-0.289036	‚ä ‚¹ ‚«
-0.252045	‚í ‚«‚å </unk>
-0.252045	‚¹ ‚« </unk>
-0.289036	‚È ‚Ü ‚¦
-0.289036	<unk> ‚ä ‚¹
-0.287126	‚Ü ‚¦ ‚í
-0.289036	<unk> ‚È ‚Ü
-0.287126	‚Î ‚µ ‚Ì
-0.289036	‚Ì ‚Î ‚µ
