[unifb]
-0.0187306

\data\
ngram 1=16
ngram 2=22
ngram 3=17

\1-grams:
-1.31962	</unk>
-1.39545	</s>	-0.00566025
-1.39545	‚¤	-0.00566025
-1.39545	‚¦	-0.00566025
-1.39545	<s>	-0.00566025
-1.39545	‚«	-0.00566025
-1.39545	‚µ	-0.00566025
-1.39545	‚±	-0.00566025
-1.39545	‚¹	-0.00566025
-1.37521	‚Ì	-0.00892093
-1.39545	‚Î	-0.00566025
-1.39545	‚È	-0.00566025
-1.39545	‚Ü	-0.00566025
-1.39545	‚ä	-0.00566025
-1.37521	‚í	-0.00892093
-1.39545	‚«‚å	-0.00566025

\2-grams:
-1.10129	<unk> ‚¤	-0.046478
-1.10129	<unk> <s>	-0.046478
-1.10129	<unk> ‚±	-0.046478
-1.10129	<unk> ‚Î	-0.046478
-1.09341	<unk> ‚í	-0.046478
-0.938106	‚í ‚í	-0.046478
-0.94422	‚í ‚«‚å	-0.046478
-0.840027	<s> </unk>
-0.840027	‚¤ </unk>
-0.855852	‚± ‚Ì	-0.046478
-0.920263	‚Ì </unk>
-0.94422	‚Ì ‚È	-0.046478
-0.840027	</s> </unk>
-0.861258	‚¹ ‚«	-0.046478
-0.861258	‚«‚å ‚ä	-0.046478
-0.861258	‚« </s>	-0.046478
-0.861258	‚Ü ‚¦	-0.046478
-0.861258	‚ä ‚¹	-0.046478
-0.840027	‚¦ </unk>
-0.861258	‚È ‚Ü	-0.046478
-0.855852	‚µ ‚Ì	-0.046478
-0.861258	‚Î ‚µ	-0.046478

\3-grams:
-0.519011	<unk> ‚í ‚í
-0.520838	‚í ‚í ‚«‚å
-0.487164	<unk> <s> </unk>
-0.487164	<unk> ‚¤ </unk>
-0.492634	<unk> ‚± ‚Ì
-0.513575	‚± ‚Ì </unk>
-0.520838	‚µ ‚Ì ‚È
-0.487164	‚« </s> </unk>
-0.494472	‚ä ‚¹ ‚«
-0.494472	‚í ‚«‚å ‚ä
-0.494472	‚¹ ‚« </s>
-0.494472	‚È ‚Ü ‚¦
-0.494472	‚«‚å ‚ä ‚¹
-0.487164	‚Ü ‚¦ </unk>
-0.494472	‚Ì ‚È ‚Ü
-0.492634	‚Î ‚µ ‚Ì
-0.494472	<unk> ‚Î ‚µ
