[unifb]
-0.222127

\data\
ngram 1=15
ngram 2=24
ngram 3=17

\1-grams:
-0.56298	</unk>
-1.51027	</s>	-0.0451853
-1.51027	‚¦	-0.0451853
-1.14675	<s>	-0.0580618
-1.51027	‚«	-0.0451853
-1.51027	‚²	-0.0451853
-1.51027	‚¹	-0.0451853
-1.4227	‚Ì	-0.0580618
-1.51027	‚Î	-0.0451853
-1.51027	‚È	-0.0451853
-1.51027	‚Ü	-0.0451853
-1.51027	‚µ‚ã	-0.0451853
-1.51027	‚ä	-0.0451853
-1.4227	‚í	-0.0580618
-1.51027	‚«‚å	-0.0451853

\2-grams:
-1.46715	<unk> </s>	-0.00671394
-1.13439	<unk> <s>	-0.00671394
-1.38925	<unk> ‚Ì	-0.00671394
-1.46715	<unk> ‚È	-0.00671394
-1.46715	<unk> ‚Ü	-0.00671394
-1.46715	<unk> ‚µ‚ã	-0.00671394
-1.38925	<unk> ‚í	-0.00671394
-1.32303	‚í ‚í	-0.00671394
-1.38959	‚í ‚«‚å	-0.00671394
-1.09493	<s> <s>	-0.00671394
-1.38959	<s> ‚²	-0.00671394
-0.545637	‚² </unk>
-0.555464	‚Ì </unk>
-1.38959	‚Ì ‚Î	-0.00671394
-0.545637	</s> </unk>
-1.3396	‚¹ ‚«	-0.00671394
-1.3396	‚«‚å ‚ä	-0.00671394
-0.545637	‚« </unk>
-1.3396	‚Ü ‚¦	-0.00671394
-1.3396	‚ä ‚¹	-0.00671394
-0.545637	‚¦ </unk>
-0.545637	‚È </unk>
-1.27948	‚µ‚ã ‚Ì	-0.00671394
-0.545637	‚Î </unk>

\3-grams:
-0.537156	<unk> ‚í ‚í
-0.544751	‚í ‚í ‚«‚å
-0.502014	<unk> <s> <s>
-0.544751	<s> <s> ‚²
-0.330678	<s> ‚² </unk>
-0.544751	<unk> ‚Ì ‚Î
-0.335114	‚µ‚ã ‚Ì </unk>
-0.330678	<unk> </s> </unk>
-0.539144	‚ä ‚¹ ‚«
-0.539144	‚í ‚«‚å ‚ä
-0.330678	‚¹ ‚« </unk>
-0.539144	<unk> ‚Ü ‚¦
-0.539144	‚«‚å ‚ä ‚¹
-0.330678	‚Ü ‚¦ </unk>
-0.330678	<unk> ‚È </unk>
-0.531603	<unk> ‚µ‚ã ‚Ì
-0.330678	‚Ì ‚Î </unk>
