[unifb]
-0.3666

\data\
ngram 1=15
ngram 2=23
ngram 3=17

\1-grams:
-0.699434	</unk>
-1.42435	</s>	-0.0886209
-1.42435	‚¦	-0.0886209
-1.10757	<s>	-0.13695
-1.42435	‚«	-0.0886209
-1.42435	‚±	-0.0886209
-1.42435	‚¹	-0.0886209
-1.10757	‚Ì	-0.13695
-1.42435	‚Î	-0.0886209
-1.42435	‚È	-0.0886209
-1.42435	‚Ü	-0.0886209
-1.42435	‚µ‚ã	-0.0886209
-1.42435	‚ä	-0.0886209
-1.23596	‚í	-0.13695
-1.42435	‚«‚å	-0.0886209

\2-grams:
-1.40501	<unk> </s>	-0.00422261
-1.40501	<unk> ‚¦	-0.00422261
-1.10107	<unk> <s>	-0.00422261
-1.40501	<unk> ‚±	-0.00422261
-1.40501	<unk> ‚¹	-0.00422261
-1.40501	<unk> ‚Î	-0.00422261
-1.19934	‚í ‚í	-0.00422261
-1.36669	‚í ‚«‚å	-0.00422261
-0.691955	<s> </unk>
-1.08125	<s> <s>	-0.00422261
-1.06058	‚± ‚Ì	-0.00422261
-0.691955	‚Ì </unk>
-1.36669	‚Ì ‚È	-0.00422261
-0.682921	</s> </unk>
-1.32835	‚¹ ‚«	-0.00422261
-1.32835	‚«‚å ‚ä	-0.00422261
-0.682921	‚« </unk>
-0.682921	‚Ü </unk>
-0.682921	‚ä </unk>
-1.17266	‚¦ ‚í	-0.00422261
-1.32835	‚È ‚Ü	-0.00422261
-1.06058	‚µ‚ã ‚Ì	-0.00422261
-1.32835	‚Î ‚µ‚ã	-0.00422261

\3-grams:
-0.377053	‚¦ ‚í ‚í
-0.390201	‚í ‚í ‚«‚å
-0.364577	<unk> <s> <s>
-0.295447	<s> <s> </unk>
-0.362066	<unk> ‚± ‚Ì
-0.295447	‚± ‚Ì </unk>
-0.390201	‚µ‚ã ‚Ì ‚È
-0.293183	<unk> </s> </unk>
-0.387589	<unk> ‚¹ ‚«
-0.387589	‚í ‚«‚å ‚ä
-0.293183	‚¹ ‚« </unk>
-0.293183	‚È ‚Ü </unk>
-0.293183	‚«‚å ‚ä </unk>
-0.374493	<unk> ‚¦ ‚í
-0.387589	‚Ì ‚È ‚Ü
-0.362066	‚Î ‚µ‚ã ‚Ì
-0.387589	<unk> ‚Î ‚µ‚ã
