[unifb]
-0.0447163

\data\
ngram 1=15
ngram 2=19
ngram 3=17

\1-grams:
-1.33362	</unk>
-1.38472	</s>	-0.0105163
-1.38472	‚¦	-0.0105163
-1.33362	<s>	-0.0176331
-1.38472	‚«	-0.0105163
-1.38472	‚²	-0.0105163
-1.38472	‚¹	-0.0105163
-1.33362	‚Ì	-0.0176331
-1.38472	‚Î	-0.0105163
-1.38472	‚È	-0.0105163
-1.38472	‚Ü	-0.0105163
-1.38472	‚µ‚ã	-0.0105163
-1.38472	‚ä	-0.0105163
-1.33362	‚í	-0.0176331
-1.38472	‚«‚å	-0.0105163

\2-grams:
-0.823325	<unk> <s>	-0.071721
-0.834961	<unk> ‚¹	-0.071721
-0.823325	‚í ‚í	-0.071721
-0.834961	‚í ‚«‚å	-0.071721
-0.823325	<s> <s>	-0.071721
-0.834961	<s> ‚²	-0.071721
-0.717713	‚² ‚Ì	-0.071721
-0.834961	‚Ì ‚Î	-0.071721
-0.834961	‚Ì ‚È	-0.071721
-0.717713	</s> </unk>
-0.727725	‚¹ ‚«	-0.071721
-0.727725	‚«‚å ‚ä	-0.071721
-0.727725	‚« </s>	-0.071721
-0.727725	‚Ü ‚¦	-0.071721
-0.717713	‚ä </unk>
-0.717713	‚¦ ‚í	-0.071721
-0.727725	‚È ‚Ü	-0.071721
-0.717713	‚µ‚ã ‚Ì	-0.071721
-0.727725	‚Î ‚µ‚ã	-0.071721

\3-grams:
-0.652136	‚¦ ‚í ‚í
-0.659275	‚í ‚í ‚«‚å
-0.652136	<unk> <s> <s>
-0.659275	<s> <s> ‚²
-0.584038	<s> ‚² ‚Ì
-0.659275	‚² ‚Ì ‚Î
-0.659275	‚µ‚ã ‚Ì ‚È
-0.584038	‚« </s> </unk>
-0.590743	<unk> ‚¹ ‚«
-0.590743	‚í ‚«‚å ‚ä
-0.590743	‚¹ ‚« </s>
-0.590743	‚È ‚Ü ‚¦
-0.584038	‚«‚å ‚ä </unk>
-0.584038	‚Ü ‚¦ ‚í
-0.590743	‚Ì ‚È ‚Ü
-0.584038	‚Î ‚µ‚ã ‚Ì
-0.590743	‚Ì ‚Î ‚µ‚ã
