[unifb]
-0.0813433

\data\
ngram 1=15
ngram 2=24
ngram 3=17

\1-grams:
-0.829737	</unk>
-1.43818	</s>	-0.00676437
-1.43818	‚¦	-0.00676437
-1.40063	<s>	-0.011792
-1.43818	‚«	-0.00676437
-1.43818	‚²	-0.00676437
-1.43818	‚¹	-0.00676437
-1.40063	‚Ì	-0.011792
-1.43818	‚Î	-0.00676437
-1.43818	‚È	-0.00676437
-1.43818	‚Ü	-0.00676437
-1.43818	‚µ‚ã	-0.00676437
-1.43818	‚ä	-0.00676437
-1.40063	‚í	-0.011792
-1.43818	‚«‚å	-0.00676437

\2-grams:
-1.25755	<unk> ‚¦	-0.0343914
-1.07363	<unk> <s>	-0.0556145
-1.25755	<unk> ‚«	-0.0343914
-1.25755	<unk> ‚¹	-0.0343914
-1.25755	<unk> ‚Î	-0.0343914
-1.23764	<unk> ‚í	-0.0343914
-1.25755	<unk> ‚«‚å	-0.0343914
-0.720539	‚í </unk>
-1.02194	‚í ‚í	-0.0343914
-0.720539	<s> </unk>
-1.03538	<s> ‚²	-0.0343914
-0.947456	‚² ‚Ì	-0.0343914
-0.720539	‚Ì </unk>
-1.03538	‚Ì ‚È	-0.0343914
-0.671891	</s> </unk>
-0.671891	‚¹ </unk>
-0.959322	‚«‚å ‚ä	-0.0343914
-0.959322	‚« </s>	-0.0343914
-0.671891	‚Ü </unk>
-0.671891	‚ä </unk>
-0.671891	‚¦ </unk>
-0.959322	‚È ‚Ü	-0.0343914
-0.947456	‚µ‚ã ‚Ì	-0.0343914
-0.959322	‚Î ‚µ‚ã	-0.0343914

\3-grams:
-0.741444	<unk> ‚í ‚í
-0.572643	‚í ‚í </unk>
-0.629314	<unk> <s> </unk>
-0.821726	<unk> <s> ‚²
-0.704526	<s> ‚² ‚Ì
-0.572643	‚² ‚Ì </unk>
-0.747765	‚µ‚ã ‚Ì ‚È
-0.540717	‚« </s> </unk>
-0.540717	<unk> ‚¹ </unk>
-0.710621	<unk> ‚«‚å ‚ä
-0.710621	<unk> ‚« </s>
-0.540717	‚È ‚Ü </unk>
-0.540717	‚«‚å ‚ä </unk>
-0.540717	<unk> ‚¦ </unk>
-0.710621	‚Ì ‚È ‚Ü
-0.704526	‚Î ‚µ‚ã ‚Ì
-0.710621	<unk> ‚Î ‚µ‚ã
