[unifb]
-0.336809

\data\
ngram 1=16
ngram 2=22
ngram 3=18

\1-grams:
-0.788844	</unk>
-1.41095	</s>	-0.0382833
-1.41095	‚¦	-0.0382833
-1.13499	<s>	-0.0694078
-1.41095	‚¨	-0.0382833
-1.41095	‚«	-0.0382833
-1.41095	‚±	-0.0382833
-1.41095	‚¹	-0.0382833
-1.13499	‚Ì	-0.0694078
-1.41095	‚Î	-0.0382833
-1.41095	‚È	-0.0382833
-1.41095	‚Ü	-0.0382833
-1.41095	‚µ‚ã	-0.0382833
-1.41095	‚ä	-0.0382833
-1.22753	‚í	-0.0694078
-1.41095	‚«‚å	-0.0382833

\2-grams:
-1.15688	<unk> </s>	-0.0446108
-0.86696	<unk> <s>	-0.065874
-1.15688	<unk> ‚ä	-0.0446108
-1.06461	<unk> ‚í	-0.0446108
-0.677582	‚í </unk>
-0.984118	‚í ‚«‚å	-0.0446108
-0.677582	<s> </unk>
-0.984118	<s> ‚±	-0.0446108
-0.877292	‚± ‚¨	-0.0446108
-0.785818	‚¨ ‚Ì	-0.0446108
-0.984118	‚Ì ‚Î	-0.0446108
-0.984118	‚Ì ‚È	-0.0446108
-0.611971	</s> </unk>
-0.877292	‚¹ ‚«	-0.0446108
-0.611971	‚«‚å </unk>
-0.611971	‚« </unk>
-0.877292	‚Ü ‚¦	-0.0446108
-0.877292	‚ä ‚¹	-0.0446108
-0.820851	‚¦ ‚í	-0.0446108
-0.877292	‚È ‚Ü	-0.0446108
-0.785818	‚µ‚ã ‚Ì	-0.0446108
-0.877292	‚Î ‚µ‚ã	-0.0446108

\3-grams:
-0.403411	‚¦ ‚í </unk>
-0.503734	<unk> ‚í ‚«‚å
-0.539011	<unk> <s> </unk>
-0.674355	<unk> <s> ‚±
-0.474081	<s> ‚± ‚¨
-0.444307	‚± ‚¨ ‚Ì
-0.503734	‚¨ ‚Ì ‚Î
-0.503734	‚µ‚ã ‚Ì ‚È
-0.375475	<unk> </s> </unk>
-0.474081	‚ä ‚¹ ‚«
-0.375475	‚í ‚«‚å </unk>
-0.375475	‚¹ ‚« </unk>
-0.474081	‚È ‚Ü ‚¦
-0.474081	<unk> ‚ä ‚¹
-0.456211	‚Ü ‚¦ ‚í
-0.474081	‚Ì ‚È ‚Ü
-0.444307	‚Î ‚µ‚ã ‚Ì
-0.474081	‚Ì ‚Î ‚µ‚ã
