[unifb]
-0.118587

\data\
ngram 1=15
ngram 2=21
ngram 3=17

\1-grams:
-0.70909	</unk>
-1.48782	</s>	-0.00627856
-1.48782	‚¦	-0.00627856
-1.4609	<s>	-0.00984311
-1.48782	‚«	-0.00627856
-1.48782	‚±	-0.00627856
-1.48782	‚¹	-0.00627856
-1.4609	‚Ì	-0.00984311
-1.48782	‚Î	-0.00627856
-1.48782	‚È	-0.00627856
-1.48782	‚Ü	-0.00627856
-1.48782	‚µ‚ã	-0.00627856
-1.48782	‚ä	-0.00627856
-1.13525	‚í	-0.00984311
-1.48782	‚«‚å	-0.00627856

\2-grams:
-1.28665	<unk> <s>	-0.0154177
-1.30261	<unk> ‚¹	-0.0154177
-1.30261	<unk> ‚È	-0.0154177
-0.970676	<unk> ‚í	-0.0266461
-0.67056	‚í </unk>
-1.21938	‚í ‚«‚å	-0.0154177
-1.20552	<s> <s>	-0.0154177
-1.21938	<s> ‚±	-0.0154177
-1.16575	‚± ‚Ì	-0.0154177
-0.67056	‚Ì </unk>
-1.21938	‚Ì ‚Î	-0.0154177
-0.650807	</s> </unk>
-1.17871	‚¹ ‚«	-0.0154177
-1.17871	‚«‚å ‚ä	-0.0154177
-1.17871	‚« </s>	-0.0154177
-1.17871	‚Ü ‚¦	-0.0154177
-0.650807	‚ä </unk>
-0.650807	‚¦ </unk>
-1.17871	‚È ‚Ü	-0.0154177
-1.16575	‚µ‚ã ‚Ì	-0.0154177
-1.17871	‚Î ‚µ‚ã	-0.0154177

\3-grams:
-0.568726	<unk> ‚í </unk>
-0.832875	<unk> ‚í ‚«‚å
-0.770409	<unk> <s> <s>
-0.774866	<s> <s> ‚±
-0.757073	<s> ‚± ‚Ì
-0.774866	‚± ‚Ì ‚Î
-0.517738	‚µ‚ã ‚Ì </unk>
-0.50533	‚« </s> </unk>
-0.761508	<unk> ‚¹ ‚«
-0.761508	‚í ‚«‚å ‚ä
-0.761508	‚¹ ‚« </s>
-0.761508	‚È ‚Ü ‚¦
-0.50533	‚«‚å ‚ä </unk>
-0.50533	‚Ü ‚¦ </unk>
-0.761508	<unk> ‚È ‚Ü
-0.757073	‚Î ‚µ‚ã ‚Ì
-0.761508	‚Ì ‚Î ‚µ‚ã
