[unifb]
-0.0820623

\data\
ngram 1=15
ngram 2=19
ngram 3=17

\1-grams:
-1.33012	</unk>
-1.39862	</s>	-0.0273452
-1.39862	‚¦	-0.0273452
-1.04925	<s>	-0.0384278
-1.39862	‚«	-0.0273452
-1.39862	‚±	-0.0273452
-1.39862	‚¹	-0.0273452
-1.33012	‚Ì	-0.0384278
-1.39862	‚Î	-0.0273452
-1.39862	‚È	-0.0273452
-1.39862	‚Ü	-0.0273452
-1.39862	‚µ‚ã	-0.0273452
-1.39862	‚ä	-0.0273452
-1.33012	‚í	-0.0384278
-1.39862	‚«‚å	-0.0273452

\2-grams:
-0.655015	<unk> <s>	-0.113358
-0.726259	<unk> ‚µ‚ã	-0.113358
-0.715682	‚í ‚í	-0.113358
-0.726259	‚í ‚«‚å	-0.113358
-0.655015	<s> <s>	-0.113358
-0.726259	<s> ‚±	-0.113358
-0.575526	‚± ‚Ì	-0.113358
-0.726259	‚Ì ‚Î	-0.113358
-0.726259	‚Ì ‚È	-0.113358
-0.575526	</s> </unk>
-0.584202	‚¹ ‚«	-0.113358
-0.584202	‚«‚å ‚ä	-0.113358
-0.584202	‚« </s>	-0.113358
-0.584202	‚Ü ‚¦	-0.113358
-0.584202	‚ä ‚¹	-0.113358
-0.575526	‚¦ ‚í	-0.113358
-0.584202	‚È ‚Ü	-0.113358
-0.575526	‚µ‚ã ‚Ì	-0.113358
-0.575526	‚Î </unk>

\3-grams:
-0.548438	‚¦ ‚í ‚í
-0.554798	‚í ‚í ‚«‚å
-0.510779	<unk> <s> <s>
-0.554798	<s> <s> ‚±
-0.458485	<s> ‚± ‚Ì
-0.554798	‚± ‚Ì ‚Î
-0.554798	‚µ‚ã ‚Ì ‚È
-0.458485	‚« </s> </unk>
-0.464351	‚ä ‚¹ ‚«
-0.464351	‚í ‚«‚å ‚ä
-0.464351	‚¹ ‚« </s>
-0.464351	‚È ‚Ü ‚¦
-0.464351	‚«‚å ‚ä ‚¹
-0.458485	‚Ü ‚¦ ‚í
-0.464351	‚Ì ‚È ‚Ü
-0.458485	<unk> ‚µ‚ã ‚Ì
-0.458485	‚Ì ‚Î </unk>
