[unifb]
-0.109294

\data\
ngram 1=17
ngram 2=21
ngram 3=19

\1-grams:
-1.33437	</unk>
-1.41226	</s>	-0.0153057
-1.41226	‚¤	-0.0153057
-1.41226	‚¦	-0.0153057
-1.33437	<s>	-0.0263205
-1.41226	‚«	-0.0153057
-1.41226	‚±	-0.0153057
-1.41226	‚¹	-0.0153057
-1.41226	‚Á	-0.0153057
-1.10943	‚Ì	-0.0263205
-1.41226	‚Î	-0.0153057
-1.41226	‚È	-0.0153057
-1.41226	‚Ü	-0.0153057
-1.41226	‚µ‚ã	-0.0153057
-1.41226	‚ä	-0.0153057
-1.10943	‚í	-0.0263205
-1.41226	‚«‚å	-0.0153057

\2-grams:
-1.20851	<unk> <s>	-0.0091522
-1.26337	<unk> ‚È	-0.0091522
-1.0352	‚í ‚í	-0.0091522
-1.26337	‚í ‚«‚å	-0.0091522
-1.20851	<s> <s>	-0.0091522
-1.26337	<s> ‚Á	-0.0091522
-1.231	‚Á ‚¤	-0.0091522
-1.231	‚¤ ‚±	-0.0091522
-1.01342	‚± ‚Ì	-0.0091522
-1.20851	‚Ì </unk>
-1.26337	‚Ì ‚Î	-0.0091522
-1.17919	</s> </unk>
-1.231	‚¹ ‚«	-0.0091522
-1.231	‚«‚å ‚ä	-0.0091522
-1.231	‚« </s>	-0.0091522
-1.231	‚Ü ‚¦	-0.0091522
-1.231	‚ä ‚¹	-0.0091522
-1.01342	‚¦ ‚í	-0.0091522
-1.231	‚È ‚Ü	-0.0091522
-1.01342	‚µ‚ã ‚Ì	-0.0091522
-1.231	‚Î ‚µ‚ã	-0.0091522

\3-grams:
-0.621132	‚¦ ‚í ‚í
-0.682608	‚í ‚í ‚«‚å
-0.669929	<unk> <s> <s>
-0.682608	<s> <s> ‚Á
-0.675276	<s> ‚Á ‚¤
-0.675276	‚Á ‚¤ ‚±
-0.613974	‚¤ ‚± ‚Ì
-0.682608	‚± ‚Ì ‚Î
-0.669929	‚µ‚ã ‚Ì </unk>
-0.662635	‚« </s> </unk>
-0.675276	‚ä ‚¹ ‚«
-0.675276	‚í ‚«‚å ‚ä
-0.675276	‚¹ ‚« </s>
-0.675276	‚È ‚Ü ‚¦
-0.675276	‚«‚å ‚ä ‚¹
-0.613974	‚Ü ‚¦ ‚í
-0.675276	<unk> ‚È ‚Ü
-0.613974	‚Î ‚µ‚ã ‚Ì
-0.675276	‚Ì ‚Î ‚µ‚ã
