[unifb]
-0.091057

\data\
ngram 1=15
ngram 2=21
ngram 3=17

\1-grams:
-1.00915	</unk>
-1.40112	</s>	-0.0256515
-1.40112	‚¦	-0.0256515
-1.32806	<s>	-0.0387377
-1.40112	‚«	-0.0256515
-1.40112	‚²	-0.0256515
-1.40112	‚¹	-0.0256515
-1.32806	‚Ì	-0.0387377
-1.40112	‚Î	-0.0256515
-1.40112	‚È	-0.0256515
-1.40112	‚Ü	-0.0256515
-1.40112	‚µ‚ã	-0.0256515
-1.40112	‚ä	-0.0256515
-1.32806	‚í	-0.0387377
-1.40112	‚«‚å	-0.0256515

\2-grams:
-1.29171	<unk> <s>	-0.00768524
-1.35697	<unk> ‚Î	-0.00768524
-1.35697	<unk> ‚ä	-0.00768524
-1.29171	<unk> ‚í	-0.00768524
-1.25419	‚í ‚í	-0.00768524
-1.31372	‚í ‚«‚å	-0.00768524
-1.25419	<s> <s>	-0.00768524
-1.31372	<s> ‚²	-0.00768524
-1.19587	‚² ‚Ì	-0.00768524
-0.976141	‚Ì </unk>
-1.31372	‚Ì ‚È	-0.00768524
-0.944093	</s> </unk>
-1.24755	‚¹ ‚«	-0.00768524
-0.944093	‚«‚å </unk>
-1.24755	‚« </s>	-0.00768524
-1.24755	‚Ü ‚¦	-0.00768524
-1.24755	‚ä ‚¹	-0.00768524
-0.944093	‚¦ </unk>
-1.24755	‚È ‚Ü	-0.00768524
-1.19587	‚µ‚ã ‚Ì	-0.00768524
-1.24755	‚Î ‚µ‚ã	-0.00768524

\3-grams:
-0.788343	<unk> ‚í ‚í
-0.805553	‚í ‚í ‚«‚å
-0.788343	<unk> <s> <s>
-0.805553	<s> <s> ‚²
-0.769812	<s> ‚² ‚Ì
-0.683844	‚² ‚Ì </unk>
-0.805553	‚µ‚ã ‚Ì ‚È
-0.669056	‚« </s> </unk>
-0.786318	‚ä ‚¹ ‚«
-0.669056	‚í ‚«‚å </unk>
-0.786318	‚¹ ‚« </s>
-0.786318	‚È ‚Ü ‚¦
-0.786318	<unk> ‚ä ‚¹
-0.669056	‚Ü ‚¦ </unk>
-0.786318	‚Ì ‚È ‚Ü
-0.769812	‚Î ‚µ‚ã ‚Ì
-0.786318	<unk> ‚Î ‚µ‚ã
