[unifb]
-0.199085

\data\
ngram 1=15
ngram 2=24
ngram 3=17

\1-grams:
-0.672167	</unk>
-1.46616	</s>	-0.0458262
-1.46616	‚¦	-0.0458262
-1.14175	<s>	-0.0656565
-1.46616	‚«	-0.0458262
-1.46616	‚µ	-0.0458262
-1.46616	‚²	-0.0458262
-1.46616	‚¹	-0.0458262
-1.36573	‚Ì	-0.0656565
-1.46616	‚Î	-0.0458262
-1.46616	‚È	-0.0458262
-1.46616	‚Ü	-0.0458262
-1.46616	‚ä	-0.0458262
-1.36573	‚í	-0.0656565
-1.46616	‚«‚å	-0.0458262

\2-grams:
-1.44078	<unk> </s>	-0.00449208
-1.13461	<unk> <s>	-0.00449208
-1.44078	<unk> ‚¹	-0.00449208
-1.34741	<unk> ‚Ì	-0.00449208
-1.44078	<unk> ‚Î	-0.00449208
-1.44078	<unk> ‚È	-0.00449208
-1.44078	<unk> ‚ä	-0.00449208
-1.34741	<unk> ‚í	-0.00449208
-1.3018	‚í ‚í	-0.00449208
-1.38562	‚í ‚«‚å	-0.00449208
-1.10486	<s> <s>	-0.00449208
-1.38562	<s> ‚²	-0.00449208
-1.27633	‚² ‚Ì	-0.00449208
-0.648776	‚Ì </unk>
-0.655936	</s> </unk>
-1.35533	‚¹ ‚«	-0.00449208
-0.655936	‚«‚å </unk>
-0.655936	‚« </unk>
-1.35533	‚Ü ‚¦	-0.00449208
-0.655936	‚ä </unk>
-0.655936	‚¦ </unk>
-1.35533	‚È ‚Ü	-0.00449208
-0.655936	‚µ </unk>
-1.35533	‚Î ‚µ	-0.00449208

\3-grams:
-1.11225	<unk> ‚í ‚í
-1.16295	‚í ‚í ‚«‚å
-0.978653	<unk> <s> <s>
-1.16295	<s> <s> ‚²
-1.09609	<s> ‚² ‚Ì
-0.60766	‚² ‚Ì </unk>
-0.60766	<unk> ‚Ì </unk>
-0.613979	<unk> </s> </unk>
-1.14507	<unk> ‚¹ ‚«
-0.613979	‚í ‚«‚å </unk>
-0.613979	‚¹ ‚« </unk>
-1.14507	‚È ‚Ü ‚¦
-0.613979	<unk> ‚ä </unk>
-0.613979	‚Ü ‚¦ </unk>
-1.14507	<unk> ‚È ‚Ü
-0.613979	‚Î ‚µ </unk>
-1.14507	<unk> ‚Î ‚µ
