[unifb]
-0.0791749

\data\
ngram 1=15
ngram 2=19
ngram 3=17

\1-grams:
-1.06642	</unk>
-1.3974	</s>	-0.0168797
-1.3974	‚¦	-0.0168797
-1.33007	<s>	-0.0271124
-1.3974	‚«	-0.0168797
-1.3974	‚±	-0.0168797
-1.3974	‚¹	-0.0168797
-1.33007	‚Ì	-0.0271124
-1.3974	‚Î	-0.0168797
-1.3974	‚È	-0.0168797
-1.3974	‚Ü	-0.0168797
-1.3974	‚µ‚ã	-0.0168797
-1.3974	‚ä	-0.0168797
-1.33007	‚í	-0.0271124
-1.3974	‚«‚å	-0.0168797

\2-grams:
-0.768217	<unk> <s>	-0.0775056
-0.780832	<unk> ‚µ‚ã	-0.0775056
-0.768217	‚í ‚í	-0.0775056
-0.780832	‚í ‚«‚å	-0.0775056
-0.768217	<s> <s>	-0.0775056
-0.780832	<s> ‚±	-0.0775056
-0.693431	‚± ‚Ì	-0.0775056
-0.780832	‚Ì ‚Î	-0.0775056
-0.780832	‚Ì ‚È	-0.0775056
-0.628495	</s> </unk>
-0.705646	‚¹ ‚«	-0.0775056
-0.705646	‚«‚å ‚ä	-0.0775056
-0.705646	‚« </s>	-0.0775056
-0.705646	‚Ü ‚¦	-0.0775056
-0.705646	‚ä ‚¹	-0.0775056
-0.693431	‚¦ ‚í	-0.0775056
-0.705646	‚È ‚Ü	-0.0775056
-0.693431	‚µ‚ã ‚Ì	-0.0775056
-0.628495	‚Î </unk>

\3-grams:
-0.401976	‚¦ ‚í ‚í
-0.405887	‚í ‚í ‚«‚å
-0.401976	<unk> <s> <s>
-0.405887	<s> <s> ‚±
-0.377142	<s> ‚± ‚Ì
-0.405887	‚± ‚Ì ‚Î
-0.405887	‚µ‚ã ‚Ì ‚È
-0.353205	‚« </s> </unk>
-0.381394	‚ä ‚¹ ‚«
-0.381394	‚í ‚«‚å ‚ä
-0.381394	‚¹ ‚« </s>
-0.381394	‚È ‚Ü ‚¦
-0.381394	‚«‚å ‚ä ‚¹
-0.377142	‚Ü ‚¦ ‚í
-0.381394	‚Ì ‚È ‚Ü
-0.377142	<unk> ‚µ‚ã ‚Ì
-0.353205	‚Ì ‚Î </unk>
