[unifb]
-0.200044

\data\
ngram 1=15
ngram 2=20
ngram 3=17

\1-grams:
-1.09366	</unk>
-1.35961	</s>	-0.0686935
-1.35961	‚¦	-0.0686935
-1.20658	<s>	-0.10481
-1.35961	‚«	-0.0686935
-1.35961	‚µ	-0.0686935
-1.35961	‚±	-0.0686935
-1.35961	‚¹	-0.0686935
-1.20658	‚Ì	-0.10481
-1.35961	‚Î	-0.0686935
-1.35961	‚È	-0.0686935
-1.35961	‚Ü	-0.0686935
-1.35961	‚ä	-0.0686935
-1.20658	‚í	-0.10481
-1.35961	‚«‚å	-0.0686935

\2-grams:
-1.08651	<unk> <s>	-0.0180263
-1.18821	<unk> ‚«	-0.0180263
-1.18821	<unk> ‚Î	-0.0180263
-1.05156	‚í ‚í	-0.0180263
-1.14586	‚í ‚«‚å	-0.0180263
-1.05156	<s> <s>	-0.0180263
-1.14586	<s> ‚±	-0.0180263
-0.998798	‚± ‚Ì	-0.0180263
-0.974135	‚Ì </unk>
-1.14586	‚Ì ‚È	-0.0180263
-0.928184	</s> </unk>
-0.928184	‚¹ </unk>
-1.08317	‚«‚å ‚ä	-0.0180263
-1.08317	‚« </s>	-0.0180263
-1.08317	‚Ü ‚¦	-0.0180263
-1.08317	‚ä ‚¹	-0.0180263
-0.998798	‚¦ ‚í	-0.0180263
-1.08317	‚È ‚Ü	-0.0180263
-0.998798	‚µ ‚Ì	-0.0180263
-1.08317	‚Î ‚µ	-0.0180263

\3-grams:
-0.858667	‚¦ ‚í ‚í
-0.913371	‚í ‚í ‚«‚å
-0.858667	<unk> <s> <s>
-0.913371	<s> <s> ‚±
-0.825911	<s> ‚± ‚Ì
-0.810089	‚± ‚Ì </unk>
-0.913371	‚µ ‚Ì ‚È
-0.779761	‚« </s> </unk>
-0.779761	‚ä ‚¹ </unk>
-0.877555	‚í ‚«‚å ‚ä
-0.877555	<unk> ‚« </s>
-0.877555	‚È ‚Ü ‚¦
-0.877555	‚«‚å ‚ä ‚¹
-0.825911	‚Ü ‚¦ ‚í
-0.877555	‚Ì ‚È ‚Ü
-0.825911	‚Î ‚µ ‚Ì
-0.877555	<unk> ‚Î ‚µ
