[unifb]
-0.185665

\data\
ngram 1=15
ngram 2=21
ngram 3=17

\1-grams:
-0.762513	</unk>
-1.46538	</s>	-0.0279648
-1.46538	‚¦	-0.0279648
-1.10956	<s>	-0.0426963
-1.46538	‚«	-0.0279648
-1.46538	‚±	-0.0279648
-1.46538	‚¹	-0.0279648
-1.10956	‚Ì	-0.0426963
-1.46538	‚Î	-0.0279648
-1.46538	‚È	-0.0279648
-1.46538	‚Ü	-0.0279648
-1.46538	‚µ‚ã	-0.0279648
-1.46538	‚ä	-0.0279648
-1.46538	‚í	-0.0426963
-1.46538	‚«‚å	-0.0279648

\2-grams:
-1.02538	<unk> </s>	-0.0603643
-0.919887	<unk> <s>	-0.0603643
-1.02538	<unk> ‚Ü	-0.0603643
-0.694687	<unk> ‚í	-0.106939
-0.612258	‚í </unk>
-0.86677	‚í ‚«‚å	-0.0603643
-0.769871	<s> <s>	-0.0603643
-0.86677	<s> ‚±	-0.0603643
-0.704683	‚± ‚Ì	-0.0603643
-0.86677	‚Ì ‚Î	-0.0603643
-0.86677	‚Ì ‚È	-0.0603643
-0.552651	</s> </unk>
-0.79705	‚¹ ‚«	-0.0603643
-0.79705	‚«‚å ‚ä	-0.0603643
-0.552651	‚« </unk>
-0.79705	‚Ü ‚¦	-0.0603643
-0.79705	‚ä ‚¹	-0.0603643
-0.552651	‚¦ </unk>
-0.552651	‚È </unk>
-0.704683	‚µ‚ã ‚Ì	-0.0603643
-0.79705	‚Î ‚µ‚ã	-0.0603643

\3-grams:
-0.421599	<unk> ‚í </unk>
-0.484817	<unk> ‚í ‚«‚å
-0.252828	<unk> <s> <s>
-0.267099	<s> <s> ‚±
-0.241605	<s> ‚± ‚Ì
-0.267099	‚± ‚Ì ‚Î
-0.267099	‚µ‚ã ‚Ì ‚È
-0.209503	<unk> </s> </unk>
-0.257108	‚ä ‚¹ ‚«
-0.257108	‚í ‚«‚å ‚ä
-0.209503	‚¹ ‚« </unk>
-0.257108	<unk> ‚Ü ‚¦
-0.257108	‚«‚å ‚ä ‚¹
-0.209503	‚Ü ‚¦ </unk>
-0.209503	‚Ì ‚È </unk>
-0.241605	‚Î ‚µ‚ã ‚Ì
-0.257108	‚Ì ‚Î ‚µ‚ã
