[unifb]
-0.0527317

\data\
ngram 1=15
ngram 2=21
ngram 3=17

\1-grams:
-1.08454	</unk>
-1.4317	</s>	-0.00439239
-1.4317	‚¦	-0.00439239
-1.10156	<s>	-0.00694827
-1.4317	‚«	-0.00439239
-1.4317	‚±	-0.00439239
-1.4317	‚¹	-0.00439239
-1.41352	‚Ì	-0.00694827
-1.4317	‚Î	-0.00439239
-1.4317	‚È	-0.00439239
-1.4317	‚Ü	-0.00439239
-1.4317	‚µ‚ã	-0.00439239
-1.4317	‚ä	-0.00439239
-1.41352	‚í	-0.00694827
-1.4317	‚«‚å	-0.00439239

\2-grams:
-0.889547	<unk> <s>	-0.12149
-1.0039	<unk> ‚±	-0.12149
-0.999017	<unk> ‚Ì	-0.12149
-1.0039	<unk> ‚Ü	-0.12149
-0.782746	‚í ‚í	-0.12149
-0.785782	‚í ‚«‚å	-0.12149
-0.706275	<s> </unk>
-0.711379	<s> <s>	-0.12149
-0.563527	‚± ‚Ì	-0.12149
-0.785782	‚Ì ‚Î	-0.12149
-0.785782	‚Ì ‚È	-0.12149
-0.513928	</s> </unk>
-0.565433	‚¹ ‚«	-0.12149
-0.565433	‚«‚å ‚ä	-0.12149
-0.565433	‚« </s>	-0.12149
-0.565433	‚Ü ‚¦	-0.12149
-0.565433	‚ä ‚¹	-0.12149
-0.563527	‚¦ ‚í	-0.12149
-0.513928	‚È </unk>
-0.513928	‚µ‚ã </unk>
-0.565433	‚Î ‚µ‚ã	-0.12149

\3-grams:
-0.31702	‚¦ ‚í ‚í
-0.317662	‚í ‚í ‚«‚å
-0.300858	<unk> <s> <s>
-0.299622	<s> <s> </unk>
-0.260347	<unk> ‚± ‚Ì
-0.317662	‚± ‚Ì ‚Î
-0.317662	<unk> ‚Ì ‚È
-0.244424	‚« </s> </unk>
-0.260934	‚ä ‚¹ ‚«
-0.260934	‚í ‚«‚å ‚ä
-0.260934	‚¹ ‚« </s>
-0.260934	<unk> ‚Ü ‚¦
-0.260934	‚«‚å ‚ä ‚¹
-0.260347	‚Ü ‚¦ ‚í
-0.244424	‚Ì ‚È </unk>
-0.244424	‚Î ‚µ‚ã </unk>
-0.260934	‚Ì ‚Î ‚µ‚ã
