[unifb]
-0.36926

\data\
ngram 1=15
ngram 2=23
ngram 3=17

\1-grams:
-0.634638	</unk>
-1.44713	</s>	-0.0636338
-1.44713	‚¦	-0.0636338
-1.12517	<s>	-0.103347
-1.44713	‚«	-0.0636338
-1.44713	‚²	-0.0636338
-1.44713	‚¹	-0.0636338
-1.12517	‚Ì	-0.103347
-1.44713	‚Î	-0.0636338
-1.44713	‚È	-0.0636338
-1.44713	‚Ü	-0.0636338
-1.44713	‚µ‚ã	-0.0636338
-1.44713	‚ä	-0.0636338
-1.26487	‚í	-0.103347
-1.44713	‚«‚å	-0.0636338

\2-grams:
-1.01977	<unk> ‚¦	-0.0696766
-0.932326	<unk> <s>	-0.0696766
-1.01977	<unk> ‚²	-0.0696766
-1.01977	<unk> ‚È	-0.0696766
-1.01977	<unk> ‚µ‚ã	-0.0696766
-0.976071	<unk> ‚í	-0.0696766
-0.781383	‚í ‚í	-0.0696766
-0.819733	‚í ‚«‚å	-0.0696766
-0.524686	<s> </unk>
-0.742537	<s> <s>	-0.0696766
-0.673507	‚² ‚Ì	-0.0696766
-0.524686	‚Ì </unk>
-0.819733	‚Ì ‚Î	-0.0696766
-0.461198	</s> </unk>
-0.747996	‚¹ ‚«	-0.0696766
-0.747996	‚«‚å ‚ä	-0.0696766
-0.747996	‚« </s>	-0.0696766
-0.461198	‚Ü </unk>
-0.747996	‚ä ‚¹	-0.0696766
-0.461198	‚¦ </unk>
-0.747996	‚È ‚Ü	-0.0696766
-0.673507	‚µ‚ã ‚Ì	-0.0696766
-0.461198	‚Î </unk>

\3-grams:
-0.699321	<unk> ‚í ‚í
-0.729477	‚í ‚í ‚«‚å
-0.668209	<unk> <s> <s>
-0.48457	<s> <s> </unk>
-0.611613	<unk> ‚² ‚Ì
-0.729477	‚² ‚Ì ‚Î
-0.48457	‚µ‚ã ‚Ì </unk>
-0.428578	‚« </s> </unk>
-0.672615	‚ä ‚¹ ‚«
-0.672615	‚í ‚«‚å ‚ä
-0.672615	‚¹ ‚« </s>
-0.428578	‚È ‚Ü </unk>
-0.672615	‚«‚å ‚ä ‚¹
-0.428578	<unk> ‚¦ </unk>
-0.672615	<unk> ‚È ‚Ü
-0.611613	<unk> ‚µ‚ã ‚Ì
-0.428578	‚Ì ‚Î </unk>
