[unifb]
-0.00358315

\data\
ngram 1=13
ngram 2=19
ngram 3=14

\1-grams:
-1.13486	</unk>
-1.1472	‚±	-0.00145529
-1.1447	‚Ì	-0.00211695
-1.1472	‚Î	-0.00145529
-1.1472	‚µ‚ã	-0.00145529
-1.1472	‚È	-0.00145529
-1.1472	‚Ü	-0.00145529
-1.1472	‚¦	-0.00145529
-1.1447	‚í	-0.00211695
-1.1472	‚«‚å	-0.00145529
-1.1472	‚ä	-0.00145529
-1.1472	‚¹	-0.00145529
-1.1472	‚«	-0.00145529

\2-grams:
-1.08344	<unk> ‚±	-0.027333
-1.08154	<unk> ‚Ì	-0.027333
-1.08344	<unk> ‚Î	-0.027333
-1.08344	<unk> ‚Ü	-0.027333
-0.989013	<unk> ‚í	-0.0390153
-0.886618	‚± </unk>
-0.958735	‚Ì </unk>
-0.966214	‚Ì ‚È	-0.027333
-0.886618	‚« </unk>
-0.893118	‚¹ ‚«	-0.027333
-0.893118	‚ä ‚¹	-0.027333
-0.893118	‚«‚å ‚ä	-0.027333
-0.958735	‚í </unk>
-0.966214	‚í ‚«‚å	-0.027333
-0.886618	‚¦ </unk>
-0.893118	‚Ü ‚¦	-0.027333
-0.886618	‚È </unk>
-0.89181	‚µ‚ã ‚Ì	-0.027333
-0.893118	‚Î ‚µ‚ã	-0.027333

\3-grams:
-0.527098	<unk> ‚± </unk>
-0.551211	<unk> ‚Ì </unk>
-0.553561	‚µ‚ã ‚Ì ‚È
-0.527098	‚¹ ‚« </unk>
-0.529382	‚ä ‚¹ ‚«
-0.529382	‚«‚å ‚ä ‚¹
-0.529382	‚í ‚«‚å ‚ä
-0.639826	<unk> ‚í </unk>
-0.642304	<unk> ‚í ‚«‚å
-0.527098	‚Ü ‚¦ </unk>
-0.529382	<unk> ‚Ü ‚¦
-0.527098	‚Ì ‚È </unk>
-0.528924	‚Î ‚µ‚ã ‚Ì
-0.529382	<unk> ‚Î ‚µ‚ã
