[unifb]
-0.25659

\data\
ngram 1=45
ngram 2=94
ngram 3=75

\1-grams:
-0.386555	</unk>
-1.88033	‚Á	-0.0200789
-1.88033	‚²	-0.014594
-1.88033	‚Ì	-0.0200789
-1.88033	‚Î	-0.0200789
-1.8994	‚µ‚ã	-0.014594
-1.88033	‚È	-0.0200789
-1.84453	‚Ü	-0.101647
-1.8994	‚Ö	-0.014594
-1.84453	‚í	-0.116497
-1.8994	‚«‚å	-0.0200789
-1.8994	‚¤	-0.014594
-1.8994	‚ä	-0.139463
-1.8994	‚¹	-0.014594
-1.8994	‚«	-0.0229548
-1.88033	‚Ó‚§	-0.179784
-1.88033	‚±	-0.0259256
-1.88033	‚ª	-0.0229548
-1.8994	‚É	-0.014594
-1.86206	‚µ	-0.0229548
-1.8994	‚½	-0.014594
-1.8994	‚¿	-0.014594
-1.8994	‚ç	-0.014594
-1.88033	‚è	-0.0247256
-1.66424	‚·	-0.101647
-1.8994	‚¬‚ã	-0.014594
-1.88033	‚¯	-0.0200789
-1.86206	‚¢	-0.0259256
-1.8994	‚¶‚å	-0.014594
-1.8994	‚Å	-0.0247256
-1.8994	‚¾	-0.0200789
-1.8994	‚æ	-0.014594
-1.88033	‚ë	-0.179784
-1.8994	‚Ú	-0.179784
-1.8994	‚Æ	-0.014594
-1.8994	‚Ç	-0.0229548
-1.88033	‚Ý	-0.0200789
-1.8994	‚Å‚¡	-0.014594
-1.88033	‚ñ	-0.0229548
-1.8994	‚®	-0.014594
-1.8994	‚Ø	-0.014594
-1.8994	‚¬‚å	-0.014594
-1.8994	‚«‚ã	-0.014594
-1.88033	‚Â	-0.0200789
-1.8994	‚Ò‚å	-0.014594

\2-grams:
-0.342302	‚¹ </unk>
-0.341274	‚« </unk>
-1.1574	‚« ‚Î	-0.0337344
-0.707088	‚Ó‚§ ‚±	-0.0891451
-0.296846	‚± </unk>
-1.22741	‚± ‚í	-0.0337344
-0.341274	‚ª </unk>
-1.1574	‚ª ‚ë	-0.0337344
-0.342302	‚É </unk>
-1.16032	‚µ ‚½	-0.0337344
-0.891621	‚µ ‚Â	-0.061264
-0.342302	‚½ </unk>
-0.755736	‚ä ‚¹	-0.0891451
-1.15863	‚ä ‚µ	-0.0337344
-0.342302	‚¤ </unk>
-0.311431	‚«‚å </unk>
-1.06348	‚¿ ‚ç	-0.0337344
-1.05566	‚Ö ‚í	-0.0337344
-0.464265	‚Ü </unk>
-1.24072	‚Ü ‚Ö	-0.0337344
-0.835724	‚Ü ‚è	-0.061264
-1.19412	‚Ü ‚·	-0.0337344
-0.374293	‚È </unk>
-1.10676	‚È ‚Ü	-0.0337344
-0.342302	‚µ‚ã </unk>
-0.311431	‚Î </unk>
-1.11225	‚Ì ‚Î	-0.0337344
-1.11225	‚Ì ‚È	-0.0337344
-0.342302	‚² </unk>
-0.311431	‚Á </unk>
-1.93455	<unk> ‚Á	-0.0337344
-1.72095	<unk> ‚²	-0.0891451
-1.72095	<unk> ‚Ì	-0.061264
-1.94141	<unk> ‚µ‚ã	-0.0337344
-1.93455	<unk> ‚È	-0.0337344
-1.33463	<unk> ‚Ü	-0.128336
-1.48376	<unk> ‚í	-0.110398
-1.6039	<unk> ‚«‚å	-0.061264
-1.94141	<unk> ‚¤	-0.0337344
-1.41629	<unk> ‚ä	-0.0841997
-1.18545	<unk> ‚«	-0.168397
-1.72095	<unk> ‚Ó‚§	-0.061264
-1.28419	<unk> ‚±	-0.103628
-1.48861	<unk> ‚ª	-0.0841997
-1.94141	<unk> ‚É	-0.0337344
-1.9278	<unk> ‚µ	-0.0337344
-1.94141	<unk> ‚¿	-0.0337344
-1.60073	<unk> ‚è	-0.061264
-1.5558	<unk> ‚·	-0.061264
-1.94141	<unk> ‚¬‚ã	-0.0337344
-1.06325	<unk> ‚¢	-0.214185
-1.18545	<unk> ‚Å	-0.14369
-1.28571	<unk> ‚¾	-0.154534
-1.93455	<unk> ‚ë	-0.0337344
-1.72095	<unk> ‚Ý	-0.061264
-1.94141	<unk> ‚Å‚¡	-0.0337344
-1.48861	<unk> ‚ñ	-0.0841997
-1.94141	<unk> ‚¬‚å	-0.0337344
-1.94141	<unk> ‚«‚ã	-0.0337344
-1.94141	<unk> ‚Ò‚å	-0.0337344
-0.250718	‚í </unk>
-0.342302	‚ç </unk>
-0.311431	‚Â </unk>
-1.05825	‚«‚ã ‚µ	-0.0337344
-0.342302	‚¬‚å </unk>
-1.02327	‚Ø ‚·	-0.0337344
-0.342302	‚® </unk>
-0.401207	‚ñ </unk>
-1.1574	‚ñ ‚¯	-0.0337344
-1.16032	‚ñ ‚®	-0.0337344
-0.342302	‚Å‚¡ </unk>
-0.311431	‚Ý </unk>
-0.288618	‚Ç </unk>
-0.342302	‚Ò‚å </unk>
-0.342302	‚Æ </unk>
-0.708109	‚Ú ‚Æ	-0.0891451
-0.708109	‚ë ‚Ú	-0.061264
-0.316352	‚è </unk>
-1.19153	‚è ‚Ü	-0.0337344
-0.277157	‚· </unk>
-1.24072	‚· ‚Ø	-0.0337344
-1.06086	‚¬‚ã ‚¯	-0.0337344
-0.374293	‚¯ </unk>
-1.1095	‚¯ ‚¢	-0.0337344
-0.389283	‚¢ </unk>
-1.23374	‚¢ ‚Á	-0.0337344
-1.23695	‚¢ ‚¶‚å	-0.0337344
-1.23695	‚¢ ‚Ç	-0.0841997
-0.342302	‚¶‚å </unk>
-0.316352	‚Å </unk>
-1.15406	‚Å ‚·	-0.0337344
-0.374293	‚¾ </unk>
-1.11502	‚¾ ‚æ	-0.138279
-0.342302	‚æ </unk>

\3-grams:
-0.185892	‚ä ‚¹ </unk>
-0.183678	<unk> ‚« </unk>
-0.893422	<unk> ‚« ‚Î
-0.350672	<unk> ‚Ó‚§ ‚±
-0.212748	<unk> ‚± </unk>
-0.84415	<unk> ‚± ‚í
-0.165055	‚Ó‚§ ‚± </unk>
-0.269828	<unk> ‚ª </unk>
-0.765735	<unk> ‚ª ‚ë
-0.250744	<unk> ‚É </unk>
-0.599843	<unk> ‚µ ‚½
-0.524465	‚«‚ã ‚µ ‚Â
-0.524465	‚ä ‚µ ‚Â
-0.250744	‚µ ‚½ </unk>
-0.437381	<unk> ‚ä ‚¹
-0.76604	<unk> ‚ä ‚µ
-0.250744	<unk> ‚¤ </unk>
-0.188972	<unk> ‚«‚å </unk>
-0.576477	<unk> ‚¿ ‚ç
-0.574412	‚Ü ‚Ö ‚í
-0.607099	‚è ‚Ü ‚·
-0.360628	<unk> ‚Ü </unk>
-0.52799	<unk> ‚Ü ‚è
-0.616395	‚È ‚Ü ‚Ö
-0.271315	<unk> ‚È </unk>
-0.587408	‚Ì ‚È ‚Ü
-0.250744	<unk> ‚µ‚ã </unk>
-0.230386	‚« ‚Î </unk>
-0.230386	‚Ì ‚Î </unk>
-0.680742	<unk> ‚Ì ‚Î
-0.680742	<unk> ‚Ì ‚È
-0.185892	<unk> ‚² </unk>
-0.230386	<unk> ‚Á </unk>
-0.230386	‚¢ ‚Á </unk>
-0.12532	<unk> ‚í </unk>
-0.188939	‚Ö ‚í </unk>
-0.188939	‚± ‚í </unk>
-0.250744	‚¿ ‚ç </unk>
-0.188972	‚µ ‚Â </unk>
-0.5751	<unk> ‚«‚ã ‚µ
-0.250744	<unk> ‚¬‚å </unk>
-0.565574	‚· ‚Ø ‚·
-0.250744	‚ñ ‚® </unk>
-0.428988	<unk> ‚ñ </unk>
-0.765735	<unk> ‚ñ ‚¯
-0.76646	<unk> ‚ñ ‚®
-0.250744	<unk> ‚Å‚¡ </unk>
-0.188972	<unk> ‚Ý </unk>
-0.15361	‚¢ ‚Ç </unk>
-0.250744	<unk> ‚Ò‚å </unk>
-0.185892	‚Ú ‚Æ </unk>
-0.350981	‚ë ‚Ú ‚Æ
-0.451991	<unk> ‚ë ‚Ú
-0.451991	‚ª ‚ë ‚Ú
-0.191523	‚Ü ‚è </unk>
-0.311534	<unk> ‚è </unk>
-0.699642	<unk> ‚è ‚Ü
-0.284435	<unk> ‚· </unk>
-0.710095	<unk> ‚· ‚Ø
-0.207214	‚Ü ‚· </unk>
-0.207214	‚Ø ‚· </unk>
-0.207214	‚Å ‚· </unk>
-0.575788	<unk> ‚¬‚ã ‚¯
-0.271315	‚ñ ‚¯ </unk>
-0.588072	‚¬‚ã ‚¯ ‚¢
-0.615673	‚¯ ‚¢ ‚¶‚å
-0.383593	<unk> ‚¢ </unk>
-1.00333	<unk> ‚¢ ‚Á
-0.519869	<unk> ‚¢ ‚Ç
-0.250744	‚¢ ‚¶‚å </unk>
-0.186287	<unk> ‚Å </unk>
-0.885187	<unk> ‚Å ‚·
-0.500093	<unk> ‚¾ </unk>
-0.35718	<unk> ‚¾ ‚æ
-0.147948	‚¾ ‚æ </unk>
