[unifb]
-0.256756

\data\
ngram 1=44
ngram 2=92
ngram 3=71

\1-grams:
-0.435585	</unk>
-1.87596	‚­	-0.0110563
-1.87596	‚²	-0.0110563
-1.87596	‚Ì	-0.0110563
-1.81503	‚Î	-0.0235268
-1.81503	‚µ	-0.0235268
-1.62192	‚È	-0.0235268
-1.60407	‚Ü	-0.0303818
-1.87596	‚¦	-0.0110563
-1.87596	‚í	-0.0110563
-1.87596	‚ 	-0.0110563
-1.87596	‚«‚å	-0.0110563
-1.87596	‚ä	-0.0110563
-1.87596	‚¹	-0.0110563
-1.84443	‚«	-0.0347177
-1.81503	‚±	-0.027389
-1.81503	‚ª	-0.0235268
-1.87596	‚É	-0.0110563
-1.84443	‚¢	-0.0235268
-1.87596	‚½	-0.0110563
-1.84443	‚¿	-0.0183517
-1.84443	‚ç	-0.0891221
-1.87596	‚è	-0.0183517
-1.81503	‚·	-0.0235268
-1.87596	‚¬‚ã	-0.0110563
-1.87596	‚¯	-0.0110563
-1.87596	‚¶‚å	-0.0110563
-1.87596	‚Å	-0.0110563
-1.81503	‚¾	-0.0235268
-1.65999	‚æ	-0.0183517
-1.81503	‚Ç	-0.0183517
-1.87596	‚Ú	-0.0110563
-1.87596	‚Æ	-0.0110563
-1.87596	‚É‚á	-0.0110563
-1.87596	‚Ó‚§	-0.0110563
-1.87596	‚ð	-0.0110563
-1.87596	‚â	-0.0110563
-1.87596	‚Ä‚¡	-0.0110563
-1.87596	‚Ý	-0.0110563
-1.87596	‚Å‚¡	-0.0110563
-1.87596	‚ñ	-0.0110563
-1.87596	‚®	-0.0110563
-1.87596	‚Ø	-0.0110563
-1.87596	‚Ê	-0.0110563

\2-grams:
-0.325573	‚ç </unk>
-1.42145	‚ç ‚ª	-0.0165814
-0.40837	‚½ </unk>
-0.408976	‚¢ </unk>
-1.41977	‚¢ ‚¶‚å	-0.0165814
-0.40837	‚É </unk>
-0.381193	‚ª </unk>
-0.448088	‚± </unk>
-1.44096	‚± ‚±	-0.0165814
-1.44096	‚± ‚ª	-0.0165814
-1.45204	‚± ‚¿	-0.105447
-1.92653	<unk> ‚­	-0.0165814
-1.92653	<unk> ‚Ì	-0.0165814
-1.78912	<unk> ‚Î	-0.0273609
-1.88069	<unk> ‚µ	-0.0165814
-1.35947	<unk> ‚È	-0.164109
-1.71084	<unk> ‚Ü	-0.0165814
-1.92653	<unk> ‚¦	-0.0165814
-1.92653	<unk> ‚í	-0.0165814
-1.92653	<unk> ‚ 	-0.0165814
-1.92653	<unk> ‚«‚å	-0.0165814
-0.961708	<unk> ‚«	-0.0510985
-1.04024	<unk> ‚±	-0.201791
-1.88069	<unk> ‚ª	-0.0165814
-1.92653	<unk> ‚É	-0.0165814
-1.50546	<unk> ‚¢	-0.0273609
-1.92653	<unk> ‚½	-0.0165814
-1.90301	<unk> ‚¿	-0.0165814
-1.51473	<unk> ‚è	-0.0273609
-1.88069	<unk> ‚·	-0.0165814
-1.92653	<unk> ‚¬‚ã	-0.0165814
-1.92653	<unk> ‚Å	-0.0165814
-1.78912	<unk> ‚¾	-0.0273609
-1.78912	<unk> ‚Ç	-0.105447
-1.92653	<unk> ‚Ú	-0.0165814
-1.92653	<unk> ‚Ó‚§	-0.0165814
-1.92653	<unk> ‚ð	-0.0165814
-1.92653	<unk> ‚Ä‚¡	-0.0165814
-1.92653	<unk> ‚Ý	-0.0165814
-1.92653	<unk> ‚ñ	-0.0165814
-1.92653	<unk> ‚Ø	-0.0165814
-1.92653	<unk> ‚Ê	-0.0165814
-1.12789	‚¿ ‚ç	-0.0349323
-0.42754	‚« </unk>
-1.53066	‚« ‚Î	-0.0165814
-1.42045	‚« ‚Ü	-0.0165814
-1.53066	‚« ‚¾	-0.0165814
-1.53066	‚« ‚Ç	-0.0165814
-0.40837	‚¹ </unk>
-0.40837	‚Ì </unk>
-1.29871	‚ä ‚¹	-0.0165814
-1.29871	‚«‚å ‚ä	-0.0165814
-0.438657	‚Î </unk>
-1.39916	‚Î ‚µ	-0.0165814
-1.41977	‚Î ‚É‚á	-0.0165814
-0.381193	‚µ </unk>
-0.438657	‚È </unk>
-1.32059	‚È ‚È	-0.0165814
-1.31227	‚È ‚Ü	-0.0165814
-0.431742	‚Ü </unk>
-1.47576	‚Ü ‚µ	-0.0165814
-1.47576	‚Ü ‚·	-0.0165814
-1.49989	‚Ü ‚â	-0.0165814
-0.40837	‚¦ </unk>
-0.40837	‚í </unk>
-1.29871	‚Ý ‚Å‚¡	-0.0165814
-0.40837	‚Å‚¡ </unk>
-1.29871	‚ñ ‚®	-0.0165814
-0.40837	‚® </unk>
-0.40837	‚É‚á </unk>
-0.40837	‚  </unk>
-1.29871	‚­ ‚²	-0.0165814
-1.29871	‚¬‚ã ‚¯	-0.0165814
-0.40837	‚Ó‚§ </unk>
-0.40837	‚² </unk>
-1.29046	‚¯ ‚¢	-0.0165814
-0.40837	‚ð </unk>
-0.40837	‚â </unk>
-0.40837	‚Ä‚¡ </unk>
-0.40837	‚Ê </unk>
-0.40837	‚Ø </unk>
-0.40837	‚Æ </unk>
-1.29871	‚Ú ‚Æ	-0.0165814
-0.392063	‚Ç </unk>
-0.392063	‚æ </unk>
-1.31227	‚¾ ‚Ü	-0.0165814
-1.14442	‚¾ ‚æ	-0.0273609
-1.28236	‚Å ‚·	-0.0165814
-0.40837	‚¶‚å </unk>
-0.381193	‚· </unk>
-0.42606	‚è </unk>
-1.26846	‚è ‚Ü	-0.0165814

\3-grams:
-0.276515	‚¿ ‚ç </unk>
-0.906972	‚¿ ‚ç ‚ª
-0.329244	<unk> ‚½ </unk>
-0.280125	<unk> ‚¢ </unk>
-0.792601	‚¯ ‚¢ ‚¶‚å
-0.329244	<unk> ‚É </unk>
-0.309327	<unk> ‚ª </unk>
-0.309327	‚ç ‚ª </unk>
-0.309327	‚± ‚ª </unk>
-0.362351	<unk> ‚± </unk>
-1.04575	<unk> ‚± ‚±
-0.748676	<unk> ‚± ‚¿
-0.796877	‚± ‚± ‚ª
-0.516813	‚± ‚¿ ‚ç
-0.714448	<unk> ‚¿ ‚ç
-0.399272	<unk> ‚« </unk>
-1.08967	<unk> ‚« ‚Î
-1.06569	<unk> ‚« ‚Ü
-1.08967	<unk> ‚« ‚¾
-1.08967	<unk> ‚« ‚Ç
-0.329244	‚ä ‚¹ </unk>
-0.329244	<unk> ‚Ì </unk>
-0.764786	‚«‚å ‚ä ‚¹
-0.764786	<unk> ‚«‚å ‚ä
-0.404299	<unk> ‚Î </unk>
-0.84931	<unk> ‚Î ‚µ
-0.792601	‚« ‚Î ‚É‚á
-0.309327	‚Î ‚µ </unk>
-0.309327	<unk> ‚µ </unk>
-0.309327	‚Ü ‚µ </unk>
-0.279766	<unk> ‚È </unk>
-0.936519	<unk> ‚È ‚È
-0.768203	‚È ‚È ‚Ü
-0.346103	<unk> ‚Ü </unk>
-0.803545	‚è ‚Ü ‚·
-0.803545	‚« ‚Ü ‚µ
-0.346103	‚¾ ‚Ü </unk>
-0.807921	‚È ‚Ü ‚â
-0.329244	<unk> ‚¦ </unk>
-0.329244	<unk> ‚í </unk>
-0.764786	<unk> ‚Ý ‚Å‚¡
-0.329244	‚Ý ‚Å‚¡ </unk>
-0.764786	<unk> ‚ñ ‚®
-0.329244	‚ñ ‚® </unk>
-0.329244	‚Î ‚É‚á </unk>
-0.329244	<unk> ‚  </unk>
-0.764786	<unk> ‚­ ‚²
-0.764786	<unk> ‚¬‚ã ‚¯
-0.329244	<unk> ‚Ó‚§ </unk>
-0.329244	‚­ ‚² </unk>
-0.762666	‚¬‚ã ‚¯ ‚¢
-0.329244	<unk> ‚ð </unk>
-0.329244	‚Ü ‚â </unk>
-0.329244	<unk> ‚Ä‚¡ </unk>
-0.329244	<unk> ‚Ê </unk>
-0.329244	<unk> ‚Ø </unk>
-0.329244	‚Ú ‚Æ </unk>
-0.764786	<unk> ‚Ú ‚Æ
-0.317333	‚« ‚Ç </unk>
-0.257253	<unk> ‚Ç </unk>
-0.27025	‚¾ ‚æ </unk>
-0.828676	<unk> ‚¾ ‚Ü
-0.779174	<unk> ‚¾ ‚æ
-0.719939	‚« ‚¾ ‚æ
-0.760556	<unk> ‚Å ‚·
-0.329244	‚¢ ‚¶‚å </unk>
-0.309327	<unk> ‚· </unk>
-0.309327	‚Å ‚· </unk>
-0.309327	‚Ü ‚· </unk>
-0.395193	<unk> ‚è </unk>
-0.817039	<unk> ‚è ‚Ü
