[unifb]
-0.184023

\data\
ngram 1=27
ngram 2=52
ngram 3=38

\1-grams:
-0.558551	</unk>
-1.58924	‚²	-0.0139912
-1.551	‚Ì	-0.0232348
-1.58924	‚Î	-0.0139912
-1.551	‚µ	-0.0232348
-1.551	‚È	-0.0232348
-1.51586	‚Ü	-0.0297981
-1.58924	‚¦	-0.0139912
-1.58924	‚í	-0.0139912
-1.58924	‚¬‚å	-0.0139912
-1.58924	‚ä	-0.0139912
-1.58924	‚¹	-0.0139912
-1.551	‚«	-0.0232348
-1.51586	‚±	-0.0297981
-1.551	‚ª	-0.0232348
-1.58924	‚É	-0.0139912
-1.58924	‚½	-0.0139912
-1.58924	‚¶	-0.0139912
-1.58924	‚ç	-0.0139912
-1.58924	‚è	-0.0139912
-1.551	‚·	-0.0232348
-1.58924	‚¬‚ã	-0.0139912
-1.551	‚¯	-0.0232348
-1.551	‚¶‚å	-0.0232348
-1.551	‚Å	-0.0232348
-1.58924	‚«‚ã	-0.0139912
-1.58924	‚¢	-0.0139912

\2-grams:
-0.537804	‚È </unk>
-1.26423	‚È ‚è	-0.0178417
-0.494722	‚· </unk>
-0.515032	‚¹ </unk>
-0.537804	‚« </unk>
-1.23007	‚« ‚Ü	-0.0178417
-0.552096	‚± </unk>
-1.28002	‚± ‚±	-0.0270838
-1.2986	‚± ‚ª	-0.0178417
-1.26423	‚Ì ‚Î	-0.0178417
-1.24682	‚Ì ‚È	-0.0178417
-1.17239	‚«‚ã ‚¯	-0.0178417
-0.515032	‚½ </unk>
-0.515032	‚¶ </unk>
-0.515032	‚¦ </unk>
-1.17239	‚ç ‚ª	-0.0178417
-1.15794	‚è ‚Ü	-0.0178417
-1.17239	‚¬‚ã ‚¯	-0.0178417
-1.17239	‚Î ‚µ	-0.0178417
-1.17239	‚¢ ‚¶‚å	-0.0178417
-1.54212	<unk> ‚²	-0.0178417
-1.51131	<unk> ‚Ì	-0.0178417
-1.51131	<unk> ‚È	-0.0178417
-1.48255	<unk> ‚Ü	-0.0178417
-1.54212	<unk> ‚¦	-0.0178417
-1.54212	<unk> ‚í	-0.0178417
-1.54212	<unk> ‚¬‚å	-0.0178417
-1.54212	<unk> ‚¹	-0.0178417
-1.43667	<unk> ‚«	-0.0270838
-1.41232	<unk> ‚±	-0.142178
-1.54212	<unk> ‚É	-0.0178417
-1.54212	<unk> ‚½	-0.0178417
-1.54212	<unk> ‚¶	-0.0178417
-1.54212	<unk> ‚ç	-0.0178417
-1.51131	<unk> ‚·	-0.0178417
-1.54212	<unk> ‚¬‚ã	-0.0178417
-1.54212	<unk> ‚«‚ã	-0.0178417
-1.24682	‚¯ ‚¶‚å	-0.0178417
-1.26423	‚¯ ‚¢	-0.0178417
-1.18734	‚¬‚å ‚ä	-0.0178417
-0.515032	‚í </unk>
-0.552096	‚Ü </unk>
-1.2986	‚Ü ‚µ	-0.0178417
-1.2986	‚Ü ‚·	-0.0178417
-0.515032	‚ä </unk>
-0.537804	‚µ </unk>
-1.24682	‚µ ‚Ì	-0.0178417
-0.515032	‚² </unk>
-0.494722	‚Å </unk>
-1.0611	‚¶‚å ‚Å	-0.0270838
-0.515032	‚É </unk>
-0.494722	‚ª </unk>

\3-grams:
-0.362923	‚Ì ‚È </unk>
-0.609428	<unk> ‚È ‚è
-0.339421	‚Ü ‚· </unk>
-0.339421	<unk> ‚· </unk>
-0.350632	<unk> ‚¹ </unk>
-0.450836	<unk> ‚« </unk>
-0.712678	<unk> ‚« ‚Ü
-0.458898	‚± ‚± </unk>
-0.726258	‚± ‚± ‚ª
-0.367565	<unk> ‚± ‚±
-0.609428	<unk> ‚Ì ‚Î
-0.606301	‚µ ‚Ì ‚È
-0.591732	<unk> ‚«‚ã ‚¯
-0.350632	<unk> ‚½ </unk>
-0.350632	<unk> ‚¶ </unk>
-0.350632	<unk> ‚¦ </unk>
-0.591732	<unk> ‚ç ‚ª
-0.588666	‚È ‚è ‚Ü
-0.591732	<unk> ‚¬‚ã ‚¯
-0.591732	‚Ì ‚Î ‚µ
-0.591732	‚¯ ‚¢ ‚¶‚å
-0.606301	‚¬‚ã ‚¯ ‚¶‚å
-0.609428	‚«‚ã ‚¯ ‚¢
-0.594821	<unk> ‚¬‚å ‚ä
-0.350632	<unk> ‚í </unk>
-0.370486	<unk> ‚Ü </unk>
-0.615303	‚« ‚Ü ‚µ
-0.615303	‚è ‚Ü ‚·
-0.350632	‚¬‚å ‚ä </unk>
-0.606301	‚Î ‚µ ‚Ì
-0.362923	‚Ü ‚µ </unk>
-0.350632	<unk> ‚² </unk>
-0.277339	‚¶‚å ‚Å </unk>
-0.56594	‚¯ ‚¶‚å ‚Å
-0.56594	‚¢ ‚¶‚å ‚Å
-0.350632	<unk> ‚É </unk>
-0.339421	‚± ‚ª </unk>
-0.339421	‚ç ‚ª </unk>
