[unifb]
-0.279982

\data\
ngram 1=46
ngram 2=110
ngram 3=98

\1-grams:
-0.374893	</unk>
-1.90311	‚±	-0.0755575
-1.91882	‚Ì	-0.0222219
-1.91882	‚Î	-0.0222219
-1.93513	‚µ‚¥	-0.0166837
-1.90311	‚È	-0.024987
-1.73224	‚Ü	-0.0266448
-1.91882	‚¦	-0.0222219
-1.91882	‚í	-0.0266448
-1.93513	‚Í	-0.0166837
-1.91882	‚«‚å	-0.0222219
-1.93513	‚¤	-0.0166837
-1.88794	‚ä	-0.106459
-1.93513	‚¹	-0.0166837
-1.90311	‚«	-0.0291297
-1.91882	‚ª	-0.024987
-1.91882	‚É	-0.024987
-1.90311	‚µ	-0.0951479
-1.90311	‚½	-0.024987
-1.93513	‚¿	-0.0222219
-1.91882	‚ç	-0.0222219
-1.93513	‚ 	-0.0166837
-1.90311	‚è	-0.106459
-1.72194	‚·	-0.122848
-1.90311	‚¯	-0.024987
-1.60993	‚¢	-0.138284
-1.90311	‚¶‚å	-0.024987
-1.91882	‚Å	-0.148751
-1.90311	‚¾	-0.024987
-1.91882	‚æ	-0.0222219
-1.90311	‚ñ	-0.148751
-1.90311	‚ë	-0.0266448
-1.93513	‚Ú	-0.0166837
-1.93513	‚Æ	-0.0166837
-1.93513	‚¨	-0.0166837
-1.91882	‚Ç	-0.024987
-1.93513	‚µ‚å	-0.0166837
-1.90311	‚Ý	-0.148751
-1.93513	‚®	-0.0166837
-1.93513	‚Ø	-0.0166837
-1.93513	‚Ä‚¡	-0.0166837
-1.93513	‚Â	-0.0222219
-1.91882	‚Õ	-0.195973
-1.93513	‚×	-0.0166837
-1.93513	‚â	-0.0166837
-1.93513	‚ð	-0.0166837

\2-grams:
-0.342874	‚É </unk>
-1.26134	‚É ‚È	-0.029512
-0.93519	‚¿ ‚ç	-0.0483266
-0.337444	‚  </unk>
-0.302765	‚ª </unk>
-0.366495	‚ç </unk>
-1.19764	‚ç ‚Å	-0.029512
-0.342874	‚½ </unk>
-1.2675	‚½ ‚×	-0.029512
-0.322482	‚« </unk>
-1.44069	‚« ‚Î	-0.029512
-1.4321	‚« ‚ä	-0.029512
-1.1114	‚¹ ‚«	-0.0483266
-0.420626	‚ä </unk>
-0.779746	‚ä ‚¹	-0.125622
-1.37372	‚ä ‚¯	-0.029512
-0.366495	‚«‚å </unk>
-1.20037	‚«‚å ‚¤	-0.029512
-1.0702	<unk> ‚±	-0.0927193
-2.02709	<unk> ‚Ì	-0.029512
-2.03778	<unk> ‚µ‚¥	-0.029512
-2.01665	<unk> ‚È	-0.029512
-1.89539	<unk> ‚Ü	-0.029512
-1.89999	<unk> ‚¦	-0.0483266
-1.4752	<unk> ‚í	-0.0613789
-1.89999	<unk> ‚«‚å	-0.0483266
-1.60051	<unk> ‚ä	-0.0613789
-1.23811	<unk> ‚«	-0.128674
-1.6085	<unk> ‚ª	-0.0613789
-1.6085	<unk> ‚É	-0.0613789
-1.19258	<unk> ‚µ	-0.1297
-1.89218	<unk> ‚½	-0.0483266
-2.03778	<unk> ‚ 	-0.029512
-1.43293	<unk> ‚è	-0.0709686
-1.71354	<unk> ‚·	-0.126974
-1.89218	<unk> ‚¯	-0.0483266
-1.25849	<unk> ‚¢	-0.128674
-1.89218	<unk> ‚¶‚å	-0.0483266
-1.66881	<unk> ‚Å	-0.0483266
-1.89218	<unk> ‚¾	-0.0483266
-2.02709	<unk> ‚æ	-0.029512
-1.89218	<unk> ‚ñ	-0.0483266
-1.60448	<unk> ‚ë	-0.0613789
-2.02709	<unk> ‚Ç	-0.029512
-2.03778	<unk> ‚µ‚å	-0.029512
-1.79555	<unk> ‚Ý	-0.0613789
-2.03778	<unk> ‚®	-0.029512
-2.03778	<unk> ‚Ø	-0.029512
-2.03778	<unk> ‚Ä‚¡	-0.029512
-1.89999	<unk> ‚Õ	-0.0483266
-2.03778	<unk> ‚ð	-0.029512
-0.39735	‚± </unk>
-1.50457	‚± ‚±	-0.029512
-1.50916	‚± ‚Ì	-0.029512
-0.944202	‚± ‚¿	-0.0483266
-1.50457	‚± ‚ë	-0.029512
-0.266579	‚µ </unk>
-1.42055	‚µ ‚Â	-0.0483266
-0.293309	‚Ü </unk>
-0.387067	‚È </unk>
-1.22173	‚È ‚Ü	-0.029512
-1.26134	‚È ‚è	-0.029512
-0.337444	‚µ‚¥ </unk>
-0.316332	‚Î </unk>
-1.19764	‚Ì ‚Î	-0.029512
-1.19492	‚Ì ‚È	-0.029512
-0.366495	‚¦ </unk>
-1.19764	‚¦ ‚í	-0.029512
-0.362921	‚í </unk>
-1.32285	‚í ‚Í	-0.029512
-1.31601	‚í ‚«	-0.029512
-0.420626	‚è </unk>
-1.32999	‚è ‚Ü	-0.029512
-0.755283	‚è ‚¢	-0.0483266
-0.244628	‚· </unk>
-0.337444	‚µ‚å </unk>
-0.245363	‚Ý </unk>
-1.11609	‚× ‚â	-0.029512
-0.366495	‚Â </unk>
-1.19492	‚Â ‚¾	-0.029512
-0.337444	‚Ø </unk>
-1.07873	‚® ‚·	-0.029512
-0.246392	‚Õ </unk>
-0.337444	‚Í </unk>
-1.11609	‚Ú ‚Æ	-0.029512
-0.337444	‚â </unk>
-1.10908	‚¤ ‚ä	-0.029512
-0.337444	‚¨ </unk>
-0.337444	‚Ä‚¡ </unk>
-0.337444	‚ð </unk>
-0.342874	‚Ç </unk>
-1.22173	‚Ç ‚Ü	-0.029512
-1.11609	‚Æ ‚¨	-0.029512
-0.362921	‚ë </unk>
-1.23255	‚ë ‚¢	-0.029512
-1.32285	‚ë ‚Ú	-0.029512
-0.245363	‚ñ </unk>
-0.316332	‚æ </unk>
-0.387067	‚¯ </unk>
-1.18544	‚¯ ‚¢	-0.029512
-1.26134	‚¯ ‚ñ	-0.029512
-0.26934	‚¢ </unk>
-1.48861	‚¢ ‚½	-0.029512
-1.48861	‚¢ ‚¶‚å	-0.029512
-1.49264	‚¢ ‚Ç	-0.0483266
-0.302765	‚¶‚å </unk>
-0.2803	‚Å </unk>
-1.23588	‚Å ‚·	-0.029512
-0.342874	‚¾ </unk>
-1.26441	‚¾ ‚æ	-0.029512

\3-grams:
-0.295325	<unk> ‚É </unk>
-0.907902	<unk> ‚É ‚È
-0.542671	‚± ‚¿ ‚ç
-0.281783	<unk> ‚  </unk>
-0.206165	<unk> ‚ª </unk>
-0.353072	‚¿ ‚ç </unk>
-0.830708	‚¿ ‚ç ‚Å
-0.285998	‚¢ ‚½ </unk>
-0.33448	<unk> ‚½ </unk>
-0.85368	<unk> ‚½ ‚×
-0.238808	‚¹ ‚« </unk>
-0.266563	<unk> ‚« </unk>
-1.06219	<unk> ‚« ‚Î
-1.0599	<unk> ‚« ‚ä
-0.270109	‚í ‚« </unk>
-0.489156	‚ä ‚¹ ‚«
-0.433919	<unk> ‚ä </unk>
-0.683201	<unk> ‚ä ‚¹
-0.942261	<unk> ‚ä ‚¯
-0.345016	‚« ‚ä </unk>
-0.579861	‚¤ ‚ä ‚¹
-0.353072	<unk> ‚«‚å </unk>
-0.831653	<unk> ‚«‚å ‚¤
-0.408028	<unk> ‚± </unk>
-1.17406	<unk> ‚± ‚±
-1.17538	<unk> ‚± ‚Ì
-0.780902	<unk> ‚± ‚¿
-1.17406	<unk> ‚± ‚ë
-0.327617	‚± ‚± </unk>
-0.234719	<unk> ‚µ </unk>
-0.777739	<unk> ‚µ ‚Â
-0.247095	‚È ‚Ü </unk>
-0.247095	‚è ‚Ü </unk>
-0.247095	‚Ç ‚Ü </unk>
-0.247095	<unk> ‚Ü </unk>
-0.783071	‚É ‚È ‚è
-0.319856	<unk> ‚È </unk>
-0.771056	‚Ì ‚È ‚Ü
-0.281783	<unk> ‚µ‚¥ </unk>
-0.265284	‚Ì ‚Î </unk>
-0.265284	‚« ‚Î </unk>
-0.762485	<unk> ‚Ì ‚È
-0.763369	‚± ‚Ì ‚Î
-0.353072	<unk> ‚¦ </unk>
-0.830708	<unk> ‚¦ ‚í
-0.301457	‚¦ ‚í </unk>
-0.388475	<unk> ‚í </unk>
-0.927471	<unk> ‚í ‚Í
-0.925388	<unk> ‚í ‚«
-0.382742	<unk> ‚è </unk>
-0.570372	<unk> ‚è ‚¢
-0.802136	‚È ‚è ‚Ü
-0.152917	<unk> ‚· </unk>
-0.207986	‚Å ‚· </unk>
-0.207986	‚® ‚· </unk>
-0.281783	<unk> ‚µ‚å </unk>
-0.170667	<unk> ‚Ý </unk>
-0.735142	‚½ ‚× ‚â
-0.353072	‚µ ‚Â </unk>
-0.829765	‚µ ‚Â ‚¾
-0.281783	<unk> ‚Ø </unk>
-0.721036	<unk> ‚® ‚·
-0.186706	<unk> ‚Õ </unk>
-0.281783	‚í ‚Í </unk>
-0.735142	‚ë ‚Ú ‚Æ
-0.281783	‚× ‚â </unk>
-0.732553	‚«‚å ‚¤ ‚ä
-0.281783	‚Æ ‚¨ </unk>
-0.281783	<unk> ‚Ä‚¡ </unk>
-0.281783	<unk> ‚ð </unk>
-0.285998	<unk> ‚Ç </unk>
-0.33448	‚¢ ‚Ç </unk>
-0.838911	‚¢ ‚Ç ‚Ü
-0.735142	‚Ú ‚Æ ‚¨
-0.388475	<unk> ‚ë </unk>
-0.898083	<unk> ‚ë ‚¢
-0.927471	<unk> ‚ë ‚Ú
-0.301457	‚± ‚ë </unk>
-0.208583	‚¯ ‚ñ </unk>
-0.185982	<unk> ‚ñ </unk>
-0.265284	<unk> ‚æ </unk>
-0.265284	‚¾ ‚æ </unk>
-0.826438	<unk> ‚¯ ‚¢
-0.851753	<unk> ‚¯ ‚ñ
-0.319856	‚ä ‚¯ </unk>
-0.202721	‚è ‚¢ </unk>
-0.838437	‚¯ ‚¢ ‚¶‚å
-0.27479	<unk> ‚¢ </unk>
-0.705245	<unk> ‚¢ ‚Ç
-0.838437	‚ë ‚¢ ‚½
-0.254591	‚¢ ‚¶‚å </unk>
-0.225585	<unk> ‚¶‚å </unk>
-0.284223	<unk> ‚Å </unk>
-0.843588	<unk> ‚Å ‚·
-0.236729	‚ç ‚Å </unk>
-0.33448	<unk> ‚¾ </unk>
-0.852716	<unk> ‚¾ ‚æ
-0.285998	‚Â ‚¾ </unk>
