[unifb]
-0.230008

\data\
ngram 1=28
ngram 2=59
ngram 3=48

\1-grams:
-0.455232	</unk>
-1.62918	‚²	-0.0338862
-1.62918	‚Ì	-0.0338862
-1.65964	‚Î	-0.0251185
-1.62918	‚µ	-0.0338862
-1.65964	‚È	-0.0338862
-1.60071	‚Ü	-0.038349
-1.65964	‚¦	-0.0251185
-1.42517	‚í	-0.038349
-1.65964	‚¬‚å	-0.0251185
-1.65964	‚ä	-0.0251185
-1.62918	‚¹	-0.0338862
-1.62918	‚«	-0.0410526
-1.62918	‚±	-0.038349
-1.62918	‚ª	-0.0338862
-1.62918	‚É	-0.0338862
-1.65964	‚¢	-0.0338862
-1.65964	‚½	-0.0251185
-1.62918	‚¿	-0.0338862
-1.62918	‚ç	-0.0338862
-1.65964	‚è	-0.0251185
-1.65964	‚·	-0.200454
-1.65964	‚¬‚ã	-0.0251185
-1.65964	‚¯	-0.0251185
-1.62918	‚¶‚å	-0.0338862
-1.62918	‚Å	-0.0338862
-1.65964	‚«‚ã	-0.0251185
-1.65964	‚æ	-0.0251185

\2-grams:
-1.16937	‚ç ‚ª	-0.0245569
-1.16937	‚ç ‚Å	-0.0245569
-0.413112	‚¯ </unk>
-0.386337	‚É </unk>
-0.45781	‚Ü </unk>
-1.21612	‚Ü ‚µ	-0.0245569
-1.22624	‚Ü ‚¦	-0.0245569
-1.12109	‚¬‚ã ‚¯	-0.0245569
-1.48478	<unk> ‚²	-0.042296
-1.62757	<unk> ‚Ì	-0.0245569
-1.27203	<unk> ‚È	-0.042296
-1.49206	<unk> ‚í	-0.0245569
-1.64592	<unk> ‚¬‚å	-0.0245569
-1.48478	<unk> ‚¹	-0.042296
-1.06914	<unk> ‚«	-0.0557208
-1.26417	<unk> ‚±	-0.042296
-1.62757	<unk> ‚ª	-0.0245569
-1.62757	<unk> ‚É	-0.0245569
-1.27203	<unk> ‚¢	-0.042296
-1.64592	<unk> ‚½	-0.0245569
-1.62757	<unk> ‚¿	-0.0245569
-1.48478	<unk> ‚ç	-0.042296
-1.64592	<unk> ‚è	-0.0245569
-1.27203	<unk> ‚·	-0.042296
-1.64592	<unk> ‚¬‚ã	-0.0245569
-1.64592	<unk> ‚«‚ã	-0.0245569
-1.64592	<unk> ‚æ	-0.0245569
-0.473223	‚« </unk>
-1.24492	‚« ‚Ü	-0.0245569
-1.25548	‚« ‚É	-0.0245569
-1.25548	‚« ‚¶‚å	-0.0245569
-1.04345	‚¦ ‚í	-0.0245569
-0.438384	‚Ì </unk>
-1.17873	‚Ì ‚Î	-0.0245569
-0.386337	‚Å </unk>
-1.11255	‚Î ‚µ	-0.0245569
-0.413112	‚«‚ã </unk>
-0.413112	‚½ </unk>
-1.12109	‚¬‚å ‚ä	-0.0245569
-1.10417	‚è ‚Ü	-0.0245569
-0.438384	‚¢ </unk>
-1.16937	‚¢ ‚¶‚å	-0.0245569
-0.413112	‚æ </unk>
-0.386337	‚µ </unk>
-0.316942	‚· </unk>
-0.438384	‚¹ </unk>
-1.16937	‚¹ ‚«	-0.0245569
-0.413112	‚ä </unk>
-0.386337	‚¿ </unk>
-1.16937	‚² ‚Ì	-0.0245569
-1.16937	‚² ‚¿	-0.0245569
-1.0943	‚¶‚å ‚í	-0.0245569
-1.16937	‚¶‚å ‚Å	-0.0245569
-0.410467	‚± </unk>
-1.21612	‚± ‚±	-0.0245569
-0.438384	‚È </unk>
-1.16021	‚È ‚Ü	-0.0245569
-0.386337	‚ª </unk>
-0.367781	‚í </unk>

\3-grams:
-1.03635	<unk> ‚ç ‚ª
-1.03635	<unk> ‚ç ‚Å
-0.390498	‚¬‚ã ‚¯ </unk>
-0.365875	<unk> ‚É </unk>
-0.365875	‚« ‚É </unk>
-1.04078	‚È ‚Ü ‚¦
-1.03437	‚« ‚Ü ‚µ
-0.431321	‚è ‚Ü </unk>
-0.971584	<unk> ‚¬‚ã ‚¯
-1.1143	<unk> ‚« ‚Ü
-1.12152	<unk> ‚« ‚É
-1.12152	<unk> ‚« ‚¶‚å
-0.445312	‚¹ ‚« </unk>
-0.916944	‚Ü ‚¦ ‚í
-1.01022	‚² ‚Ì ‚Î
-0.413624	<unk> ‚Ì </unk>
-0.365875	‚¶‚å ‚Å </unk>
-0.365875	‚ç ‚Å </unk>
-0.965713	‚Ì ‚Î ‚µ
-0.390498	<unk> ‚«‚ã </unk>
-0.390498	<unk> ‚½ </unk>
-0.971584	<unk> ‚¬‚å ‚ä
-0.959921	<unk> ‚è ‚Ü
-0.429409	<unk> ‚¢ </unk>
-1.03635	<unk> ‚¢ ‚¶‚å
-0.390498	<unk> ‚æ </unk>
-0.365875	‚Î ‚µ </unk>
-0.365875	‚Ü ‚µ </unk>
-0.291506	<unk> ‚· </unk>
-0.429409	<unk> ‚¹ </unk>
-1.03635	<unk> ‚¹ ‚«
-0.390498	‚¬‚å ‚ä </unk>
-0.365875	‚² ‚¿ </unk>
-0.365875	<unk> ‚¿ </unk>
-1.03635	<unk> ‚² ‚Ì
-1.03635	<unk> ‚² ‚¿
-1.00406	‚¢ ‚¶‚å ‚Å
-0.953059	‚« ‚¶‚å ‚í
-0.403537	<unk> ‚± </unk>
-1.0683	<unk> ‚± ‚±
-0.388071	‚± ‚± </unk>
-0.429409	<unk> ‚È </unk>
-1.02996	<unk> ‚È ‚Ü
-0.365875	<unk> ‚ª </unk>
-0.365875	‚ç ‚ª </unk>
-0.34874	<unk> ‚í </unk>
-0.34874	‚¦ ‚í </unk>
-0.34874	‚¶‚å ‚í </unk>
