[unifb]
-0.27976

\data\
ngram 1=37
ngram 2=77
ngram 3=57

\1-grams:
-0.393571	</unk>
-1.77969	‚±	-0.04039
-1.77969	‚È	-0.04039
-1.56273	‚Î	-0.048366
-1.74467	‚µ	-0.0453787
-1.77969	‚Ì	-0.04039
-1.81779	‚É‚á	-0.030375
-1.77969	‚Ü	-0.048366
-1.81779	‚¦	-0.030375
-1.74467	‚í	-0.0453787
-1.77969	‚«‚å	-0.168357
-1.81779	‚ä	-0.030375
-1.81779	‚¹	-0.030375
-1.77969	‚«	-0.0453787
-1.81779	‚¢	-0.224477
-1.81779	‚ª	-0.030375
-1.77969	‚É	-0.04039
-1.81779	‚½	-0.030375
-1.81779	‚¿	-0.030375
-1.81779	‚ç	-0.030375
-1.77969	‚è	-0.04039
-1.74467	‚·	-0.0453787
-1.81779	‚¬‚ã	-0.030375
-1.81779	‚¸	-0.030375
-1.81779	‚¯	-0.030375
-1.77969	‚¶‚å	-0.04039
-1.81779	‚Å	-0.030375
-1.81779	‚¾	-0.030375
-1.81779	‚æ	-0.030375
-1.77969	‚ë	-0.04039
-1.81779	‚Ú	-0.030375
-1.81779	‚Æ	-0.030375
-1.81779	‚ð	-0.030375
-1.81779	‚Ý	-0.030375
-1.81779	‚Å‚¡	-0.030375
-1.81779	‚¬	-0.030375
-1.81779	‚Ø	-0.030375

\2-grams:
-0.368296	‚Å </unk>
-0.368296	‚½ </unk>
-0.369696	‚· </unk>
-1.36783	‚· ‚Ø	-0.0180127
-0.368296	‚¸ </unk>
-0.256046	‚¢ </unk>
-1.46459	‚¢ ‚¶‚å	-0.0180127
-0.352258	‚È </unk>
-0.40023	‚« </unk>
-1.26784	‚« ‚Î	-0.0180127
-1.35512	‚« ‚É	-0.0180127
-0.368296	‚¹ </unk>
-0.368296	‚ä </unk>
-0.386648	‚± </unk>
-1.30703	‚± ‚È	-0.0180127
-0.280663	‚«‚å </unk>
-0.34117	‚í </unk>
-1.25789	‚¬‚ã ‚¸	-0.0180127
-1.70145	<unk> ‚±	-0.0304256
-1.81274	<unk> ‚È	-0.0180127
-1.34984	<unk> ‚Î	-0.0304256
-1.81274	<unk> ‚Ì	-0.0180127
-1.83936	<unk> ‚É‚á	-0.0180127
-1.22288	<unk> ‚Ü	-0.0395021
-1.83936	<unk> ‚¦	-0.0180127
-1.78766	<unk> ‚í	-0.0180127
-1.37551	<unk> ‚«‚å	-0.0395021
-1.83936	<unk> ‚ä	-0.0180127
-1.83936	<unk> ‚¹	-0.0180127
-1.37551	<unk> ‚«	-0.0395021
-0.985435	<unk> ‚¢	-0.0518906
-1.83936	<unk> ‚ª	-0.0180127
-1.81274	<unk> ‚É	-0.0180127
-1.83936	<unk> ‚½	-0.0180127
-1.83936	<unk> ‚¿	-0.0180127
-1.81274	<unk> ‚è	-0.0180127
-1.78766	<unk> ‚·	-0.0180127
-1.83936	<unk> ‚¬‚ã	-0.0180127
-1.83936	<unk> ‚¯	-0.0180127
-1.81274	<unk> ‚¶‚å	-0.0180127
-1.83936	<unk> ‚Å	-0.0180127
-1.83936	<unk> ‚¾	-0.0180127
-1.83936	<unk> ‚æ	-0.0180127
-1.70145	<unk> ‚ë	-0.0304256
-1.83936	<unk> ‚Ú	-0.0180127
-1.83936	<unk> ‚Ý	-0.0180127
-0.352258	‚ë </unk>
-0.352258	‚É </unk>
-0.368296	‚¾ </unk>
-0.40023	‚µ </unk>
-1.35512	‚µ ‚Ì	-0.0180127
-1.36783	‚µ ‚ð	-0.0180127
-0.368296	‚ª </unk>
-0.368296	‚É‚á </unk>
-0.368296	‚ð </unk>
-1.25789	‚Ý ‚Å‚¡	-0.0180127
-1.25789	‚Å‚¡ ‚¬	-0.0180127
-1.23733	‚¬ ‚·	-0.0180127
-1.23733	‚Ø ‚·	-0.0180127
-0.368296	‚æ </unk>
-0.386648	‚Ì </unk>
-1.2266	‚Ì ‚Î	-0.0180127
-1.25789	‚¿ ‚ç	-0.0180127
-1.25789	‚Ú ‚Æ	-0.0180127
-0.383237	‚Ü </unk>
-1.38169	‚Ü ‚µ	-0.0180127
-1.395	‚Ü ‚è	-0.0180127
-0.368296	‚Æ </unk>
-1.23733	‚¦ ‚í	-0.0180127
-0.352258	‚¶‚å </unk>
-0.368296	‚¯ </unk>
-0.368296	‚ç </unk>
-0.410692	‚Î </unk>
-1.17475	‚Î ‚µ	-0.0304256
-1.38169	‚Î ‚í	-0.0180127
-0.386648	‚è </unk>
-1.30703	‚è ‚Ü	-0.0180127

\3-grams:
-0.338277	<unk> ‚Å </unk>
-0.338277	<unk> ‚½ </unk>
-0.339514	<unk> ‚· </unk>
-1.02605	‚¬ ‚· ‚Ø
-0.339514	‚Ø ‚· </unk>
-0.338277	‚¬‚ã ‚¸ </unk>
-0.228299	<unk> ‚¢ </unk>
-1.22908	<unk> ‚¢ ‚¶‚å
-0.324083	‚± ‚È </unk>
-0.324083	<unk> ‚È </unk>
-0.408407	<unk> ‚« </unk>
-1.06508	<unk> ‚« ‚Î
-1.11133	<unk> ‚« ‚É
-0.338277	<unk> ‚¹ </unk>
-0.338277	<unk> ‚ä </unk>
-0.37827	<unk> ‚± </unk>
-1.04771	<unk> ‚± ‚È
-0.237529	<unk> ‚«‚å </unk>
-0.314234	‚¦ ‚í </unk>
-0.314234	<unk> ‚í </unk>
-0.314234	‚Î ‚í </unk>
-0.975241	<unk> ‚¬‚ã ‚¸
-0.306248	<unk> ‚ë </unk>
-0.324083	‚« ‚É </unk>
-0.324083	<unk> ‚É </unk>
-0.338277	<unk> ‚¾ </unk>
-0.366358	‚Ü ‚µ </unk>
-1.07115	‚Î ‚µ ‚Ì
-1.07712	‚Î ‚µ ‚ð
-0.338277	<unk> ‚ª </unk>
-0.338277	<unk> ‚É‚á </unk>
-0.338277	‚µ ‚ð </unk>
-0.975241	<unk> ‚Ý ‚Å‚¡
-0.975241	‚Ý ‚Å‚¡ ‚¬
-0.964974	‚Å‚¡ ‚¬ ‚·
-0.964974	‚· ‚Ø ‚·
-0.338277	<unk> ‚æ </unk>
-0.354445	‚µ ‚Ì </unk>
-0.959512	<unk> ‚Ì ‚Î
-0.975241	<unk> ‚¿ ‚ç
-0.975241	<unk> ‚Ú ‚Æ
-0.351447	‚è ‚Ü </unk>
-0.393053	<unk> ‚Ü </unk>
-1.12454	<unk> ‚Ü ‚µ
-1.13101	<unk> ‚Ü ‚è
-0.338277	‚Ú ‚Æ </unk>
-0.964974	<unk> ‚¦ ‚í
-0.324083	‚¢ ‚¶‚å </unk>
-0.324083	<unk> ‚¶‚å </unk>
-0.338277	<unk> ‚¯ </unk>
-0.338277	‚¿ ‚ç </unk>
-0.976397	<unk> ‚Î ‚µ
-1.08353	<unk> ‚Î ‚í
-0.375502	‚« ‚Î </unk>
-0.932214	‚Ì ‚Î ‚µ
-0.998808	<unk> ‚è ‚Ü
-0.354445	‚Ü ‚è </unk>
