[unifb]
-0.212797

\data\
ngram 1=22
ngram 2=43
ngram 3=35

\1-grams:
-0.471457	</unk>
-1.53615	‚±	-0.0412148
-1.50089	‚Ì	-0.036452
-1.53615	‚Î	-0.0270696
-1.53615	‚µ‚ã	-0.0270696
-1.50089	‚È	-0.036452
-1.50089	‚Ü	-0.0412148
-1.53615	‚¦	-0.0270696
-1.50089	‚í	-0.036452
-1.53615	‚«‚å	-0.0270696
-1.50089	‚ä	-0.161557
-1.50089	‚¹	-0.161557
-1.50089	‚«	-0.0412148
-1.50089	‚ª	-0.036452
-1.46827	‚¬‚å	-0.0412148
-1.53615	‚É	-0.036452
-1.53615	‚µ	-0.0270696
-1.53615	‚½	-0.0270696
-1.53615	‚¿	-0.0270696
-1.53615	‚ç	-0.0270696
-1.53615	‚è	-0.0270696
-1.53615	‚·	-0.0270696

\2-grams:
-1.01899	‚Ü ‚¦	-0.0417005
-1.01899	‚Ü ‚µ	-0.0417005
-1.01899	‚Ü ‚·	-0.0417005
-0.43881	‚È </unk>
-0.967948	‚È ‚Ü	-0.0417005
-0.387484	‚± </unk>
-1.01899	‚± ‚¿	-0.0417005
-0.915941	<unk> ‚±	-0.107342
-1.37738	<unk> ‚Ì	-0.0417005
-1.38799	<unk> ‚Î	-0.0417005
-1.08538	<unk> ‚Ü	-0.0769923
-1.08538	<unk> ‚ä	-0.0769923
-1.37738	<unk> ‚¹	-0.0417005
-1.08538	<unk> ‚«	-0.0769923
-1.37738	<unk> ‚ª	-0.0417005
-1.14318	<unk> ‚¬‚å	-0.0769923
-1.09076	<unk> ‚É	-0.0769923
-1.38799	<unk> ‚è	-0.0417005
-0.485218	‚ä </unk>
-0.703122	‚ä ‚¹	-0.0769923
-0.485218	‚¹ </unk>
-0.703122	‚¹ ‚«	-0.0936684
-0.43881	‚É </unk>
-0.967948	‚É ‚È	-0.0417005
-0.387484	‚¬‚å </unk>
-1.01036	‚¬‚å ‚ä	-0.0417005
-0.43881	‚ª </unk>
-0.959712	‚ª ‚¬‚å	-0.0417005
-0.316285	‚« </unk>
-0.43881	‚Ì </unk>
-0.967948	‚Ì ‚È	-0.0417005
-0.928167	‚Î ‚µ‚ã	-0.0417005
-0.399741	‚· </unk>
-0.399741	‚è </unk>
-0.399741	‚«‚å </unk>
-0.920015	‚ç ‚ª	-0.0417005
-0.967948	‚í ‚í	-0.0417005
-0.976343	‚í ‚«‚å	-0.0417005
-0.928167	‚¿ ‚ç	-0.0417005
-0.920015	‚¦ ‚í	-0.0417005
-0.399741	‚½ </unk>
-0.928167	‚µ ‚½	-0.0417005
-0.920015	‚µ‚ã ‚Ì	-0.0417005

\3-grams:
-0.862129	<unk> ‚Ü ‚µ
-0.862129	<unk> ‚Ü ‚·
-0.819296	‚È ‚Ü ‚¦
-0.78834	‚Ì ‚È ‚Ü
-0.394294	‚É ‚È </unk>
-0.352838	<unk> ‚± </unk>
-0.895542	<unk> ‚± ‚¿
-0.462209	<unk> ‚ä </unk>
-0.639796	<unk> ‚ä ‚¹
-0.60616	‚¬‚å ‚ä ‚¹
-0.551763	‚ä ‚¹ ‚«
-0.433264	<unk> ‚¹ </unk>
-0.422422	<unk> ‚É </unk>
-0.829526	<unk> ‚É ‚È
-0.350449	‚ª ‚¬‚å </unk>
-0.377741	<unk> ‚¬‚å </unk>
-0.856712	<unk> ‚¬‚å ‚ä
-0.783211	<unk> ‚ª ‚¬‚å
-0.394294	‚ç ‚ª </unk>
-0.270817	<unk> ‚« </unk>
-0.225087	‚¹ ‚« </unk>
-0.394294	<unk> ‚Ì </unk>
-0.78834	‚µ‚ã ‚Ì ‚È
-0.763233	<unk> ‚Î ‚µ‚ã
-0.360988	‚Ü ‚· </unk>
-0.360988	<unk> ‚è </unk>
-0.360988	‚í ‚«‚å </unk>
-0.757984	‚¿ ‚ç ‚ª
-0.78834	‚¦ ‚í ‚í
-0.793529	‚í ‚í ‚«‚å
-0.763233	‚± ‚¿ ‚ç
-0.757984	‚Ü ‚¦ ‚í
-0.360988	‚µ ‚½ </unk>
-0.763233	‚Ü ‚µ ‚½
-0.757984	‚Î ‚µ‚ã ‚Ì
