[unifb]
-0.192796

\data\
ngram 1=38
ngram 2=80
ngram 3=66

\1-grams:
-0.517623	</unk>
-1.7615	‚±	-0.0240988
-1.74024	‚Î	-0.238714
-1.74024	‚µ	-0.021689
-1.74024	‚Ì	-0.0180744
-1.70061	‚È	-0.102066
-1.52382	‚Ü	-0.150527
-1.7615	‚¦	-0.0180744
-1.74024	‚í	-0.0180744
-1.7615	‚«‚å	-0.0120502
-1.7615	‚ä	-0.0120502
-1.7615	‚¹	-0.0120502
-1.52382	‚«	-0.102066
-1.74024	‚ª	-0.238714
-1.7615	‚É	-0.0120502
-1.7615	‚½	-0.0120502
-1.7615	‚¿	-0.0120502
-1.7615	‚ç	-0.0120502
-1.74024	‚è	-0.116784
-1.74024	‚·	-0.0180744
-1.7615	‚¬‚ã	-0.0120502
-1.7615	‚¸	-0.0120502
-1.74024	‚¯	-0.0180744
-1.71997	‚¢	-0.0180744
-1.7615	‚¶‚å	-0.0180744
-1.71997	‚Å	-0.021689
-1.7615	‚¾	-0.116784
-1.74024	‚æ	-0.0180744
-1.7615	‚ë	-0.0180744
-1.7615	‚Ú	-0.0120502
-1.7615	‚Æ	-0.0120502
-1.7615	‚É‚á	-0.0120502
-1.7615	‚Ç	-0.0120502
-1.7615	‚ð	-0.0120502
-1.7615	‚Ý	-0.0120502
-1.7615	‚Å‚¡	-0.0120502
-1.7615	‚¬	-0.0120502
-1.7615	‚Ø	-0.0120502

\2-grams:
-1.07491	‚¢ ‚«	-0.0303375
-1.13671	‚¢ ‚¶‚å	-0.053228
-0.415697	‚ë </unk>
-0.413431	‚È </unk>
-1.22398	‚È ‚È	-0.0303375
-1.17232	‚È ‚Ü	-0.0303375
-0.486382	‚· </unk>
-1.13671	‚· ‚Ø	-0.0303375
-1.13216	‚Ì ‚Î	-0.0303375
-1.1232	‚Ì ‚È	-0.0303375
-0.415697	‚æ </unk>
-0.455144	‚¬‚ã </unk>
-0.878747	‚¯ ‚¢	-0.0984685
-1.09424	<unk> ‚±	-0.0855418
-1.41746	<unk> ‚Î	-0.053228
-1.41746	<unk> ‚µ	-0.053228
-1.77175	<unk> ‚Ì	-0.0303375
-1.75151	<unk> ‚È	-0.0303375
-1.18693	<unk> ‚Ü	-0.0711367
-1.41746	<unk> ‚í	-0.0984685
-1.78223	<unk> ‚«‚å	-0.0303375
-1.51089	<unk> ‚«	-0.053228
-1.41746	<unk> ‚ª	-0.053228
-1.78223	<unk> ‚É	-0.0303375
-1.41746	<unk> ‚è	-0.053228
-1.77175	<unk> ‚·	-0.0303375
-1.78223	<unk> ‚¬‚ã	-0.0303375
-1.78223	<unk> ‚¸	-0.0303375
-1.77175	<unk> ‚¯	-0.0303375
-1.76151	<unk> ‚¢	-0.0303375
-1.58856	<unk> ‚Å	-0.053228
-1.09424	<unk> ‚¾	-0.122977
-1.77175	<unk> ‚æ	-0.0303375
-1.42207	<unk> ‚ë	-0.053228
-1.78223	<unk> ‚Ú	-0.0303375
-1.78223	<unk> ‚Æ	-0.0303375
-1.78223	<unk> ‚É‚á	-0.0303375
-1.78223	<unk> ‚Ç	-0.0303375
-1.78223	<unk> ‚Ý	-0.0303375
-1.02052	‚¹ ‚«	-0.0303375
-1.07769	‚Ý ‚Å‚¡	-0.0303375
-1.07769	‚ä ‚¹	-0.0303375
-0.486382	‚¶‚å </unk>
-1.12766	‚¶‚å ‚Å	-0.0303375
-0.531564	‚± </unk>
-1.21426	‚± ‚È	-0.0303375
-1.22453	‚± ‚í	-0.0303375
-1.22976	‚± ‚¿	-0.0303375
-0.385404	‚è </unk>
-1.13379	‚è ‚Ü	-0.0303375
-1.0735	‚¬ ‚·	-0.0303375
-0.287946	‚Î </unk>
-0.388424	‚Å </unk>
-1.07769	‚Å‚¡ ‚¬	-0.0303375
-0.365846	‚« </unk>
-1.17232	‚« ‚Ü	-0.0303375
-0.385404	‚¾ </unk>
-1.19104	‚¾ ‚æ	-0.0984685
-1.18177	‚µ ‚Ì	-0.0303375
-1.18666	‚µ ‚½	-0.0303375
-1.18666	‚µ ‚ð	-0.0303375
-0.415697	‚¦ </unk>
-0.455144	‚Æ </unk>
-0.455144	‚É‚á </unk>
-0.415697	‚í </unk>
-1.0735	‚ð ‚ª	-0.0303375
-1.07769	‚¿ ‚ç	-0.0303375
-1.0735	‚¸ ‚¯	-0.0303375
-0.455144	‚ç </unk>
-0.287946	‚ª </unk>
-0.455144	‚É </unk>
-0.455144	‚Ø </unk>
-0.455144	‚½ </unk>
-0.479005	‚Ü </unk>
-1.31268	‚Ü ‚µ	-0.0303375
-0.854048	‚Ü ‚¦	-0.053228
-1.31268	‚Ü ‚è	-0.0303375
-0.455144	‚Ú </unk>
-0.455144	‚Ç </unk>
-1.07769	‚«‚å ‚ä	-0.0303375

\3-grams:
-0.678154	<unk> ‚¢ ‚«
-0.447642	‚¯ ‚¢ ‚¶‚å
-0.284051	<unk> ‚ë </unk>
-0.724171	‚± ‚È ‚È
-0.70945	‚È ‚È ‚Ü
-0.327687	‚Ì ‚È </unk>
-0.327687	<unk> ‚È </unk>
-0.378056	<unk> ‚· </unk>
-0.698558	‚¬ ‚· ‚Ø
-0.694263	‚µ ‚Ì ‚È
-0.697122	<unk> ‚Ì ‚Î
-0.32929	<unk> ‚æ </unk>
-0.242197	‚¾ ‚æ </unk>
-0.356809	<unk> ‚¬‚ã </unk>
-0.599847	‚¸ ‚¯ ‚¢
-0.599847	<unk> ‚¯ ‚¢
-0.658549	‚ä ‚¹ ‚«
-0.679113	<unk> ‚Ý ‚Å‚¡
-0.679113	‚«‚å ‚ä ‚¹
-0.438139	‚¢ ‚¶‚å </unk>
-0.773567	‚¢ ‚¶‚å ‚Å
-0.552713	<unk> ‚± </unk>
-0.917233	<unk> ‚± ‚È
-0.920744	<unk> ‚± ‚í
-0.922511	<unk> ‚± ‚¿
-0.365322	<unk> ‚è </unk>
-0.775673	<unk> ‚è ‚Ü
-0.307652	‚Ü ‚è </unk>
-0.677665	‚Å‚¡ ‚¬ ‚·
-0.206021	<unk> ‚Î </unk>
-0.235227	‚Ì ‚Î </unk>
-0.309829	‚¶‚å ‚Å </unk>
-0.268146	<unk> ‚Å </unk>
-0.679113	‚Ý ‚Å‚¡ ‚¬
-0.350686	<unk> ‚« </unk>
-0.788455	<unk> ‚« ‚Ü
-0.293456	‚¹ ‚« </unk>
-0.293456	‚¢ ‚« </unk>
-0.382522	<unk> ‚¾ </unk>
-0.585022	<unk> ‚¾ ‚æ
-0.713663	‚Ü ‚µ ‚½
-0.791474	<unk> ‚µ ‚Ì
-0.793022	<unk> ‚µ ‚ð
-0.284051	‚Ü ‚¦ </unk>
-0.356809	<unk> ‚Æ </unk>
-0.356809	<unk> ‚É‚á </unk>
-0.242197	<unk> ‚í </unk>
-0.32929	‚± ‚í </unk>
-0.677665	‚µ ‚ð ‚ª
-0.679113	‚± ‚¿ ‚ç
-0.677665	<unk> ‚¸ ‚¯
-0.356809	‚¿ ‚ç </unk>
-0.206021	<unk> ‚ª </unk>
-0.235227	‚ð ‚ª </unk>
-0.356809	<unk> ‚É </unk>
-0.356809	‚· ‚Ø </unk>
-0.356809	‚µ ‚½ </unk>
-0.588461	‚È ‚Ü ‚¦
-0.478482	<unk> ‚Ü </unk>
-0.71335	<unk> ‚Ü ‚¦
-0.89453	<unk> ‚Ü ‚è
-0.746642	‚« ‚Ü ‚µ
-0.373083	‚è ‚Ü </unk>
-0.356809	<unk> ‚Ú </unk>
-0.356809	<unk> ‚Ç </unk>
-0.679113	<unk> ‚«‚å ‚ä
