[unifb]
-0.287575

\data\
ngram 1=44
ngram 2=100
ngram 3=87

\1-grams:
-0.420145	</unk>
-1.90995	‚¨	-0.040231
-1.45882	‚±	-0.118497
-1.90995	‚Ì	-0.0434877
-1.90995	‚Î	-0.040231
-1.68539	‚µ	-0.0434877
-1.88116	‚È	-0.249519
-1.66799	‚Ü	-0.18024
-1.88116	‚í	-0.249519
-1.88116	‚«‚å	-0.040231
-1.90995	‚¤	-0.0328519
-1.85416	‚ä	-0.184119
-1.90995	‚¹	-0.0328519
-1.80473	‚«	-0.118497
-1.85416	‚ª	-0.0453223
-1.90995	‚É	-0.040231
-1.90995	‚½	-0.0328519
-1.90995	‚¿	-0.0328519
-1.90995	‚ç	-0.0328519
-1.68539	‚è	-0.131676
-1.66799	‚·	-0.473583
-1.90995	‚¬‚ã	-0.0328519
-1.88116	‚¯	-0.040231
-1.82874	‚¢	-0.0473186
-1.90995	‚¶‚å	-0.0328519
-1.88116	‚Å	-0.450366
-1.90995	‚¦	-0.0328519
-1.85416	‚¾	-0.184119
-1.88116	‚æ	-0.0434877
-1.88116	‚ë	-0.040231
-1.90995	‚Ú	-0.0328519
-1.90995	‚Æ	-0.0328519
-1.82874	‚Ç	-0.292014
-1.90995	‚²	-0.0328519
-1.88116	‚Ñ	-0.249519
-1.90995	‚Å‚¡	-0.249519
-1.88116	‚ñ	-0.0453223
-1.90995	‚®	-0.0328519
-1.90995	‚Ø	-0.0328519
-1.90995	‚Â	-0.0328519
-1.88116	‚Õ	-0.249519
-1.90995	‚×	-0.0328519
-1.90995	‚â	-0.040231
-1.90995	‚Ï	-0.0328519

\2-grams:
-0.469955	‚ª </unk>
-1.0548	‚ª ‚«‚å	-0.0793366
-1.05197	‚ª ‚ä	-0.0793366
-1.0548	‚ª ‚Õ	-0.0793366
-0.87996	‚É ‚È	-0.0793366
-0.873703	‚É ‚«	-0.0793366
-0.31554	‚½ </unk>
-0.751501	‚¿ ‚ç	-0.0793366
-0.31554	‚ç </unk>
-0.242458	‚è </unk>
-1.09777	‚è ‚Ü	-0.0793366
-0.331271	‚« </unk>
-1.17596	‚« ‚ä	-0.0793366
-0.900373	‚« ‚Ç	-0.121358
-0.749783	‚¬‚ã ‚¯	-0.0793366
-0.744669	‚¹ ‚«	-0.0793366
-0.271761	‚ä </unk>
-0.985846	‚ä ‚¹	-0.0793366
-0.0936665	‚· </unk>
-1.61207	<unk> ‚¨	-0.121358
-1.27945	<unk> ‚±	-0.165351
-1.41811	<unk> ‚Ì	-0.147495
-1.61207	<unk> ‚Î	-0.121358
-1.583	<unk> ‚µ	-0.147495
-1.95931	<unk> ‚È	-0.0793366
-1.46889	<unk> ‚Ü	-0.147495
-1.95931	<unk> ‚í	-0.0793366
-1.95931	<unk> ‚«‚å	-0.0793366
-1.97159	<unk> ‚¤	-0.0793366
-1.94738	<unk> ‚ä	-0.0793366
-1.41934	<unk> ‚«	-0.165351
-1.29057	<unk> ‚ª	-0.235498
-1.61207	<unk> ‚É	-0.121358
-1.97159	<unk> ‚½	-0.0793366
-1.47282	<unk> ‚è	-0.147495
-1.08209	<unk> ‚·	-0.188203
-1.97159	<unk> ‚¬‚ã	-0.0793366
-1.28798	<unk> ‚¢	-0.178334
-1.1414	<unk> ‚Å	-0.188203
-1.97159	<unk> ‚¦	-0.0793366
-1.75698	<unk> ‚¾	-0.121358
-1.95931	<unk> ‚æ	-0.0793366
-1.95931	<unk> ‚ë	-0.0793366
-1.76464	<unk> ‚Ñ	-0.121358
-1.41464	<unk> ‚ñ	-0.147495
-1.97159	<unk> ‚Ø	-0.0793366
-1.95931	<unk> ‚Õ	-0.0793366
-1.97159	<unk> ‚×	-0.0793366
-1.61207	<unk> ‚â	-0.121358
-1.97159	<unk> ‚Ï	-0.0793366
-0.31554	‚¤ </unk>
-0.38427	‚Ü </unk>
-1.23214	‚Ü ‚í	-0.0793366
-0.751289	‚Ü ‚è	-0.121358
-1.20169	‚Ü ‚·	-0.0793366
-0.205532	‚È </unk>
-0.4358	‚µ </unk>
-0.979858	‚µ ‚²	-0.0793366
-0.979858	‚µ ‚Â	-0.0793366
-0.274744	‚Î </unk>
-0.252916	‚Ì </unk>
-0.331271	‚± </unk>
-1.10415	‚± ‚±	-0.0793366
-1.18235	‚± ‚¿	-0.0793366
-1.17915	‚± ‚ë	-0.0793366
-0.274744	‚¨ </unk>
-0.205532	‚í </unk>
-0.274744	‚«‚å </unk>
-0.31554	‚× </unk>
-0.205532	‚Õ </unk>
-0.31554	‚Â </unk>
-0.31554	‚Ø </unk>
-0.733164	‚® ‚·	-0.0793366
-0.378783	‚ñ </unk>
-1.0548	‚ñ ‚¯	-0.0793366
-1.05765	‚ñ ‚®	-0.0793366
-0.205532	‚Å‚¡ </unk>
-0.39869	‚Ñ ‚Å‚¡	-0.121358
-0.31554	‚² </unk>
-0.31554	‚Ï </unk>
-0.387956	‚â </unk>
-0.877864	‚â ‚¾	-0.0793366
-1.01667	‚Ç ‚±	-0.0793366
-0.356252	‚Ç ‚Ü	-0.147495
-0.31554	‚Æ </unk>
-0.751501	‚Ú ‚Æ	-0.0793366
-0.875779	‚¯ ‚¢	-0.0793366
-0.87996	‚¯ ‚ñ	-0.0793366
-0.37444	‚¢ </unk>
-1.1766	‚¢ ‚¶‚å	-0.0793366
-0.896743	‚¢ ‚Ç	-0.121358
-0.31554	‚¶‚å </unk>
-0.145103	‚Å </unk>
-1.17769	‚Å ‚·	-0.0793366
-0.31554	‚¦ </unk>
-0.491736	‚¾ </unk>
-0.499804	‚¾ ‚æ	-0.121358
-0.252916	‚æ </unk>
-0.387956	‚ë </unk>
-0.882066	‚ë ‚Ú	-0.0793366

\3-grams:
-0.361846	<unk> ‚ª </unk>
-1.09	<unk> ‚ª ‚«‚å
-1.08751	<unk> ‚ª ‚ä
-1.09	<unk> ‚ª ‚Õ
-0.838528	<unk> ‚É ‚È
-0.833039	<unk> ‚É ‚«
-0.304249	<unk> ‚½ </unk>
-0.704417	‚± ‚¿ ‚ç
-0.304249	‚¿ ‚ç </unk>
-0.23944	<unk> ‚è </unk>
-1.04313	<unk> ‚è ‚Ü
-0.230972	‚Ü ‚è </unk>
-0.340713	<unk> ‚« </unk>
-1.12388	<unk> ‚« ‚ä
-0.844268	<unk> ‚« ‚Ç
-0.319185	‚¹ ‚« </unk>
-0.319185	‚É ‚« </unk>
-0.702913	<unk> ‚¬‚ã ‚¯
-0.698432	‚ä ‚¹ ‚«
-0.901604	<unk> ‚ä ‚¹
-0.262544	‚« ‚ä </unk>
-0.262544	‚ª ‚ä </unk>
-0.0910959	‚Å ‚· </unk>
-0.0910959	‚® ‚· </unk>
-0.0883292	<unk> ‚· </unk>
-0.0910959	‚Ü ‚· </unk>
-0.304249	<unk> ‚¤ </unk>
-0.387814	<unk> ‚Ü </unk>
-1.15369	<unk> ‚Ü ‚í
-1.12917	<unk> ‚Ü ‚·
-0.387814	‚Ç ‚Ü </unk>
-0.703411	‚Ç ‚Ü ‚è
-0.369294	‚è ‚Ü </unk>
-0.199098	‚É ‚È </unk>
-0.199098	<unk> ‚È </unk>
-0.437467	<unk> ‚µ </unk>
-0.941576	<unk> ‚µ ‚²
-0.941576	<unk> ‚µ ‚Â
-0.261218	<unk> ‚Î </unk>
-0.23866	<unk> ‚Ì </unk>
-0.319185	‚± ‚± </unk>
-0.329822	<unk> ‚± </unk>
-1.06239	<unk> ‚± ‚±
-1.12927	<unk> ‚± ‚¿
-1.04949	‚Ç ‚± ‚ë
-0.261218	<unk> ‚¨ </unk>
-0.199098	<unk> ‚í </unk>
-0.199098	‚Ü ‚í </unk>
-0.265392	‚ª ‚«‚å </unk>
-0.265392	<unk> ‚«‚å </unk>
-0.304249	<unk> ‚× </unk>
-0.199098	<unk> ‚Õ </unk>
-0.199098	‚ª ‚Õ </unk>
-0.304249	‚µ ‚Â </unk>
-0.304249	<unk> ‚Ø </unk>
-0.688328	‚ñ ‚® ‚·
-0.364121	‚¯ ‚ñ </unk>
-0.382514	<unk> ‚ñ </unk>
-1.00657	<unk> ‚ñ ‚¯
-1.00901	<unk> ‚ñ ‚®
-0.196212	‚Ñ ‚Å‚¡ </unk>
-0.375881	<unk> ‚Ñ ‚Å‚¡
-0.304249	‚µ ‚² </unk>
-0.304249	<unk> ‚Ï </unk>
-0.38452	<unk> ‚â </unk>
-0.836691	<unk> ‚â ‚¾
-0.955823	‚¢ ‚Ç ‚±
-0.354146	‚¢ ‚Ç ‚Ü
-0.3369	‚« ‚Ç ‚Ü
-0.304249	‚Ú ‚Æ </unk>
-0.704417	‚ë ‚Ú ‚Æ
-0.811089	‚¬‚ã ‚¯ ‚¢
-0.8146	‚ñ ‚¯ ‚ñ
-0.365529	<unk> ‚¢ </unk>
-0.852972	<unk> ‚¢ ‚Ç
-1.04764	‚¯ ‚¢ ‚¶‚å
-0.304249	‚¢ ‚¶‚å </unk>
-0.141461	<unk> ‚Å </unk>
-1.14526	<unk> ‚Å ‚·
-0.304249	<unk> ‚¦ </unk>
-0.483237	<unk> ‚¾ </unk>
-0.490861	<unk> ‚¾ ‚æ
-0.477254	‚â ‚¾ ‚æ
-0.240784	‚¾ ‚æ </unk>
-0.244532	<unk> ‚æ </unk>
-0.372766	‚± ‚ë </unk>
-0.816366	<unk> ‚ë ‚Ú
