[unifb]
-0.249782

\data\
ngram 1=46
ngram 2=105
ngram 3=90

\1-grams:
-0.367567	</unk>
-1.91226	‚²	-0.0109339
-1.90285	‚Î	-0.0122709
-1.91226	‚µ‚å	-0.0082405
-1.91226	‚È	-0.235529
-1.90285	‚Ü	-0.0929352
-1.91226	‚¦	-0.0082405
-1.91226	‚í	-0.110209
-1.91226	‚«‚å	-0.0109339
-1.90285	‚ä	-0.0109339
-1.91226	‚¹	-0.0082405
-1.89364	‚«	-0.0929352
-1.88463	‚±	-0.16037
-1.91226	‚ª	-0.0082405
-1.91226	‚É	-0.235529
-1.90285	‚µ	-0.0109339
-1.90285	‚½	-0.0109339
-1.89364	‚¿	-0.492251
-1.91226	‚ç	-0.190074
-1.89364	‚è	-0.0810361
-1.87579	‚·	-0.190074
-1.91226	‚¬‚ã	-0.137591
-1.89364	‚¯	-0.110209
-1.88463	‚¢	-0.139394
-1.90285	‚¶‚å	-0.0122709
-1.91226	‚Å	-0.0109339
-1.89364	‚¾	-0.315395
-1.91226	‚æ	-0.257509
-1.91226	‚ë	-0.0109339
-1.91226	‚Ú	-0.0082405
-1.91226	‚Æ	-0.0082405
-1.90285	‚Ç	-0.110209
-1.91226	‚Ý	-0.0082405
-1.91226	‚Ä	-0.0082405
-1.89364	‚ñ	-0.0810361
-1.91226	‚®	-0.0109339
-1.91226	‚Ø	-0.0082405
-1.91226	‚Ó‚§	-0.0082405
-1.91226	‚Â	-0.0082405
-1.91226	‚¬‚å	-0.0082405
-1.91226	‚Ô	-0.0082405
-1.90285	‚×	-0.0109339
-1.90285	‚â	-0.0109339
-1.91226	‚Û	-0.0082405
-1.91226	‚Ï	-0.18779
-1.91226	‚ 	-0.0082405

\2-grams:
-0.354037	‚è </unk>
-1.12418	‚è ‚¾	-0.0663475
-0.746919	‚è ‚ñ	-0.115158
-0.292537	‚ª </unk>
-0.351134	‚µ </unk>
-0.899448	‚µ ‚½	-0.0663475
-0.160181	‚ç </unk>
-0.276304	‚¬‚ã </unk>
-0.969876	‚¬‚ã ‚¯	-0.0663475
-0.197183	‚± </unk>
-1.12685	‚± ‚¿	-0.115158
-0.397102	‚« </unk>
-0.700698	‚« ‚Î	-0.115158
-1.07917	‚« ‚¾	-0.0663475
-1.71819	<unk> ‚²	-0.115158
-1.40206	<unk> ‚È	-0.182798
-1.11292	<unk> ‚Ü	-0.337051
-1.3022	<unk> ‚í	-0.236358
-1.53198	<unk> ‚«‚å	-0.186295
-1.80573	<unk> ‚ä	-0.115158
-1.27471	<unk> ‚«	-0.25501
-1.33284	<unk> ‚±	-0.236358
-2.05109	<unk> ‚ª	-0.0663475
-1.15271	<unk> ‚É	-0.326988
-1.58615	<unk> ‚¿	-0.152792
-1.53056	<unk> ‚è	-0.152792
-1.71386	<unk> ‚·	-0.151463
-1.40206	<unk> ‚¬‚ã	-0.2139
-1.44157	<unk> ‚¯	-0.2139
-1.15183	<unk> ‚¢	-0.326988
-2.04875	<unk> ‚¶‚å	-0.0663475
-1.71819	<unk> ‚Å	-0.115158
-1.22036	<unk> ‚¾	-0.315135
-1.53198	<unk> ‚ë	-0.186295
-2.05109	<unk> ‚Ú	-0.0663475
-2.05109	<unk> ‚Æ	-0.0663475
-1.7171	<unk> ‚Ç	-0.115158
-2.05109	<unk> ‚Ý	-0.0663475
-1.71819	<unk> ‚®	-0.115158
-1.71819	<unk> ‚Ø	-0.151463
-2.05109	<unk> ‚Ó‚§	-0.0663475
-2.05109	<unk> ‚Â	-0.0663475
-2.05109	<unk> ‚¬‚å	-0.0663475
-2.05109	<unk> ‚Ô	-0.0663475
-2.04875	<unk> ‚â	-0.0663475
-2.05109	<unk> ‚Û	-0.0663475
-2.05109	<unk> ‚ 	-0.0663475
-0.351134	‚² </unk>
-0.899448	‚² ‚Î	-0.0663475
-0.160181	‚· </unk>
-0.292537	‚¹ </unk>
-0.263081	‚¿ ‚ç	-0.207336
-0.351134	‚½ </unk>
-0.899448	‚½ ‚×	-0.0663475
-0.169435	‚É </unk>
-0.169435	‚È </unk>
-0.292537	‚µ‚å </unk>
-0.397279	‚Î </unk>
-0.968702	‚Î ‚µ‚å	-0.0663475
-0.967941	‚Î ‚µ	-0.0663475
-0.355683	‚Ü </unk>
-1.0808	‚Ü ‚¦	-0.0663475
-1.07917	‚Ü ‚è	-0.115158
-1.07755	‚Ü ‚·	-0.0663475
-0.292537	‚¦ </unk>
-0.186381	‚í </unk>
-0.250281	‚«‚å </unk>
-0.900157	‚ä ‚¹	-0.0663475
-0.899448	‚ä ‚µ	-0.0663475
-0.458387	‚¯ </unk>
-0.6476	‚¯ ‚¢	-0.151463
-1.02829	‚¯ ‚ñ	-0.0663475
-0.469478	‚¢ </unk>
-1.168	‚¢ ‚¶‚å	-0.115158
-1.168	‚¢ ‚Ç	-0.115158
-0.59108	‚¢ ‚ñ	-0.2139
-0.518186	‚Ï ‚×	-0.151463
-0.250281	‚â </unk>
-0.351134	‚× </unk>
-0.899448	‚× ‚â	-0.0663475
-0.292537	‚Â </unk>
-0.815029	‚Ø ‚·	-0.151463
-0.292537	‚Ó‚§ </unk>
-0.292537	‚¬‚å </unk>
-0.815682	‚Ô ‚¢	-0.0663475
-0.816336	‚Û ‚è	-0.0663475
-0.815682	‚  ‚±	-0.0663475
-0.351134	‚® </unk>
-0.897327	‚® ‚·	-0.0663475
-0.354037	‚ñ </unk>
-1.12505	‚ñ ‚½	-0.0663475
-0.747642	‚ñ ‚Ï	-0.115158
-0.815682	‚Ä ‚¢	-0.0663475
-0.817647	‚Ý ‚Ä	-0.0663475
-0.247821	‚Ç </unk>
-1.02753	‚Ç ‚±	-0.0663475
-0.292537	‚Æ </unk>
-0.292537	‚Ú </unk>
-0.250281	‚ë </unk>
-0.536939	‚¾ </unk>
-0.366409	‚¾ ‚æ	-0.270761
-0.223055	‚¶‚å </unk>
-0.351134	‚Å </unk>
-0.897327	‚Å ‚·	-0.0663475
-0.140494	‚æ </unk>

\3-grams:
-0.272852	<unk> ‚è </unk>
-0.616728	<unk> ‚è ‚ñ
-0.469651	‚Û ‚è ‚ñ
-0.33639	‚Ü ‚è </unk>
-0.676009	‚Ü ‚è ‚¾
-0.217946	<unk> ‚ª </unk>
-0.528101	‚Î ‚µ ‚½
-0.2568	‚ä ‚µ </unk>
-0.0699055	‚¿ ‚ç </unk>
-0.193749	<unk> ‚¬‚ã </unk>
-0.763023	<unk> ‚¬‚ã ‚¯
-0.215879	<unk> ‚± </unk>
-0.592243	<unk> ‚± ‚¿
-0.151071	‚  ‚± </unk>
-0.151071	‚Ç ‚± </unk>
-0.334189	<unk> ‚« </unk>
-0.566352	<unk> ‚« ‚Î
-0.890445	<unk> ‚« ‚¾
-0.334491	<unk> ‚² </unk>
-0.609925	<unk> ‚² ‚Î
-0.123972	‚Ü ‚· </unk>
-0.123972	‚® ‚· </unk>
-0.0988037	<unk> ‚· </unk>
-0.123972	‚Å ‚· </unk>
-0.0988037	‚Ø ‚· </unk>
-0.217946	‚ä ‚¹ </unk>
-0.136637	<unk> ‚¿ ‚ç
-0.160647	‚± ‚¿ ‚ç
-0.2568	‚µ ‚½ </unk>
-0.528101	‚ñ ‚½ ‚×
-0.0568067	<unk> ‚É </unk>
-0.0816604	<unk> ‚È </unk>
-0.217946	‚Î ‚µ‚å </unk>
-0.550589	‚² ‚Î ‚µ‚å
-0.364154	‚« ‚Î </unk>
-0.63265	‚« ‚Î ‚µ
-0.315226	<unk> ‚Ü </unk>
-0.973578	<unk> ‚Ü ‚¦
-0.714308	<unk> ‚Ü ‚è
-0.972672	<unk> ‚Ü ‚·
-0.217946	‚Ü ‚¦ </unk>
-0.0775176	<unk> ‚í </unk>
-0.126385	<unk> ‚«‚å </unk>
-0.610173	<unk> ‚ä ‚¹
-0.609925	<unk> ‚ä ‚µ
-0.424622	‚¬‚ã ‚¯ ‚¢
-0.367183	<unk> ‚¯ </unk>
-0.632005	<unk> ‚¯ ‚¢
-0.780876	<unk> ‚¯ ‚ñ
-0.396473	‚Ä ‚¢ ‚ñ
-0.414391	‚¯ ‚¢ ‚¶‚å
-0.407227	<unk> ‚¢ </unk>
-0.689058	<unk> ‚¢ ‚Ç
-0.558847	<unk> ‚¢ ‚ñ
-0.396473	‚Ô ‚¢ ‚ñ
-0.279147	‚ñ ‚Ï ‚×
-0.188852	‚× ‚â </unk>
-0.188852	<unk> ‚â </unk>
-0.197758	‚Ï ‚× </unk>
-0.528101	‚½ ‚× ‚â
-0.217946	<unk> ‚Â </unk>
-0.355245	<unk> ‚Ø ‚·
-0.217946	<unk> ‚Ó‚§ </unk>
-0.217946	<unk> ‚¬‚å </unk>
-0.497569	<unk> ‚Ô ‚¢
-0.497822	<unk> ‚Û ‚è
-0.497569	<unk> ‚  ‚±
-0.334491	<unk> ‚® </unk>
-0.609183	<unk> ‚® ‚·
-0.258678	‚¯ ‚ñ </unk>
-0.225186	‚¢ ‚ñ </unk>
-0.806926	‚¢ ‚ñ ‚½
-0.355427	‚è ‚ñ ‚Ï
-0.497569	‚Ý ‚Ä ‚¢
-0.498329	<unk> ‚Ý ‚Ä
-0.264121	<unk> ‚Ç </unk>
-0.650522	<unk> ‚Ç ‚±
-0.152378	‚¢ ‚Ç </unk>
-0.217946	<unk> ‚Æ </unk>
-0.217946	<unk> ‚Ú </unk>
-0.126385	<unk> ‚ë </unk>
-0.675688	<unk> ‚¾ </unk>
-0.170573	<unk> ‚¾ ‚æ
-0.266634	‚« ‚¾ ‚æ
-0.266634	‚è ‚¾ ‚æ
-0.138674	‚¢ ‚¶‚å </unk>
-0.169646	<unk> ‚¶‚å </unk>
-0.334491	<unk> ‚Å </unk>
-0.609183	<unk> ‚Å ‚·
-0.0510811	‚¾ ‚æ </unk>
