[unifb]
-0.30589

\data\
ngram 1=34
ngram 2=69
ngram 3=53

\1-grams:
-0.383143	</unk>
-1.81222	‚¤	-0.021966
-1.7775	‚±	-0.0415523
-1.81222	‚Ì	-0.0311386
-1.7775	‚Î	-0.0311386
-1.7775	‚µ	-0.0311386
-1.74536	‚È	-0.144607
-1.57713	‚Ü	-0.113789
-1.7775	‚¦	-0.0311386
-1.81222	‚í	-0.144607
-1.81222	‚Í	-0.021966
-1.57713	‚«‚å	-0.0311386
-1.7775	‚¨	-0.036175
-1.7775	‚ä	-0.175988
-1.81222	‚¹	-0.021966
-1.55659	‚«	-0.113789
-1.81222	‚ª	-0.0311386
-1.81222	‚É	-0.021966
-1.81222	‚½	-0.021966
-1.81222	‚¿	-0.0311386
-1.57713	‚ç	-0.0311386
-1.74536	‚¾	-0.0311386
-1.81222	‚è	-0.0311386
-1.7775	‚·	-0.036175
-1.7775	‚¬‚ã	-0.0311386
-1.81222	‚¯	-0.021966
-1.81222	‚¢	-0.021966
-1.81222	‚¶‚å	-0.021966
-1.7775	‚Å	-0.175988
-1.7775	‚æ	-0.175988
-1.81222	‚ë	-0.021966
-1.81222	‚Ú	-0.021966
-1.81222	‚Æ	-0.021966
-1.81222	‚Ç	-0.021966

\2-grams:
-1.86435	<unk> ‚¤	-0.0519965
-0.874499	<unk> ‚±	-0.286326
-1.47428	<unk> ‚Ì	-0.0825083
-1.84802	<unk> ‚µ	-0.0519965
-1.06947	<unk> ‚Ü	-0.127535
-1.13475	<unk> ‚í	-0.177858
-1.86435	<unk> ‚Í	-0.0519965
-1.34251	<unk> ‚«‚å	-0.173573
-1.84802	<unk> ‚¨	-0.0519965
-1.66626	<unk> ‚ä	-0.0825083
-1.18141	<unk> ‚«	-0.116883
-1.47428	<unk> ‚ª	-0.0825083
-1.86435	<unk> ‚É	-0.0519965
-1.74028	<unk> ‚ç	-0.0519965
-1.53073	<unk> ‚¾	-0.173573
-1.47428	<unk> ‚è	-0.0825083
-1.66626	<unk> ‚¬‚ã	-0.0825083
-1.86435	<unk> ‚¯	-0.0519965
-1.84802	<unk> ‚Å	-0.0519965
-1.84802	<unk> ‚æ	-0.0519965
-1.47428	<unk> ‚ë	-0.167365
-1.86435	<unk> ‚Ú	-0.0519965
-0.287956	‚è </unk>
-0.86181	‚Æ ‚«	-0.0519965
-0.216833	‚í </unk>
-0.367779	‚ç </unk>
-0.998627	‚ç ‚Å	-0.0519965
-0.897885	‚Ú ‚Æ	-0.0519965
-0.287956	‚¦ </unk>
-0.367779	‚¾ </unk>
-0.998627	‚¾ ‚æ	-0.0519965
-0.318758	‚¹ </unk>
-0.481113	‚ä ‚¹	-0.167365
-0.269854	‚¨ </unk>
-0.318758	‚Ç </unk>
-0.290866	‚« </unk>
-1.20833	‚« ‚Î	-0.0519965
-1.2143	‚« ‚Ç	-0.0519965
-0.287956	‚ª </unk>
-0.318758	‚É </unk>
-0.27017	‚È </unk>
-1.08512	‚È ‚È	-0.0519965
-0.220901	‚æ </unk>
-0.318758	‚½ </unk>
-0.367779	‚¿ </unk>
-0.964934	‚¿ ‚ç	-0.0519965
-0.893996	‚¤ ‚±	-0.0519965
-0.287956	‚¬‚ã </unk>
-0.998627	‚Ì ‚Î	-0.0519965
-0.99406	‚Ì ‚È	-0.0519965
-0.897885	‚¢ ‚¶‚å	-0.0519965
-0.318758	‚Í </unk>
-0.318758	‚ë </unk>
-0.489849	‚Ü </unk>
-0.602007	‚Ü ‚¦	-0.173573
-1.20833	‚Ü ‚·	-0.0519965
-0.269854	‚· </unk>
-0.367779	‚«‚å </unk>
-0.998627	‚«‚å ‚¨	-0.0825083
-0.336083	‚± </unk>
-1.19183	‚± ‚È	-0.0519965
-1.20494	‚± ‚¿	-0.0825083
-0.897885	‚¯ ‚¢	-0.0519965
-0.367779	‚Î </unk>
-0.998627	‚Î ‚µ	-0.0519965
-0.318758	‚¶‚å </unk>
-0.479967	‚Å ‚·	-0.0825083
-0.367779	‚µ </unk>
-1.00324	‚µ ‚½	-0.0519965

\3-grams:
-0.179194	<unk> ‚è </unk>
-0.533312	‚Ú ‚Æ ‚«
-0.102518	<unk> ‚í </unk>
-0.580995	<unk> ‚ç ‚Å
-0.274338	‚¿ ‚ç </unk>
-0.546841	<unk> ‚Ú ‚Æ
-0.14955	‚Ü ‚¦ </unk>
-0.278731	<unk> ‚¾ </unk>
-0.719803	<unk> ‚¾ ‚æ
-0.192383	‚ä ‚¹ </unk>
-0.273363	<unk> ‚ä ‚¹
-0.169272	‚«‚å ‚¨ </unk>
-0.207189	<unk> ‚¨ </unk>
-0.241318	‚« ‚Ç </unk>
-0.206963	<unk> ‚« </unk>
-0.830933	<unk> ‚« ‚Ç
-0.636524	‚Æ ‚« ‚Î
-0.179194	<unk> ‚ª </unk>
-0.241318	<unk> ‚É </unk>
-0.207413	‚Ì ‚È </unk>
-0.606297	‚± ‚È ‚È
-0.207413	‚È ‚È </unk>
-0.171889	<unk> ‚æ </unk>
-0.171889	‚¾ ‚æ </unk>
-0.241318	‚µ ‚½ </unk>
-0.346482	‚± ‚¿ </unk>
-0.644213	‚± ‚¿ ‚ç
-0.545416	<unk> ‚¤ ‚±
-0.179194	<unk> ‚¬‚ã </unk>
-0.655155	<unk> ‚Ì ‚Î
-0.653705	<unk> ‚Ì ‚È
-0.546841	‚¯ ‚¢ ‚¶‚å
-0.241318	<unk> ‚Í </unk>
-0.192383	<unk> ‚ë </unk>
-0.584101	<unk> ‚Ü </unk>
-0.367858	<unk> ‚Ü ‚¦
-0.878119	<unk> ‚Ü ‚·
-0.169272	‚Å ‚· </unk>
-0.207189	‚Ü ‚· </unk>
-0.41113	<unk> ‚«‚å </unk>
-0.482881	<unk> ‚«‚å ‚¨
-0.276443	<unk> ‚± </unk>
-0.96077	<unk> ‚± ‚È
-0.703906	<unk> ‚± ‚¿
-0.253127	‚¤ ‚± </unk>
-0.546841	<unk> ‚¯ ‚¢
-0.274338	‚« ‚Î </unk>
-0.580995	‚Ì ‚Î ‚µ
-0.241318	‚¢ ‚¶‚å </unk>
-0.345178	‚ç ‚Å ‚·
-0.345178	<unk> ‚Å ‚·
-0.582437	<unk> ‚µ ‚½
-0.274338	‚Î ‚µ </unk>
