[unifb]
-0.336255

\data\
ngram 1=33
ngram 2=67
ngram 3=52

\1-grams:
-0.363062	</unk>
-1.81812	‚²	-0.0263699
-1.81812	‚Ì	-0.0263699
-1.81812	‚Î	-0.0263699
-1.7736	‚µ	-0.038016
-1.81812	‚É‚á	-0.0263699
-1.81812	‚È	-0.038016
-1.55058	‚Ü	-0.044581
-1.57667	‚¦	-0.038016
-1.7736	‚í	-0.132363
-1.81812	‚«‚å	-0.0263699
-1.81812	‚¨	-0.0263699
-1.7736	‚ä	-0.174294
-1.81812	‚¹	-0.038016
-1.73322	‚«	-0.0517294
-1.7736	‚±	-0.038016
-1.7736	‚ª	-0.038016
-1.7736	‚¬‚å	-0.044581
-1.81812	‚É	-0.0263699
-1.81812	‚½	-0.0263699
-1.81812	‚¿	-0.0263699
-1.81812	‚ç	-0.0263699
-1.81812	‚ 	-0.0263699
-1.81812	‚è	-0.0263699
-1.81812	‚·	-0.038016
-1.7736	‚¬‚ã	-0.038016
-1.7736	‚¯	-0.038016
-1.40395	‚¢	-0.20535
-1.81812	‚¶‚å	-0.044581
-1.81812	‚Å	-0.148155
-1.81812	‚Á	-0.0263699
-1.7736	‚æ	-0.038016
-1.81812	‚¾	-0.0263699

\2-grams:
-0.302981	‚ç </unk>
-0.302981	‚¿ </unk>
-0.302981	‚É </unk>
-0.268705	‚¬‚å </unk>
-0.352509	‚ª </unk>
-1.02574	‚ª ‚¬‚å	-0.0523264
-0.280492	‚± </unk>
-0.328943	‚« </unk>
-1.26354	‚« ‚É	-0.0523264
-1.26354	‚« ‚¾	-0.0523264
-0.352509	‚¹ </unk>
-1.01943	‚¹ ‚«	-0.0523264
-0.415743	‚ä ‚¹	-0.075826
-0.280492	‚· </unk>
-0.302981	‚² </unk>
-0.896243	‚Ì ‚Î	-0.0523264
-0.352509	‚¬‚ã </unk>
-1.02574	‚¬‚ã ‚¯	-0.20372
-0.891296	‚Î ‚µ	-0.0523264
-0.352509	‚¯ </unk>
-0.946031	‚¯ ‚¢	-0.075826
-0.544897	‚¢ </unk>
-1.18961	‚¢ ‚¢	-0.0523264
-0.439298	‚¢ ‚¶‚å	-0.0891948
-1.03213	‚µ ‚É‚á	-0.0523264
-1.03213	‚µ ‚½	-0.0523264
-0.302981	‚É‚á </unk>
-0.321711	‚¶‚å </unk>
-1.12146	‚¶‚å ‚í	-0.0523264
-0.302981	‚¨ </unk>
-0.302981	‚è </unk>
-0.302981	‚½ </unk>
-0.302981	‚Á </unk>
-0.382097	‚Ü </unk>
-1.12146	‚Ü ‚µ	-0.0523264
-1.07846	‚Ü ‚¦	-0.0523264
-0.896243	‚«‚å ‚¨	-0.0523264
-0.891296	‚¾ ‚æ	-0.0523264
-0.241323	‚í </unk>
-1.21819	‚í ‚«‚å	-0.0523264
-0.199005	‚Å </unk>
-0.280492	‚È </unk>
-0.280492	‚æ </unk>
-0.280492	‚¦ </unk>
-0.302981	‚  </unk>
-1.84136	<unk> ‚²	-0.0523264
-1.84136	<unk> ‚Ì	-0.0523264
-1.21828	<unk> ‚È	-0.187869
-1.47003	<unk> ‚Ü	-0.0891948
-1.68908	<unk> ‚¦	-0.0523264
-1.21202	<unk> ‚í	-0.0891948
-1.66637	<unk> ‚ä	-0.075826
-1.16416	<unk> ‚«	-0.0978261
-1.66637	<unk> ‚±	-0.075826
-1.66637	<unk> ‚ª	-0.075826
-1.41646	<unk> ‚¬‚å	-0.075826
-1.84136	<unk> ‚¿	-0.0523264
-1.84136	<unk> ‚ç	-0.0523264
-1.42653	<unk> ‚ 	-0.20372
-1.84136	<unk> ‚è	-0.0523264
-1.42653	<unk> ‚·	-0.075826
-1.35065	<unk> ‚¬‚ã	-0.187869
-1.81566	<unk> ‚¯	-0.0523264
-1.47286	<unk> ‚¢	-0.075826
-1.21828	<unk> ‚Å	-0.0891948
-1.84136	<unk> ‚Á	-0.0523264
-1.81566	<unk> ‚æ	-0.0523264

\3-grams:
-0.226258	<unk> ‚ç </unk>
-0.226258	<unk> ‚¿ </unk>
-0.226258	‚« ‚É </unk>
-0.165881	<unk> ‚¬‚å </unk>
-0.202741	‚ª ‚¬‚å </unk>
-0.335789	<unk> ‚ª </unk>
-0.656015	<unk> ‚ª ‚¬‚å
-0.172242	<unk> ‚± </unk>
-0.316025	<unk> ‚« </unk>
-0.843377	<unk> ‚« ‚É
-0.843377	<unk> ‚« ‚¾
-0.243678	‚¹ ‚« </unk>
-0.335789	‚ä ‚¹ </unk>
-0.654154	‚ä ‚¹ ‚«
-0.239522	<unk> ‚ä ‚¹
-0.172242	<unk> ‚· </unk>
-0.226258	<unk> ‚² </unk>
-0.5314	<unk> ‚Ì ‚Î
-0.409765	<unk> ‚¬‚ã </unk>
-0.46492	<unk> ‚¬‚ã ‚¯
-0.529667	‚Ì ‚Î ‚µ
-0.380708	‚¬‚ã ‚¯ ‚¢
-0.259191	<unk> ‚¯ </unk>
-0.453247	<unk> ‚¢ </unk>
-0.391276	<unk> ‚¢ ‚¶‚å
-0.698083	‚¯ ‚¢ ‚¢
-0.391276	‚¯ ‚¢ ‚¶‚å
-0.313788	‚¢ ‚¢ ‚¶‚å
-0.574162	‚Î ‚µ ‚É‚á
-0.574162	‚Ü ‚µ ‚½
-0.226258	‚µ ‚É‚á </unk>
-0.258312	‚¢ ‚¶‚å </unk>
-0.751314	‚¢ ‚¶‚å ‚í
-0.226258	‚«‚å ‚¨ </unk>
-0.226258	<unk> ‚è </unk>
-0.226258	‚µ ‚½ </unk>
-0.226258	<unk> ‚Á </unk>
-0.417148	<unk> ‚Ü </unk>
-0.751314	<unk> ‚Ü ‚µ
-0.739798	<unk> ‚Ü ‚¦
-0.5314	‚í ‚«‚å ‚¨
-0.529667	‚« ‚¾ ‚æ
-0.214404	<unk> ‚í </unk>
-0.7743	<unk> ‚í ‚«‚å
-0.18354	‚¶‚å ‚í </unk>
-0.109333	<unk> ‚Å </unk>
-0.140335	<unk> ‚È </unk>
-0.210894	<unk> ‚æ </unk>
-0.210894	‚¾ ‚æ </unk>
-0.210894	‚Ü ‚¦ </unk>
-0.210894	<unk> ‚¦ </unk>
-0.174349	<unk> ‚  </unk>
