[unifb]
-0.250049

\data\
ngram 1=49
ngram 2=108
ngram 3=94

\1-grams:
-0.423266	</unk>
-1.88924	‚±	-0.112521
-1.88924	‚¨	-0.145717
-1.88924	‚Ì	-0.0295523
-1.88924	‚Î	-0.112521
-1.88924	‚µ	-0.0341007
-1.88924	‚È	-0.0341007
-1.8367	‚Ü	-0.265591
-1.9181	‚Ö	-0.0211075
-1.9181	‚í	-0.29633
-1.9181	‚ 	-0.0211075
-1.9181	‚«‚å	-0.201237
-1.9181	‚¤	-0.0295523
-1.88924	‚ä	-0.145717
-1.9181	‚¹	-0.0211075
-1.81264	‚«	-0.48287
-1.9181	‚²	-0.0341007
-1.68526	‚ª	-0.387889
-1.9181	‚É	-0.0341007
-1.9181	‚½	-0.0211075
-1.88924	‚¿	-0.145717
-1.9181	‚ç	-0.0295523
-1.8367	‚è	-0.12566
-1.8367	‚·	-0.176875
-1.9181	‚¬‚ã	-0.0211075
-1.88924	‚¯	-0.0341007
-1.9181	‚¢	-0.0369442
-1.9181	‚¶‚å	-0.0211075
-1.9181	‚Å	-0.145717
-1.81264	‚ñ	-0.03889
-1.9181	‚¾	-0.0295523
-1.88924	‚æ	-0.29633
-1.9181	‚ë	-0.0295523
-1.9181	‚Ú	-0.0211075
-1.9181	‚Æ	-0.0211075
-1.9181	‚É‚á	-0.0211075
-1.88924	‚Ç	-0.180165
-1.9181	‚µ‚å	-0.0211075
-1.9181	‚Ñ	-0.0211075
-1.9181	‚Å‚¡	-0.0211075
-1.9181	‚®	-0.0211075
-1.9181	‚Ø	-0.0211075
-1.9181	‚Â	-0.0211075
-1.9181	‚Ò	-0.0211075
-1.9181	‚è‚á	-0.0211075
-1.9181	‚Ï	-0.0211075
-1.9181	‚×	-0.0211075
-1.9181	‚â	-0.0211075
-1.9181	‚Û	-0.0211075

\2-grams:
-0.804011	‚Å‚¡ ‚ñ	-0.0674513
-0.980219	‚È ‚Ü	-0.0674513
-0.701427	‚È ‚è	-0.112221
-0.474507	‚ä </unk>
-0.561508	‚ä ‚¹	-0.16901
-0.330765	‚× </unk>
-1.11558	<unk> ‚±	-0.327182
-2.04274	<unk> ‚Ì	-0.0674513
-1.36807	<unk> ‚Î	-0.168382
-2.04274	<unk> ‚µ	-0.0674513
-2.04274	<unk> ‚È	-0.0674513
-1.57108	<unk> ‚Ü	-0.14426
-2.05181	<unk> ‚Ö	-0.0674513
-1.18586	<unk> ‚í	-0.325423
-2.05181	<unk> ‚ 	-0.0674513
-1.18586	<unk> ‚«‚å	-0.239641
-1.57718	<unk> ‚ä	-0.14426
-1.49284	<unk> ‚«	-0.14426
-1.50308	<unk> ‚²	-0.14426
-1.47713	<unk> ‚ª	-0.194474
-1.36997	<unk> ‚É	-0.213388
-2.05181	<unk> ‚½	-0.0674513
-1.69198	<unk> ‚¿	-0.112221
-2.02515	<unk> ‚è	-0.0674513
-1.68405	<unk> ‚·	-0.112221
-2.05181	<unk> ‚¬‚ã	-0.0674513
-1.57718	<unk> ‚¯	-0.14426
-1.11664	<unk> ‚¢	-0.327182
-1.50308	<unk> ‚Å	-0.14426
-1.65909	<unk> ‚ñ	-0.14426
-1.11664	<unk> ‚¾	-0.422402
-2.04274	<unk> ‚æ	-0.0674513
-1.696	<unk> ‚ë	-0.112221
-2.05181	<unk> ‚Æ	-0.0674513
-2.05181	<unk> ‚Ñ	-0.0674513
-2.05181	<unk> ‚Ò	-0.0674513
-2.05181	<unk> ‚Ï	-0.0674513
-2.05181	<unk> ‚â	-0.0674513
-2.05181	<unk> ‚Û	-0.0674513
-0.811942	‚Ï ‚×	-0.0674513
-0.407207	‚è </unk>
-0.626335	‚è ‚Ü	-0.112221
-0.375166	‚± </unk>
-1.10971	‚± ‚±	-0.0674513
-1.10971	‚± ‚¨	-0.112221
-1.10971	‚± ‚¿	-0.0674513
-0.330765	‚Û </unk>
-0.532746	‚Î </unk>
-0.686237	‚Î ‚µ	-0.112221
-1.11247	‚Î ‚É‚á	-0.0674513
-1.11247	‚Î ‚µ‚å	-0.0674513
-0.257019	‚¯ </unk>
-0.294234	‚¨ </unk>
-0.989451	‚¨ ‚Ì	-0.0674513
-0.804011	‚¹ ‚«	-0.112221
-0.330765	‚µ‚å </unk>
-0.284725	‚ç </unk>
-0.791762	‚è‚á ‚ª	-0.0674513
-0.561508	‚¿ ‚ç	-0.112221
-0.991705	‚¿ ‚è‚á	-0.0674513
-0.809946	‚Ò ‚¨	-0.0674513
-0.330765	‚Ú </unk>
-0.330765	‚  </unk>
-0.284725	‚¤ </unk>
-0.80598	‚É‚á ‚è	-0.0674513
-0.330765	‚½ </unk>
-0.80598	‚Ø ‚·	-0.0674513
-0.985188	‚É ‚È	-0.112221
-0.700129	‚É ‚«	-0.112221
-0.153512	‚ª </unk>
-0.338079	‚² </unk>
-0.962497	‚² ‚ª	-0.0674513
-0.392254	‚¾ </unk>
-0.907198	‚¾ ‚æ	-0.194474
-0.330765	‚Ö </unk>
-0.392254	‚ë </unk>
-0.909452	‚ë ‚Ú	-0.0674513
-0.186506	‚í </unk>
-0.213633	‚· </unk>
-1.16488	‚· ‚Ø	-0.0674513
-0.133237	‚« </unk>
-1.25959	‚« ‚Ç	-0.0674513
-0.811942	‚Ñ ‚Å‚¡	-0.0674513
-0.330765	‚¶‚å </unk>
-0.294234	‚Å </unk>
-0.984979	‚Å ‚·	-0.0674513
-0.330765	‚® </unk>
-0.338079	‚µ </unk>
-0.987693	‚µ ‚Â	-0.0674513
-0.341685	‚ñ </unk>
-1.09667	‚ñ ‚«	-0.0674513
-1.10853	‚ñ ‚®	-0.0674513
-0.23802	‚Ç </unk>
-0.330765	‚Â </unk>
-0.223387	‚«‚å </unk>
-1.11644	‚«‚å ‚¤	-0.112221
-0.330765	‚Æ </unk>
-0.380683	‚Ü </unk>
-0.528202	‚Ü ‚·	-0.194474
-0.473126	‚¢ </unk>
-1.05285	‚¢ ‚¶‚å	-0.0674513
-1.04194	‚¢ ‚ñ	-0.0674513
-1.05009	‚¢ ‚Ç	-0.0674513
-0.392254	‚Ì </unk>
-0.907198	‚Ì ‚Î	-0.0674513
-0.186506	‚æ </unk>
-0.330765	‚¬‚ã </unk>
-0.330765	‚â </unk>

\3-grams:
-0.483862	‚Ñ ‚Å‚¡ ‚ñ
-0.339948	‚É ‚È ‚è
-0.542933	<unk> ‚È ‚Ü
-0.475553	<unk> ‚ä </unk>
-0.364809	<unk> ‚ä ‚¹
-0.240213	‚Ï ‚× </unk>
-0.486869	<unk> ‚Ï ‚×
-0.288106	<unk> ‚è </unk>
-0.370064	‚È ‚è </unk>
-0.492972	‚È ‚è ‚Ü
-0.407313	‚É‚á ‚è ‚Ü
-0.354844	<unk> ‚± </unk>
-0.963644	<unk> ‚± ‚±
-0.677267	<unk> ‚± ‚¨
-0.963644	<unk> ‚± ‚¿
-0.268415	‚± ‚± </unk>
-0.240213	<unk> ‚Û </unk>
-0.563025	<unk> ‚Î </unk>
-0.645775	<unk> ‚Î ‚µ
-0.806652	<unk> ‚Î ‚É‚á
-0.806652	<unk> ‚Î ‚µ‚å
-0.435115	‚Ì ‚Î ‚µ
-0.135247	<unk> ‚¯ </unk>
-0.296413	‚± ‚¨ </unk>
-0.637104	‚± ‚¨ ‚Ì
-0.216231	‚Ò ‚¨ </unk>
-0.330964	‚ä ‚¹ ‚«
-0.240213	‚Î ‚µ‚å </unk>
-0.171241	‚¿ ‚ç </unk>
-0.47915	‚¿ ‚è‚á ‚ª
-0.45945	<unk> ‚¿ ‚ç
-0.637781	<unk> ‚¿ ‚è‚á
-0.374904	‚± ‚¿ ‚ç
-0.486115	<unk> ‚Ò ‚¨
-0.240213	‚ë ‚Ú </unk>
-0.240213	<unk> ‚  </unk>
-0.171241	‚«‚å ‚¤ </unk>
-0.484611	‚Î ‚É‚á ‚è
-0.240213	<unk> ‚½ </unk>
-0.484611	‚· ‚Ø ‚·
-0.504395	<unk> ‚É ‚È
-0.481067	<unk> ‚É ‚«
-0.0794999	<unk> ‚ª </unk>
-0.117644	‚² ‚ª </unk>
-0.117644	‚è‚á ‚ª </unk>
-0.265739	<unk> ‚² </unk>
-0.701253	<unk> ‚² ‚ª
-0.284707	<unk> ‚¾ </unk>
-0.489826	<unk> ‚¾ ‚æ
-0.240213	<unk> ‚Ö </unk>
-0.360702	<unk> ‚ë </unk>
-0.611433	<unk> ‚ë ‚Ú
-0.0646241	<unk> ‚í </unk>
-0.106949	‚Ü ‚· </unk>
-0.160928	‚Å ‚· </unk>
-0.160928	‚Ø ‚· </unk>
-0.239935	<unk> ‚· </unk>
-0.682882	<unk> ‚· ‚Ø
-0.0856686	‚É ‚« </unk>
-0.102675	‚ñ ‚« </unk>
-0.0856686	‚¹ ‚« </unk>
-0.149914	<unk> ‚« </unk>
-0.778343	<unk> ‚« ‚Ç
-0.486869	<unk> ‚Ñ ‚Å‚¡
-0.240213	‚¢ ‚¶‚å </unk>
-0.24295	<unk> ‚Å </unk>
-0.708505	<unk> ‚Å ‚·
-0.240213	‚ñ ‚® </unk>
-0.545096	<unk> ‚µ ‚Â
-0.198262	‚Î ‚µ </unk>
-0.576547	‚Å‚¡ ‚ñ ‚®
-0.247247	‚¢ ‚ñ </unk>
-0.267564	<unk> ‚ñ </unk>
-0.740899	<unk> ‚ñ ‚«
-0.177999	‚« ‚Ç </unk>
-0.177999	‚¢ ‚Ç </unk>
-0.240213	‚µ ‚Â </unk>
-0.207885	<unk> ‚«‚å </unk>
-0.628219	<unk> ‚«‚å ‚¤
-0.240213	<unk> ‚Æ </unk>
-0.281339	‚è ‚Ü ‚·
-0.271846	‚È ‚Ü </unk>
-0.286824	<unk> ‚Ü </unk>
-0.506996	<unk> ‚Ü ‚·
-0.291517	<unk> ‚¢ </unk>
-0.947542	<unk> ‚¢ ‚¶‚å
-0.944277	<unk> ‚¢ ‚ñ
-0.946723	<unk> ‚¢ ‚Ç
-0.520376	‚¨ ‚Ì ‚Î
-0.278987	<unk> ‚Ì </unk>
-0.0948196	‚¾ ‚æ </unk>
-0.141606	<unk> ‚æ </unk>
-0.240213	<unk> ‚¬‚ã </unk>
-0.240213	<unk> ‚â </unk>
