[unifb]
-0.22783

\data\
ngram 1=32
ngram 2=61
ngram 3=42

\1-grams:
-0.403179	</unk>
-1.72845	‚±	-0.00832941
-1.71125	‚Ì	-0.012394
-1.71125	‚Î	-0.138785
-1.71125	‚µ	-0.012394
-1.72845	‚È	-0.012394
-1.72845	‚Ü	-0.0148018
-1.72845	‚¦	-0.00832941
-1.72845	‚í	-0.012394
-1.72845	‚«‚å	-0.138785
-1.72845	‚¨	-0.00832941
-1.71125	‚ä	-0.012394
-1.71125	‚¹	-0.012394
-1.69472	‚«	-0.0148018
-1.72845	‚ª	-0.00832941
-1.72845	‚É	-0.012394
-1.72845	‚½	-0.00832941
-1.72845	‚¿	-0.00832941
-1.72845	‚ç	-0.00832941
-1.71125	‚¾	-0.0148018
-1.72845	‚è	-0.00832941
-1.71125	‚·	-0.00832941
-1.72845	‚¬‚ã	-0.00832941
-1.72845	‚¯	-0.00832941
-1.72845	‚¢	-0.00832941
-1.72845	‚¶‚å	-0.00832941
-1.71125	‚Å	-0.012394
-1.72845	‚æ	-0.00832941
-1.72845	‚ë	-0.00832941
-1.72845	‚Ú	-0.00832941
-1.72845	‚Æ	-0.00832941
-1.72845	‚´	-0.00832941

\2-grams:
-0.213688	‚«‚å </unk>
-0.389324	‚ä </unk>
-1.10686	‚ä ‚¹	-0.0394632
-0.980407	‚¨ ‚ä	-0.0394632
-0.977556	‚Æ ‚«	-0.0394632
-0.348977	‚¦ </unk>
-0.983277	‚Ú ‚Æ	-0.0394632
-0.412904	‚Ü </unk>
-1.19488	‚Ü ‚µ	-0.0394632
-1.19931	‚Ü ‚¦	-0.0394632
-0.328699	‚¹ </unk>
-0.983277	‚¬‚ã ‚¯	-0.0394632
-1.76853	<unk> ‚±	-0.0394632
-1.75714	<unk> ‚Ì	-0.0394632
-1.75714	<unk> ‚Î	-0.0394632
-1.75714	<unk> ‚µ	-0.0394632
-1.34382	<unk> ‚È	-0.0566272
-1.13325	<unk> ‚Ü	-0.0662366
-1.13325	<unk> ‚í	-0.169337
-1.34382	<unk> ‚«‚å	-0.0566272
-1.76853	<unk> ‚¨	-0.0394632
-1.75714	<unk> ‚ä	-0.0394632
-1.75714	<unk> ‚¹	-0.0394632
-1.74605	<unk> ‚«	-0.0394632
-1.76853	<unk> ‚ª	-0.0394632
-1.34382	<unk> ‚É	-0.0566272
-1.76853	<unk> ‚¿	-0.0394632
-1.3395	<unk> ‚¾	-0.0566272
-1.6322	<unk> ‚·	-0.192084
-1.76853	<unk> ‚¬‚ã	-0.0394632
-1.76853	<unk> ‚¶‚å	-0.0394632
-1.28741	<unk> ‚Å	-0.169337
-1.76853	<unk> ‚æ	-0.0394632
-1.76853	<unk> ‚ë	-0.0394632
-1.76853	<unk> ‚´	-0.0394632
-1.10319	‚É ‚«	-0.0394632
-1.10686	‚É ‚¾	-0.0394632
-0.983277	‚¿ ‚ç	-0.0394632
-0.348977	‚ç </unk>
-0.362907	‚¾ </unk>
-1.19931	‚¾ ‚è	-0.0394632
-0.348977	‚· </unk>
-0.362907	‚« </unk>
-1.19488	‚« ‚Î	-0.0394632
-0.328699	‚Ì </unk>
-0.348977	‚¶‚å </unk>
-0.348977	‚½ </unk>
-0.348977	‚è </unk>
-0.348977	‚´ </unk>
-0.328699	‚í </unk>
-0.348977	‚ª </unk>
-0.983277	‚ë ‚Ú	-0.0394632
-0.328699	‚È </unk>
-0.983277	‚¯ ‚¢	-0.0394632
-0.348977	‚± </unk>
-0.348977	‚¢ </unk>
-0.213688	‚Î </unk>
-0.328699	‚Å </unk>
-1.10686	‚µ ‚Ì	-0.0394632
-1.11055	‚µ ‚½	-0.0394632
-0.348977	‚æ </unk>

\3-grams:
-0.112139	<unk> ‚«‚å </unk>
-0.482253	‚¨ ‚ä ‚¹
-0.244618	<unk> ‚ä </unk>
-0.45762	<unk> ‚¨ ‚ä
-0.456996	‚Ú ‚Æ ‚«
-0.223117	‚Ü ‚¦ </unk>
-0.458245	‚ë ‚Ú ‚Æ
-0.443919	<unk> ‚Ü </unk>
-0.701198	<unk> ‚Ü ‚µ
-0.701904	<unk> ‚Ü ‚¦
-0.21196	‚ä ‚¹ </unk>
-0.21196	<unk> ‚¹ </unk>
-0.458245	<unk> ‚¬‚ã ‚¯
-0.596219	<unk> ‚É ‚«
-0.596885	<unk> ‚É ‚¾
-0.458245	<unk> ‚¿ ‚ç
-0.223117	‚¿ ‚ç </unk>
-0.496875	‚É ‚¾ ‚è
-0.175008	<unk> ‚¾ </unk>
-0.158297	<unk> ‚· </unk>
-0.230646	<unk> ‚« </unk>
-0.496233	‚Æ ‚« ‚Î
-0.230646	‚É ‚« </unk>
-0.21196	<unk> ‚Ì </unk>
-0.21196	‚µ ‚Ì </unk>
-0.223117	<unk> ‚¶‚å </unk>
-0.223117	‚µ ‚½ </unk>
-0.223117	‚¾ ‚è </unk>
-0.223117	<unk> ‚´ </unk>
-0.125376	<unk> ‚í </unk>
-0.223117	<unk> ‚ª </unk>
-0.458245	<unk> ‚ë ‚Ú
-0.161693	<unk> ‚È </unk>
-0.458245	‚¬‚ã ‚¯ ‚¢
-0.223117	<unk> ‚± </unk>
-0.223117	‚¯ ‚¢ </unk>
-0.144303	<unk> ‚Î </unk>
-0.144303	‚« ‚Î </unk>
-0.125376	<unk> ‚Å </unk>
-0.482253	<unk> ‚µ ‚Ì
-0.482888	‚Ü ‚µ ‚½
-0.223117	<unk> ‚æ </unk>
