[unifb]
-0.352709

\data\
ngram 1=45
ngram 2=105
ngram 3=89

\1-grams:
-0.34572	</unk>
-1.87529	‚±	-0.0518528
-1.97596	‚Ì	-0.0458663
-1.90632	‚Î	-0.160486
-1.93975	‚µ‚å	-0.0400831
-1.90632	‚È	-0.140032
-1.97596	‚Ü	-0.0458663
-1.97596	‚¦	-0.0290846
-1.93975	‚í	-0.160486
-1.97596	‚ 	-0.0290846
-1.97596	‚«‚å	-0.0400831
-1.97596	‚Ñ	-0.0290846
-1.93975	‚ä	-0.126775
-1.76371	‚¹	-0.0400831
-1.71969	‚«	-0.0518528
-1.93975	‚ª	-0.126775
-1.97596	‚É	-0.160486
-1.93975	‚µ	-0.126775
-1.60537	‚½	-0.126775
-1.93975	‚¿	-0.196243
-1.97596	‚ç	-0.0400831
-1.74114	‚è	-0.316646
-1.93975	‚·	-0.140032
-1.90632	‚¯	-0.331993
-1.74114	‚¢	-0.224861
-1.97596	‚¶‚å	-0.0290846
-1.93975	‚Å	-0.140032
-1.97596	‚¾	-0.0518528
-1.97596	‚æ	-0.0400831
-1.71969	‚ë	-0.217374
-1.93975	‚Ú	-0.0400831
-1.97596	‚Æ	-0.0290846
-1.97596	‚¨	-0.0290846
-1.93975	‚Ç	-0.140032
-1.97596	‚Ý	-0.0290846
-1.97596	‚Å‚¡	-0.0290846
-1.93975	‚ñ	-0.0518528
-1.93975	‚®	-0.0290846
-1.97596	‚Ø	-0.0290846
-1.93975	‚Â	-0.0458663
-1.97596	‚«‚ã	-0.0290846
-1.97596	‚¸	-0.0290846
-1.93975	‚Õ	-0.196243
-1.97596	‚×	-0.0290846
-1.97596	‚â	-0.0290846

\2-grams:
-0.313238	‚« </unk>
-1.2476	‚« ‚Î	-0.0299277
-1.25303	‚« ‚ä	-0.114344
-0.225719	‚ª </unk>
-0.297856	‚É </unk>
-1.1863	‚É ‚È	-0.0299277
-0.300544	‚µ </unk>
-1.18456	‚µ ‚½	-0.0299277
-1.25538	‚µ ‚Â	-0.0299277
-0.239795	‚è </unk>
-0.340078	‚¹ </unk>
-1.11296	‚¹ ‚«	-0.0299277
-0.286227	‚ç </unk>
-0.78707	‚¿ ‚ç	-0.0558433
-0.369337	‚ä </unk>
-1.22343	‚ä ‚¹	-0.0299277
-0.887563	‚ä ‚¯	-0.0785412
-0.311885	‚Ñ </unk>
-0.286227	‚«‚å </unk>
-0.261522	‚½ </unk>
-1.26072	‚½ ‚×	-0.0299277
-0.311885	‚¦ </unk>
-0.364896	‚Ü </unk>
-1.19405	‚Ü ‚¦	-0.0299277
-1.15309	‚Ü ‚è	-0.0299277
-0.277875	‚È </unk>
-1.18889	‚È ‚è	-0.0299277
-0.340078	‚µ‚å </unk>
-1.15223	‚µ‚å ‚ª	-0.0299277
-0.252733	‚Î </unk>
-0.364896	‚Ì </unk>
-1.18376	‚Ì ‚Î	-0.0299277
-1.18376	‚Ì ‚È	-0.130668
-0.357454	‚± </unk>
-1.24223	‚± ‚±	-0.0299277
-1.25303	‚± ‚¿	-0.0299277
-1.21014	‚± ‚ë	-0.0558433
-1.5695	<unk> ‚±	-0.0785412
-1.27224	<unk> ‚Ì	-0.178152
-2.06262	<unk> ‚Î	-0.0299277
-1.84631	<unk> ‚µ‚å	-0.0558433
-2.06262	<unk> ‚È	-0.0299277
-1.57986	<unk> ‚Ü	-0.0785412
-1.29757	<unk> ‚í	-0.178152
-2.08439	<unk> ‚ 	-0.0299277
-1.57986	<unk> ‚«‚å	-0.094865
-2.08439	<unk> ‚Ñ	-0.0299277
-1.75735	<unk> ‚ä	-0.0558433
-2.0102	<unk> ‚¹	-0.0299277
-1.23698	<unk> ‚«	-0.191121
-1.35067	<unk> ‚ª	-0.131686
-1.57986	<unk> ‚É	-0.0785412
-1.29757	<unk> ‚µ	-0.147237
-1.57918	<unk> ‚½	-0.0785412
-2.07337	<unk> ‚¿	-0.0299277
-1.44902	<unk> ‚·	-0.114344
-2.06262	<unk> ‚¯	-0.0299277
-0.917199	<unk> ‚¢	-0.294002
-1.3834	<unk> ‚Å	-0.131686
-1.27224	<unk> ‚¾	-0.147237
-1.66171	<unk> ‚ë	-0.0785412
-1.84631	<unk> ‚Ú	-0.0558433
-2.08439	<unk> ‚Æ	-0.0299277
-2.07337	<unk> ‚Ç	-0.0299277
-2.08439	<unk> ‚Ý	-0.0299277
-1.75735	<unk> ‚ñ	-0.0558433
-2.08439	<unk> ‚Ø	-0.0299277
-1.75735	<unk> ‚Â	-0.0558433
-2.08439	<unk> ‚«‚ã	-0.0299277
-2.08439	<unk> ‚¸	-0.0299277
-1.84631	<unk> ‚Õ	-0.0558433
-0.252733	‚í </unk>
-0.237949	‚· </unk>
-0.311885	‚Å‚¡ </unk>
-0.311885	‚â </unk>
-1.11659	‚× ‚â	-0.0299277
-0.311885	‚«‚ã </unk>
-0.266069	‚Â </unk>
-0.311885	‚Ø </unk>
-0.311885	‚® </unk>
-0.357454	‚ñ </unk>
-1.2476	‚ñ ‚¯	-0.0299277
-0.987578	‚ñ ‚®	-0.111826
-0.770346	‚Õ ‚è	-0.0728048
-0.311885	‚  </unk>
-0.311885	‚¨ </unk>
-0.311885	‚¸ </unk>
-1.11659	‚Ý ‚Å‚¡	-0.0299277
-0.321846	‚Ç </unk>
-0.951536	‚Ç ‚±	-0.0728048
-1.11659	‚Æ ‚¨	-0.0299277
-0.286227	‚Ú </unk>
-0.205152	‚¯ </unk>
-0.493043	‚¢ </unk>
-1.26661	‚¢ ‚½	-0.0299277
-1.34488	‚¢ ‚¶‚å	-0.0728048
-0.645711	‚¢ ‚Ç	-0.178152
-1.33938	‚¢ ‚ñ	-0.114344
-0.311885	‚¶‚å </unk>
-0.277875	‚Å </unk>
-1.22467	‚Å ‚·	-0.0299277
-0.273111	‚¾ </unk>
-1.25853	‚¾ ‚æ	-0.0558433
-0.286227	‚æ </unk>
-0.215314	‚ë </unk>

\3-grams:
-0.457488	<unk> ‚« </unk>
-1.01663	<unk> ‚« ‚Î
-0.412468	<unk> ‚« ‚ä
-0.240113	‚¹ ‚« </unk>
-0.102719	<unk> ‚ª </unk>
-0.17718	‚µ‚å ‚ª </unk>
-0.250551	<unk> ‚É </unk>
-0.794545	<unk> ‚É ‚È
-0.226114	<unk> ‚µ </unk>
-0.949074	<unk> ‚µ ‚½
-0.968138	<unk> ‚µ ‚Â
-0.18754	‚È ‚è </unk>
-0.18754	‚Ü ‚è </unk>
-0.145497	‚Õ ‚è </unk>
-0.258682	‚ä ‚¹ </unk>
-0.62486	<unk> ‚¹ ‚«
-0.184893	‚¿ ‚ç </unk>
-0.510825	‚± ‚¿ ‚ç
-0.510825	<unk> ‚¿ ‚ç
-0.348986	<unk> ‚ä </unk>
-0.7357	<unk> ‚ä ‚¹
-0.468537	‚« ‚ä </unk>
-0.383575	‚« ‚ä ‚¯
-0.239167	<unk> ‚Ñ </unk>
-0.149838	<unk> ‚«‚å </unk>
-0.203354	‚µ ‚½ </unk>
-0.229184	<unk> ‚½ </unk>
-0.812807	<unk> ‚½ ‚×
-0.203354	‚¢ ‚½ </unk>
-0.239167	‚Ü ‚¦ </unk>
-0.401568	<unk> ‚Ü </unk>
-0.796559	<unk> ‚Ü ‚¦
-0.785615	<unk> ‚Ü ‚è
-0.123002	‚Ì ‚È </unk>
-0.64399	‚É ‚È ‚è
-0.215114	<unk> ‚È </unk>
-0.328719	<unk> ‚µ‚å </unk>
-0.717987	<unk> ‚µ‚å ‚ª
-0.196983	<unk> ‚Î </unk>
-0.196983	‚Ì ‚Î </unk>
-0.196983	‚« ‚Î </unk>
-0.57042	<unk> ‚Ì </unk>
-0.962731	<unk> ‚Ì ‚Î
-0.365435	<unk> ‚Ì ‚È
-0.396337	<unk> ‚± </unk>
-0.808489	<unk> ‚± ‚±
-0.811028	<unk> ‚± ‚¿
-0.270514	‚± ‚± </unk>
-0.431318	‚Ç ‚± ‚ë
-0.0929777	<unk> ‚í </unk>
-0.116148	<unk> ‚· </unk>
-0.186186	‚Å ‚· </unk>
-0.239167	‚Ý ‚Å‚¡ </unk>
-0.239167	‚× ‚â </unk>
-0.625833	‚½ ‚× ‚â
-0.239167	<unk> ‚«‚ã </unk>
-0.173312	<unk> ‚Â </unk>
-0.206637	‚µ ‚Â </unk>
-0.239167	<unk> ‚Ø </unk>
-0.148316	‚ñ ‚® </unk>
-0.223968	<unk> ‚ñ </unk>
-0.873615	‚¢ ‚ñ ‚¯
-0.399433	‚¢ ‚ñ ‚®
-0.394083	<unk> ‚Õ ‚è
-0.239167	<unk> ‚  </unk>
-0.239167	‚Æ ‚¨ </unk>
-0.239167	<unk> ‚¸ </unk>
-0.625833	<unk> ‚Ý ‚Å‚¡
-0.160512	‚¢ ‚Ç </unk>
-0.888778	‚¢ ‚Ç ‚±
-0.575281	<unk> ‚Ç ‚±
-0.625833	<unk> ‚Æ ‚¨
-0.184893	<unk> ‚Ú </unk>
-0.161886	‚ñ ‚¯ </unk>
-0.12068	‚ä ‚¯ </unk>
-0.161886	<unk> ‚¯ </unk>
-0.847445	<unk> ‚¢ </unk>
-1.22277	<unk> ‚¢ ‚½
-0.93973	<unk> ‚¢ ‚¶‚å
-0.446158	<unk> ‚¢ ‚Ç
-0.637172	<unk> ‚¢ ‚ñ
-0.182934	‚¢ ‚¶‚å </unk>
-0.177578	<unk> ‚Å </unk>
-0.917249	<unk> ‚Å ‚·
-0.234234	<unk> ‚¾ </unk>
-0.667984	<unk> ‚¾ ‚æ
-0.184893	‚¾ ‚æ </unk>
-0.126042	<unk> ‚ë </unk>
-0.143147	‚± ‚ë </unk>
