[unifb]
-0.283499

\data\
ngram 1=40
ngram 2=82
ngram 3=65

\1-grams:
-0.418695	</unk>
-1.86012	‚²	-0.0392611
-1.79574	‚Î	-0.0474997
-1.86012	‚µ	-0.0451318
-1.82674	‚È	-0.0474997
-1.45377	‚Ü	-0.049581
-1.86012	‚¦	-0.0392611
-1.86012	‚í	-0.0451318
-1.86012	‚ 	-0.0392611
-1.86012	‚«‚å	-0.0392611
-1.86012	‚ä	-0.0392611
-1.86012	‚¹	-0.0392611
-1.79574	‚«	-0.0451318
-1.79574	‚±	-0.049581
-1.82674	‚ª	-0.200177
-1.82674	‚É	-0.0451318
-1.86012	‚½	-0.0392611
-1.82674	‚¿	-0.0451318
-1.82674	‚ç	-0.200177
-1.86012	‚¬	-0.0392611
-1.82674	‚è	-0.0451318
-1.76681	‚·	-0.0487795
-1.86012	‚¬‚ã	-0.0392611
-1.86012	‚¯	-0.0392611
-1.48188	‚¢	-0.0474997
-1.86012	‚¶‚å	-0.0392611
-1.86012	‚Å	-0.0392611
-1.86012	‚¾	-0.0451318
-1.86012	‚æ	-0.437704
-1.86012	‚ë	-0.0451318
-1.82674	‚Ú	-0.0451318
-1.63106	‚Æ	-0.0451318
-1.86012	‚Ç	-0.0392611
-1.86012	‚Ì	-0.0392611
-1.86012	‚µ‚å	-0.0392611
-1.86012	‚Ý	-0.0392611
-1.86012	‚Å‚¡	-0.0392611
-1.86012	‚ñ	-0.0392611
-1.86012	‚®	-0.0392611
-1.86012	‚Ø	-0.0392611

\2-grams:
-0.357118	‚Ü </unk>
-1.40193	‚Ü ‚¦	-0.0241672
-0.407032	‚¿ </unk>
-1.2416	‚¿ ‚ç	-0.0241672
-0.38214	‚¦ </unk>
-0.407032	‚ë </unk>
-1.2416	‚ë ‚Ú	-0.0241672
-0.337686	‚· </unk>
-1.15299	‚Å ‚·	-0.0241672
-1.15948	‚² ‚Î	-0.0241672
-0.407032	‚« </unk>
-1.12015	‚« ‚Ü	-0.0241672
-0.361065	‚í </unk>
-0.407032	‚Ú </unk>
-1.1866	‚Ú ‚Æ	-0.0241672
-1.17276	‚Å‚¡ ‚ñ	-0.0241672
-0.38214	‚¹ </unk>
-1.17276	‚¬‚ã ‚¯	-0.0241672
-0.278694	‚ª </unk>
-0.38214	‚ñ </unk>
-0.424754	‚È </unk>
-1.16754	‚È ‚Ü	-0.0241672
-1.30145	‚È ‚è	-0.0241672
-0.361065	‚É </unk>
-1.15299	‚® ‚·	-0.0241672
-0.38214	‚Ì </unk>
-0.38214	‚ä </unk>
-1.15299	‚Ø ‚·	-0.0241672
-0.38214	‚½ </unk>
-0.385448	‚± </unk>
-1.3816	‚± ‚±	-0.0241672
-1.40193	‚± ‚Ì	-0.0241672
-1.17276	‚Ý ‚Å‚¡	-0.0241672
-0.384324	‚¢ </unk>
-1.31007	‚¢ ‚¶‚å	-0.0241672
-0.483314	‚ç </unk>
-0.679475	‚ç ‚ª	-0.0397518
-1.87534	<unk> ‚²	-0.0241672
-1.71348	<unk> ‚Î	-0.0397518
-1.47306	<unk> ‚µ	-0.0397518
-1.40927	<unk> ‚È	-0.0506427
-1.47306	<unk> ‚í	-0.0397518
-1.87534	<unk> ‚ 	-0.0241672
-1.87534	<unk> ‚«‚å	-0.0241672
-1.87534	<unk> ‚¹	-0.0241672
-1.62031	<unk> ‚«	-0.116034
-1.22195	<unk> ‚±	-0.0586851
-1.85327	<unk> ‚ª	-0.0241672
-1.85327	<unk> ‚É	-0.0241672
-1.87534	<unk> ‚½	-0.0241672
-1.72937	<unk> ‚¿	-0.0397518
-1.46418	<unk> ‚ç	-0.0397518
-1.87534	<unk> ‚¬	-0.0241672
-1.85327	<unk> ‚è	-0.0241672
-1.81223	<unk> ‚·	-0.0241672
-1.87534	<unk> ‚¬‚ã	-0.0241672
-1.5224	<unk> ‚¢	-0.0397518
-1.87534	<unk> ‚Å	-0.0241672
-1.12907	<unk> ‚¾	-0.180898
-1.47306	<unk> ‚ë	-0.0397518
-1.85327	<unk> ‚Ú	-0.0241672
-1.71299	<unk> ‚Æ	-0.0241672
-1.87534	<unk> ‚Ç	-0.0241672
-1.87534	<unk> ‚Ý	-0.0241672
-1.87534	<unk> ‚®	-0.0241672
-1.87534	<unk> ‚Ø	-0.0241672
-0.38214	‚  </unk>
-0.361065	‚Æ </unk>
-1.16607	‚¬ ‚É	-0.0241672
-0.38214	‚µ‚å </unk>
-1.0585	‚Ç ‚Ü	-0.0241672
-1.17276	‚«‚å ‚ä	-0.0241672
-1.06899	‚¯ ‚¢	-0.0241672
-0.361065	‚µ </unk>
-0.38214	‚¶‚å </unk>
-0.384324	‚Î </unk>
-1.31007	‚Î ‚µ‚å	-0.0241672
-0.407032	‚è </unk>
-1.12015	‚è ‚Ü	-0.0241672
-1.12015	‚¾ ‚Ü	-0.0241672
-1.24929	‚¾ ‚æ	-0.0506427
-0.219432	‚æ </unk>

\3-grams:
-0.787303	‚È ‚Ü ‚¦
-0.291117	‚¾ ‚Ü </unk>
-0.291117	‚è ‚Ü </unk>
-0.291117	‚Ç ‚Ü </unk>
-0.291117	‚« ‚Ü </unk>
-0.382594	<unk> ‚¿ </unk>
-0.82385	<unk> ‚¿ ‚ç
-0.309709	‚Ü ‚¦ </unk>
-0.382594	<unk> ‚ë </unk>
-0.82385	<unk> ‚ë ‚Ú
-0.276491	‚Ø ‚· </unk>
-0.276491	‚Å ‚· </unk>
-0.276491	‚® ‚· </unk>
-0.276491	<unk> ‚· </unk>
-0.721431	<unk> ‚Å ‚·
-0.723514	<unk> ‚² ‚Î
-0.295559	<unk> ‚« </unk>
-0.857631	<unk> ‚« ‚Ü
-0.25676	<unk> ‚í </unk>
-0.73199	<unk> ‚Ú ‚Æ
-0.327927	‚ë ‚Ú </unk>
-0.72771	‚Ý ‚Å‚¡ ‚ñ
-0.309709	<unk> ‚¹ </unk>
-0.72771	<unk> ‚¬‚ã ‚¯
-0.203735	‚ç ‚ª </unk>
-0.231124	<unk> ‚ª </unk>
-0.309709	‚Å‚¡ ‚ñ </unk>
-0.438016	<unk> ‚È </unk>
-0.859354	<unk> ‚È ‚Ü
-0.903161	<unk> ‚È ‚è
-0.294068	<unk> ‚É </unk>
-0.294068	‚¬ ‚É </unk>
-0.721431	<unk> ‚® ‚·
-0.309709	‚± ‚Ì </unk>
-0.309709	‚«‚å ‚ä </unk>
-0.721431	<unk> ‚Ø ‚·
-0.309709	<unk> ‚½ </unk>
-0.312146	‚± ‚± </unk>
-0.35791	<unk> ‚± </unk>
-0.978241	<unk> ‚± ‚±
-0.983727	<unk> ‚± ‚Ì
-0.72771	<unk> ‚Ý ‚Å‚¡
-0.271076	<unk> ‚¢ </unk>
-0.766177	‚¯ ‚¢ ‚¶‚å
-0.507343	‚¿ ‚ç ‚ª
-0.438303	<unk> ‚ç </unk>
-0.568516	<unk> ‚ç ‚ª
-0.309709	<unk> ‚  </unk>
-0.294068	‚Ú ‚Æ </unk>
-0.294068	<unk> ‚Æ </unk>
-0.725607	<unk> ‚¬ ‚É
-0.309709	‚Î ‚µ‚å </unk>
-0.688649	<unk> ‚Ç ‚Ü
-0.72771	<unk> ‚«‚å ‚ä
-0.69252	‚¬‚ã ‚¯ ‚¢
-0.25676	<unk> ‚µ </unk>
-0.309709	‚¢ ‚¶‚å </unk>
-0.365512	<unk> ‚Î </unk>
-0.843425	<unk> ‚Î ‚µ‚å
-0.311318	‚² ‚Î </unk>
-0.710563	‚È ‚è ‚Ü
-0.327927	<unk> ‚è </unk>
-0.920972	<unk> ‚¾ ‚Ü
-0.420054	<unk> ‚¾ ‚æ
-0.149743	‚¾ ‚æ </unk>
