[unifb]
-0.194373

\data\
ngram 1=27
ngram 2=53
ngram 3=44

\1-grams:
-0.512695	</unk>
-1.62089	‚²	-0.0235413
-1.60118	‚Ì	-0.0264223
-1.62089	‚Î	-0.0235413
-1.60118	‚µ	-0.0264223
-1.60118	‚È	-0.0264223
-1.60118	‚Ü	-0.0264223
-1.39221	‚í	-0.0264223
-1.36902	‚¬‚å	-0.434415
-1.62089	‚ä	-0.434415
-1.62089	‚¹	-0.184981
-1.60118	‚«	-0.184981
-1.56426	‚±	-0.119539
-1.60118	‚ª	-0.0264223
-1.62089	‚¦	-0.0235413
-1.60118	‚É	-0.0264223
-1.62089	‚½	-0.0235413
-1.62089	‚¿	-0.275857
-1.62089	‚ç	-0.0264223
-1.62089	‚è	-0.0235413
-1.62089	‚·	-0.0235413
-1.62089	‚ 	-0.0235413
-1.62089	‚«‚ã	-0.0264223
-1.62089	‚¯	-0.0235413
-1.62089	‚¢	-0.0235413
-1.62089	‚¶‚å	-0.0235413
-1.60118	‚Å	-0.0264223

\2-grams:
-0.773138	‚ç ‚ª	-0.0930916
-0.773138	‚ç ‚Å	-0.0930916
-0.41683	‚¿ ‚ç	-0.156297
-0.522403	‚¹ </unk>
-0.499368	‚¹ ‚«	-0.156297
-0.320167	‚« </unk>
-0.858328	‚« ‚É	-0.0930916
-0.742431	‚ª ‚¬‚å	-0.0930916
-0.77514	‚ª ‚¦	-0.0930916
-0.437213	‚Ü </unk>
-0.773138	‚Ü ‚µ	-0.0930916
-0.742431	‚í ‚¬‚å	-0.0930916
-0.769161	‚í ‚±	-0.0930916
-0.355759	‚² </unk>
-0.67314	‚¢ ‚¶‚å	-0.0930916
-0.77514	‚Ì ‚Î	-0.0930916
-0.773138	‚Ì ‚È	-0.0930916
-0.671309	‚¶‚å ‚Å	-0.0930916
-0.671309	‚Î ‚µ	-0.0930916
-0.286898	‚Å </unk>
-0.355759	‚¦ </unk>
-0.355759	‚½ </unk>
-0.307261	‚¬‚å ‚ä	-0.273655
-0.355759	‚è </unk>
-0.355759	‚  </unk>
-0.437213	‚È </unk>
-0.77514	‚È ‚è	-0.0930916
-0.355759	‚¯ </unk>
-0.355759	‚· </unk>
-0.437213	‚µ </unk>
-0.773138	‚µ ‚Ì	-0.0930916
-1.43811	<unk> ‚²	-0.0930916
-1.43364	<unk> ‚Ì	-0.0930916
-1.18593	<unk> ‚Ü	-0.156297
-1.15221	<unk> ‚í	-0.156297
-1.14758	<unk> ‚¬‚å	-0.199174
-1.43364	<unk> ‚«	-0.0930916
-0.972424	<unk> ‚±	-0.241487
-1.43364	<unk> ‚É	-0.0930916
-1.43811	<unk> ‚½	-0.0930916
-1.11299	<unk> ‚¿	-0.156297
-1.43811	<unk> ‚·	-0.0930916
-1.43811	<unk> ‚ 	-0.0930916
-1.11299	<unk> ‚«‚ã	-0.156297
-1.43811	<unk> ‚¯	-0.0930916
-1.43811	<unk> ‚¢	-0.0930916
-0.286898	‚«‚ã </unk>
-0.329038	‚± </unk>
-0.977649	‚± ‚±	-0.156297
-0.982279	‚± ‚ª	-0.0930916
-0.307261	‚ä ‚¹	-0.273655
-0.437213	‚É </unk>
-0.773138	‚É ‚È	-0.0930916

\3-grams:
-0.583806	‚¿ ‚ç ‚ª
-0.583806	‚¿ ‚ç ‚Å
-0.25609	<unk> ‚¿ ‚ç
-0.347832	‚ä ‚¹ </unk>
-0.467812	‚ä ‚¹ ‚«
-0.231021	<unk> ‚« </unk>
-0.314762	‚¹ ‚« </unk>
-0.621512	‚¹ ‚« ‚É
-0.466269	‚± ‚ª ‚¦
-0.45327	‚ç ‚ª ‚¬‚å
-0.394878	<unk> ‚Ü </unk>
-0.583806	<unk> ‚Ü ‚µ
-0.569199	<unk> ‚í ‚¬‚å
-0.581945	<unk> ‚í ‚±
-0.253612	<unk> ‚² </unk>
-0.423761	<unk> ‚¢ ‚¶‚å
-0.466269	<unk> ‚Ì ‚Î
-0.46549	‚µ ‚Ì ‚È
-0.422945	‚¢ ‚¶‚å ‚Å
-0.422945	‚Ì ‚Î ‚µ
-0.209299	‚¶‚å ‚Å </unk>
-0.209299	‚ç ‚Å </unk>
-0.253612	‚ª ‚¦ </unk>
-0.253612	<unk> ‚½ </unk>
-0.13475	<unk> ‚¬‚å ‚ä
-0.222663	‚í ‚¬‚å ‚ä
-0.222663	‚ª ‚¬‚å ‚ä
-0.253612	‚È ‚è </unk>
-0.253612	<unk> ‚  </unk>
-0.302721	‚Ì ‚È </unk>
-0.466269	‚É ‚È ‚è
-0.253612	<unk> ‚¯ </unk>
-0.253612	<unk> ‚· </unk>
-0.46549	‚Î ‚µ ‚Ì
-0.302721	‚Ü ‚µ </unk>
-0.186457	<unk> ‚«‚ã </unk>
-0.446545	<unk> ‚± </unk>
-0.385114	<unk> ‚± ‚±
-0.321068	‚± ‚± </unk>
-0.669163	‚± ‚± ‚ª
-0.236714	‚í ‚± </unk>
-0.141923	‚¬‚å ‚ä ‚¹
-0.302721	<unk> ‚É </unk>
-0.46549	‚« ‚É ‚È
