[unifb]
-0.329304

\data\
ngram 1=49
ngram 2=110
ngram 3=92

\1-grams:
-0.366817	</unk>
-2.00177	‚±	-0.0356858
-2.00177	‚²	-0.0305518
-1.97679	‚Î	-0.0305518
-2.00177	‚µ‚å	-0.0251296
-2.00177	‚È	-0.0305518
-2.00177	‚¾	-0.0305518
-1.75894	‚Ü	-0.255091
-2.00177	‚¦	-0.0305518
-1.97679	‚í	-0.10733
-2.00177	‚ 	-0.0251296
-1.97679	‚«‚å	-0.0305518
-1.97679	‚¨	-0.0251296
-1.75894	‚ä	-0.0305518
-2.00177	‚¹	-0.0305518
-1.97679	‚«	-0.0329198
-1.95317	‚ª	-0.034247
-2.00177	‚¬‚å	-0.243991
-2.00177	‚É	-0.0305518
-1.97679	‚µ	-0.0305518
-2.00177	‚½	-0.0251296
-1.97679	‚¿	-0.388832
-2.00177	‚ç	-0.035096
-1.97679	‚è	-0.120941
-1.71694	‚·	-0.357435
-1.97679	‚¬‚ã	-0.141348
-1.97679	‚¯	-0.175393
-1.35343	‚¢	-0.309271
-1.97679	‚¶‚å	-0.0305518
-1.97679	‚Å	-0.370515
-1.97679	‚æ	-0.0329198
-1.97679	‚ë	-0.0305518
-2.00177	‚Ú	-0.0251296
-2.00177	‚Æ	-0.0251296
-2.00177	‚Ç	-0.0305518
-2.00177	‚Ý	-0.0305518
-1.97679	‚Ä	-0.243991
-1.62521	‚ñ	-0.120941
-2.00177	‚®	-0.0251296
-2.00177	‚Ø	-0.243991
-2.00177	‚Â	-0.0251296
-2.00177	‚¤	-0.0251296
-1.97679	‚Á	-0.0305518
-2.00177	‚Ò‚å	-0.0251296
-2.00177	‚Ô	-0.243991
-2.00177	‚Ï	-0.0251296
-2.00177	‚×	-0.0251296
-2.00177	‚â	-0.0251296
-2.00177	‚ê	-0.0251296

\2-grams:
-0.351453	‚Ý </unk>
-0.92698	‚Ý ‚Ä	-0.0626076
-0.928672	‚ä ‚¹	-0.107998
-0.92698	‚ä ‚µ	-0.0626076
-0.225369	‚Ô </unk>
-0.393202	‚¿ ‚ç	-0.240071
-0.351647	‚ñ </unk>
-1.10913	‚ñ ‚«	-0.0626076
-1.1111	‚ñ ‚®	-0.148802
-1.1111	‚ñ ‚Ï	-0.0626076
-0.255492	‚¹ </unk>
-0.283408	‚± </unk>
-1.15183	‚± ‚¿	-0.0626076
-1.15183	‚± ‚ë	-0.0626076
-0.295611	‚ê </unk>
-0.398393	‚è </unk>
-0.701642	‚è ‚Ü	-0.107998
-1.10913	‚è ‚Å	-0.0626076
-0.295611	‚× </unk>
-1.18767	<unk> ‚±	-0.210417
-1.69362	<unk> ‚²	-0.107998
-1.69362	<unk> ‚È	-0.107998
-1.50288	<unk> ‚¾	-0.179886
-1.35391	<unk> ‚Ü	-0.169903
-1.26857	<unk> ‚í	-0.192061
-2.03551	<unk> ‚«‚å	-0.0626076
-1.79471	<unk> ‚¨	-0.148802
-1.75454	<unk> ‚ä	-0.148802
-1.69077	<unk> ‚«	-0.107998
-1.56315	<unk> ‚ª	-0.142588
-1.69362	<unk> ‚¬‚å	-0.107998
-1.69362	<unk> ‚É	-0.107998
-2.03551	<unk> ‚µ	-0.0626076
-1.26857	<unk> ‚¿	-0.295532
-1.18678	<unk> ‚è	-0.271899
-1.651	<unk> ‚·	-0.107998
-1.30502	<unk> ‚¬‚ã	-0.223888
-1.56528	<unk> ‚¯	-0.142588
-1.22423	<unk> ‚¢	-0.240071
-2.03551	<unk> ‚¶‚å	-0.0626076
-1.36943	<unk> ‚Å	-0.169903
-2.03551	<unk> ‚æ	-0.0626076
-2.03551	<unk> ‚ë	-0.0626076
-2.04184	<unk> ‚Ú	-0.0626076
-1.50288	<unk> ‚Ý	-0.179886
-2.03551	<unk> ‚Ä	-0.0626076
-1.5202	<unk> ‚ñ	-0.142588
-2.04184	<unk> ‚¤	-0.0626076
-2.04184	<unk> ‚Ò‚å	-0.0626076
-1.69362	<unk> ‚Ô	-0.107998
-2.04184	<unk> ‚×	-0.0626076
-2.04184	<unk> ‚â	-0.0626076
-2.04184	<unk> ‚ê	-0.0626076
-0.351453	‚Î </unk>
-0.928672	‚Î ‚µ‚å	-0.0626076
-0.275864	‚¯ </unk>
-0.911589	‚¯ ‚¢	-0.0626076
-0.295611	‚½ </unk>
-0.295611	‚Ò‚å </unk>
-0.843503	‚  ‚«‚å	-0.0626076
-0.928672	‚µ ‚½	-0.0626076
-0.928672	‚µ ‚Â	-0.0626076
-0.351453	‚Á </unk>
-0.92698	‚Á ‚Á	-0.0626076
-0.845051	‚Ú ‚Æ	-0.0626076
-0.216175	‚í </unk>
-1.15658	‚í ‚ 	-0.0626076
-0.255492	‚ë </unk>
-0.351453	‚¦ </unk>
-0.92698	‚¦ ‚í	-0.0626076
-0.843503	‚¤ ‚Á	-0.0626076
-0.255492	‚É </unk>
-0.255492	‚¶‚å </unk>
-0.229648	‚æ </unk>
-0.37819	‚Ü </unk>
-0.802725	‚Ü ‚¦	-0.107998
-0.790578	‚Ü ‚·	-0.107998
-0.143132	‚· </unk>
-1.2777	‚· ‚Ø	-0.107998
-0.255492	‚«‚å </unk>
-0.25022	‚ç </unk>
-1.10437	‚ç ‚ª	-0.0626076
-0.295611	‚Ï </unk>
-0.351453	‚² </unk>
-0.92698	‚² ‚Î	-0.0626076
-0.19133	‚¬‚ã </unk>
-0.298133	‚Å ‚·	-0.295532
-0.351453	‚Ç </unk>
-0.907742	‚Ç ‚Ü	-0.0626076
-0.295611	‚µ‚å </unk>
-0.482196	‚¢ </unk>
-1.23968	‚¢ ‚¶‚å	-0.0626076
-1.24165	‚¢ ‚Ç	-0.107998
-0.49076	‚¢ ‚ñ	-0.241547
-0.295611	‚¨ </unk>
-0.492739	‚Ä ‚¢	-0.107998
-0.351453	‚È </unk>
-0.92698	‚È ‚è	-0.0626076
-0.295611	‚Â </unk>
-0.517525	‚Ø ‚·	-0.107998
-0.295611	‚Æ </unk>
-0.21158	‚ª </unk>
-0.225369	‚¬‚å </unk>
-0.351453	‚¾ </unk>
-0.92698	‚¾ ‚æ	-0.107998
-0.295611	‚â </unk>
-0.394972	‚« </unk>
-0.996169	‚« ‚Î	-0.0626076
-0.975372	‚« ‚ä	-0.0626076
-0.821416	‚® ‚·	-0.148802

\3-grams:
-0.249653	<unk> ‚Ý </unk>
-0.732929	<unk> ‚Ý ‚Ä
-0.346653	<unk> ‚ä ‚¹
-0.547395	‚« ‚ä ‚µ
-0.147799	<unk> ‚Ô </unk>
-0.287348	‚± ‚¿ ‚ç
-0.124829	<unk> ‚¿ ‚ç
-0.324898	‚¢ ‚ñ </unk>
-0.530764	‚¢ ‚ñ ‚®
-0.39154	<unk> ‚ñ </unk>
-0.776862	<unk> ‚ñ ‚«
-0.777457	<unk> ‚ñ ‚Ï
-0.165498	‚ä ‚¹ </unk>
-0.232197	<unk> ‚± </unk>
-0.945257	<unk> ‚± ‚¿
-0.945257	<unk> ‚± ‚ë
-0.222719	<unk> ‚ê </unk>
-0.457275	‚È ‚è ‚Ü
-0.240882	<unk> ‚è </unk>
-0.779675	<unk> ‚è ‚Ü
-0.957494	<unk> ‚è ‚Å
-0.222719	<unk> ‚× </unk>
-0.547967	‚² ‚Î ‚µ‚å
-0.260301	‚« ‚Î </unk>
-0.238306	<unk> ‚¯ </unk>
-0.707099	<unk> ‚¯ ‚¢
-0.222719	‚µ ‚½ </unk>
-0.222719	<unk> ‚Ò‚å </unk>
-0.517257	‚í ‚  ‚«‚å
-0.547967	‚ä ‚µ ‚Â
-0.547967	<unk> ‚µ ‚½
-0.547395	‚¤ ‚Á ‚Á
-0.260301	‚Á ‚Á </unk>
-0.51785	<unk> ‚Ú ‚Æ
-0.166617	‚¦ ‚í </unk>
-0.161676	<unk> ‚í </unk>
-0.903635	<unk> ‚í ‚ 
-0.194762	<unk> ‚ë </unk>
-0.194762	‚± ‚ë </unk>
-0.336348	‚Ü ‚¦ </unk>
-0.641987	‚Ü ‚¦ ‚í
-0.517257	<unk> ‚¤ ‚Á
-0.165498	<unk> ‚É </unk>
-0.194762	‚¢ ‚¶‚å </unk>
-0.194762	<unk> ‚¶‚å </unk>
-0.150343	‚¾ ‚æ </unk>
-0.176343	<unk> ‚æ </unk>
-0.346272	<unk> ‚Ü </unk>
-0.534854	<unk> ‚Ü ‚¦
-0.394813	‚è ‚Ü ‚·
-0.277728	‚Ç ‚Ü </unk>
-0.0969384	<unk> ‚· </unk>
-0.0969384	‚Ü ‚· </unk>
-0.0544132	‚Å ‚· </unk>
-0.0969384	‚Ø ‚· </unk>
-0.387674	‚® ‚· ‚Ø
-0.194762	<unk> ‚«‚å </unk>
-0.194762	‚  ‚«‚å </unk>
-0.152801	‚¿ ‚ç </unk>
-0.94192	‚¿ ‚ç ‚ª
-0.222719	‚ñ ‚Ï </unk>
-0.336348	<unk> ‚² </unk>
-0.641987	<unk> ‚² ‚Î
-0.0898364	<unk> ‚¬‚ã </unk>
-0.156049	<unk> ‚Å ‚·
-0.22445	‚è ‚Å ‚·
-0.336348	‚¢ ‚Ç </unk>
-0.634776	‚¢ ‚Ç ‚Ü
-0.222719	‚Î ‚µ‚å </unk>
-0.630431	‚¯ ‚¢ ‚¶‚å
-0.500344	<unk> ‚¢ </unk>
-0.649598	<unk> ‚¢ ‚Ç
-0.504853	<unk> ‚¢ ‚ñ
-0.285964	‚Ä ‚¢ ‚ñ
-0.159735	<unk> ‚¨ </unk>
-0.348048	<unk> ‚Ä ‚¢
-0.348048	‚Ý ‚Ä ‚¢
-0.336348	<unk> ‚È </unk>
-0.641987	<unk> ‚È ‚è
-0.222719	‚µ ‚Â </unk>
-0.297662	‚· ‚Ø ‚·
-0.222719	‚Ú ‚Æ </unk>
-0.12538	<unk> ‚ª </unk>
-0.163281	‚ç ‚ª </unk>
-0.147799	<unk> ‚¬‚å </unk>
-0.427289	<unk> ‚¾ </unk>
-0.42726	<unk> ‚¾ ‚æ
-0.222719	<unk> ‚â </unk>
-0.365822	<unk> ‚« </unk>
-0.666298	<unk> ‚« ‚Î
-0.563206	‚ñ ‚« ‚ä
-0.32724	‚ñ ‚® ‚·
