[unifb]
-0.24594

\data\
ngram 1=41
ngram 2=104
ngram 3=99

\1-grams:
-0.457559	</unk>
-1.82492	‚±	-0.077077
-1.85393	‚Î	-0.0260212
-1.85393	‚µ‚å	-0.0251266
-1.65325	‚Ì	-0.186467
-1.65325	‚È	-0.186467
-1.81111	‚Ü	-0.143392
-1.85393	‚¦	-0.0251266
-1.83918	‚í	-0.396144
-1.85393	‚«‚å	-0.0251266
-1.82492	‚ä	-0.143392
-1.85393	‚¹	-0.0227775
-1.82492	‚«	-0.235698
-1.6628	‚ª	-0.0227775
-1.85393	‚É	-0.0260212
-1.82492	‚µ	-0.118798
-1.52347	‚½	-0.102868
-1.83918	‚¿	-0.186467
-1.83918	‚ç	-0.0251266
-1.81111	‚è	-0.0264928
-1.81111	‚·	-0.0264928
-1.83918	‚¯	-0.0251266
-1.41269	‚¢	-0.223904
-1.85393	‚¶‚å	-0.0227775
-1.85393	‚Å	-0.0227775
-1.83918	‚¾	-0.0264928
-1.83918	‚æ	-0.235698
-1.82492	‚ë	-0.0264928
-1.85393	‚Ú	-0.0227775
-1.85393	‚Æ	-0.0227775
-1.85393	‚Ç	-0.0251266
-1.85393	‚Ý	-0.282343
-1.85393	‚Ä	-0.0227775
-1.83918	‚ñ	-0.102868
-1.85393	‚®	-0.0227775
-1.85393	‚Ø	-0.0227775
-1.85393	‚¸	-0.0251266
-1.85393	‚Ô	-0.0227775
-1.83918	‚×	-0.282343
-1.85393	‚â	-0.0251266
-1.85393	‚Û	-0.0227775

\2-grams:
-0.812699	‚Æ ‚«	-0.0660413
-0.64518	‚Ü ‚¦	-0.114075
-1.02578	‚Ü ‚è	-0.0660413
-1.02578	‚Ü ‚·	-0.0660413
-0.314463	‚è </unk>
-1.02235	‚è ‚Ü	-0.0660413
-0.896165	‚Ç ‚±	-0.0660413
-0.894895	‚Ç ‚Ü	-0.0660413
-0.416072	‚¦ </unk>
-0.897438	‚¦ ‚í	-0.0660413
-1.02989	‚ä ‚¹	-0.0660413
-0.644045	‚ä ‚µ	-0.114075
-1.02851	‚ä ‚¯	-0.0660413
-0.581245	‚ñ </unk>
-1.12297	‚ñ ‚«	-0.0660413
-0.723978	‚ñ ‚½	-0.150789
-1.12453	‚ñ ‚¯	-0.0660413
-1.1261	‚ñ ‚®	-0.0660413
-0.301773	‚¸ </unk>
-0.355985	‚ª </unk>
-0.301773	‚ç </unk>
-0.355985	‚¹ </unk>
-0.48841	‚¿ </unk>
-0.583961	‚¿ ‚ç	-0.152884
-0.896165	‚«‚å ‚ä	-0.0660413
-0.837932	‚«‚å ‚¢	-0.0660413
-0.758757	‚Ä ‚¢	-0.0660413
-0.32038	‚Ì </unk>
-0.949832	‚Ì ‚È	-0.0660413
-0.397942	‚ë </unk>
-0.95732	‚ë ‚¢	-0.0660413
-1.02676	‚ë ‚Ú	-0.0660413
-0.555616	‚µ </unk>
-1.03482	‚µ ‚½	-0.0660413
-1.07806	‚µ ‚ë	-0.0660413
-0.698124	‚µ ‚¸	-0.114075
-0.51345	‚× ‚â	-0.114075
-0.32038	‚È </unk>
-0.967233	‚È ‚è	-0.0660413
-0.355985	‚Ô </unk>
-0.354612	‚É </unk>
-0.945074	‚É ‚È	-0.0660413
-0.170341	‚í </unk>
-0.266032	‚Ý </unk>
-0.355985	‚® </unk>
-0.302617	‚« </unk>
-0.802079	‚« ‚ä	-0.150789
-0.811529	‚Ø ‚·	-0.0660413
-0.301773	‚â </unk>
-0.299937	‚½ </unk>
-1.12453	‚½ ‚¾	-0.0660413
-1.12453	‚½ ‚×	-0.0660413
-0.811529	‚Û ‚è	-0.0660413
-0.314463	‚· </unk>
-1.02676	‚· ‚Ø	-0.0660413
-0.355985	‚Ú </unk>
-0.416072	‚¯ </unk>
-0.837932	‚¯ ‚¢	-0.0660413
-0.188548	‚æ </unk>
-0.416072	‚µ‚å </unk>
-0.877494	‚µ‚å ‚Ì	-0.0660413
-0.314463	‚¾ </unk>
-1.02529	‚¾ ‚æ	-0.150789
-0.463207	‚Î </unk>
-0.967899	‚Î ‚µ‚å	-0.114075
-0.965151	‚Î ‚µ	-0.0660413
-0.811529	‚Å ‚·	-0.0660413
-0.417412	‚± </unk>
-0.858634	‚± ‚±	-0.114075
-1.20547	‚± ‚Ì	-0.0660413
-1.23405	‚± ‚¿	-0.0660413
-1.23221	‚± ‚ë	-0.0660413
-0.355985	‚¶‚å </unk>
-0.904725	‚¢ ‚½	-0.114075
-1.20893	‚¢ ‚¶‚å	-0.0660413
-0.827879	‚¢ ‚Ç	-0.114075
-0.627673	‚¢ ‚ñ	-0.150789
-0.866646	<unk> ‚±	-0.375492
-1.27567	<unk> ‚Î	-0.21278
-1.87578	<unk> ‚Ì	-0.0660413
-1.87578	<unk> ‚È	-0.0660413
-1.68359	<unk> ‚Ü	-0.114075
-1.27486	<unk> ‚í	-0.179858
-1.5947	<unk> ‚«‚å	-0.114075
-1.17397	<unk> ‚«	-0.267019
-1.65756	<unk> ‚ª	-0.152884
-1.40653	<unk> ‚É	-0.150789
-1.59135	<unk> ‚µ	-0.114075
-1.59302	<unk> ‚¿	-0.114075
-1.93048	<unk> ‚ç	-0.0660413
-1.92326	<unk> ‚è	-0.0660413
-1.92326	<unk> ‚·	-0.0660413
-1.31854	<unk> ‚¢	-0.179858
-1.93414	<unk> ‚Å	-0.0660413
-0.965515	<unk> ‚¾	-0.398064
-1.59302	<unk> ‚æ	-0.114075
-1.59135	<unk> ‚ë	-0.114075
-1.93414	<unk> ‚Æ	-0.0660413
-1.5947	<unk> ‚Ý	-0.114075
-1.93414	<unk> ‚Ä	-0.0660413
-1.27486	<unk> ‚ñ	-0.21278
-1.93414	<unk> ‚Ô	-0.0660413
-1.93048	<unk> ‚×	-0.0660413
-1.93414	<unk> ‚Û	-0.0660413

\3-grams:
-0.646888	<unk> ‚Æ ‚«
-0.462622	<unk> ‚Ü ‚¦
-0.767397	‚è ‚Ü ‚·
-0.767397	‚Ç ‚Ü ‚è
-0.277079	‚Ü ‚è </unk>
-0.765666	‚È ‚è ‚Ü
-0.277079	‚Û ‚è </unk>
-0.277079	<unk> ‚è </unk>
-0.735099	‚¢ ‚Ç ‚±
-0.734356	‚¢ ‚Ç ‚Ü
-0.396387	‚Ü ‚¦ </unk>
-0.735843	‚Ü ‚¦ ‚í
-0.496271	‚« ‚ä ‚µ
-0.842268	‚« ‚ä ‚¯
-0.769469	‚«‚å ‚ä ‚¹
-0.659466	‚¢ ‚ñ ‚½
-0.889065	‚¢ ‚ñ ‚¯
-0.889786	‚¢ ‚ñ ‚®
-0.593823	<unk> ‚ñ </unk>
-0.924868	<unk> ‚ñ ‚«
-0.549697	<unk> ‚ñ ‚½
-0.239789	‚µ ‚¸ </unk>
-0.269916	<unk> ‚ª </unk>
-0.232399	‚¿ ‚ç </unk>
-0.266397	<unk> ‚ç </unk>
-0.311682	‚ä ‚¹ </unk>
-0.453988	<unk> ‚¿ </unk>
-0.526901	<unk> ‚¿ ‚ç
-0.490566	‚± ‚¿ ‚ç
-0.735099	<unk> ‚«‚å ‚ä
-0.700115	<unk> ‚«‚å ‚¢
-0.612403	<unk> ‚Ä ‚¢
-0.282043	‚µ‚å ‚Ì </unk>
-0.282043	‚± ‚Ì </unk>
-0.727393	<unk> ‚Ì ‚È
-0.381651	<unk> ‚ë </unk>
-0.806615	<unk> ‚ë ‚Ú
-0.346068	‚± ‚ë </unk>
-0.731484	‚µ ‚ë ‚¢
-0.505671	<unk> ‚µ </unk>
-0.832033	<unk> ‚µ ‚ë
-0.49128	‚ä ‚µ ‚¸
-0.771939	‚Î ‚µ ‚½
-0.437431	<unk> ‚× ‚â
-0.437431	‚½ ‚× ‚â
-0.736851	‚É ‚È ‚è
-0.282043	‚Ì ‚È </unk>
-0.282043	<unk> ‚È </unk>
-0.311682	<unk> ‚Ô </unk>
-0.310713	<unk> ‚É </unk>
-0.7973	<unk> ‚É ‚È
-0.153049	‚¦ ‚í </unk>
-0.119897	<unk> ‚í </unk>
-0.213256	<unk> ‚Ý </unk>
-0.311682	‚ñ ‚® </unk>
-0.640222	‚ñ ‚« ‚ä
-0.267108	‚Æ ‚« </unk>
-0.277007	<unk> ‚« </unk>
-0.619647	<unk> ‚« ‚ä
-0.646157	‚· ‚Ø ‚·
-0.239789	‚× ‚â </unk>
-0.300104	‚¢ ‚½ </unk>
-0.853756	‚¢ ‚½ ‚¾
-0.270944	‚ñ ‚½ </unk>
-0.889065	‚ñ ‚½ ‚×
-0.264846	‚µ ‚½ </unk>
-0.646157	<unk> ‚Û ‚è
-0.277079	‚Ü ‚· </unk>
-0.277079	‚Ø ‚· </unk>
-0.277079	‚Å ‚· </unk>
-0.767893	<unk> ‚· ‚Ø
-0.311682	‚ë ‚Ú </unk>
-0.360739	‚ñ ‚¯ </unk>
-0.662484	‚ä ‚¯ ‚¢
-0.153872	<unk> ‚æ </unk>
-0.141765	‚¾ ‚æ </unk>
-0.396387	‚Î ‚µ‚å </unk>
-0.724087	‚Î ‚µ‚å ‚Ì
-0.262523	<unk> ‚¾ </unk>
-0.653067	<unk> ‚¾ ‚æ
-0.277079	‚½ ‚¾ </unk>
-0.502604	<unk> ‚Î </unk>
-0.651602	<unk> ‚Î ‚µ‚å
-0.845007	<unk> ‚Î ‚µ
-0.646157	<unk> ‚Å ‚·
-0.397471	‚± ‚± </unk>
-0.900102	‚± ‚± ‚¿
-0.26186	<unk> ‚± </unk>
-0.79893	<unk> ‚± ‚±
-1.12026	<unk> ‚± ‚Ì
-0.859464	‚Ç ‚± ‚ë
-0.311682	‚¢ ‚¶‚å </unk>
-0.522405	‚Ä ‚¢ ‚ñ
-0.804911	<unk> ‚¢ ‚½
-0.62207	<unk> ‚¢ ‚Ç
-0.620959	<unk> ‚¢ ‚ñ
-0.850284	‚¯ ‚¢ ‚¶‚å
-0.522405	‚«‚å ‚¢ ‚ñ
-0.702073	‚ë ‚¢ ‚½
