[unifb]
-0.22132

\data\
ngram 1=42
ngram 2=83
ngram 3=70

\1-grams:
-0.476413	</unk>
-1.8343	‚ 	-0.00916516
-1.76084	‚±	-0.0243655
-1.8343	‚Ì	-0.00916516
-1.81474	‚Î	-0.0144083
-1.8343	‚µ‚å	-0.00916516
-1.81474	‚È	-0.0144083
-1.45895	‚Ü	-0.0201812
-1.8343	‚¦	-0.00916516
-1.8343	‚í	-0.0816854
-1.61325	‚«‚å	-0.0178034
-1.8343	‚ä	-0.00916516
-1.8343	‚¹	-0.00916516
-1.79602	‚«	-0.233474
-1.81474	‚ª	-0.0894778
-1.8343	‚¬	-0.00916516
-1.8343	‚É	-0.00916516
-1.8343	‚µ	-0.00916516
-1.8343	‚½	-0.00916516
-1.81474	‚¿	-0.0144083
-1.62545	‚ç	-0.116333
-1.81474	‚è	-0.0144083
-1.77807	‚·	-0.0219394
-1.8343	‚¬‚ã	-0.00916516
-1.8343	‚¯	-0.00916516
-1.79602	‚¢	-0.0201812
-1.8343	‚¶‚å	-0.00916516
-1.81474	‚Å	-0.0178034
-1.8343	‚¾	-0.0144083
-1.8343	‚æ	-0.00916516
-1.8343	‚ë	-0.00916516
-1.8343	‚Ú	-0.00916516
-1.8343	‚Æ	-0.00916516
-1.8343	‚¨	-0.00916516
-1.81474	‚Ç	-0.0144083
-1.8343	‚Ð	-0.00916516
-1.8343	‚Ó‚§	-0.00916516
-1.81474	‚Ý	-0.116333
-1.8343	‚Å‚¡	-0.00916516
-1.8343	‚ñ	-0.00916516
-1.8343	‚®	-0.00916516
-1.8343	‚Ø	-0.00916516

\2-grams:
-0.403089	‚µ‚å </unk>
-0.403089	‚¶‚å </unk>
-0.974301	‚Ì ‚Î	-0.0420042
-0.976816	‚Ú ‚Æ	-0.0420042
-0.403089	‚¦ </unk>
-0.784413	‚¿ ‚ç	-0.153522
-0.969315	‚Ø ‚·	-0.0420042
-0.403089	‚½ </unk>
-1.8854	<unk> ‚ 	-0.0420042
-1.29276	<unk> ‚±	-0.084707
-1.8854	<unk> ‚Ì	-0.0420042
-1.71292	<unk> ‚È	-0.0675278
-1.18673	<unk> ‚Ü	-0.27192
-0.980258	<unk> ‚í	-0.160298
-1.52706	<unk> ‚«‚å	-0.084707
-1.8854	<unk> ‚ä	-0.0420042
-1.8854	<unk> ‚¹	-0.0420042
-1.29829	<unk> ‚«	-0.084707
-1.30108	<unk> ‚ª	-0.153522
-1.8854	<unk> ‚¬	-0.0420042
-1.8854	<unk> ‚É	-0.0420042
-1.49938	<unk> ‚¿	-0.149338
-1.87478	<unk> ‚è	-0.0420042
-1.29552	<unk> ‚·	-0.153522
-1.8854	<unk> ‚¬‚ã	-0.0420042
-1.70575	<unk> ‚¢	-0.0675278
-1.49938	<unk> ‚Å	-0.0675278
-1.50382	<unk> ‚¾	-0.0675278
-1.8854	<unk> ‚ë	-0.0420042
-1.87478	<unk> ‚Ç	-0.0420042
-1.8854	<unk> ‚Ð	-0.0420042
-1.8854	<unk> ‚Ó‚§	-0.0420042
-1.71292	<unk> ‚Ý	-0.0675278
-1.8854	<unk> ‚Å‚¡	-0.0420042
-0.361277	‚ª </unk>
-1.21304	‚ª ‚¢	-0.0675278
-1.21639	‚ª ‚Å	-0.0420042
-0.277612	‚Ý </unk>
-0.366732	‚è </unk>
-0.371201	‚± </unk>
-1.32292	‚± ‚±	-0.0420042
-1.3372	‚± ‚¿	-0.0420042
-0.344942	‚«‚å </unk>
-0.976816	‚Æ ‚¨	-0.0420042
-0.306062	‚í </unk>
-1.25576	‚í ‚±	-0.0420042
-0.520229	‚ç ‚ª	-0.153522
-0.976816	‚ë ‚Ú	-0.0420042
-0.435156	‚Ü </unk>
-1.20912	‚Ü ‚¦	-0.0420042
-1.20912	‚Ü ‚µ	-0.0420042
-0.403089	‚æ </unk>
-0.976816	‚Å‚¡ ‚ñ	-0.0420042
-0.403089	‚¬ </unk>
-0.403089	‚É </unk>
-0.976816	‚ñ ‚®	-0.0420042
-0.976816	‚µ ‚½	-0.0420042
-0.969315	‚® ‚·	-0.0420042
-0.403089	‚ä </unk>
-0.366732	‚Ç </unk>
-0.976816	‚¬‚ã ‚¯	-0.0420042
-0.498835	‚¢ </unk>
-1.2016	‚¢ ‚«	-0.0420042
-1.20912	‚¢ ‚¶‚å	-0.0420042
-1.20534	‚¢ ‚Ç	-0.0420042
-0.966843	‚Ó‚§ ‚±	-0.0420042
-0.212956	‚« </unk>
-1.28929	‚« ‚Î	-0.0420042
-0.44636	‚Î </unk>
-1.07295	‚Î ‚µ‚å	-0.0420042
-0.405775	‚Å </unk>
-1.13797	‚Å ‚·	-0.0420042
-0.361356	‚· </unk>
-1.26028	‚· ‚Ø	-0.0420042
-0.403089	‚¨ </unk>
-0.403089	‚¯ </unk>
-0.966843	‚  ‚±	-0.0420042
-0.971801	‚Ð ‚«	-0.0420042
-0.403089	‚¹ </unk>
-0.99245	‚È ‚Ü	-0.0420042
-1.06999	‚È ‚è	-0.0420042
-0.44636	‚¾ </unk>
-1.07295	‚¾ ‚æ	-0.0420042

\3-grams:
-0.320708	‚Î ‚µ‚å </unk>
-0.320708	‚¢ ‚¶‚å </unk>
-0.64179	<unk> ‚Ì ‚Î
-0.642798	‚ë ‚Ú ‚Æ
-0.320708	‚Ü ‚¦ </unk>
-0.555354	‚± ‚¿ ‚ç
-0.417731	<unk> ‚¿ ‚ç
-0.639781	‚· ‚Ø ‚·
-0.320708	‚µ ‚½ </unk>
-0.284422	‚ç ‚ª </unk>
-0.844983	‚ç ‚ª ‚Å
-0.40479	<unk> ‚ª </unk>
-0.570311	<unk> ‚ª ‚¢
-0.195097	<unk> ‚Ý </unk>
-0.294433	<unk> ‚è </unk>
-0.294433	‚È ‚è </unk>
-0.297696	‚± ‚± </unk>
-0.297696	‚  ‚± </unk>
-0.401019	<unk> ‚± </unk>
-0.869146	<unk> ‚± ‚±
-0.872584	<unk> ‚± ‚¿
-0.297696	‚í ‚± </unk>
-0.297696	‚Ó‚§ ‚± </unk>
-0.207642	<unk> ‚«‚å </unk>
-0.642798	‚Ú ‚Æ ‚¨
-0.184515	<unk> ‚í </unk>
-0.9828	<unk> ‚í ‚±
-0.27382	‚¿ ‚ç ‚ª
-0.642798	<unk> ‚ë ‚Ú
-0.721514	‚È ‚Ü ‚¦
-0.216688	<unk> ‚Ü </unk>
-0.977532	<unk> ‚Ü ‚µ
-0.320708	‚¾ ‚æ </unk>
-0.642798	<unk> ‚Å‚¡ ‚ñ
-0.320708	<unk> ‚¬ </unk>
-0.320708	<unk> ‚É </unk>
-0.642798	‚Å‚¡ ‚ñ ‚®
-0.642798	‚Ü ‚µ ‚½
-0.639781	‚ñ ‚® ‚·
-0.320708	<unk> ‚ä </unk>
-0.294433	‚¢ ‚Ç </unk>
-0.294433	<unk> ‚Ç </unk>
-0.642798	<unk> ‚¬‚ã ‚¯
-0.784534	<unk> ‚¢ ‚¶‚å
-0.783442	<unk> ‚¢ ‚Ç
-0.443887	‚ª ‚¢ </unk>
-0.782353	‚ª ‚¢ ‚«
-0.63878	<unk> ‚Ó‚§ ‚±
-0.201318	<unk> ‚« </unk>
-0.8607	<unk> ‚« ‚Î
-0.176962	‚Ð ‚« </unk>
-0.176962	‚¢ ‚« </unk>
-0.678754	‚Ì ‚Î ‚µ‚å
-0.35117	‚« ‚Î </unk>
-0.378928	<unk> ‚Å </unk>
-0.762802	<unk> ‚Å ‚·
-0.322625	‚ª ‚Å </unk>
-0.290497	‚Å ‚· </unk>
-0.206465	<unk> ‚· </unk>
-0.290497	‚Ø ‚· </unk>
-0.73529	‚® ‚· ‚Ø
-0.320708	‚Æ ‚¨ </unk>
-0.320708	‚¬‚ã ‚¯ </unk>
-0.63878	<unk> ‚  ‚±
-0.640784	<unk> ‚Ð ‚«
-0.320708	<unk> ‚¹ </unk>
-0.710278	<unk> ‚È ‚Ü
-0.739662	<unk> ‚È ‚è
-0.407774	<unk> ‚¾ </unk>
-0.740719	<unk> ‚¾ ‚æ
