[unifb]
-0.24367

\data\
ngram 1=20
ngram 2=35
ngram 3=23

\1-grams:
-0.434984	</unk>
-1.51016	‚±	-0.0397407
-1.46078	‚Ì	-0.0499963
-1.51016	‚Î	-0.0397407
-1.51016	‚µ‚ã	-0.0397407
-1.51016	‚È	-0.0397407
-1.46078	‚Ü	-0.0499963
-1.51016	‚¦	-0.0397407
-1.46078	‚í	-0.0499963
-1.46078	‚«‚å	-0.0397407
-1.46078	‚ä	-0.0499963
-1.51016	‚¹	-0.0397407
-1.51016	‚«	-0.0397407
-1.51016	‚¢	-0.0397407
-1.51016	‚²	-0.0397407
-1.51016	‚ª	-0.0397407
-1.51016	‚¬‚å	-0.0397407
-1.51016	‚É	-0.0397407
-1.51016	‚µ	-0.0397407
-1.51016	‚½	-0.0397407

\2-grams:
-0.433889	‚«‚å </unk>
-1.49427	‚Ü ‚¦	-0.000636998
-1.49427	‚Ü ‚µ	-0.000636998
-1.52932	<unk> ‚±	-0.000636998
-1.48053	<unk> ‚Ì	-0.000636998
-1.47564	<unk> ‚Ü	-0.00106718
-1.47564	<unk> ‚«‚å	-0.0777822
-1.48053	<unk> ‚ä	-0.000636998
-1.10127	<unk> ‚¹	-0.0777822
-1.52932	<unk> ‚«	-0.000636998
-1.52932	<unk> ‚¢	-0.000636998
-1.52932	<unk> ‚²	-0.000636998
-1.52932	<unk> ‚ª	-0.000636998
-1.52932	<unk> ‚¬‚å	-0.000636998
-1.52932	<unk> ‚É	-0.000636998
-1.52932	<unk> ‚½	-0.000636998
-0.433889	‚« </unk>
-0.433889	‚¹ </unk>
-0.433152	‚ä </unk>
-1.44338	‚± ‚Ì	-0.000636998
-1.49427	‚Ì ‚Î	-0.000636998
-1.49427	‚Ì ‚È	-0.000636998
-1.49064	‚Î ‚µ‚ã	-0.000636998
-0.433889	‚µ‚ã </unk>
-0.433889	‚½ </unk>
-0.434599	‚í </unk>
-1.44668	‚í ‚í	-0.000636998
-0.433889	‚µ </unk>
-1.44338	‚¦ ‚í	-0.000636998
-0.433889	‚É </unk>
-1.44338	‚¬‚å ‚ä	-0.000636998
-0.433889	‚È </unk>
-0.433889	‚ª </unk>
-0.433889	‚² </unk>
-0.433889	‚¢ </unk>

\3-grams:
-0.167365	<unk> ‚«‚å </unk>
-0.674235	<unk> ‚Ü ‚¦
-0.674235	<unk> ‚Ü ‚µ
-0.266043	<unk> ‚« </unk>
-0.167365	<unk> ‚¹ </unk>
-0.26568	<unk> ‚ä </unk>
-0.26568	‚¬‚å ‚ä </unk>
-0.521295	<unk> ‚± ‚Ì
-0.525481	‚± ‚Ì ‚Î
-0.525481	<unk> ‚Ì ‚È
-0.525197	‚Ì ‚Î ‚µ‚ã
-0.266043	‚Î ‚µ‚ã </unk>
-0.266043	<unk> ‚½ </unk>
-0.52158	‚¦ ‚í ‚í
-0.266393	‚í ‚í </unk>
-0.266043	‚Ü ‚µ </unk>
-0.521295	‚Ü ‚¦ ‚í
-0.266043	<unk> ‚É </unk>
-0.521295	<unk> ‚¬‚å ‚ä
-0.266043	‚Ì ‚È </unk>
-0.266043	<unk> ‚ª </unk>
-0.266043	<unk> ‚² </unk>
-0.266043	<unk> ‚¢ </unk>
