[unifb]
-0.261588

\data\
ngram 1=44
ngram 2=107
ngram 3=95

\1-grams:
-0.443406	</unk>
-1.67099	‚±	-0.136401
-1.89775	‚Ì	-0.151371
-1.88135	‚Î	-0.0220748
-1.89775	‚µ‚å	-0.0152907
-1.86555	‚È	-0.122875
-1.68102	‚Ü	-0.023371
-1.88135	‚¦	-0.0198707
-1.86555	‚í	-0.122875
-1.89775	‚«‚å	-0.0198707
-1.89775	‚¤	-0.0152907
-1.88135	‚ä	-0.0220748
-1.89775	‚¹	-0.0152907
-1.4407	‚«	-0.0930007
-1.89775	‚ª	-0.0198707
-1.89775	‚É	-0.0152907
-1.67099	‚µ	-0.0242245
-1.86555	‚½	-0.0220748
-1.88135	‚¿	-0.204811
-1.89775	‚ç	-0.0198707
-1.55192	‚è	-0.023371
-1.83557	‚·	-0.023371
-1.88135	‚¯	-0.0198707
-1.83557	‚¢	-0.0930007
-1.89775	‚¶‚å	-0.0152907
-1.89775	‚Å	-0.122875
-1.89775	‚²	-0.0152907
-1.88135	‚¾	-0.151371
-1.88135	‚æ	-0.0198707
-1.88135	‚ë	-0.0220748
-1.89775	‚Ú	-0.0152907
-1.89775	‚Æ	-0.0152907
-1.89775	‚¨	-0.0152907
-1.89775	‚ 	-0.0152907
-1.89775	‚Ç	-0.0198707
-1.89775	‚Ý	-0.151371
-1.68102	‚ñ	-0.023371
-1.89775	‚®	-0.0152907
-1.89775	‚Ø	-0.0152907
-1.89775	‚Â	-0.0152907
-1.89775	‚Õ	-0.0152907
-1.89775	‚×	-0.0152907
-1.89775	‚â	-0.0152907
-1.89775	‚Í	-0.0152907

\2-grams:
-0.431002	‚« </unk>
-1.27942	‚« ‚Î	-0.0483865
-0.771044	‚« ‚ä	-0.0781001
-0.416524	‚ª </unk>
-1.0246	‚ª ‚¢	-0.0483865
-0.368868	‚É </unk>
-0.431673	‚µ </unk>
-1.22278	‚µ ‚½	-0.0483865
-1.22544	‚µ ‚ë	-0.0483865
-1.22812	‚µ ‚Â	-0.0483865
-0.3744	‚½ </unk>
-1.11026	‚½ ‚×	-0.0483865
-0.507827	‚¿ ‚ç	-0.0781001
-0.332044	‚ç </unk>
-0.860565	‚¹ ‚«	-0.0483865
-0.295335	‚· </unk>
-1.11026	‚ä ‚¹	-0.0483865
-1.07315	‚ä ‚µ	-0.0483865
-1.10809	‚ä ‚¯	-0.0483865
-0.931118	‚¤ ‚ä	-0.0483865
-0.474927	‚è </unk>
-1.13508	‚è ‚Ü	-0.0483865
-1.1646	‚è ‚¢	-0.0483865
-1.13508	‚è ‚ñ	-0.0483865
-1.06246	<unk> ‚±	-0.177826
-1.55694	<unk> ‚Î	-0.0781001
-1.46704	<unk> ‚È	-0.0982451
-1.94988	<unk> ‚¦	-0.0483865
-1.55404	<unk> ‚í	-0.0781001
-1.55987	<unk> ‚«‚å	-0.0781001
-1.36881	<unk> ‚«	-0.0982451
-1.55987	<unk> ‚ª	-0.0781001
-1.95715	<unk> ‚É	-0.0483865
-1.51044	<unk> ‚µ	-0.0781001
-1.94988	<unk> ‚¿	-0.0483865
-1.47564	<unk> ‚è	-0.0781001
-1.74532	<unk> ‚·	-0.155985
-1.94988	<unk> ‚¯	-0.0483865
-1.34863	<unk> ‚¢	-0.164264
-1.113	<unk> ‚Å	-0.174462
-1.07847	<unk> ‚¾	-0.28573
-1.94988	<unk> ‚æ	-0.0483865
-1.55694	<unk> ‚ë	-0.0781001
-1.95715	<unk> ‚Ú	-0.0483865
-1.95715	<unk> ‚Æ	-0.0483865
-1.95715	<unk> ‚¨	-0.0483865
-1.95715	<unk> ‚ 	-0.0483865
-1.35592	<unk> ‚Ý	-0.0982451
-1.95715	<unk> ‚®	-0.0483865
-1.95715	<unk> ‚Ø	-0.0483865
-1.95715	<unk> ‚Õ	-0.0483865
-1.95715	<unk> ‚Í	-0.0483865
-0.292099	‚í </unk>
-1.18213	‚í ‚²	-0.0483865
-0.416524	‚¦ </unk>
-1.02835	‚¦ ‚í	-0.0483865
-0.474927	‚Ü </unk>
-1.1718	‚Ü ‚¦	-0.0483865
-1.10329	‚Ü ‚è	-0.0483865
-1.1646	‚Ü ‚·	-0.0483865
-0.52189	‚È </unk>
-0.650153	‚È ‚Ü	-0.0781001
-1.11828	‚È ‚è	-0.0483865
-0.368868	‚µ‚å </unk>
-0.450024	‚Î </unk>
-1.11026	‚Î ‚µ‚å	-0.0483865
-1.07315	‚Î ‚µ	-0.0483865
-0.306067	‚Ì </unk>
-1.11452	‚Ì ‚È	-0.0483865
-0.492439	‚± </unk>
-0.844691	‚± ‚±	-0.0781001
-0.860727	‚± ‚Ì	-0.0982451
-1.35987	‚± ‚í	-0.0483865
-1.03214	‚«‚å ‚¤	-0.0483865
-1.0246	‚«‚å ‚¢	-0.0483865
-0.368868	‚â </unk>
-0.932736	‚× ‚â	-0.0483865
-0.368868	‚Õ </unk>
-0.368868	‚Â </unk>
-0.368868	‚Ø </unk>
-0.926301	‚® ‚·	-0.0483865
-0.406477	‚ñ </unk>
-1.06982	‚ñ ‚«	-0.0483865
-1.16939	‚ñ ‚½	-0.0483865
-0.250481	‚Ý </unk>
-0.999501	‚Ç ‚±	-0.0483865
-1.00127	‚Ç ‚Ü	-0.0483865
-0.904782	‚Í ‚µ	-0.0483865
-0.368868	‚  </unk>
-0.860565	‚¨ ‚«	-0.0483865
-0.368868	‚Æ </unk>
-1.0246	‚¯ ‚¢	-0.0483865
-1.00127	‚¯ ‚ñ	-0.0483865
-0.548169	‚¢ </unk>
-1.27675	‚¢ ‚½	-0.0483865
-1.2821	‚¢ ‚¶‚å	-0.0483865
-1.2821	‚¢ ‚Ç	-0.0781001
-0.758127	‚¢ ‚ñ	-0.0781001
-0.368868	‚¶‚å </unk>
-0.292099	‚Å </unk>
-1.17352	‚Å ‚·	-0.0483865
-0.931118	‚² ‚¿	-0.0483865
-0.306067	‚¾ </unk>
-1.11641	‚¾ ‚æ	-0.0483865
-0.332044	‚æ </unk>
-0.310013	‚ë </unk>
-0.368868	‚Ú </unk>

\3-grams:
-0.348408	‚¹ ‚« </unk>
-0.565601	‚ñ ‚« ‚ä
-0.770966	‚¨ ‚« ‚Î
-0.346565	<unk> ‚« </unk>
-0.670659	<unk> ‚« ‚ä
-0.38989	<unk> ‚ª </unk>
-0.747924	<unk> ‚ª ‚¢
-0.302506	<unk> ‚É </unk>
-0.401129	<unk> ‚µ </unk>
-0.821152	<unk> ‚µ ‚ë
-0.348894	‚Í ‚µ </unk>
-0.754822	‚Î ‚µ ‚½
-0.756411	‚ä ‚µ ‚Â
-0.71809	‚ñ ‚½ ‚×
-0.306662	‚µ ‚½ </unk>
-0.306662	‚¢ ‚½ </unk>
-0.402699	<unk> ‚¿ ‚ç
-0.402699	‚² ‚¿ ‚ç
-0.239203	‚¿ ‚ç </unk>
-0.612202	‚ä ‚¹ ‚«
-0.246053	‚® ‚· </unk>
-0.246053	‚Å ‚· </unk>
-0.246053	‚Ü ‚· </unk>
-0.196473	<unk> ‚· </unk>
-0.71809	‚¤ ‚ä ‚¹
-0.767617	‚« ‚ä ‚µ
-0.780984	‚« ‚ä ‚¯
-0.645683	‚«‚å ‚¤ ‚ä
-0.379795	‚Ü ‚è </unk>
-0.801215	<unk> ‚è ‚¢
-0.790858	<unk> ‚è ‚ñ
-0.726748	‚È ‚è ‚Ü
-0.243519	‚± ‚í </unk>
-0.243519	‚¦ ‚í </unk>
-0.293938	<unk> ‚í </unk>
-0.807153	<unk> ‚í ‚²
-0.337866	<unk> ‚¦ </unk>
-0.687185	‚Ü ‚¦ ‚í
-0.7156	‚Ç ‚Ü ‚è
-0.736628	‚è ‚Ü ‚·
-0.432653	‚È ‚Ü </unk>
-0.803675	‚È ‚Ü ‚¦
-0.509397	<unk> ‚È </unk>
-0.596478	<unk> ‚È ‚Ü
-0.837799	<unk> ‚È ‚è
-0.495445	‚Ì ‚È ‚Ü
-0.302506	‚Î ‚µ‚å </unk>
-0.362111	‚« ‚Î </unk>
-0.781792	<unk> ‚Î ‚µ‚å
-0.767617	<unk> ‚Î ‚µ
-0.267141	‚± ‚Ì </unk>
-0.836352	‚± ‚Ì ‚È
-0.501162	<unk> ‚± </unk>
-0.676307	<unk> ‚± ‚±
-0.617548	<unk> ‚± ‚Ì
-0.671618	‚± ‚± ‚Ì
-0.858855	‚± ‚± ‚í
-0.392052	‚Ç ‚± </unk>
-0.75107	<unk> ‚«‚å ‚¤
-0.747924	<unk> ‚«‚å ‚¢
-0.302506	‚× ‚â </unk>
-0.646417	‚½ ‚× ‚â
-0.302506	<unk> ‚Õ </unk>
-0.302506	‚µ ‚Â </unk>
-0.302506	<unk> ‚Ø </unk>
-0.643487	<unk> ‚® ‚·
-0.73819	‚è ‚ñ ‚½
-0.285339	‚¢ ‚ñ </unk>
-0.703284	‚¯ ‚ñ ‚«
-0.167801	<unk> ‚Ý </unk>
-0.737231	‚¢ ‚Ç ‚±
-0.737997	‚¢ ‚Ç ‚Ü
-0.633519	<unk> ‚Í ‚µ
-0.302506	<unk> ‚  </unk>
-0.612202	<unk> ‚¨ ‚«
-0.302506	<unk> ‚Æ </unk>
-0.676159	<unk> ‚¯ ‚ñ
-0.68568	‚ä ‚¯ ‚¢
-0.558498	‚«‚å ‚¢ ‚ñ
-0.558498	‚è ‚¢ ‚ñ
-0.900496	<unk> ‚¢ ‚½
-0.581292	<unk> ‚¢ ‚Ç
-0.771693	‚¯ ‚¢ ‚¶‚å
-0.430055	‚ª ‚¢ </unk>
-0.302506	‚¢ ‚¶‚å </unk>
-0.200366	<unk> ‚Å </unk>
-0.953443	<unk> ‚Å ‚·
-0.645683	‚í ‚² ‚¿
-0.17111	<unk> ‚¾ </unk>
-0.98655	<unk> ‚¾ ‚æ
-0.274512	‚¾ ‚æ </unk>
-0.274512	<unk> ‚æ </unk>
-0.224978	<unk> ‚ë </unk>
-0.257497	‚µ ‚ë </unk>
-0.302506	<unk> ‚Ú </unk>
