[unifb]
-0.239342

\data\
ngram 1=48
ngram 2=100
ngram 3=82

\1-grams:
-0.437819	</unk>
-1.90621	‚²	-0.0131726
-1.863	‚Ì	-0.107172
-1.67342	‚Î	-0.107172
-1.90621	‚µ‚ã	-0.0131726
-1.90621	‚È	-0.0192918
-1.84291	‚Ü	-0.0279483
-1.90621	‚í	-0.0251292
-1.88407	‚«‚å	-0.0192918
-1.90621	‚¤	-0.0131726
-1.90621	‚ä	-0.0131726
-1.90621	‚¹	-0.0131726
-1.88407	‚«	-0.0228268
-1.90621	‚Ó‚§	-0.0131726
-1.88407	‚±	-0.0228268
-1.88407	‚ª	-0.107172
-1.90621	‚É	-0.0131726
-1.88407	‚µ	-0.0192918
-1.90621	‚½	-0.0131726
-1.90621	‚¿	-0.0192918
-1.88407	‚ç	-0.0192918
-1.90621	‚è	-0.0131726
-1.863	‚·	-0.0251292
-1.54189	‚¬‚ã	-0.124065
-1.88407	‚¯	-0.0228268
-1.863	‚¢	-0.177771
-1.90621	‚¶‚å	-0.0131726
-1.88407	‚Å	-0.0192918
-1.90621	‚É‚á	-0.0131726
-1.88407	‚Ö	-0.0192918
-1.90621	‚¾	-0.0131726
-1.90621	‚æ	-0.0131726
-1.90621	‚ë	-0.0131726
-1.88407	‚Ú	-0.0131726
-1.90621	‚Æ	-0.0192918
-1.90621	‚ð	-0.0131726
-1.90621	‚Ç	-0.0131726
-1.90621	‚µ‚å	-0.0131726
-1.90621	‚Ý	-0.0131726
-1.90621	‚Å‚¡	-0.0131726
-1.84291	‚ñ	-0.107172
-1.90621	‚®	-0.0131726
-1.88407	‚Ø	-0.0192918
-1.90621	‚µ‚á	-0.0131726
-1.90621	‚Ð‚å	-0.0131726
-1.90621	‚Ñ	-0.0131726
-1.90621	‚Â	-0.0131726
-1.90621	‚°	-0.0131726

\2-grams:
-0.484061	‚ñ </unk>
-0.79926	‚ñ ‚¬‚ã	-0.0789075
-1.23446	‚ñ ‚¯	-0.0295186
-0.384213	‚« </unk>
-1.14999	‚« ‚Î	-0.0295186
-1.10169	‚Å‚¡ ‚ñ	-0.0295186
-1.10169	‚° ‚ñ	-0.0295186
-1.19816	‚¬‚ã ‚µ	-0.0789075
-0.79473	‚¬‚ã ‚¯	-0.0985255
-0.390792	‚Â </unk>
-1.89474	<unk> ‚²	-0.0295186
-1.54826	<unk> ‚Ì	-0.0541841
-1.7974	<unk> ‚Î	-0.0295186
-1.13625	<unk> ‚È	-0.175574
-1.4346	<unk> ‚Ü	-0.0751341
-1.23665	<unk> ‚í	-0.093169
-1.88676	<unk> ‚«‚å	-0.0295186
-1.89474	<unk> ‚¤	-0.0295186
-1.89474	<unk> ‚ä	-0.0295186
-1.55189	<unk> ‚«	-0.0541841
-1.89474	<unk> ‚Ó‚§	-0.0295186
-1.36508	<unk> ‚±	-0.0985255
-1.36508	<unk> ‚ª	-0.0751341
-1.55556	<unk> ‚É	-0.0789075
-1.67351	<unk> ‚ç	-0.0541841
-1.89474	<unk> ‚è	-0.0295186
-1.13345	<unk> ‚·	-0.175574
-1.37691	<unk> ‚¬‚ã	-0.0985255
-1.28728	<unk> ‚¢	-0.093169
-1.67351	<unk> ‚Å	-0.0541841
-1.89474	<unk> ‚É‚á	-0.0295186
-1.89474	<unk> ‚¾	-0.0295186
-1.89474	<unk> ‚ë	-0.0295186
-1.67351	<unk> ‚Ú	-0.0789075
-1.89474	<unk> ‚ð	-0.0295186
-1.89474	<unk> ‚Ý	-0.0295186
-1.87124	<unk> ‚ñ	-0.0295186
-1.89474	<unk> ‚®	-0.0295186
-1.88676	<unk> ‚Ø	-0.0295186
-1.89474	<unk> ‚µ‚á	-0.0295186
-1.89474	<unk> ‚Ð‚å	-0.0295186
-1.11179	‚Ú ‚Æ	-0.0541841
-1.11179	‚ä ‚¹	-0.0295186
-0.424444	‚Ì </unk>
-0.81529	‚Ì ‚Î	-0.0541841
-0.871697	‚¢ ‚¶‚å	-0.0789075
-0.871697	‚¢ ‚Ç	-0.0789075
-1.275	‚¢ ‚°	-0.0295186
-1.10839	‚Ó‚§ ‚±	-0.0295186
-0.390792	‚® </unk>
-0.390792	‚Ñ </unk>
-1.11179	‚Ð‚å ‚Ñ	-0.0295186
-0.390792	‚µ‚á </unk>
-0.390792	‚µ‚å </unk>
-1.10503	‚µ‚ã ‚Ì	-0.0295186
-0.390792	‚ð </unk>
-0.419358	‚È </unk>
-1.14678	‚È ‚Ü	-0.0295186
-0.390792	‚É‚á </unk>
-0.390792	‚ë </unk>
-0.390792	‚¤ </unk>
-0.419358	‚Ø </unk>
-1.15029	‚Ø ‚·	-0.0295186
-1.11179	‚¾ ‚æ	-0.0295186
-0.357279	‚í </unk>
-1.23056	‚í ‚«‚å	-0.0295186
-0.390792	‚è </unk>
-0.384213	‚± </unk>
-1.19795	‚± ‚¿	-0.0541841
-0.419358	‚ç </unk>
-1.15382	‚ç ‚ª	-0.0295186
-0.357141	‚¿ </unk>
-0.390792	‚½ </unk>
-1.15738	‚µ ‚½	-0.0295186
-1.15738	‚µ ‚Â	-0.0789075
-0.390792	‚É </unk>
-0.332741	‚ª </unk>
-1.23077	‚ª ‚Ì	-0.0295186
-0.357279	‚· </unk>
-1.23056	‚· ‚Ø	-0.0295186
-0.419358	‚Å </unk>
-1.15029	‚Å ‚·	-0.0295186
-0.390792	‚² </unk>
-0.44383	‚¯ </unk>
-1.19054	‚¯ ‚¢	-0.0295186
-1.18687	‚¯ ‚ñ	-0.0295186
-0.380361	‚Î </unk>
-1.23818	‚Î ‚µ‚ã	-0.0295186
-1.23818	‚Î ‚µ‚å	-0.0295186
-0.390792	‚¶‚å </unk>
-0.399954	‚Ü </unk>
-1.29363	‚Ü ‚µ	-0.0295186
-1.03682	‚Ü ‚Ö	-0.0541841
-0.357141	‚Ö </unk>
-0.357141	‚«‚å </unk>
-0.390792	‚æ </unk>
-1.10839	‚¹ ‚«	-0.0295186
-0.357141	‚Æ </unk>
-1.10169	‚Ç ‚Ü	-0.0541841
-1.11179	‚Ý ‚Å‚¡	-0.0295186

\3-grams:
-0.466841	‚° ‚ñ ‚¬‚ã
-0.324341	‚Å‚¡ ‚ñ </unk>
-0.580629	<unk> ‚ñ ‚¯
-0.466841	‚¯ ‚ñ ‚¬‚ã
-0.353073	<unk> ‚« </unk>
-0.65379	<unk> ‚« ‚Î
-0.267394	‚¹ ‚« </unk>
-0.55445	‚Ý ‚Å‚¡ ‚ñ
-0.55445	‚¢ ‚° ‚ñ
-0.392523	‚ñ ‚¬‚ã ‚µ
-0.265675	<unk> ‚¬‚ã ‚¯
-0.205457	‚µ ‚Â </unk>
-0.383129	<unk> ‚Ú ‚Æ
-0.556673	<unk> ‚ä ‚¹
-0.291015	‚µ‚ã ‚Ì </unk>
-0.47261	‚ª ‚Ì ‚Î
-0.376886	<unk> ‚Ì </unk>
-0.560369	<unk> ‚Ì ‚Î
-0.713345	<unk> ‚¢ ‚¶‚å
-0.493081	<unk> ‚¢ ‚Ç
-0.813147	<unk> ‚¢ ‚°
-0.491845	‚¯ ‚¢ ‚¶‚å
-0.555931	<unk> ‚Ó‚§ ‚±
-0.271318	<unk> ‚® </unk>
-0.271318	‚Ð‚å ‚Ñ </unk>
-0.556673	<unk> ‚Ð‚å ‚Ñ
-0.271318	<unk> ‚µ‚á </unk>
-0.271318	‚Î ‚µ‚å </unk>
-0.55519	‚Î ‚µ‚ã ‚Ì
-0.271318	<unk> ‚ð </unk>
-0.199688	<unk> ‚È </unk>
-0.847955	<unk> ‚È ‚Ü
-0.271318	<unk> ‚É‚á </unk>
-0.271318	<unk> ‚ë </unk>
-0.271318	<unk> ‚¤ </unk>
-0.564783	<unk> ‚Ø ‚·
-0.288079	‚· ‚Ø </unk>
-0.556673	<unk> ‚¾ ‚æ
-0.223203	<unk> ‚í </unk>
-0.805323	<unk> ‚í ‚«‚å
-0.271318	<unk> ‚è </unk>
-0.42815	<unk> ‚± </unk>
-0.46672	<unk> ‚± ‚¿
-0.267394	‚Ó‚§ ‚± </unk>
-0.373926	<unk> ‚ç </unk>
-0.654579	<unk> ‚ç ‚ª
-0.196	‚± ‚¿ </unk>
-0.271318	‚µ ‚½ </unk>
-0.566216	‚Ü ‚µ ‚½
-0.388295	‚¬‚ã ‚µ ‚Â
-0.205457	<unk> ‚É </unk>
-0.23587	‚ç ‚ª </unk>
-0.256106	<unk> ‚ª </unk>
-0.74287	<unk> ‚ª ‚Ì
-0.183351	<unk> ‚· </unk>
-0.864092	<unk> ‚· ‚Ø
-0.251079	‚Å ‚· </unk>
-0.251079	‚Ø ‚· </unk>
-0.373926	<unk> ‚Å </unk>
-0.653852	<unk> ‚Å ‚·
-0.271318	<unk> ‚² </unk>
-0.298421	‚¬‚ã ‚¯ </unk>
-0.736943	‚¬‚ã ‚¯ ‚¢
-0.571978	‚ñ ‚¯ ‚ñ
-0.265085	‚« ‚Î </unk>
-0.350747	‚Ì ‚Î </unk>
-0.670609	‚Ì ‚Î ‚µ‚ã
-0.581274	<unk> ‚Î ‚µ‚å
-0.205457	‚¢ ‚¶‚å </unk>
-0.432562	<unk> ‚Ü </unk>
-0.753576	<unk> ‚Ü ‚µ
-0.700799	<unk> ‚Ü ‚Ö
-0.214619	‚Ç ‚Ü </unk>
-0.539184	‚È ‚Ü ‚Ö
-0.196	‚Ü ‚Ö </unk>
-0.250994	<unk> ‚«‚å </unk>
-0.250994	‚í ‚«‚å </unk>
-0.271318	‚¾ ‚æ </unk>
-0.555931	‚ä ‚¹ ‚«
-0.196	‚Ú ‚Æ </unk>
-0.381918	‚¢ ‚Ç ‚Ü
-0.556673	<unk> ‚Ý ‚Å‚¡
