[unifb]
-0.267808

\data\
ngram 1=37
ngram 2=81
ngram 3=60

\1-grams:
-0.419806	</unk>
-1.81972	‚²	-0.0183116
-1.79352	‚Ì	-0.0257792
-1.79352	‚Î	-0.0257792
-1.79352	‚µ	-0.0257792
-1.79352	‚È	-0.0257792
-1.74544	‚Ü	-0.0323834
-1.79352	‚¦	-0.0257792
-1.81972	‚í	-0.0183116
-1.81972	‚ 	-0.0183116
-1.81972	‚«‚å	-0.0183116
-1.79352	‚¨	-0.0257792
-1.81972	‚ä	-0.0183116
-1.81972	‚¹	-0.0183116
-1.26258	‚«	-0.0323834
-1.76882	‚±	-0.0980158
-1.79352	‚ª	-0.0257792
-1.76882	‚É	-0.0298355
-1.81972	‚½	-0.0183116
-1.81972	‚¿	-0.1745
-1.81972	‚ç	-0.0257792
-1.81972	‚è‚á	-0.0183116
-1.79352	‚è	-0.0257792
-1.79352	‚·	-0.0257792
-1.79352	‚¬‚ã	-0.0183116
-1.76882	‚¯	-0.0298355
-1.74544	‚¢	-0.0298355
-1.81972	‚¶‚å	-0.0183116
-1.81972	‚Å	-0.0183116
-1.81972	‚¸	-0.0183116
-1.81972	‚¾	-0.0298355
-1.81972	‚æ	-0.0183116
-1.81972	‚ë	-0.0183116
-1.81972	‚Ú	-0.0183116
-1.81972	‚Æ	-0.0183116
-1.81972	‚Ç	-0.0183116
-1.81972	‚ð	-0.0183116

\2-grams:
-0.400348	‚É </unk>
-1.14512	‚É ‚«	-0.0108815
-0.449795	‚± </unk>
-1.51654	‚± ‚±	-0.0108815
-1.52811	‚± ‚ª	-0.0108815
-1.00135	‚± ‚¿	-0.0198129
-0.389347	‚· </unk>
-0.389347	‚ç </unk>
-0.402643	‚½ </unk>
-0.40975	‚« </unk>
-1.47488	‚« ‚Î	-0.0108815
-1.46373	‚« ‚É	-0.0108815
-0.413756	‚¨ </unk>
-1.43453	‚¨ ‚ä	-0.0108815
-1.39326	‚«‚å ‚¨	-0.0108815
-1.40324	‚Ú ‚Æ	-0.0108815
-0.402643	‚¹ </unk>
-0.37874	‚¢ </unk>
-0.413756	‚Î </unk>
-1.42403	‚Î ‚µ	-0.0108815
-0.402643	‚ä </unk>
-0.413756	‚Ì </unk>
-1.42403	‚Ì ‚Î	-0.0108815
-0.413756	‚ª </unk>
-1.40377	‚ª ‚¢	-0.0108815
-0.400348	‚¾ </unk>
-1.42983	‚¾ ‚Ü	-0.0108815
-0.413756	‚¦ </unk>
-1.41378	‚¦ ‚É	-0.0108815
-0.871367	‚¿ ‚ç	-0.0198129
-0.402643	‚¶‚å </unk>
-0.413756	‚µ </unk>
-1.43453	‚µ ‚½	-0.0108815
-0.389347	‚è </unk>
-1.81308	<unk> ‚²	-0.0108815
-1.79438	<unk> ‚Ì	-0.0108815
-1.68707	<unk> ‚È	-0.0198129
-1.57825	<unk> ‚Ü	-0.0272768
-1.79438	<unk> ‚¦	-0.0108815
-1.81308	<unk> ‚í	-0.0108815
-1.81308	<unk> ‚ 	-0.0108815
-1.81308	<unk> ‚«‚å	-0.0108815
-1.79438	<unk> ‚¨	-0.0108815
-1.81308	<unk> ‚¹	-0.0108815
-1.27787	<unk> ‚«	-0.0607569
-1.09101	<unk> ‚±	-0.0390475
-1.79438	<unk> ‚ª	-0.0108815
-1.77647	<unk> ‚É	-0.0108815
-1.81308	<unk> ‚è‚á	-0.0108815
-1.79438	<unk> ‚è	-0.0108815
-1.79438	<unk> ‚·	-0.0108815
-1.68707	<unk> ‚¬‚ã	-0.0560912
-1.67301	<unk> ‚¯	-0.0198129
-1.75926	<unk> ‚¢	-0.0108815
-1.45182	<unk> ‚¶‚å	-0.0560912
-1.81308	<unk> ‚Å	-0.0108815
-1.81308	<unk> ‚¸	-0.0108815
-1.25738	<unk> ‚¾	-0.0272768
-1.81308	<unk> ‚æ	-0.0108815
-1.81308	<unk> ‚ë	-0.0108815
-1.81308	<unk> ‚Ç	-0.0108815
-1.81308	<unk> ‚ð	-0.0108815
-0.402643	‚  </unk>
-1.40324	‚ë ‚Ú	-0.0108815
-1.38351	‚¸ ‚¯	-0.0108815
-0.431034	‚Ü </unk>
-1.47488	‚Ü ‚µ	-0.0108815
-1.47488	‚Ü ‚¦	-0.0108815
-1.47488	‚Ü ‚è	-0.0108815
-0.402643	‚Ç </unk>
-0.402643	‚ð </unk>
-1.10779	‚Æ ‚«	-0.0108815
-0.423087	‚¯ </unk>
-1.24063	‚¯ ‚¢	-0.0560912
-1.39326	‚² ‚Ì	-0.0108815
-0.402643	‚¬‚ã </unk>
-0.402643	‚í </unk>
-0.402643	‚æ </unk>
-0.402643	‚è‚á </unk>
-1.39326	‚Å ‚·	-0.0108815
-0.389347	‚È </unk>

\3-grams:
-0.28609	<unk> ‚É </unk>
-0.28609	‚« ‚É </unk>
-0.59151	‚¦ ‚É ‚«
-0.423946	<unk> ‚± </unk>
-0.949101	<unk> ‚± ‚±
-0.610994	<unk> ‚± ‚¿
-0.652604	‚± ‚± ‚ª
-0.279283	‚Å ‚· </unk>
-0.279283	<unk> ‚· </unk>
-0.226052	‚¿ ‚ç </unk>
-0.287502	‚µ ‚½ </unk>
-0.646602	‚Æ ‚« ‚Î
-0.28103	<unk> ‚« </unk>
-0.825026	<unk> ‚« ‚É
-0.291857	‚É ‚« </unk>
-0.641601	‚«‚å ‚¨ ‚ä
-0.294299	<unk> ‚¨ </unk>
-0.636048	<unk> ‚«‚å ‚¨
-0.637433	‚ë ‚Ú ‚Æ
-0.287502	<unk> ‚¹ </unk>
-0.272656	<unk> ‚¢ </unk>
-0.199907	‚¯ ‚¢ </unk>
-0.272656	‚ª ‚¢ </unk>
-0.640231	‚Ì ‚Î ‚µ
-0.294299	‚« ‚Î </unk>
-0.287502	‚¨ ‚ä </unk>
-0.640231	‚² ‚Ì ‚Î
-0.294299	<unk> ‚Ì </unk>
-0.294299	‚± ‚ª </unk>
-0.637505	<unk> ‚ª ‚¢
-0.298649	<unk> ‚¾ </unk>
-0.815934	<unk> ‚¾ ‚Ü
-0.294299	‚Ü ‚¦ </unk>
-0.638866	<unk> ‚¦ ‚É
-0.390681	‚± ‚¿ ‚ç
-0.209786	<unk> ‚¶‚å </unk>
-0.641601	‚Ü ‚µ ‚½
-0.294299	‚Î ‚µ </unk>
-0.279283	<unk> ‚è </unk>
-0.279283	‚Ü ‚è </unk>
-0.287502	<unk> ‚  </unk>
-0.637433	<unk> ‚ë ‚Ú
-0.634668	<unk> ‚¸ ‚¯
-0.448447	<unk> ‚Ü </unk>
-0.822327	<unk> ‚Ü ‚µ
-0.822327	<unk> ‚Ü ‚¦
-0.646602	‚¾ ‚Ü ‚è
-0.287502	<unk> ‚Ç </unk>
-0.287502	<unk> ‚ð </unk>
-0.582867	‚Ú ‚Æ ‚«
-0.380873	<unk> ‚¯ </unk>
-0.706261	<unk> ‚¯ ‚¢
-0.611148	‚¸ ‚¯ ‚¢
-0.636048	<unk> ‚² ‚Ì
-0.209786	<unk> ‚¬‚ã </unk>
-0.287502	<unk> ‚í </unk>
-0.287502	<unk> ‚æ </unk>
-0.287502	<unk> ‚è‚á </unk>
-0.636048	<unk> ‚Å ‚·
-0.226052	<unk> ‚È </unk>
