[unifb]
-0.321669

\data\
ngram 1=48
ngram 2=110
ngram 3=90

\1-grams:
-0.40733	</unk>
-1.97094	‚²	-0.0190646
-1.93353	‚Î	-0.0293577
-1.97094	‚µ‚å	-0.0190646
-1.8991	‚È	-0.0402174
-1.97094	‚¾	-0.0402174
-1.41089	‚Ü	-0.0402174
-1.93353	‚¦	-0.0293577
-1.93353	‚í	-0.0358023
-1.93353	‚ 	-0.0358023
-1.97094	‚«‚å	-0.122441
-1.97094	‚ä	-0.0293577
-1.97094	‚¹	-0.0190646
-1.70667	‚«	-0.0402174
-1.97094	‚±	-0.0293577
-1.8991	‚ª	-0.112414
-1.97094	‚É	-0.0293577
-1.93353	‚µ	-0.0293577
-1.97094	‚½	-0.0190646
-1.93353	‚¿	-0.0293577
-1.93353	‚ç	-0.122441
-1.8991	‚è	-0.0434314
-1.48475	‚·	-0.211991
-1.97094	‚¬‚ã	-0.0190646
-1.93353	‚¯	-0.0293577
-1.93353	‚¢	-0.105319
-1.97094	‚¶‚å	-0.0190646
-1.97094	‚Å	-0.0293577
-1.93353	‚æ	-0.230782
-1.97094	‚¤	-0.0190646
-1.93353	‚ë	-0.0293577
-1.97094	‚Ú	-0.0190646
-1.97094	‚Æ	-0.0190646
-1.97094	‚¨	-0.0190646
-1.93353	‚Ç	-0.137699
-1.93353	‚Ý	-0.0293577
-1.97094	‚Ä	-0.0190646
-1.70667	‚ñ	-0.0434314
-1.97094	‚¬	-0.0190646
-1.97094	‚Ø	-0.0190646
-1.97094	‚®	-0.0190646
-1.97094	‚Ñ	-0.0190646
-1.93353	‚¬‚å	-0.0293577
-1.97094	‚¸	-0.0190646
-1.72846	‚Ô	-0.230782
-1.93353	‚Ï	-0.137699
-1.97094	‚×	-0.0293577
-1.97094	‚â	-0.0190646

\2-grams:
-0.392042	‚Ý </unk>
-1.13131	‚Ý ‚Ä	-0.0351751
-1.01809	‚¹ ‚«	-0.0351751
-0.27243	‚Ç </unk>
-0.392042	‚ä </unk>
-1.12642	‚ä ‚µ	-0.0351751
-0.451412	‚Ô ‚è	-0.0786637
-0.360435	‚è </unk>
-1.13478	‚è ‚Ü	-0.0351751
-1.23473	‚è ‚ñ	-0.0351751
-1.12158	‚É ‚È	-0.0351751
-1.08774	‚É ‚«	-0.0351751
-0.966554	‚Ø ‚·	-0.128158
-0.392042	‚ë </unk>
-1.13131	‚ë ‚Ú	-0.0351751
-0.392042	‚¦ </unk>
-1.12642	‚¦ ‚í	-0.0351751
-2.00714	<unk> ‚²	-0.0351751
-1.98892	<unk> ‚Î	-0.0351751
-1.53218	<unk> ‚È	-0.0786637
-1.11068	<unk> ‚¾	-0.191171
-1.56356	<unk> ‚Ü	-0.115947
-1.98892	<unk> ‚¦	-0.0351751
-1.428	<unk> ‚í	-0.128158
-1.53846	<unk> ‚ 	-0.0786637
-1.29725	<unk> ‚«‚å	-0.137503
-1.63134	<unk> ‚ä	-0.0600782
-2.00714	<unk> ‚¹	-0.0351751
-1.29725	<unk> ‚±	-0.186997
-1.8005	<unk> ‚ª	-0.0600782
-1.63134	<unk> ‚É	-0.0600782
-1.98892	<unk> ‚µ	-0.0351751
-1.53846	<unk> ‚¿	-0.128158
-1.98892	<unk> ‚ç	-0.0351751
-1.97144	<unk> ‚è	-0.0351751
-1.36311	<unk> ‚·	-0.0930771
-2.00714	<unk> ‚¬‚ã	-0.0351751
-1.98892	<unk> ‚¯	-0.0351751
-1.29364	<unk> ‚¢	-0.0930771
-1.43293	<unk> ‚Å	-0.128158
-1.98892	<unk> ‚æ	-0.0351751
-2.00714	<unk> ‚¤	-0.0351751
-1.98892	<unk> ‚ë	-0.0351751
-2.00714	<unk> ‚¨	-0.0351751
-1.98892	<unk> ‚Ç	-0.0351751
-1.81221	<unk> ‚Ý	-0.0600782
-1.86132	<unk> ‚ñ	-0.0351751
-2.00714	<unk> ‚¬	-0.0351751
-2.00714	<unk> ‚Ñ	-0.0351751
-1.81221	<unk> ‚¬‚å	-0.0600782
-2.00714	<unk> ‚¸	-0.0351751
-1.73302	<unk> ‚Ô	-0.0600782
-1.98892	<unk> ‚Ï	-0.0351751
-0.392042	‚× </unk>
-1.13131	‚× ‚â	-0.0351751
-0.357743	‚½ </unk>
-0.357743	‚Ñ </unk>
-0.254458	‚ª </unk>
-0.357743	‚¬ </unk>
-0.336664	‚Ü </unk>
-1.23933	‚Ü ‚¦	-0.0351751
-0.357743	‚¤ </unk>
-0.405303	‚ñ </unk>
-1.23473	‚ñ ‚«	-0.0351751
-1.29067	‚ñ ‚®	-0.0351751
-1.2843	‚ñ ‚Ï	-0.0351751
-0.392042	‚± </unk>
-1.12642	‚± ‚ë	-0.0351751
-0.357743	‚â </unk>
-0.357743	‚Ä </unk>
-0.293419	‚« </unk>
-1.05282	‚¬‚ã ‚¯	-0.0351751
-0.49052	‚¢ </unk>
-1.29703	‚¢ ‚¶‚å	-0.0351751
-1.29114	‚¢ ‚Ç	-0.0351751
-0.771252	‚¢ ‚ñ	-0.0600782
-0.392042	‚Î </unk>
-1.13131	‚Î ‚µ‚å	-0.0351751
-0.357743	‚¸ </unk>
-0.460122	‚ç </unk>
-0.67839	‚ç ‚ª	-0.0600782
-0.327841	‚Å </unk>
-0.384696	‚È </unk>
-1.09929	‚È ‚Ü	-0.0351751
-1.23352	‚È ‚è	-0.0351751
-1.12642	‚¯ ‚¢	-0.0351751
-1.08774	‚¯ ‚ñ	-0.0351751
-1.05282	‚² ‚Î	-0.0351751
-0.966554	‚® ‚·	-0.0351751
-0.392042	‚µ </unk>
-1.13131	‚µ ‚½	-0.0351751
-0.615294	‚Ï ‚×	-0.0600782
-0.371042	‚· </unk>
-0.648178	‚· ‚Ø	-0.184026
-0.357743	‚Æ </unk>
-0.3078	‚  </unk>
-0.392042	‚¿ </unk>
-1.12642	‚¿ ‚ç	-0.0600782
-0.327841	‚¬‚å </unk>
-0.357743	‚µ‚å </unk>
-0.357743	‚¶‚å </unk>
-0.384696	‚¾ </unk>
-1.09929	‚¾ ‚Ü	-0.0351751
-1.23933	‚¾ ‚æ	-0.0600782
-0.220662	‚æ </unk>
-0.359477	‚í </unk>
-1.14987	‚í ‚Ô	-0.0351751
-1.0572	‚Ú ‚Æ	-0.0351751
-1.01809	‚¨ ‚«	-0.0351751
-0.262049	‚«‚å </unk>

\3-grams:
-0.359397	<unk> ‚Ý </unk>
-0.664375	<unk> ‚Ý ‚Ä
-0.547596	<unk> ‚¹ ‚«
-0.200202	‚¢ ‚Ç </unk>
-0.200202	<unk> ‚Ç </unk>
-0.359397	<unk> ‚ä </unk>
-0.663259	<unk> ‚ä ‚µ
-0.244059	<unk> ‚Ô ‚è
-0.311851	‚í ‚Ô ‚è
-0.273119	‚Ô ‚è </unk>
-0.759209	‚Ô ‚è ‚ñ
-0.575954	‚È ‚è ‚Ü
-0.257258	<unk> ‚è </unk>
-0.662147	<unk> ‚É ‚È
-0.654095	<unk> ‚É ‚«
-0.282837	‚· ‚Ø ‚·
-0.575192	<unk> ‚ë ‚Ú
-0.276742	‚± ‚ë </unk>
-0.57411	‚Ü ‚¦ ‚í
-0.276742	<unk> ‚¦ </unk>
-0.359397	‚Ï ‚× </unk>
-0.664375	‚Ï ‚× ‚â
-0.255574	‚µ ‚½ </unk>
-0.255574	<unk> ‚Ñ </unk>
-0.151767	‚ç ‚ª </unk>
-0.151767	<unk> ‚ª </unk>
-0.255574	<unk> ‚¬ </unk>
-0.596785	‚¾ ‚Ü ‚¦
-0.242249	‚è ‚Ü </unk>
-0.183871	<unk> ‚Ü </unk>
-0.242249	‚È ‚Ü </unk>
-0.255574	<unk> ‚¤ </unk>
-0.367531	‚¢ ‚ñ </unk>
-0.695759	‚¢ ‚ñ ‚®
-0.59595	‚¯ ‚ñ ‚«
-0.604567	<unk> ‚ñ ‚Ï
-0.284754	‚è ‚ñ </unk>
-0.22645	<unk> ‚± </unk>
-0.804802	<unk> ‚± ‚ë
-0.255574	‚× ‚â </unk>
-0.255574	‚Ý ‚Ä </unk>
-0.214177	‚¨ ‚« </unk>
-0.214177	‚ñ ‚« </unk>
-0.214177	‚¹ ‚« </unk>
-0.214177	‚É ‚« </unk>
-0.556645	<unk> ‚¬‚ã ‚¯
-0.540885	<unk> ‚¢ </unk>
-0.831853	<unk> ‚¢ ‚Ç
-0.482555	<unk> ‚¢ ‚ñ
-0.60665	‚¯ ‚¢ ‚¶‚å
-0.276742	<unk> ‚Î </unk>
-0.575192	‚² ‚Î ‚µ‚å
-0.255574	<unk> ‚¸ </unk>
-0.427603	<unk> ‚ç ‚ª
-0.400126	‚¿ ‚ç </unk>
-0.512989	‚¿ ‚ç ‚ª
-0.15215	<unk> ‚Å </unk>
-0.595731	‚É ‚È ‚è
-0.284437	<unk> ‚È </unk>
-0.729472	<unk> ‚È ‚Ü
-0.57411	‚¬‚ã ‚¯ ‚¢
-0.565213	<unk> ‚¯ ‚ñ
-0.556645	<unk> ‚² ‚Î
-0.53316	‚ñ ‚® ‚·
-0.575192	<unk> ‚µ ‚½
-0.276742	‚ä ‚µ </unk>
-0.398393	‚ñ ‚Ï ‚×
-0.398393	<unk> ‚Ï ‚×
-0.413901	‚® ‚· ‚Ø
-0.335786	<unk> ‚· </unk>
-0.446303	<unk> ‚· ‚Ø
-0.167729	‚Ø ‚· </unk>
-0.255574	‚Ú ‚Æ </unk>
-0.151138	<unk> ‚  </unk>
-0.435909	<unk> ‚¿ </unk>
-0.463953	<unk> ‚¿ ‚ç
-0.188752	<unk> ‚¬‚å </unk>
-0.255574	‚Î ‚µ‚å </unk>
-0.255574	‚¢ ‚¶‚å </unk>
-0.33293	<unk> ‚¾ </unk>
-0.897176	<unk> ‚¾ ‚Ü
-0.644635	<unk> ‚¾ ‚æ
-0.133694	‚¾ ‚æ </unk>
-0.164785	<unk> ‚æ </unk>
-0.263084	<unk> ‚í </unk>
-0.745031	<unk> ‚í ‚Ô
-0.256659	‚¦ ‚í </unk>
-0.557746	‚ë ‚Ú ‚Æ
-0.547596	<unk> ‚¨ ‚«
-0.111136	<unk> ‚«‚å </unk>
