[unifb]
-0.217114

\data\
ngram 1=41
ngram 2=88
ngram 3=69

\1-grams:
-0.417667	</unk>
-1.82867	‚²	-0.00628711
-1.80618	‚Ì	-0.0113675
-1.81728	‚Î	-0.00945701
-1.82867	‚µ‚ã	-0.00628711
-1.81728	‚È	-0.00945701
-1.79535	‚Ü	-0.0135589
-1.81728	‚Ö	-0.0113675
-1.79535	‚í	-0.0126448
-1.82867	‚«‚å	-0.00628711
-1.82867	‚ä	-0.00628711
-1.82867	‚¹	-0.00628711
-1.81728	‚«	-0.0113675
-1.82867	‚Ó‚§	-0.00945701
-1.80618	‚±	-0.090696
-1.82867	‚ª	-0.00628711
-1.81728	‚É	-0.00945701
-1.82867	‚µ	-0.00945701
-1.82867	‚½	-0.00628711
-1.82867	‚¿	-0.00628711
-1.82867	‚ç	-0.00628711
-1.81728	‚è	-0.00945701
-1.81728	‚·	-0.00945701
-1.80618	‚¬‚ã	-0.00945701
-1.81728	‚¯	-0.0113675
-1.82867	‚¢	-0.0113675
-1.82867	‚¶‚å	-0.00628711
-1.82867	‚Å	-0.00628711
-1.82867	‚¾	-0.00628711
-1.82867	‚æ	-0.00628711
-1.82867	‚ë	-0.00628711
-1.82867	‚Ú	-0.00628711
-1.82867	‚Æ	-0.00628711
-1.82867	‚Ç	-0.00628711
-1.81728	‚Ý	-0.00628711
-1.82867	‚Å‚¡	-0.00945701
-1.79535	‚ñ	-0.0126448
-1.82867	‚Ø	-0.00628711
-1.82867	‚®	-0.00628711
-1.82867	‚¬‚å	-0.00628711
-1.81728	‚Â	-0.131594

\2-grams:
-0.409745	‚è </unk>
-1.34739	‚è ‚Ü	-0.0142374
-1.82337	<unk> ‚²	-0.0142374
-1.4084	<unk> ‚Ì	-0.057633
-1.8171	<unk> ‚È	-0.0142374
-1.2514	<unk> ‚Ü	-0.0666815
-1.8171	<unk> ‚Ö	-0.0142374
-1.80483	<unk> ‚í	-0.0142374
-1.82337	<unk> ‚«‚å	-0.0142374
-1.82337	<unk> ‚ä	-0.0142374
-1.82337	<unk> ‚¹	-0.0142374
-1.49453	<unk> ‚«	-0.0267566
-1.4975	<unk> ‚Ó‚§	-0.0267566
-1.4084	<unk> ‚±	-0.0378553
-1.82337	<unk> ‚ª	-0.0142374
-1.2548	<unk> ‚É	-0.0864592
-1.4975	<unk> ‚µ	-0.0267566
-1.82337	<unk> ‚½	-0.0142374
-1.82337	<unk> ‚¿	-0.0142374
-1.8171	<unk> ‚·	-0.0142374
-1.53659	<unk> ‚¬‚ã	-0.057633
-1.18457	<unk> ‚¢	-0.0666815
-1.82337	<unk> ‚Å	-0.0142374
-1.82337	<unk> ‚¾	-0.0142374
-1.82337	<unk> ‚ë	-0.0142374
-1.65673	<unk> ‚Ý	-0.0474782
-1.80483	<unk> ‚ñ	-0.0142374
-1.82337	<unk> ‚Ø	-0.0142374
-1.82337	<unk> ‚®	-0.0142374
-1.82337	<unk> ‚¬‚å	-0.0142374
-1.8171	<unk> ‚Â	-0.0142374
-0.377632	‚· </unk>
-0.3956	‚µ‚ã </unk>
-0.3956	‚Å </unk>
-0.3956	‚ª </unk>
-0.3956	‚® </unk>
-0.3956	‚ç </unk>
-1.33153	‚Ú ‚Æ	-0.0142374
-0.409745	‚µ </unk>
-1.35462	‚µ ‚Â	-0.0142374
-0.350459	‚Â </unk>
-0.377632	‚É </unk>
-1.33153	‚ë ‚Ú	-0.0142374
-0.42233	‚Ö </unk>
-1.15285	‚Ö ‚í	-0.0267566
-0.3956	‚½ </unk>
-0.3956	‚æ </unk>
-0.388407	‚Ü </unk>
-1.42212	‚Ü ‚Ö	-0.0267566
-1.42212	‚Ü ‚è	-0.0142374
-0.409745	‚È </unk>
-1.35462	‚È ‚è	-0.0142374
-1.33153	‚¾ ‚æ	-0.0142374
-1.38276	‚¢ ‚¶‚å	-0.0142374
-1.38276	‚¢ ‚Ç	-0.0474782
-1.37154	‚¢ ‚ñ	-0.0142374
-0.42233	‚Ì </unk>
-1.37899	‚Ì ‚Î	-0.0142374
-1.37899	‚Ì ‚È	-0.0474782
-0.391495	‚¯ </unk>
-1.37154	‚¯ ‚ñ	-0.0142374
-1.32447	‚² ‚Ì	-0.0142374
-0.409745	‚Å‚¡ </unk>
-1.34739	‚Å‚¡ ‚ñ	-0.0142374
-0.42233	‚« </unk>
-1.37899	‚« ‚Î	-0.0142374
-1.37154	‚« ‚Ü	-0.0142374
-0.409745	‚¬‚ã </unk>
-1.35462	‚¬‚ã ‚¯	-0.0267566
-0.3956	‚¬‚å </unk>
-1.33153	‚¿ ‚ç	-0.0142374
-0.3956	‚Æ </unk>
-0.3956	‚«‚å </unk>
-0.409745	‚Ó‚§ </unk>
-1.35099	‚Ó‚§ ‚±	-0.0142374
-0.376192	‚ñ </unk>
-1.4014	‚ñ ‚¯	-0.0142374
-1.32799	‚¹ ‚«	-0.0142374
-1.33153	‚Ý ‚Å‚¡	-0.0267566
-0.350102	‚í </unk>
-0.409745	‚Î </unk>
-1.35828	‚Î ‚µ‚ã	-0.0142374
-0.3956	‚¶‚å </unk>
-0.352492	‚± </unk>
-1.40037	‚± ‚í	-0.0142374
-1.32799	‚Ø ‚·	-0.0142374
-0.3956	‚ä </unk>
-0.3956	‚Ç </unk>

\3-grams:
-0.672745	‚È ‚è ‚Ü
-0.304176	‚Ü ‚è </unk>
-0.28314	<unk> ‚· </unk>
-0.28314	‚Ø ‚· </unk>
-0.294976	‚Î ‚µ‚ã </unk>
-0.294976	<unk> ‚Å </unk>
-0.294976	<unk> ‚ª </unk>
-0.294976	<unk> ‚® </unk>
-0.294976	‚¿ ‚ç </unk>
-0.669935	‚ë ‚Ú ‚Æ
-0.374504	<unk> ‚µ </unk>
-0.745579	<unk> ‚µ ‚Â
-0.264926	‚µ ‚Â </unk>
-0.264926	<unk> ‚Â </unk>
-0.162829	<unk> ‚É </unk>
-0.669935	<unk> ‚ë ‚Ú
-0.631918	<unk> ‚Ö ‚í
-0.382618	‚Ü ‚Ö </unk>
-0.703299	‚Ü ‚Ö ‚í
-0.294976	<unk> ‚½ </unk>
-0.294976	‚¾ ‚æ </unk>
-0.290258	‚« ‚Ü </unk>
-0.474666	<unk> ‚Ü </unk>
-0.599723	<unk> ‚Ü ‚Ö
-0.871966	<unk> ‚Ü ‚è
-0.290258	‚è ‚Ü </unk>
-0.673996	<unk> ‚È ‚è
-0.241568	‚Ì ‚È </unk>
-0.669935	<unk> ‚¾ ‚æ
-0.865726	<unk> ‚¢ ‚¶‚å
-0.596378	<unk> ‚¢ ‚Ç
-0.863859	<unk> ‚¢ ‚ñ
-0.44439	<unk> ‚Ì </unk>
-0.542207	<unk> ‚Ì ‚È
-0.678093	‚² ‚Ì ‚Î
-0.676861	‚ñ ‚¯ ‚ñ
-0.2347	‚¬‚ã ‚¯ </unk>
-0.668659	<unk> ‚² ‚Ì
-0.374504	‚Ý ‚Å‚¡ </unk>
-0.744321	‚Ý ‚Å‚¡ ‚ñ
-0.749696	<unk> ‚« ‚Î
-0.748458	<unk> ‚« ‚Ü
-0.312272	‚¹ ‚« </unk>
-0.436276	<unk> ‚¬‚ã </unk>
-0.539987	<unk> ‚¬‚ã ‚¯
-0.294976	<unk> ‚¬‚å </unk>
-0.669935	<unk> ‚¿ ‚ç
-0.294976	‚Ú ‚Æ </unk>
-0.294976	<unk> ‚«‚å </unk>
-0.374504	<unk> ‚Ó‚§ </unk>
-0.74495	<unk> ‚Ó‚§ ‚±
-0.681694	‚¢ ‚ñ ‚¯
-0.282185	‚¯ ‚ñ </unk>
-0.282185	‚Å‚¡ ‚ñ </unk>
-0.282185	<unk> ‚ñ </unk>
-0.669297	<unk> ‚¹ ‚«
-0.476264	<unk> ‚Ý ‚Å‚¡
-0.213931	‚Ö ‚í </unk>
-0.264685	<unk> ‚í </unk>
-0.264685	‚± ‚í </unk>
-0.304176	‚« ‚Î </unk>
-0.674624	‚Ì ‚Î ‚µ‚ã
-0.294976	‚¢ ‚¶‚å </unk>
-0.266302	‚Ó‚§ ‚± </unk>
-0.275582	<unk> ‚± </unk>
-0.814507	<unk> ‚± ‚í
-0.669297	<unk> ‚Ø ‚·
-0.294976	<unk> ‚ä </unk>
-0.234802	‚¢ ‚Ç </unk>
