[unifb]
-0.398032

\data\
ngram 1=45
ngram 2=106
ngram 3=96

\1-grams:
-0.39155	</unk>
-1.86275	‚±	-0.0834427
-1.9843	‚Ì	-0.0318819
-1.91928	‚Î	-0.0693948
-1.91928	‚µ‚å	-0.0498374
-1.60498	‚È	-0.0693948
-1.60498	‚Ü	-0.201071
-1.9843	‚¦	-0.0498374
-1.86275	‚í	-0.0693948
-1.9843	‚¬‚å	-0.0318819
-1.9843	‚¤	-0.0498374
-1.75448	‚ä	-0.0498374
-1.9843	‚¹	-0.0318819
-1.67884	‚«	-0.136812
-1.75448	‚ª	-0.0498374
-1.9843	‚É	-0.0318819
-1.9843	‚µ	-0.133654
-1.71501	‚½	-0.07531
-1.86275	‚¿	-0.201071
-1.91928	‚ç	-0.216652
-1.60498	‚è	-0.0693948
-1.91928	‚·	-0.216652
-1.9843	‚¯	-0.0498374
-1.55004	‚¢	-0.129419
-1.91928	‚¶‚å	-0.147738
-1.9843	‚Å	-0.0613649
-1.9843	‚²	-0.147738
-1.9843	‚Á	-0.0498374
-1.91928	‚¾	-0.141205
-1.9843	‚æ	-0.0318819
-1.91928	‚ë	-0.136812
-1.9843	‚Ú	-0.0318819
-1.9843	‚Æ	-0.0318819
-1.9843	‚¨	-0.0318819
-1.91928	‚Ç	-0.0498374
-1.9843	‚Ý	-0.0318819
-1.67884	‚ñ	-0.0693948
-1.9843	‚®	-0.0318819
-1.9843	‚Ø	-0.0318819
-1.9843	‚«‚å	-0.0318819
-1.9843	‚Â	-0.0318819
-1.9843	‚Õ	-0.0613649
-1.9843	‚×	-0.0318819
-1.9843	‚â	-0.0318819
-1.9843	‚Å‚¡	-0.0318819

\2-grams:
-0.458181	‚« </unk>
-0.747144	‚« ‚Î	-0.181088
-1.13433	‚« ‚ä	-0.16397
-0.302206	‚ª </unk>
-0.337382	‚É </unk>
-0.314038	‚µ </unk>
-1.1671	‚µ ‚½	-0.0413258
-1.20767	‚µ ‚Â	-0.0413258
-0.393295	‚½ </unk>
-1.13705	‚½ ‚È	-0.0413258
-1.19614	‚½ ‚¾	-0.0413258
-1.2045	‚½ ‚×	-0.0413258
-0.433278	‚¿ </unk>
-0.584936	‚¿ ‚ç	-0.195331
-0.261582	‚ç </unk>
-1.13942	‚ç ‚ª	-0.0413258
-0.367684	‚è </unk>
-1.09843	‚è ‚Ü	-0.0413258
-1.08485	‚è ‚¢	-0.0413258
-0.959333	‚¹ ‚«	-0.0413258
-0.376119	‚ä </unk>
-1.06155	‚ä ‚¹	-0.0413258
-0.376119	‚¤ </unk>
-1.03203	‚¤ ‚ä	-0.0413258
-0.215751	‚· </unk>
-0.30998	‚í </unk>
-1.16253	‚í ‚²	-0.130703
-0.376119	‚¦ </unk>
-1.04763	‚¦ ‚í	-0.106963
-0.384532	‚Ü </unk>
-0.79517	‚Ü ‚¦	-0.130703
-1.1502	‚Ü ‚è	-0.0413258
-0.30998	‚È </unk>
-1.09843	‚È ‚Ü	-0.130703
-0.302206	‚µ‚å </unk>
-0.30998	‚Î </unk>
-1.15461	‚Î ‚µ‚å	-0.0413258
-0.992601	‚Ì ‚Î	-0.0736956
-0.338124	‚± </unk>
-1.25821	‚± ‚±	-0.0413258
-1.27649	‚± ‚Ì	-0.106963
-1.25821	‚± ‚¿	-0.16397
-0.966938	<unk> ‚±	-0.288214
-2.03144	<unk> ‚µ‚å	-0.0413258
-1.27396	<unk> ‚È	-0.195331
-1.2965	<unk> ‚í	-0.195331
-2.0508	<unk> ‚¬‚å	-0.0413258
-1.69094	<unk> ‚¤	-0.0736956
-1.1955	<unk> ‚«	-0.267119
-1.65512	<unk> ‚ª	-0.106963
-2.0508	<unk> ‚É	-0.0413258
-1.26118	<unk> ‚µ	-0.139436
-1.46842	<unk> ‚½	-0.0998033
-2.01291	<unk> ‚¿	-0.0413258
-2.03144	<unk> ‚ç	-0.0413258
-1.45157	<unk> ‚è	-0.130703
-1.25798	<unk> ‚·	-0.195331
-1.69094	<unk> ‚¯	-0.0736956
-1.32201	<unk> ‚¢	-0.150188
-2.03144	<unk> ‚¶‚å	-0.0413258
-1.36323	<unk> ‚Å	-0.150188
-1.69094	<unk> ‚Á	-0.0736956
-1.68238	<unk> ‚¾	-0.0736956
-1.3	<unk> ‚ë	-0.166485
-2.0508	<unk> ‚Ú	-0.0413258
-2.03144	<unk> ‚Ç	-0.0413258
-2.0508	<unk> ‚Ý	-0.0413258
-1.74851	<unk> ‚ñ	-0.0736956
-2.0508	<unk> ‚Ø	-0.0413258
-2.0508	<unk> ‚«‚å	-0.0413258
-1.49688	<unk> ‚Õ	-0.0998033
-2.0508	<unk> ‚Å‚¡	-0.0413258
-0.337382	‚¬‚å </unk>
-0.376119	‚¯ </unk>
-1.01901	‚¯ ‚ñ	-0.0413258
-0.337382	‚â </unk>
-0.99915	‚× ‚â	-0.0413258
-0.277449	‚Õ </unk>
-0.337382	‚Â </unk>
-0.934076	‚«‚å ‚¢	-0.0413258
-0.337382	‚Ø </unk>
-0.337382	‚® </unk>
-0.367684	‚ñ </unk>
-1.12196	‚ñ ‚½	-0.0413258
-1.16253	‚ñ ‚®	-0.0413258
-0.945588	‚Ý ‚è	-0.0413258
-0.337382	‚Å‚¡ </unk>
-0.376119	‚Ç </unk>
-1.00439	‚Ç ‚Ü	-0.0736956
-0.959333	‚¨ ‚«	-0.0413258
-0.99915	‚Æ ‚¨	-0.0413258
-0.318038	‚¢ </unk>
-1.27081	‚¢ ‚¶‚å	-0.0413258
-1.27081	‚¢ ‚Ç	-0.106963
-1.22677	‚¢ ‚ñ	-0.0413258
-0.271145	‚¶‚å </unk>
-0.337751	‚Å </unk>
-1.10786	‚Å ‚·	-0.0413258
-0.640111	‚² ‚¿	-0.0998033
-0.302206	‚Á </unk>
-1.04918	‚¾ ‚¢	-0.0413258
-0.700875	‚¾ ‚æ	-0.106963
-0.337382	‚æ </unk>
-0.285107	‚ë </unk>
-1.09214	‚ë ‚¢	-0.0413258
-0.99915	‚Ú ‚Æ	-0.0413258

\3-grams:
-0.512112	‚¨ ‚« ‚Î
-0.456881	<unk> ‚« ‚Î
-0.523407	<unk> ‚« ‚ä
-0.346562	‚¹ ‚« </unk>
-0.238722	‚ç ‚ª </unk>
-0.196674	<unk> ‚ª </unk>
-0.264071	<unk> ‚É </unk>
-0.26771	<unk> ‚µ </unk>
-0.883173	<unk> ‚µ ‚½
-0.893859	<unk> ‚µ ‚Â
-0.679394	‚ñ ‚½ ‚×
-0.421255	<unk> ‚½ </unk>
-0.781381	<unk> ‚½ ‚È
-0.797376	<unk> ‚½ ‚¾
-0.303156	‚µ ‚½ </unk>
-0.277382	‚± ‚¿ ‚ç
-0.424934	<unk> ‚¿ ‚ç
-0.323703	‚² ‚¿ </unk>
-0.543507	‚² ‚¿ ‚ç
-0.208748	<unk> ‚ç </unk>
-0.173783	‚¿ ‚ç </unk>
-0.876764	‚¿ ‚ç ‚ª
-0.285441	‚Ü ‚è </unk>
-0.287943	<unk> ‚è </unk>
-0.770751	<unk> ‚è ‚Ü
-0.64603	‚Ý ‚è ‚¢
-0.603493	‚ä ‚¹ ‚«
-0.200383	‚« ‚ä </unk>
-0.63874	‚¤ ‚ä ‚¹
-0.354559	<unk> ‚¤ </unk>
-0.693206	<unk> ‚¤ ‚ä
-0.0985324	<unk> ‚· </unk>
-0.17407	‚Å ‚· </unk>
-0.201086	‚¦ ‚í </unk>
-0.35228	<unk> ‚í </unk>
-0.485716	<unk> ‚í ‚²
-0.410987	‚Ü ‚¦ </unk>
-0.526193	‚Ü ‚¦ ‚í
-0.297131	‚è ‚Ü </unk>
-0.335892	‚È ‚Ü ‚¦
-0.360388	‚Ç ‚Ü </unk>
-0.729296	‚Ç ‚Ü ‚è
-0.244374	‚½ ‚È </unk>
-0.35228	<unk> ‚È </unk>
-0.478244	<unk> ‚È ‚Ü
-0.238722	<unk> ‚µ‚å </unk>
-0.238722	‚Î ‚µ‚å </unk>
-0.307549	‚Ì ‚Î </unk>
-0.730512	‚Ì ‚Î ‚µ‚å
-0.149769	‚« ‚Î </unk>
-0.459083	‚± ‚Ì ‚Î
-0.376989	<unk> ‚± </unk>
-1.07878	<unk> ‚± ‚±
-0.828669	<unk> ‚± ‚Ì
-0.667709	<unk> ‚± ‚¿
-0.2646	‚± ‚± </unk>
-0.264071	<unk> ‚¬‚å </unk>
-0.354559	<unk> ‚¯ </unk>
-0.688806	<unk> ‚¯ ‚ñ
-0.264071	‚× ‚â </unk>
-0.617871	‚½ ‚× ‚â
-0.157645	<unk> ‚Õ </unk>
-0.264071	‚µ ‚Â </unk>
-0.593932	<unk> ‚«‚å ‚¢
-0.264071	<unk> ‚Ø </unk>
-0.264071	‚ñ ‚® </unk>
-0.285441	‚¯ ‚ñ </unk>
-0.721284	<unk> ‚ñ ‚½
-0.732677	<unk> ‚ñ ‚®
-0.285441	‚¢ ‚ñ </unk>
-0.598333	<unk> ‚Ý ‚è
-0.264071	<unk> ‚Å‚¡ </unk>
-0.461564	‚¢ ‚Ç ‚Ü
-0.291311	<unk> ‚Ç </unk>
-0.603493	‚Æ ‚¨ ‚«
-0.617871	‚Ú ‚Æ ‚¨
-0.250203	‚ë ‚¢ </unk>
-0.250203	‚¾ ‚¢ </unk>
-0.684893	‚«‚å ‚¢ ‚ñ
-0.250203	‚è ‚¢ </unk>
-0.418066	<unk> ‚¢ </unk>
-0.865339	<unk> ‚¢ ‚¶‚å
-0.610902	<unk> ‚¢ ‚Ç
-0.215869	‚¢ ‚¶‚å </unk>
-0.215869	<unk> ‚¶‚å </unk>
-0.233753	<unk> ‚Å </unk>
-0.822814	<unk> ‚Å ‚·
-0.296248	‚í ‚² ‚¿
-0.198018	<unk> ‚Á </unk>
-0.69887	<unk> ‚¾ ‚¢
-0.55244	<unk> ‚¾ ‚æ
-0.488781	‚½ ‚¾ ‚æ
-0.216364	‚¾ ‚æ </unk>
-0.184476	<unk> ‚ë </unk>
-0.862138	<unk> ‚ë ‚¢
-0.617871	<unk> ‚Ú ‚Æ
