[unifb]
-0.149384

\data\
ngram 1=16
ngram 2=21
ngram 3=18

\1-grams:
-0.830692	</unk>
-1.28412	‚±	-0.0455744
-1.20574	‚Ì	-0.0659718
-1.28412	‚Î	-0.0455744
-1.28412	‚µ‚ã	-0.0455744
-1.28412	‚È	-0.0455744
-1.28412	‚Ü	-0.0455744
-1.28412	‚¦	-0.0455744
-1.20574	‚í	-0.0659718
-1.28412	‚«‚å	-0.0455744
-1.20574	‚ä	-0.195948
-1.28412	‚¹	-0.195948
-1.28412	‚«	-0.0659718
-1.28412	‚²	-0.0455744
-1.28412	‚ª	-0.0455744
-1.28412	‚¬‚å	-0.0455744

\2-grams:
-0.588494	‚« </unk>
-0.585279	‚¹ ‚«	-0.0601616
-0.585279	‚ä ‚¹	-0.0601616
-1.0404	<unk> ‚±	-0.0345663
-1.0404	<unk> ‚Î	-0.0345663
-1.0404	<unk> ‚²	-0.0345663
-1.0404	<unk> ‚ª	-0.0345663
-0.872863	‚± ‚Ì	-0.0345663
-0.713875	‚Ì </unk>
-0.958843	‚Ì ‚È	-0.0345663
-0.872863	‚¬‚å ‚ä	-0.0345663
-0.872863	‚µ‚ã ‚Ì	-0.0345663
-0.90478	‚ª ‚¬‚å	-0.0345663
-0.90478	‚Î ‚µ‚ã	-0.0345663
-0.671857	‚² </unk>
-0.872863	‚«‚å ‚ä	-0.0345663
-0.924846	‚í ‚í	-0.0345663
-0.958843	‚í ‚«‚å	-0.0345663
-0.872863	‚¦ ‚í	-0.0345663
-0.90478	‚Ü ‚¦	-0.0345663
-0.90478	‚È ‚Ü	-0.0345663

\3-grams:
-0.300958	‚¹ ‚« </unk>
-0.299839	‚ä ‚¹ ‚«
-0.362101	‚«‚å ‚ä ‚¹
-0.362101	‚¬‚å ‚ä ‚¹
-0.470764	<unk> ‚± ‚Ì
-0.416213	‚± ‚Ì </unk>
-0.495046	‚µ‚ã ‚Ì ‚È
-0.470764	‚ª ‚¬‚å ‚ä
-0.470764	‚Î ‚µ‚ã ‚Ì
-0.480182	<unk> ‚ª ‚¬‚å
-0.480182	<unk> ‚Î ‚µ‚ã
-0.399549	<unk> ‚² </unk>
-0.470764	‚í ‚«‚å ‚ä
-0.485856	‚¦ ‚í ‚í
-0.495046	‚í ‚í ‚«‚å
-0.470764	‚Ü ‚¦ ‚í
-0.480182	‚È ‚Ü ‚¦
-0.480182	‚Ì ‚È ‚Ü
