[unifb]
-0.287436

\data\
ngram 1=42
ngram 2=105
ngram 3=87

\1-grams:
-0.397444	</unk>
-1.83634	‚±	-0.0494715
-1.86274	‚Ì	-0.0417301
-1.83634	‚Î	-0.0417301
-1.86274	‚µ‚ã	-0.208386
-1.83634	‚È	-0.0417301
-1.83634	‚Ü	-0.0417301
-1.89085	‚¦	-0.0370882
-1.86274	‚í	-0.13997
-1.86274	‚«‚å	-0.0417301
-1.86274	‚ä	-0.220035
-1.89085	‚¹	-0.02781
-1.52683	‚«	-0.250623
-1.89085	‚ª	-0.0370882
-1.86274	‚É	-0.410134
-1.81145	‚µ	-0.13997
-1.86274	‚½	-0.0370882
-1.86274	‚¿	-0.433789
-1.89085	‚ç	-0.33555
-1.68062	‚è	-0.0417301
-1.81145	‚·	-0.13997
-1.83634	‚¯	-0.220035
-1.81145	‚¢	-0.0463741
-1.89085	‚¶‚å	-0.0370882
-1.89085	‚Å	-0.02781
-1.86274	‚¾	-0.192159
-1.89085	‚æ	-0.0370882
-1.83634	‚ë	-0.0445162
-1.89085	‚Ú	-0.02781
-1.89085	‚Æ	-0.02781
-1.89085	‚¨	-0.0370882
-1.86274	‚Ç	-0.164252
-1.89085	‚µ‚å	-0.02781
-1.89085	‚Ý	-0.02781
-1.89085	‚Ä	-0.02781
-1.66309	‚ñ	-0.0445162
-1.89085	‚®	-0.02781
-1.89085	‚Ø	-0.02781
-1.89085	‚¸	-0.02781
-1.89085	‚Û	-0.208386
-1.89085	‚×	-0.02781
-1.89085	‚â	-0.02781

\2-grams:
-0.253473	‚· </unk>
-1.0631	‚· ‚Ø	-0.0702532
-0.196171	‚µ </unk>
-0.3098	‚¸ </unk>
-0.37331	‚½ </unk>
-0.903629	‚½ ‚×	-0.0702532
-0.216442	‚Û </unk>
-0.323248	‚È </unk>
-0.983343	‚È ‚Ü	-0.0702532
-0.79508	‚Ú ‚Æ	-0.0702532
-0.211621	‚« </unk>
-1.22047	‚« ‚Î	-0.0702532
-1.22336	‚« ‚ä	-0.113446
-0.452098	‚ñ </unk>
-1.05511	‚ñ ‚½	-0.0702532
-1.05221	‚ñ ‚¯	-0.0702532
-1.05802	‚ñ ‚®	-0.0702532
-0.268988	‚¶‚å </unk>
-0.397612	‚¢ </unk>
-1.11661	‚¢ ‚¶‚å	-0.203498
-1.1134	‚¢ ‚Ç	-0.113446
-1.08458	‚¢ ‚ñ	-0.0702532
-0.166843	‚ç </unk>
-0.3098	‚â </unk>
-0.37331	‚¦ </unk>
-0.901331	‚¦ ‚í	-0.0702532
-0.901331	‚¨ ‚«‚å	-0.0702532
-0.860632	‚¨ ‚«	-0.0702532
-0.41834	‚è </unk>
-0.983343	‚è ‚Ü	-0.0702532
-0.962362	‚è ‚ñ	-0.0702532
-0.3098	‚Æ </unk>
-0.41834	‚Ü </unk>
-0.964833	‚Ü ‚è	-0.0702532
-0.980765	‚Ü ‚·	-0.0702532
-0.245283	‚«‚å </unk>
-0.3098	‚µ‚å </unk>
-0.268988	‚ª </unk>
-0.3098	‚® </unk>
-1.06514	<unk> ‚±	-0.28642
-1.69577	<unk> ‚Ì	-0.113446
-1.50404	<unk> ‚Î	-0.27405
-1.83383	<unk> ‚µ‚ã	-0.113446
-2.02531	<unk> ‚È	-0.0702532
-2.02531	<unk> ‚Ü	-0.0702532
-1.70085	<unk> ‚¦	-0.113446
-1.5073	<unk> ‚í	-0.142821
-1.5073	<unk> ‚«‚å	-0.203498
-1.5073	<unk> ‚ä	-0.142821
-1.1323	<unk> ‚«	-0.329162
-1.70085	<unk> ‚ª	-0.113446
-1.09502	<unk> ‚É	-0.28642
-1.50115	<unk> ‚µ	-0.21737
-1.69577	<unk> ‚½	-0.183998
-1.69577	<unk> ‚¿	-0.113446
-1.77967	<unk> ‚è	-0.113446
-2.01466	<unk> ‚·	-0.0702532
-2.02531	<unk> ‚¯	-0.0702532
-1.12302	<unk> ‚¢	-0.376573
-2.04743	<unk> ‚Å	-0.0702532
-1.23319	<unk> ‚¾	-0.193065
-1.58765	<unk> ‚ë	-0.142821
-2.04743	<unk> ‚Ú	-0.0702532
-1.70085	<unk> ‚¨	-0.113446
-2.03623	<unk> ‚Ç	-0.0702532
-2.04743	<unk> ‚µ‚å	-0.0702532
-2.04743	<unk> ‚Ý	-0.0702532
-2.04743	<unk> ‚Ä	-0.0702532
-1.94381	<unk> ‚ñ	-0.0702532
-2.04743	<unk> ‚¸	-0.0702532
-1.51058	<unk> ‚Û	-0.203498
-2.04743	<unk> ‚â	-0.0702532
-0.208942	‚¯ </unk>
-1.10052	‚¯ ‚ñ	-0.0702532
-0.556495	‚ä </unk>
-1.1267	‚ä ‚¹	-0.0702532
-0.458324	‚ä ‚¯	-0.142821
-0.3098	‚Ý </unk>
-0.757841	‚¹ ‚«	-0.0702532
-0.3098	‚Ä </unk>
-0.274635	‚Ç </unk>
-0.989099	‚Ç ‚±	-0.0702532
-0.196171	‚í </unk>
-0.357657	‚± </unk>
-1.24264	‚± ‚±	-0.0702532
-1.24666	‚± ‚Ì	-0.0702532
-1.24666	‚± ‚¿	-0.113446
-1.24264	‚± ‚ë	-0.0702532
-0.789176	‚Å ‚·	-0.0702532
-0.292029	‚ë </unk>
-1.04934	‚ë ‚¢	-0.0702532
-0.216442	‚µ‚ã </unk>
-0.253651	‚¿ ‚ç	-0.21737
-0.3098	‚× </unk>
-0.268988	‚æ </unk>
-0.323248	‚Î </unk>
-0.980765	‚Î ‚µ	-0.0702532
-0.789176	‚Ø ‚·	-0.0702532
-0.154953	‚É </unk>
-1.18272	‚É ‚È	-0.0702532
-0.294171	‚¾ </unk>
-0.729515	‚¾ ‚æ	-0.113446
-0.41834	‚Ì </unk>
-0.983343	‚Ì ‚Î	-0.0702532
-0.983343	‚Ì ‚È	-0.0702532

\3-grams:
-0.190534	‚Ø ‚· </unk>
-0.57474	<unk> ‚· ‚Ø
-0.190534	‚Å ‚· </unk>
-0.190534	‚Ü ‚· </unk>
-0.149928	‚Î ‚µ </unk>
-0.0889508	<unk> ‚µ </unk>
-0.228886	<unk> ‚¸ </unk>
-0.209151	<unk> ‚½ </unk>
-0.527171	‚ñ ‚½ ‚×
-0.111028	<unk> ‚Û </unk>
-0.55248	‚Ì ‚È ‚Ü
-0.237805	<unk> ‚È </unk>
-0.237805	‚É ‚È </unk>
-0.487417	<unk> ‚Ú ‚Æ
-0.16103	‚¨ ‚« </unk>
-0.16103	‚¹ ‚« </unk>
-0.206182	<unk> ‚« </unk>
-0.999257	<unk> ‚« ‚Î
-0.731975	<unk> ‚« ‚ä
-0.571874	<unk> ‚ñ ‚¯
-0.318403	‚¯ ‚ñ </unk>
-0.573411	‚¢ ‚ñ ‚®
-0.572642	‚è ‚ñ ‚½
-0.133938	‚¢ ‚¶‚å </unk>
-0.52091	<unk> ‚¢ </unk>
-0.559052	<unk> ‚¢ ‚¶‚å
-0.719224	<unk> ‚¢ ‚Ç
-0.969152	<unk> ‚¢ ‚ñ
-0.285415	‚ë ‚¢ </unk>
-0.0770376	‚¿ ‚ç </unk>
-0.228886	<unk> ‚â </unk>
-0.348495	<unk> ‚¦ </unk>
-0.6071	<unk> ‚¦ ‚í
-0.6071	<unk> ‚¨ ‚«‚å
-0.592708	<unk> ‚¨ ‚«
-0.633519	<unk> ‚è ‚Ü
-0.62708	<unk> ‚è ‚ñ
-0.298156	‚Ü ‚è </unk>
-0.228886	‚Ú ‚Æ </unk>
-0.298156	‚È ‚Ü </unk>
-0.55171	‚è ‚Ü ‚·
-0.546884	<unk> ‚Ü ‚è
-0.184826	‚¨ ‚«‚å </unk>
-0.123796	<unk> ‚«‚å </unk>
-0.228886	<unk> ‚µ‚å </unk>
-0.162275	<unk> ‚ª </unk>
-0.228886	‚ñ ‚® </unk>
-0.584197	‚ñ ‚¯ ‚ñ
-0.159113	<unk> ‚¯ </unk>
-0.109896	‚ä ‚¯ </unk>
-0.251987	‚« ‚ä ‚¯
-0.521811	<unk> ‚ä </unk>
-0.740105	<unk> ‚ä ‚¹
-0.466019	<unk> ‚ä ‚¯
-0.228886	<unk> ‚Ý </unk>
-0.472304	‚ä ‚¹ ‚«
-0.228886	<unk> ‚Ä </unk>
-0.165249	‚¢ ‚Ç </unk>
-0.554186	<unk> ‚Ç ‚±
-0.149928	‚¦ ‚í </unk>
-0.103897	<unk> ‚í </unk>
-0.61491	‚Ç ‚± ‚ë
-0.320239	<unk> ‚± </unk>
-1.00227	<unk> ‚± ‚±
-1.00309	<unk> ‚± ‚Ì
-0.733714	<unk> ‚± ‚¿
-0.260199	‚± ‚± </unk>
-0.485072	<unk> ‚Å ‚·
-0.216958	‚± ‚ë </unk>
-0.240159	<unk> ‚ë </unk>
-0.720212	<unk> ‚ë ‚¢
-0.133733	<unk> ‚µ‚ã </unk>
-0.154107	‚± ‚¿ ‚ç
-0.154107	<unk> ‚¿ ‚ç
-0.228886	‚½ ‚× </unk>
-0.162275	‚¾ ‚æ </unk>
-0.152511	<unk> ‚Î </unk>
-0.237805	‚Ì ‚Î </unk>
-0.55171	‚« ‚Î ‚µ
-0.485072	‚· ‚Ø ‚·
-0.0890781	<unk> ‚É </unk>
-0.989392	<unk> ‚É ‚È
-0.222619	<unk> ‚¾ </unk>
-0.567615	<unk> ‚¾ ‚æ
-0.376669	<unk> ‚Ì </unk>
-0.633519	<unk> ‚Ì ‚È
-0.55248	‚± ‚Ì ‚Î
