[unifb]
-0.158061

\data\
ngram 1=27
ngram 2=49
ngram 3=38

\1-grams:
-0.558327	</unk>
-1.5813	‚²	-0.0106716
-1.55862	‚Ì	-0.0164381
-1.5813	‚Î	-0.0106716
-1.5813	‚µ‚ã	-0.0106716
-1.55862	‚È	-0.0164381
-1.53708	‚Ü	-0.0200497
-1.5813	‚¦	-0.0106716
-1.53708	‚í	-0.0200497
-1.5813	‚«‚å	-0.0106716
-1.55862	‚ä	-0.0164381
-1.55862	‚¹	-0.126946
-1.55862	‚«	-0.108065
-1.5813	‚±	-0.0164381
-1.55862	‚ª	-0.0164381
-1.5813	‚¬‚å	-0.0106716
-1.55862	‚É	-0.0164381
-1.5813	‚µ	-0.0106716
-1.5813	‚½	-0.0106716
-1.5813	‚¿	-0.0106716
-1.5813	‚ç	-0.0106716
-1.5813	‚è	-0.0106716
-1.55862	‚·	-0.0164381
-1.5813	‚¬‚ã	-0.0106716
-1.5813	‚¯	-0.0106716
-1.5813	‚¶‚å	-0.0106716
-1.5813	‚Å	-0.0106716

\2-grams:
-0.412616	‚¬‚å </unk>
-0.887362	‚É ‚È	-0.0717802
-0.887362	‚É ‚«	-0.0717802
-0.977408	‚í ‚í	-0.0717802
-0.986178	‚í ‚«‚å	-0.0717802
-0.986178	‚í ‚¬‚ã	-0.0717802
-0.363827	‚· </unk>
-1.43812	<unk> ‚²	-0.0717802
-1.4278	<unk> ‚Ì	-0.0717802
-1.43812	<unk> ‚µ‚ã	-0.0717802
-1.4278	<unk> ‚È	-0.0717802
-1.23422	<unk> ‚í	-0.105623
-1.4278	<unk> ‚ä	-0.0717802
-1.4278	<unk> ‚¹	-0.0717802
-1.04229	<unk> ‚±	-0.105623
-1.4278	<unk> ‚ª	-0.0717802
-1.43812	<unk> ‚¬‚å	-0.0717802
-1.2408	<unk> ‚É	-0.105623
-1.43812	<unk> ‚½	-0.0717802
-1.43812	<unk> ‚¿	-0.0717802
-1.43812	<unk> ‚ç	-0.0717802
-0.412616	‚µ </unk>
-0.412616	‚½ </unk>
-0.412616	‚¿ </unk>
-0.75507	‚«‚å ‚ä	-0.0717802
-0.75507	‚ç ‚ª	-0.0717802
-0.752136	‚è ‚Ü	-0.0717802
-0.758023	‚¬‚ã ‚¯	-0.0717802
-0.758023	‚¯ ‚¶‚å	-0.0717802
-0.75507	‚² ‚Ì	-0.0717802
-0.758023	‚¶‚å ‚Å	-0.0717802
-0.488464	‚Ì </unk>
-0.89107	‚Ì ‚Î	-0.0717802
-0.75507	‚Å ‚·	-0.0717802
-0.412616	‚Î </unk>
-0.412616	‚¦ </unk>
-0.412616	‚µ‚ã </unk>
-0.986178	‚Ü ‚¦	-0.0717802
-0.986178	‚Ü ‚µ	-0.0717802
-0.981771	‚Ü ‚·	-0.0717802
-0.883685	‚È ‚Ü	-0.0717802
-0.89107	‚È ‚è	-0.0717802
-0.321368	‚« </unk>
-0.994758	‚« ‚Ü	-0.0717802
-0.363827	‚± </unk>
-0.363827	‚ª </unk>
-0.380932	‚¹ ‚«	-0.105623
-0.488464	‚ä </unk>
-0.887362	‚ä ‚¹	-0.0717802

\3-grams:
-0.376162	<unk> ‚¬‚å </unk>
-0.789461	<unk> ‚É ‚È
-0.789461	<unk> ‚É ‚«
-0.853067	<unk> ‚í ‚í
-0.859052	<unk> ‚í ‚¬‚ã
-0.816032	‚í ‚í ‚«‚å
-0.333475	‚Ü ‚· </unk>
-0.333475	‚Å ‚· </unk>
-0.376162	‚Ü ‚µ </unk>
-0.376162	<unk> ‚½ </unk>
-0.376162	<unk> ‚¿ </unk>
-0.655075	‚í ‚«‚å ‚ä
-0.655075	<unk> ‚ç ‚ª
-0.652871	‚È ‚è ‚Ü
-0.65729	‚í ‚¬‚ã ‚¯
-0.65729	‚¬‚ã ‚¯ ‚¶‚å
-0.655075	<unk> ‚² ‚Ì
-0.65729	‚¯ ‚¶‚å ‚Å
-0.75295	‚² ‚Ì ‚Î
-0.441264	<unk> ‚Ì </unk>
-0.655075	‚¶‚å ‚Å ‚·
-0.376162	‚Ì ‚Î </unk>
-0.376162	‚Ü ‚¦ </unk>
-0.376162	<unk> ‚µ‚ã </unk>
-0.816032	‚È ‚Ü ‚¦
-0.816032	‚« ‚Ü ‚µ
-0.813212	‚è ‚Ü ‚·
-0.74786	<unk> ‚È ‚Ü
-0.75295	‚É ‚È ‚è
-0.281175	‚¹ ‚« </unk>
-0.82149	‚É ‚« ‚Ü
-0.316159	<unk> ‚± </unk>
-0.333475	<unk> ‚ª </unk>
-0.333475	‚ç ‚ª </unk>
-0.348508	‚ä ‚¹ ‚«
-0.348508	<unk> ‚¹ ‚«
-0.750397	<unk> ‚ä ‚¹
-0.441264	‚«‚å ‚ä </unk>
