[unifb]
-0.210215

\data\
ngram 1=45
ngram 2=105
ngram 3=92

\1-grams:
-0.449292	</unk>
-1.86787	‚²	-0.00257699
-1.85785	‚Î	-0.00502482
-1.86787	‚µ‚å	-0.00257699
-1.86787	‚ª	-0.00406056
-1.85292	‚È	-0.0662531
-1.85292	‚Ü	-0.00714606
-1.86283	‚¦	-0.106875
-1.86283	‚í	-0.37498
-1.86787	‚«‚å	-0.00257699
-1.86283	‚ä	-0.00406056
-1.86787	‚¹	-0.00257699
-1.67175	‚«	-0.0662531
-1.67825	‚±	-0.00502482
-1.86283	‚É	-0.00570183
-1.86283	‚µ	-0.00406056
-1.86787	‚½	-0.00257699
-1.86787	‚¿	-0.00406056
-1.86283	‚ç	-0.00406056
-1.85292	‚è	-0.00620331
-1.67499	‚·	-0.158481
-1.86787	‚¬‚ã	-0.00257699
-1.86283	‚¯	-0.00406056
-1.86283	‚¢	-0.00502482
-1.86787	‚¶‚å	-0.00257699
-1.85785	‚Å	-0.00570183
-1.67825	‚¾	-0.0880984
-1.86787	‚æ	-0.00257699
-1.85785	‚ë	-0.00502482
-1.86283	‚Ú	-0.00257699
-1.86787	‚Æ	-0.00406056
-1.86283	‚¨	-0.00406056
-1.86283	‚Ç	-0.00406056
-1.86787	‚Ñ	-0.00257699
-1.86787	‚Å‚¡	-0.00257699
-1.85785	‚ñ	-0.0662531
-1.86787	‚®	-0.00257699
-1.86787	‚Ø	-0.00257699
-1.86787	‚¶‚ã	-0.00257699
-1.86283	‚¬‚å	-0.00406056
-1.86787	‚Â	-0.00257699
-1.86787	‚Õ	-0.00406056
-1.86787	‚Ï	-0.00257699
-1.86787	‚×	-0.00257699
-1.86787	‚â	-0.00257699

\2-grams:
-0.455119	‚± </unk>
-1.08304	‚± ‚È	-0.055532
-1.0837	‚± ‚ë	-0.055532
-0.409112	‚É </unk>
-1.15338	‚É ‚È	-0.055532
-1.12046	‚É ‚«	-0.055532
-0.418701	‚¿ </unk>
-0.995972	‚¿ ‚ç	-0.055532
-0.326974	‚ç </unk>
-0.435611	‚è </unk>
-1.2115	‚è ‚Ü	-0.0858445
-1.21234	‚è ‚Å	-0.055532
-1.17638	‚è ‚¾	-0.055532
-0.187967	‚· </unk>
-0.879105	‚¬‚ã ‚¯	-0.055532
-0.320957	‚« </unk>
-1.22155	‚« ‚Î	-0.055532
-1.2223	‚« ‚ä	-0.055532
-0.363749	‚½ </unk>
-0.857712	‚¹ ‚«	-0.055532
-0.996531	‚ä ‚¹	-0.055532
-0.995972	‚ä ‚µ	-0.055532
-0.418701	‚µ </unk>
-0.996531	‚µ ‚½	-0.055532
-0.548531	‚È </unk>
-1.2208	‚È ‚È	-0.055532
-1.2208	‚È ‚Ü	-0.055532
-0.690508	‚È ‚è	-0.182138
-0.102751	‚í </unk>
-0.453992	‚¦ ‚í	-0.0858445
-0.442516	‚Ü </unk>
-1.34265	‚Ü ‚¦	-0.055532
-1.34265	‚Ü ‚µ	-0.055532
-1.09	‚Ü ‚è	-0.182138
-1.29467	‚Ü ‚·	-0.055532
-0.326974	‚ª </unk>
-0.363749	‚µ‚å </unk>
-0.374448	‚Î </unk>
-1.08501	‚Î ‚µ‚å	-0.055532
-0.878647	‚² ‚Î	-0.055532
-2.00197	<unk> ‚²	-0.055532
-1.99656	<unk> ‚Î	-0.055532
-1.44437	<unk> ‚ª	-0.183752
-1.6357	<unk> ‚È	-0.0858445
-1.44211	<unk> ‚Ü	-0.104982
-1.99925	<unk> ‚¦	-0.055532
-1.30979	<unk> ‚í	-0.118174
-2.00197	<unk> ‚«‚å	-0.055532
-1.65319	<unk> ‚«	-0.104982
-1.65564	<unk> ‚±	-0.104982
-1.39131	<unk> ‚É	-0.118174
-1.44437	<unk> ‚¿	-0.183752
-1.99925	<unk> ‚ç	-0.055532
-1.44211	<unk> ‚è	-0.104982
-1.58605	<unk> ‚·	-0.182138
-2.00197	<unk> ‚¬‚ã	-0.055532
-1.99925	<unk> ‚¯	-0.055532
-0.995765	<unk> ‚¢	-0.486769
-1.39065	<unk> ‚Å	-0.184827
-1.24815	<unk> ‚¾	-0.331016
-1.83304	<unk> ‚ë	-0.0858445
-1.83489	<unk> ‚Ú	-0.182138
-1.99925	<unk> ‚¨	-0.055532
-1.55877	<unk> ‚Ç	-0.183752
-2.00197	<unk> ‚Ñ	-0.055532
-1.44287	<unk> ‚ñ	-0.104982
-2.00197	<unk> ‚®	-0.055532
-2.00197	<unk> ‚Ø	-0.055532
-2.00197	<unk> ‚¶‚ã	-0.055532
-1.83489	<unk> ‚¬‚å	-0.0858445
-2.00197	<unk> ‚Â	-0.055532
-1.63923	<unk> ‚Õ	-0.0858445
-2.00197	<unk> ‚â	-0.055532
-0.879105	‚«‚å ‚ä	-0.055532
-0.995972	‚¯ ‚¢	-0.055532
-0.995413	‚¯ ‚ñ	-0.055532
-0.363749	‚â </unk>
-0.363749	‚× </unk>
-0.879563	‚Ï ‚×	-0.055532
-0.326974	‚Õ </unk>
-0.363749	‚Â </unk>
-0.326974	‚¬‚å </unk>
-0.858148	‚Ø ‚·	-0.055532
-0.363749	‚® </unk>
-0.276898	‚ñ </unk>
-1.22305	‚ñ ‚Ï	-0.055532
-0.363749	‚¶‚ã </unk>
-0.363749	‚Å‚¡ </unk>
-0.879563	‚Ñ ‚Å‚¡	-0.055532
-0.418701	‚Ç </unk>
-0.994855	‚Ç ‚Ü	-0.0858445
-0.363749	‚æ </unk>
-0.455119	‚¢ </unk>
-1.08501	‚¢ ‚¶‚å	-0.055532
-1.0837	‚¢ ‚ñ	-0.055532
-0.363749	‚¶‚å </unk>
-0.347368	‚Å </unk>
-1.12115	‚Å ‚·	-0.055532
-0.516608	‚¾ </unk>
-0.549303	‚¾ ‚æ	-0.280045
-0.30644	‚ë </unk>
-0.879563	‚Ú ‚Æ	-0.0858445
-0.418701	‚Æ </unk>
-0.995972	‚Æ ‚¨	-0.055532
-0.326974	‚¨ </unk>

\3-grams:
-0.463352	<unk> ‚± </unk>
-0.749808	<unk> ‚± ‚È
-0.749996	<unk> ‚± ‚ë
-0.361387	<unk> ‚É </unk>
-0.841227	<unk> ‚É ‚È
-0.831518	<unk> ‚É ‚«
-0.255292	<unk> ‚¿ </unk>
-0.748244	<unk> ‚¿ ‚ç
-0.224383	‚¿ ‚ç </unk>
-0.224383	<unk> ‚ç </unk>
-0.178029	‚Ü ‚è </unk>
-0.299688	‚È ‚è ‚Ü
-0.450926	<unk> ‚è </unk>
-0.783243	<unk> ‚è ‚Å
-0.774678	<unk> ‚è ‚¾
-0.135469	‚Ø ‚· </unk>
-0.0896848	<unk> ‚· </unk>
-0.135469	‚Ü ‚· </unk>
-0.135469	‚Å ‚· </unk>
-0.471074	<unk> ‚¬‚ã ‚¯
-0.220749	‚¹ ‚« </unk>
-0.37392	<unk> ‚« </unk>
-0.785352	<unk> ‚« ‚Î
-0.785522	<unk> ‚« ‚ä
-0.220749	‚É ‚« </unk>
-0.246156	‚µ ‚½ </unk>
-0.464586	‚ä ‚¹ ‚«
-0.502744	‚« ‚ä ‚µ
-0.502881	‚«‚å ‚ä ‚¹
-0.277277	‚ä ‚µ </unk>
-0.502881	‚Ü ‚µ ‚½
-0.687261	<unk> ‚È ‚Ü
-0.520352	<unk> ‚È ‚è
-0.405827	‚É ‚È ‚è
-0.548021	‚± ‚È ‚È
-0.343949	‚È ‚È </unk>
-0.0575361	<unk> ‚í </unk>
-0.0660473	‚¦ ‚í </unk>
-0.296358	<unk> ‚¦ ‚í
-0.296358	‚Ü ‚¦ ‚í
-0.290232	‚È ‚Ü </unk>
-0.390501	‚Ç ‚Ü </unk>
-0.658328	‚Ç ‚Ü ‚è
-0.810035	<unk> ‚Ü ‚¦
-0.810035	<unk> ‚Ü ‚µ
-0.751799	<unk> ‚Ü ‚è
-0.390501	‚è ‚Ü </unk>
-0.700784	‚è ‚Ü ‚·
-0.13769	<unk> ‚ª </unk>
-0.246156	‚Î ‚µ‚å </unk>
-0.252349	‚« ‚Î </unk>
-0.522929	‚² ‚Î ‚µ‚å
-0.252349	<unk> ‚Î </unk>
-0.470937	<unk> ‚² ‚Î
-0.471074	<unk> ‚«‚å ‚ä
-0.502744	‚¬‚ã ‚¯ ‚¢
-0.502607	<unk> ‚¯ ‚ñ
-0.246156	<unk> ‚â </unk>
-0.246156	‚Ï ‚× </unk>
-0.47121	‚ñ ‚Ï ‚×
-0.189918	<unk> ‚Õ </unk>
-0.246156	<unk> ‚Â </unk>
-0.189918	<unk> ‚¬‚å </unk>
-0.46472	<unk> ‚Ø ‚·
-0.246156	<unk> ‚® </unk>
-0.193537	‚¯ ‚ñ </unk>
-0.235776	<unk> ‚ñ </unk>
-0.785692	<unk> ‚ñ ‚Ï
-0.193537	‚¢ ‚ñ </unk>
-0.246156	<unk> ‚¶‚ã </unk>
-0.246156	‚Ñ ‚Å‚¡ </unk>
-0.47121	<unk> ‚Ñ ‚Å‚¡
-0.491383	<unk> ‚Ç </unk>
-0.385475	<unk> ‚Ç ‚Ü
-0.114113	‚¾ ‚æ </unk>
-0.522929	‚¯ ‚¢ ‚¶‚å
-0.1038	<unk> ‚¢ </unk>
-1.10737	<unk> ‚¢ ‚ñ
-0.246156	‚¢ ‚¶‚å </unk>
-0.207316	<unk> ‚Å </unk>
-0.851386	<unk> ‚Å ‚·
-0.236551	‚è ‚Å </unk>
-0.344316	‚è ‚¾ ‚æ
-0.291652	<unk> ‚¾ </unk>
-0.463112	<unk> ‚¾ ‚æ
-0.2119	‚± ‚ë </unk>
-0.179768	<unk> ‚ë </unk>
-0.268415	<unk> ‚Ú ‚Æ
-0.376197	‚Ú ‚Æ </unk>
-0.633059	‚Ú ‚Æ ‚¨
-0.224383	<unk> ‚¨ </unk>
-0.224383	‚Æ ‚¨ </unk>
