[unifb]
-0.244859

\data\
ngram 1=42
ngram 2=88
ngram 3=76

\1-grams:
-0.457851	</unk>
-1.8607	‚²	-0.00773873
-1.84377	‚Î	-0.0152212
-1.84377	‚µ	-0.0122581
-1.41071	‚È	-0.0776059
-1.81176	‚Ü	-0.0852538
-1.8607	‚â	-0.00773873
-1.64431	‚í	-0.0173139
-1.8607	‚Í	-0.00773873
-1.84377	‚«‚å	-0.0122581
-1.84377	‚ä	-0.0152212
-1.64431	‚¹	-0.0152212
-1.82747	‚«	-0.0852538
-1.82747	‚±	-0.0173139
-1.84377	‚ª	-0.0776059
-1.81176	‚¢	-0.0852538
-1.8607	‚¬	-0.00773873
-1.84377	‚É	-0.0122581
-1.8607	‚½	-0.00773873
-1.64431	‚¿	-0.0152212
-1.82747	‚ç	-0.0152212
-1.84377	‚è	-0.0957967
-1.63394	‚·	-0.0173139
-1.84377	‚¬‚ã	-0.0122581
-1.84377	‚¯	-0.111268
-1.8607	‚¶‚å	-0.111268
-1.8607	‚Å	-0.00773873
-1.8607	‚ 	-0.00773873
-1.84377	‚¾	-0.0957967
-1.8607	‚æ	-0.0122581
-1.8607	‚ë	-0.00773873
-1.8607	‚Ú	-0.00773873
-1.8607	‚Æ	-0.00773873
-1.8607	‚É‚á	-0.00773873
-1.8607	‚Ç	-0.00773873
-1.8607	‚µ‚å	-0.00773873
-1.8607	‚Ä‚¡	-0.00773873
-1.8607	‚Ý	-0.00773873
-1.8607	‚Å‚¡	-0.00773873
-1.8607	‚ñ	-0.00773873
-1.8607	‚®	-0.00773873
-1.8607	‚Ø	-0.00773873

\2-grams:
-0.43483	‚É </unk>
-1.01518	‚É ‚È	-0.0344595
-0.399946	‚½ </unk>
-0.398908	‚ç </unk>
-1.18636	‚ç ‚ª	-0.0344595
-0.286707	‚è </unk>
-0.398908	‚¿ </unk>
-1.1833	‚¿ ‚ç	-0.0344595
-0.320131	‚¢ </unk>
-1.25098	‚¢ ‚¶‚å	-0.0580768
-0.309967	‚ª </unk>
-1.16326	‚ª ‚È	-0.0344595
-0.344699	‚¹ </unk>
-0.460862	‚ä </unk>
-0.902425	‚ä ‚¹	-0.0580768
-0.424383	‚± </unk>
-1.23517	‚± ‚±	-0.0344595
-1.19007	‚± ‚¿	-0.0344595
-1.01518	‚µ ‚È	-0.0344595
-1.12702	‚µ ‚½	-0.0344595
-0.320131	‚« </unk>
-1.25098	‚« ‚Ç	-0.0344595
-1.18636	‚Î ‚µ	-0.0344595
-1.18945	‚Î ‚É‚á	-0.0344595
-1.18945	‚Î ‚µ‚å	-0.0344595
-0.428137	‚È </unk>
-0.732008	‚È ‚È	-0.0580768
-0.460437	‚Ü </unk>
-0.724448	‚Ü ‚è	-0.0580768
-0.399946	‚² </unk>
-1.83528	<unk> ‚²	-0.0344595
-1.38104	<unk> ‚Î	-0.0752966
-1.82625	<unk> ‚µ	-0.0344595
-1.64923	<unk> ‚Ü	-0.0580768
-1.83528	<unk> ‚â	-0.0344595
-1.27442	<unk> ‚í	-0.0884179
-1.45975	<unk> ‚«‚å	-0.120395
-1.82625	<unk> ‚ä	-0.0344595
-1.7078	<unk> ‚¹	-0.0344595
-1.37785	<unk> ‚«	-0.0752966
-1.37785	<unk> ‚±	-0.0752966
-1.12935	<unk> ‚ª	-0.0884179
-1.64923	<unk> ‚¢	-0.0580768
-1.83528	<unk> ‚¬	-0.0344595
-1.82625	<unk> ‚É	-0.0344595
-1.5769	<unk> ‚¿	-0.0580768
-1.65522	<unk> ‚ç	-0.0580768
-1.82625	<unk> ‚è	-0.0344595
-1.70105	<unk> ‚·	-0.0344595
-1.66129	<unk> ‚¬‚ã	-0.0580768
-1.82625	<unk> ‚¯	-0.0344595
-1.83528	<unk> ‚Å	-0.0344595
-1.83528	<unk> ‚ 	-0.0344595
-1.38104	<unk> ‚¾	-0.0752966
-1.83528	<unk> ‚ë	-0.0344595
-1.83528	<unk> ‚Ä‚¡	-0.0344595
-1.83528	<unk> ‚Ý	-0.0344595
-0.399946	‚â </unk>
-0.424383	‚í </unk>
-1.24189	‚í ‚Í	-0.0344595
-1.23184	‚í ‚¢	-0.0344595
-1.04565	‚Æ ‚«	-0.0344595
-1.05056	‚Ý ‚Å‚¡	-0.0344595
-1.04321	‚Ç ‚Ü	-0.0344595
-0.399946	‚É‚á </unk>
-0.43483	‚«‚å </unk>
-1.12424	‚«‚å ‚ä	-0.0580768
-1.0481	‚Í ‚«‚å	-0.0344595
-1.05056	‚Ú ‚Æ	-0.0344595
-1.05056	‚Å‚¡ ‚ñ	-0.0344595
-1.0481	‚¬ ‚É	-0.0344595
-1.05056	‚ñ ‚®	-0.0344595
-0.399946	‚  </unk>
-0.399946	‚µ‚å </unk>
-0.399946	‚Ä‚¡ </unk>
-1.00993	‚® ‚·	-0.0344595
-1.00993	‚Ø ‚·	-0.0344595
-1.05056	‚ë ‚Ú	-0.0344595
-0.36652	‚æ </unk>
-1.19044	‚¾ ‚Ü	-0.0344595
-0.666586	‚¾ ‚æ	-0.0580768
-0.295675	‚¶‚å </unk>
-0.595503	‚¯ ‚¢	-0.120395
-0.374253	‚· </unk>
-1.24189	‚· ‚Ø	-0.0344595
-0.43483	‚¬‚ã </unk>
-1.12424	‚¬‚ã ‚¯	-0.0344595
-1.00993	‚Å ‚·	-0.0344595

\3-grams:
-0.394703	‚¬ ‚É </unk>
-0.83162	<unk> ‚É ‚È
-0.364521	‚µ ‚½ </unk>
-0.363618	‚¿ ‚ç </unk>
-0.388912	<unk> ‚ç </unk>
-0.978138	<unk> ‚ç ‚ª
-0.250827	‚Ü ‚è </unk>
-0.264453	<unk> ‚è </unk>
-0.388912	<unk> ‚¿ </unk>
-0.976413	<unk> ‚¿ ‚ç
-0.363618	‚± ‚¿ </unk>
-0.294301	‚í ‚¢ </unk>
-0.278587	<unk> ‚¢ </unk>
-0.568044	‚¯ ‚¢ ‚¶‚å
-0.279834	<unk> ‚ª </unk>
-1.03062	<unk> ‚ª ‚È
-0.28525	‚ç ‚ª </unk>
-0.316079	<unk> ‚¹ </unk>
-0.298755	‚ä ‚¹ </unk>
-0.443421	‚«‚å ‚ä </unk>
-0.796661	‚«‚å ‚ä ‚¹
-0.758509	<unk> ‚ä ‚¹
-0.430232	<unk> ‚± </unk>
-1.04395	<unk> ‚± ‚±
-1.01774	<unk> ‚± ‚¿
-0.385699	‚± ‚± </unk>
-0.897326	<unk> ‚µ ‚½
-0.83162	‚Î ‚µ ‚È
-0.300596	<unk> ‚« </unk>
-1.05286	<unk> ‚« ‚Ç
-0.294301	‚Æ ‚« </unk>
-1.01553	<unk> ‚Î ‚µ
-1.01737	<unk> ‚Î ‚É‚á
-1.01737	<unk> ‚Î ‚µ‚å
-0.365655	‚È ‚È </unk>
-0.6361	‚µ ‚È ‚È
-0.6361	‚ª ‚È ‚È
-0.388937	‚É ‚È </unk>
-0.630366	‚¾ ‚Ü ‚è
-0.630366	‚Ç ‚Ü ‚è
-0.390846	<unk> ‚Ü </unk>
-0.364521	<unk> ‚² </unk>
-0.364521	<unk> ‚â </unk>
-0.405504	<unk> ‚í </unk>
-1.07905	<unk> ‚í ‚Í
-1.07305	<unk> ‚í ‚¢
-0.850209	‚Ú ‚Æ ‚«
-0.853159	<unk> ‚Ý ‚Å‚¡
-0.848742	‚« ‚Ç ‚Ü
-0.364521	‚Î ‚É‚á </unk>
-0.545054	<unk> ‚«‚å ‚ä
-0.394703	‚Í ‚«‚å </unk>
-0.851681	‚í ‚Í ‚«‚å
-0.853159	‚ë ‚Ú ‚Æ
-0.853159	‚Ý ‚Å‚¡ ‚ñ
-0.851681	<unk> ‚¬ ‚É
-0.853159	‚Å‚¡ ‚ñ ‚®
-0.364521	<unk> ‚  </unk>
-0.364521	‚Î ‚µ‚å </unk>
-0.364521	<unk> ‚Ä‚¡ </unk>
-0.828367	‚ñ ‚® ‚·
-0.828367	‚· ‚Ø ‚·
-0.853159	<unk> ‚ë ‚Ú
-0.316495	‚¾ ‚æ </unk>
-1.01795	<unk> ‚¾ ‚Ü
-0.571435	<unk> ‚¾ ‚æ
-0.25831	‚¢ ‚¶‚å </unk>
-0.529064	<unk> ‚¯ ‚¢
-0.529064	‚¬‚ã ‚¯ ‚¢
-0.342087	‚Ø ‚· </unk>
-0.342087	<unk> ‚· </unk>
-0.957436	‚® ‚· ‚Ø
-0.342087	‚Å ‚· </unk>
-0.420632	<unk> ‚¬‚ã </unk>
-0.94213	<unk> ‚¬‚ã ‚¯
-0.828367	<unk> ‚Å ‚·
