[unifb]
-0.232616

\data\
ngram 1=35
ngram 2=73
ngram 3=58

\1-grams:
-0.412039	</unk>
-1.75724	‚±	-0.0758008
-1.75724	‚È	-0.0114827
-1.55805	‚Î	-0.00985352
-1.76755	‚µ	-0.0114827
-1.7781	‚Ì	-0.0069117
-1.75724	‚É‚á	-0.120304
-1.53916	‚Ü	-0.0758008
-1.76755	‚¦	-0.0069117
-1.75724	‚í	-0.172586
-1.7781	‚ 	-0.0069117
-1.7781	‚«‚å	-0.00985352
-1.7781	‚¨	-0.0069117
-1.7781	‚ä	-0.0069117
-1.7781	‚¹	-0.0069117
-1.7781	‚«	-0.0125175
-1.7781	‚ª	-0.00985352
-1.74718	‚¢	-0.0125175
-1.7781	‚É	-0.0069117
-1.7781	‚½	-0.0069117
-1.7781	‚¿	-0.0069117
-1.7781	‚ç	-0.0069117
-1.7781	‚è	-0.0069117
-1.76755	‚·	-0.155401
-1.7781	‚¬‚ã	-0.0069117
-1.7781	‚¸	-0.0069117
-1.7781	‚¯	-0.0069117
-1.7781	‚¶‚å	-0.0069117
-1.7781	‚Å	-0.0069117
-1.76755	‚¾	-0.00985352
-1.7781	‚æ	-0.0069117
-1.7781	‚ë	-0.0069117
-1.76755	‚Ú	-0.00985352
-1.7781	‚Æ	-0.0069117
-1.7781	‚ð	-0.0069117

\2-grams:
-0.355353	‚¹ </unk>
-0.355353	‚É </unk>
-0.39684	‚¾ </unk>
-1.06294	‚¾ ‚Ü	-0.0400551
-0.266521	‚É‚á </unk>
-1.17888	‚É‚á ‚Ü	-0.0400551
-0.354315	‚¢ </unk>
-1.28339	‚¢ ‚¶‚å	-0.0400551
-0.335207	‚Ú </unk>
-0.355353	‚¨ </unk>
-0.335207	‚ª </unk>
-0.355353	‚½ </unk>
-0.335207	‚«‚å </unk>
-0.355353	‚¬‚ã </unk>
-0.324874	‚± </unk>
-1.39606	‚± ‚±	-0.0400551
-1.39606	‚± ‚È	-0.0400551
-1.40254	‚± ‚¿	-0.0400551
-0.98431	‚Å ‚·	-0.0400551
-0.985879	‚ä ‚¹	-0.0400551
-0.370108	‚È </unk>
-1.20864	‚È ‚È	-0.0400551
-0.985879	‚¸ ‚¯	-0.0400551
-0.39684	‚Î </unk>
-1.11841	‚Î ‚µ	-0.0566505
-0.355353	‚¯ </unk>
-0.355353	‚¶‚å </unk>
-1.21362	‚µ ‚Ì	-0.0400551
-1.21362	‚µ ‚½	-0.198683
-1.21362	‚µ ‚ð	-0.0400551
-0.982746	‚Ì ‚É‚á	-0.0400551
-0.355353	‚  </unk>
-0.355353	‚Æ </unk>
-0.98431	‚ë ‚Ú	-0.0400551
-0.982746	‚¦ ‚í	-0.0657346
-0.355353	‚ð </unk>
-0.985879	‚¿ ‚ç	-0.0400551
-0.355353	‚ç </unk>
-0.213114	‚· </unk>
-0.192904	‚í </unk>
-0.436043	‚« </unk>
-1.21182	‚« ‚Î	-0.0400551
-1.2045	‚« ‚Ü	-0.0400551
-1.27477	‚« ‚¢	-0.0400551
-0.355353	‚è </unk>
-1.05685	<unk> ‚±	-0.0754142
-1.81115	<unk> ‚È	-0.0400551
-1.57966	<unk> ‚Î	-0.198683
-1.69981	<unk> ‚É‚á	-0.0566505
-1.26603	<unk> ‚Ü	-0.157152
-1.37109	<unk> ‚í	-0.172587
-1.82581	<unk> ‚ 	-0.0400551
-1.42569	<unk> ‚«‚å	-0.0566505
-1.82581	<unk> ‚¨	-0.0400551
-1.82581	<unk> ‚ä	-0.0400551
-1.08248	<unk> ‚«	-0.0714671
-1.42569	<unk> ‚ª	-0.0566505
-1.60674	<unk> ‚¢	-0.0657346
-1.82581	<unk> ‚É	-0.0400551
-1.82581	<unk> ‚è	-0.0400551
-1.81842	<unk> ‚·	-0.0400551
-1.82581	<unk> ‚¬‚ã	-0.0400551
-1.82581	<unk> ‚¸	-0.0400551
-1.82581	<unk> ‚Å	-0.0400551
-1.70542	<unk> ‚¾	-0.0566505
-1.82581	<unk> ‚æ	-0.0400551
-1.82581	<unk> ‚ë	-0.0400551
-1.81842	<unk> ‚Ú	-0.0400551
-1.82581	<unk> ‚Æ	-0.0400551
-0.355353	‚æ </unk>
-0.474045	‚Ü </unk>
-0.750895	‚Ü ‚µ	-0.198683
-1.17153	‚Ü ‚¦	-0.314619

\3-grams:
-0.286509	‚ä ‚¹ </unk>
-0.286509	<unk> ‚É </unk>
-0.374151	<unk> ‚¾ </unk>
-0.753618	<unk> ‚¾ ‚Ü
-0.193137	<unk> ‚É‚á </unk>
-0.714694	‚Ì ‚É‚á ‚Ü
-0.298203	<unk> ‚¢ </unk>
-0.891008	<unk> ‚¢ ‚¶‚å
-0.285742	‚« ‚¢ </unk>
-0.271558	‚ë ‚Ú </unk>
-0.271558	<unk> ‚Ú </unk>
-0.286509	<unk> ‚¨ </unk>
-0.237304	<unk> ‚ª </unk>
-0.212453	‚µ ‚½ </unk>
-0.237304	<unk> ‚«‚å </unk>
-0.286509	<unk> ‚¬‚ã </unk>
-0.263821	‚± ‚± </unk>
-0.348372	<unk> ‚± </unk>
-1.0244	<unk> ‚± ‚±
-1.0244	<unk> ‚± ‚È
-1.02621	<unk> ‚± ‚¿
-0.647338	<unk> ‚Å ‚·
-0.647961	<unk> ‚ä ‚¹
-0.297344	‚± ‚È </unk>
-0.723318	<unk> ‚È ‚È
-0.297344	‚È ‚È </unk>
-0.647961	<unk> ‚¸ ‚¯
-0.443261	<unk> ‚Î ‚µ
-0.316722	‚« ‚Î </unk>
-0.286509	‚¸ ‚¯ </unk>
-0.286509	‚¢ ‚¶‚å </unk>
-0.455952	‚Ü ‚µ ‚½
-0.805481	‚Î ‚µ ‚Ì
-0.805481	‚Î ‚µ ‚ð
-0.646715	‚µ ‚Ì ‚É‚á
-0.286509	<unk> ‚  </unk>
-0.286509	<unk> ‚Æ </unk>
-0.647338	<unk> ‚ë ‚Ú
-0.31637	‚Ü ‚¦ ‚í
-0.286509	‚µ ‚ð </unk>
-0.647961	‚± ‚¿ ‚ç
-0.286509	‚¿ ‚ç </unk>
-0.177316	<unk> ‚· </unk>
-0.177316	‚Å ‚· </unk>
-0.131449	‚¦ ‚í </unk>
-0.115844	<unk> ‚í </unk>
-0.481198	<unk> ‚« </unk>
-0.920727	<unk> ‚« ‚Î
-0.918132	<unk> ‚« ‚Ü
-0.941894	<unk> ‚« ‚¢
-0.286509	<unk> ‚è </unk>
-0.286509	<unk> ‚æ </unk>
-0.541569	<unk> ‚Ü </unk>
-0.7246	<unk> ‚Ü ‚µ
-0.581475	<unk> ‚Ü ‚¦
-0.370791	‚¾ ‚Ü </unk>
-0.7125	‚É‚á ‚Ü ‚¦
-0.539065	‚« ‚Ü ‚µ
