[unifb]
-0.24792

\data\
ngram 1=45
ngram 2=103
ngram 3=90

\1-grams:
-0.402498	</unk>
-1.89729	‚²	-0.00838595
-1.88431	‚Î	-0.01438
-1.89729	‚µ‚å	-0.00838595
-1.89729	‚È	-0.0121999
-1.8717	‚Ü	-0.0167788
-1.89729	‚¦	-0.0121999
-1.88431	‚í	-0.0868405
-1.89729	‚Í	-0.00838595
-1.88431	‚«‚å	-0.0121999
-1.88431	‚ä	-0.01438
-1.89729	‚¹	-0.00838595
-1.8717	‚«	-0.0868405
-1.88431	‚±	-0.017509
-1.89729	‚ª	-0.00838595
-1.88431	‚¬‚å	-0.00838595
-1.89729	‚É	-0.00838595
-1.88431	‚µ	-0.099371
-1.8717	‚½	-0.117973
-1.88431	‚¿	-0.0121999
-1.88431	‚ç	-0.0121999
-1.54724	‚è	-0.099371
-1.66803	‚·	-0.0778225
-1.88431	‚¬‚ã	-0.00838595
-1.89729	‚¯	-0.0121999
-1.84753	‚¢	-0.178969
-1.89729	‚¶‚å	-0.00838595
-1.89729	‚Å	-0.14851
-1.89729	‚¾	-0.202964
-1.89729	‚æ	-0.015791
-1.8717	‚ë	-0.01438
-1.89729	‚Ú	-0.00838595
-1.89729	‚Æ	-0.00838595
-1.89729	‚Ç	-0.0121999
-1.89729	‚Ý	-0.00838595
-1.89729	‚Ä	-0.00838595
-1.85945	‚ñ	-0.015791
-1.89729	‚®	-0.00838595
-1.89729	‚Ø	-0.00838595
-1.89729	‚Â	-0.00838595
-1.89729	‚Ô	-0.0121999
-1.88431	‚×	-0.14851
-1.89729	‚â	-0.14851
-1.89729	‚Û	-0.00838595
-1.89729	‚Ï	-0.00838595

\2-grams:
-0.336424	‚ª </unk>
-0.336424	‚¬‚å </unk>
-0.336424	‚É </unk>
-0.279108	‚µ </unk>
-1.1166	‚µ ‚½	-0.0494675
-0.302878	‚½ </unk>
-1.06455	‚½ ‚×	-0.0494675
-0.382443	‚¿ </unk>
-0.997856	‚¿ ‚ç	-0.0494675
-0.366984	‚± </unk>
-1.20213	‚± ‚±	-0.0494675
-1.20213	‚± ‚¿	-0.128295
-1.20034	‚± ‚ë	-0.0494675
-0.423728	‚« </unk>
-0.746603	‚« ‚Î	-0.128295
-1.16484	‚« ‚ä	-0.0859598
-0.336424	‚¹ </unk>
-0.418633	‚ä </unk>
-1.06175	‚ä ‚¹	-0.0494675
-1.06027	‚ä ‚µ	-0.0494675
-0.279108	‚è </unk>
-1.11513	‚è ‚ñ	-0.0494675
-0.297296	‚ç </unk>
-1.99945	<unk> ‚²	-0.0494675
-1.64574	<unk> ‚Î	-0.0859598
-1.45587	<unk> ‚È	-0.152653
-1.64385	<unk> ‚Ü	-0.0859598
-1.13911	<unk> ‚í	-0.233103
-1.64765	<unk> ‚Í	-0.128295
-1.53214	<unk> ‚«‚å	-0.152653
-1.99518	<unk> ‚ä	-0.0494675
-1.26394	<unk> ‚«	-0.187464
-1.01062	<unk> ‚±	-0.279356
-1.64765	<unk> ‚ª	-0.128295
-1.77286	<unk> ‚¬‚å	-0.128295
-1.64765	<unk> ‚É	-0.128295
-1.45465	<unk> ‚µ	-0.114081
-1.99096	<unk> ‚½	-0.0494675
-1.99518	<unk> ‚¿	-0.0494675
-1.99518	<unk> ‚ç	-0.0494675
-1.85252	<unk> ‚è	-0.0494675
-1.50127	<unk> ‚·	-0.152653
-1.53214	<unk> ‚¬‚ã	-0.194988
-1.64765	<unk> ‚¯	-0.0859598
-1.06862	<unk> ‚¢	-0.274399
-1.64765	<unk> ‚Å	-0.0859598
-1.22187	<unk> ‚¾	-0.187464
-1.77033	<unk> ‚ë	-0.0859598
-1.99945	<unk> ‚Ý	-0.0494675
-1.99945	<unk> ‚Â	-0.0494675
-1.64765	<unk> ‚Ô	-0.0859598
-1.99518	<unk> ‚×	-0.0494675
-1.99945	<unk> ‚Ï	-0.0494675
-0.261467	‚í </unk>
-1.16643	‚í ‚Û	-0.0494675
-0.382443	‚¦ </unk>
-0.997856	‚¦ ‚í	-0.0494675
-0.401127	‚Ü </unk>
-1.16235	‚Ü ‚¦	-0.0859598
-1.09799	‚Ü ‚è	-0.194988
-1.12506	‚Ü ‚·	-0.0494675
-0.996495	‚È ‚Ü	-0.128295
-0.946705	‚È ‚è	-0.0494675
-0.336424	‚µ‚å </unk>
-0.338763	‚Î </unk>
-1.06175	‚Î ‚µ‚å	-0.0494675
-0.336424	‚² </unk>
-0.336424	‚Í </unk>
-0.382443	‚«‚å </unk>
-0.993786	‚«‚å ‚¢	-0.0494675
-0.247844	‚· </unk>
-1.20798	‚· ‚Ø	-0.0494675
-0.259356	‚â </unk>
-0.576425	‚× ‚â	-0.0859598
-0.297296	‚Ô </unk>
-0.336424	‚Â </unk>
-0.336424	‚Ø </unk>
-0.896811	‚® ‚·	-0.0494675
-0.308634	‚ñ </unk>
-1.11543	‚ñ ‚®	-0.0494675
-0.336424	‚Ä </unk>
-0.876261	‚Û ‚è	-0.0494675
-0.336424	‚Ï </unk>
-0.9246	‚Ý ‚Ä	-0.0494675
-0.382443	‚Ç </unk>
-0.996495	‚Ç ‚Ü	-0.210455
-0.922102	‚Æ ‚«	-0.0494675
-0.9246	‚Ú ‚Æ	-0.0494675
-0.336424	‚¬‚ã </unk>
-0.993786	‚¯ ‚¢	-0.0494675
-0.995138	‚¯ ‚ñ	-0.0494675
-1.2836	‚¢ ‚½	-0.0494675
-1.28699	‚¢ ‚¶‚å	-0.0494675
-0.521243	‚¢ ‚Ç	-0.26146
-1.01218	‚¢ ‚ñ	-0.210455
-0.336424	‚¶‚å </unk>
-0.56582	‚Å ‚·	-0.0859598
-1.11828	‚¾ ‚¢	-0.0494675
-0.488858	‚¾ ‚æ	-0.136459
-0.252798	‚æ </unk>
-0.418633	‚ë </unk>
-1.05587	‚ë ‚¢	-0.0494675
-1.06175	‚ë ‚Ú	-0.0494675

\3-grams:
-0.184538	<unk> ‚ª </unk>
-0.184538	<unk> ‚¬‚å </unk>
-0.184538	<unk> ‚É </unk>
-0.211897	‚ä ‚µ </unk>
-0.238887	<unk> ‚µ </unk>
-0.770655	<unk> ‚µ ‚½
-0.592028	<unk> ‚½ ‚×
-0.22834	‚µ ‚½ </unk>
-0.22834	‚¢ ‚½ </unk>
-0.572689	<unk> ‚¿ ‚ç
-0.204765	‚± ‚¿ </unk>
-0.271274	‚± ‚± </unk>
-0.31307	<unk> ‚± </unk>
-1.04824	<unk> ‚± ‚±
-0.738251	<unk> ‚± ‚¿
-1.04773	<unk> ‚± ‚ë
-0.42917	<unk> ‚« </unk>
-0.741397	<unk> ‚« ‚Î
-0.59514	<unk> ‚« ‚ä
-0.479379	‚Æ ‚« ‚Î
-0.251068	‚ä ‚¹ </unk>
-0.591258	<unk> ‚ä ‚¹
-0.380788	‚« ‚ä </unk>
-0.682054	‚« ‚ä ‚µ
-0.125679	‚Ü ‚è </unk>
-0.211897	‚È ‚è </unk>
-0.211897	<unk> ‚è </unk>
-0.605329	‚Û ‚è ‚ñ
-0.224504	‚¿ ‚ç </unk>
-0.224504	<unk> ‚ç </unk>
-0.145386	<unk> ‚í </unk>
-0.957741	<unk> ‚í ‚Û
-0.199515	‚¦ ‚í </unk>
-0.356988	‚Ü ‚¦ </unk>
-0.662624	‚Ü ‚¦ ‚í
-0.522576	‚Ç ‚Ü </unk>
-0.356738	‚Ç ‚Ü ‚è
-0.39568	‚È ‚Ü ‚¦
-0.36936	<unk> ‚Ü </unk>
-0.700247	<unk> ‚Ü ‚·
-0.45067	<unk> ‚È ‚Ü
-0.728565	<unk> ‚È ‚è
-0.251068	‚Î ‚µ‚å </unk>
-0.327372	<unk> ‚Î </unk>
-0.682491	<unk> ‚Î ‚µ‚å
-0.185595	‚« ‚Î </unk>
-0.251068	<unk> ‚² </unk>
-0.184538	<unk> ‚Í </unk>
-0.2697	<unk> ‚«‚å </unk>
-0.74462	<unk> ‚«‚å ‚¢
-0.626903	‚® ‚· ‚Ø
-0.189852	‚Ü ‚· </unk>
-0.159609	‚Å ‚· </unk>
-0.127175	<unk> ‚· </unk>
-0.166217	‚× ‚â </unk>
-0.396185	‚½ ‚× ‚â
-0.396185	<unk> ‚× ‚â
-0.187462	<unk> ‚Ô </unk>
-0.251068	<unk> ‚Â </unk>
-0.251068	‚· ‚Ø </unk>
-0.539207	‚ñ ‚® ‚·
-0.190894	‚¢ ‚ñ </unk>
-0.850881	‚¢ ‚ñ ‚®
-0.23228	‚¯ ‚ñ </unk>
-0.23228	‚è ‚ñ </unk>
-0.251068	‚Ý ‚Ä </unk>
-0.531749	‚í ‚Û ‚è
-0.251068	<unk> ‚Ï </unk>
-0.548937	<unk> ‚Ý ‚Ä
-0.570388	‚¢ ‚Ç </unk>
-0.282839	‚¢ ‚Ç ‚Ü
-0.548078	‚Ú ‚Æ ‚«
-0.548937	‚ë ‚Ú ‚Æ
-0.146141	<unk> ‚¬‚ã </unk>
-0.66129	<unk> ‚¯ ‚¢
-0.661734	<unk> ‚¯ ‚ñ
-0.357734	<unk> ‚¢ ‚Ç
-0.499875	<unk> ‚¢ ‚ñ
-0.642618	‚¯ ‚¢ ‚¶‚å
-0.577021	‚«‚å ‚¢ ‚ñ
-0.365643	‚¾ ‚¢ ‚Ç
-0.64199	‚ë ‚¢ ‚½
-0.251068	‚¢ ‚¶‚å </unk>
-0.31429	<unk> ‚Å ‚·
-0.890834	<unk> ‚¾ ‚¢
-0.248482	<unk> ‚¾ ‚æ
-0.130592	‚¾ ‚æ </unk>
-0.304312	‚± ‚ë </unk>
-0.680746	<unk> ‚ë ‚¢
-0.682491	<unk> ‚ë ‚Ú
