[unifb]
-0.32401

\data\
ngram 1=46
ngram 2=110
ngram 3=96

\1-grams:
-0.419636	</unk>
-1.85487	‚±	-0.309235
-1.74799	‚Ì	-0.0326411
-1.72504	‚Î	-0.0393382
-1.95626	‚µ‚å	-0.0216079
-1.91977	‚È	-0.0326411
-1.88611	‚Ü	-0.119472
-1.91977	‚¦	-0.0326411
-1.91977	‚í	-0.0393382
-1.91977	‚«‚å	-0.0326411
-1.91977	‚ä	-0.187098
-1.95626	‚¹	-0.0216079
-1.95626	‚¬	-0.0216079
-1.95626	‚²	-0.0216079
-1.91977	‚ª	-0.0216079
-1.95626	‚É	-0.0393382
-1.91977	‚«	-0.0974666
-1.57496	‚µ	-0.0393382
-1.88611	‚½	-0.245599
-1.91977	‚¿	-0.0216079
-1.95626	‚ç	-0.0326411
-1.72504	‚è	-0.0470655
-1.59107	‚·	-0.278745
-1.91977	‚¯	-0.211118
-1.40614	‚¢	-0.167513
-1.95626	‚¶‚å	-0.0326411
-1.95626	‚Å	-0.0326411
-1.91977	‚¤	-0.148946
-1.91977	‚¾	-0.0393382
-1.91977	‚æ	-0.148946
-1.72504	‚ë	-0.0393382
-1.95626	‚Ú	-0.0216079
-1.95626	‚Æ	-0.0216079
-1.91977	‚¨	-0.0326411
-1.95626	‚Ç	-0.0326411
-1.91977	‚Ý	-0.0393382
-1.95626	‚Ä	-0.0216079
-1.91977	‚ñ	-0.0438362
-1.95626	‚®	-0.0216079
-1.95626	‚Ø	-0.0216079
-1.95626	‚¸	-0.0216079
-1.91977	‚Á	-0.0326411
-1.91977	‚Û	-0.148946
-1.95626	‚×	-0.0216079
-1.95626	‚â	-0.0216079
-1.95626	‚ð	-0.0216079

\2-grams:
-0.343434	‚² </unk>
-0.343434	‚ª </unk>
-0.353978	‚É </unk>
-1.08747	‚É ‚È	-0.0544358
-0.406335	‚« </unk>
-1.31026	‚« ‚Î	-0.0544358
-0.845346	‚« ‚ä	-0.10625
-1.35101	‚« ‚¨	-0.0544358
-1.08345	‚µ ‚½	-0.0544358
-1.06004	‚µ ‚ë	-0.266222
-1.09152	‚µ ‚¸	-0.0544358
-0.280039	‚½ </unk>
-0.759455	‚½ ‚¾	-0.173113
-0.894277	‚¿ ‚ç	-0.0858024
-0.308417	‚ç </unk>
-0.309815	‚è </unk>
-1.209	‚è ‚Ü	-0.0544358
-0.343434	‚¬ </unk>
-0.343434	‚¹ </unk>
-1.07979	<unk> ‚±	-0.189679
-1.9082	<unk> ‚Ì	-0.0544358
-1.8945	<unk> ‚Î	-0.0544358
-2.01897	<unk> ‚µ‚å	-0.0544358
-2.00135	<unk> ‚¦	-0.0544358
-1.62987	<unk> ‚í	-0.0858024
-2.00135	<unk> ‚«‚å	-0.0544358
-1.62987	<unk> ‚ä	-0.0858024
-2.01897	<unk> ‚¬	-0.0544358
-2.01897	<unk> ‚²	-0.0544358
-1.82326	<unk> ‚ª	-0.173113
-1.30091	<unk> ‚É	-0.182879
-1.04167	<unk> ‚«	-0.189679
-1.58446	<unk> ‚µ	-0.266222
-1.42799	<unk> ‚½	-0.10625
-1.82326	<unk> ‚¿	-0.173113
-1.53744	<unk> ‚·	-0.0858024
-2.00135	<unk> ‚¯	-0.0544358
-1.02897	<unk> ‚¢	-0.189679
-1.63727	<unk> ‚Å	-0.0858024
-2.00135	<unk> ‚¤	-0.0544358
-1.62987	<unk> ‚¾	-0.0858024
-2.00135	<unk> ‚æ	-0.0544358
-1.7495	<unk> ‚ë	-0.0858024
-2.01897	<unk> ‚Ú	-0.0544358
-2.01897	<unk> ‚Æ	-0.0544358
-1.54511	<unk> ‚Ý	-0.10625
-2.01897	<unk> ‚Ä	-0.0544358
-2.00135	<unk> ‚ñ	-0.0544358
-2.01897	<unk> ‚®	-0.0544358
-2.01897	<unk> ‚Ø	-0.0544358
-1.82326	<unk> ‚Á	-0.0858024
-1.82326	<unk> ‚Û	-0.0858024
-2.01897	<unk> ‚×	-0.0544358
-2.01897	<unk> ‚ð	-0.0544358
-0.171643	‚± </unk>
-1.40479	‚± ‚±	-0.0858024
-1.38715	‚± ‚Ì	-0.0544358
-0.288234	‚í </unk>
-0.39585	‚¦ </unk>
-1.00213	‚¦ ‚í	-0.0544358
-0.50811	‚Ü </unk>
-1.16409	‚Ü ‚¦	-0.0544358
-0.629385	‚Ü ‚è	-0.0858024
-0.998674	‚È ‚Ü	-0.0544358
-0.978415	‚È ‚è	-0.0544358
-0.343434	‚µ‚å </unk>
-0.353978	‚Î </unk>
-1.0307	‚Î ‚µ	-0.0544358
-0.978415	‚Ì ‚Î	-0.0544358
-1.00213	‚Ì ‚È	-0.0544358
-1.23326	‚ä ‚¹	-0.0544358
-1.17244	‚ä ‚µ	-0.0544358
-0.471781	‚ä ‚¯	-0.10625
-0.39585	‚«‚å </unk>
-0.914165	‚«‚å ‚¢	-0.0544358
-0.152465	‚· </unk>
-0.565588	‚¯ </unk>
-0.391537	‚¯ ‚¢	-0.266222
-0.343434	‚â </unk>
-0.894277	‚× ‚â	-0.0544358
-0.466751	‚Û ‚è	-0.0858024
-0.39585	‚Á </unk>
-1.00213	‚Á ‚¤	-0.0544358
-0.343434	‚¸ </unk>
-0.852553	‚Ø ‚·	-0.0544358
-0.852553	‚® ‚·	-0.0544358
-0.275094	‚ñ </unk>
-0.816919	‚Ä ‚¢	-0.0544358
-0.343434	‚ð </unk>
-0.288234	‚Ý </unk>
-0.995243	‚Ç ‚±	-0.0544358
-0.998674	‚Ç ‚Ü	-0.0858024
-0.39585	‚¨ </unk>
-1.00213	‚¨ ‚«‚å	-0.0544358
-0.493363	‚¢ </unk>
-1.44951	‚¢ ‚½	-0.0858024
-1.46262	‚¢ ‚¶‚å	-0.178912
-0.957327	‚¢ ‚Ç	-0.178912
-0.728826	‚¢ ‚ñ	-0.10625
-0.308417	‚¶‚å </unk>
-0.39585	‚Å </unk>
-0.955926	‚Å ‚·	-0.0544358
-0.472602	‚¤ ‚«	-0.0858024
-0.353978	‚¾ </unk>
-1.08747	‚¾ ‚æ	-0.0544358
-0.233466	‚æ </unk>
-0.353978	‚ë </unk>
-0.986852	‚ë ‚¢	-0.178912
-0.343434	‚Ú </unk>
-0.891375	‚Æ ‚¨	-0.0544358

\3-grams:
-0.278539	<unk> ‚² </unk>
-0.2323	<unk> ‚ª </unk>
-0.250831	<unk> ‚É </unk>
-0.840895	<unk> ‚É ‚È
-0.388603	<unk> ‚« </unk>
-1.01748	<unk> ‚« ‚Î
-0.659504	<unk> ‚« ‚ä
-1.02732	<unk> ‚« ‚¨
-0.379302	‚¤ ‚« </unk>
-0.645156	‚¤ ‚« ‚ä
-0.414697	<unk> ‚µ ‚ë
-0.690579	‚ä ‚µ ‚¸
-0.687786	‚Î ‚µ ‚½
-0.284862	‚¢ ‚½ </unk>
-0.601542	‚¢ ‚½ ‚¾
-0.244853	<unk> ‚½ </unk>
-0.65029	<unk> ‚½ ‚¾
-0.230389	‚µ ‚½ </unk>
-0.470217	<unk> ‚¿ ‚ç
-0.214268	‚¿ ‚ç </unk>
-0.21513	‚Û ‚è </unk>
-0.21513	‚Ü ‚è </unk>
-0.727528	‚È ‚è ‚Ü
-0.278539	<unk> ‚¬ </unk>
-0.278539	‚ä ‚¹ </unk>
-0.208474	<unk> ‚± </unk>
-0.774015	<unk> ‚± ‚±
-1.03548	<unk> ‚± ‚Ì
-0.124973	‚± ‚± </unk>
-0.144365	‚Ç ‚± </unk>
-0.236708	‚¦ ‚í </unk>
-0.201712	<unk> ‚í </unk>
-0.657702	‚Ü ‚¦ ‚í
-0.317032	<unk> ‚¦ </unk>
-0.71421	‚È ‚Ü ‚¦
-0.395122	‚è ‚Ü </unk>
-0.383148	‚Ç ‚Ü ‚è
-0.656343	‚Ì ‚È ‚Ü
-0.648251	‚É ‚È ‚è
-0.278539	<unk> ‚µ‚å </unk>
-0.668675	‚« ‚Î ‚µ
-0.286381	‚Ì ‚Î </unk>
-0.286381	<unk> ‚Î </unk>
-0.648251	‚± ‚Ì ‚Î
-0.657702	<unk> ‚Ì ‚È
-0.823117	‚« ‚ä ‚µ
-0.356354	‚« ‚ä ‚¯
-0.791051	<unk> ‚ä ‚¹
-0.42539	<unk> ‚ä ‚¯
-0.317032	<unk> ‚«‚å </unk>
-0.621073	‚¨ ‚«‚å ‚¢
-0.111691	<unk> ‚· </unk>
-0.1287	‚® ‚· </unk>
-0.1287	‚Å ‚· </unk>
-0.1287	‚Ø ‚· </unk>
-0.432651	<unk> ‚¯ </unk>
-0.228169	‚ä ‚¯ ‚¢
-0.278539	‚× ‚â </unk>
-0.612187	<unk> ‚× ‚â
-0.304926	<unk> ‚Û ‚è
-0.371731	<unk> ‚Á </unk>
-0.713895	<unk> ‚Á ‚¤
-0.278539	‚µ ‚¸ </unk>
-0.592812	<unk> ‚Ø ‚·
-0.592812	<unk> ‚® ‚·
-0.16928	‚¢ ‚ñ </unk>
-0.226563	<unk> ‚ñ </unk>
-0.575473	<unk> ‚Ä ‚¢
-0.278539	<unk> ‚ð </unk>
-0.176315	<unk> ‚Ý </unk>
-0.7623	‚¢ ‚Ç ‚±
-0.547604	‚¢ ‚Ç ‚Ü
-0.317032	‚Æ ‚¨ </unk>
-0.657702	‚« ‚¨ ‚«‚å
-0.456674	‚¯ ‚¢ ‚¶‚å
-0.520438	<unk> ‚¢ </unk>
-0.56048	<unk> ‚¢ ‚Ç
-0.627613	<unk> ‚¢ ‚ñ
-0.529475	‚Ä ‚¢ ‚ñ
-0.385218	‚«‚å ‚¢ </unk>
-0.491266	‚ë ‚¢ </unk>
-0.62108	‚ë ‚¢ ‚½
-0.18454	‚¢ ‚¶‚å </unk>
-0.371731	<unk> ‚Å </unk>
-0.695078	<unk> ‚Å ‚·
-0.37109	<unk> ‚¤ ‚«
-0.37109	‚Á ‚¤ ‚«
-0.340995	<unk> ‚¾ </unk>
-0.74558	<unk> ‚¾ ‚æ
-0.238457	‚½ ‚¾ </unk>
-0.193973	<unk> ‚æ </unk>
-0.193973	‚¾ ‚æ </unk>
-0.241795	<unk> ‚ë </unk>
-0.402708	‚µ ‚ë ‚¢
-0.278539	<unk> ‚Ú </unk>
-0.610872	<unk> ‚Æ ‚¨
