[unifb]
-0.242944

\data\
ngram 1=34
ngram 2=64
ngram 3=50

\1-grams:
-0.47362	</unk>
-1.74332	‚²	-0.0204494
-1.74332	‚Ì	-0.0204494
-1.70363	‚Î	-0.031368
-1.74332	‚µ	-0.031368
-1.74332	‚É‚á	-0.0204494
-1.70363	‚È	-0.141078
-1.66726	‚Ü	-0.0381615
-1.74332	‚¦	-0.0204494
-1.66726	‚í	-0.0427968
-1.66726	‚«‚å	-0.0381615
-1.74332	‚¨	-0.0204494
-1.47437	‚ä	-0.0427968
-1.70363	‚¹	-0.141078
-1.49734	‚«	-0.115596
-1.74332	‚±	-0.115596
-1.70363	‚ª	-0.031368
-1.74332	‚É	-0.031368
-1.74332	‚½	-0.0204494
-1.74332	‚¿	-0.0204494
-1.74332	‚ç	-0.0204494
-1.74332	‚¬‚å	-0.0204494
-1.70363	‚¾	-0.031368
-1.74332	‚è	-0.0204494
-1.70363	‚·	-0.031368
-1.70363	‚¬‚ã	-0.0204494
-1.74332	‚¯	-0.0204494
-1.74332	‚¢	-0.0204494
-1.74332	‚¶‚å	-0.0204494
-1.74332	‚Å	-0.0204494
-1.74332	‚æ	-0.0204494
-1.74332	‚ë	-0.0204494
-1.74332	‚Ú	-0.0204494
-1.74332	‚Æ	-0.0204494

\2-grams:
-0.409186	‚ç </unk>
-1.01082	‚¿ ‚ç	-0.0366579
-0.447497	‚É </unk>
-1.03952	‚É ‚«	-0.0366579
-0.447497	‚ª </unk>
-1.10078	‚ª ‚¬‚å	-0.0366579
-0.318786	‚± </unk>
-1.2322	‚± ‚È	-0.0366579
-0.360955	‚« </unk>
-1.2322	‚« ‚Î	-0.0366579
-1.22312	‚« ‚Ü	-0.0366579
-0.520489	‚¹ ‚«	-0.059012
-0.342957	‚ä </unk>
-1.01082	‚¯ ‚¢	-0.0366579
-1.17067	‚«‚å ‚¨	-0.0366579
-0.876674	‚«‚å ‚ä	-0.059012
-0.376347	‚· </unk>
-0.409186	‚¬‚ã </unk>
-0.409186	‚Ì </unk>
-1.0038	‚É‚á ‚È	-0.0366579
-0.409186	‚¶‚å </unk>
-0.409186	‚½ </unk>
-0.409186	‚² </unk>
-0.996896	‚è ‚Ü	-0.0366579
-1.01082	‚ë ‚Ú	-0.0366579
-0.996896	‚¦ ‚í	-0.059012
-0.409186	‚¬‚å </unk>
-1.01082	‚Ú ‚Æ	-0.0366579
-0.387668	‚í </unk>
-1.20687	‚í ‚í	-0.0366579
-0.95166	‚¨ ‚ä	-0.0366579
-0.957876	‚Æ ‚«	-0.0366579
-0.376347	‚Î </unk>
-0.409186	‚¢ </unk>
-0.376347	‚µ </unk>
-1.0038	‚Å ‚·	-0.0366579
-0.531322	‚È ‚Ü	-0.141887
-0.409186	‚æ </unk>
-0.411296	‚Ü </unk>
-1.17067	‚Ü ‚¦	-0.141887
-0.447497	‚¾ </unk>
-1.10078	‚¾ ‚è	-0.0366579
-1.71932	<unk> ‚²	-0.0366579
-1.71932	<unk> ‚Ì	-0.0366579
-1.69594	<unk> ‚Î	-0.0366579
-1.33375	<unk> ‚µ	-0.059012
-1.71932	<unk> ‚É‚á	-0.0366579
-1.67376	<unk> ‚í	-0.0366579
-1.42821	<unk> ‚«‚å	-0.074086
-1.54451	<unk> ‚ä	-0.0366579
-1.54982	<unk> ‚¹	-0.059012
-0.892	<unk> ‚±	-0.145807
-1.54982	<unk> ‚ª	-0.059012
-1.33375	<unk> ‚É	-0.059012
-1.71932	<unk> ‚½	-0.0366579
-1.71932	<unk> ‚¿	-0.0366579
-1.54982	<unk> ‚¾	-0.059012
-1.69594	<unk> ‚·	-0.0366579
-1.54982	<unk> ‚¬‚ã	-0.141887
-1.71932	<unk> ‚¯	-0.0366579
-1.71932	<unk> ‚¶‚å	-0.0366579
-1.71932	<unk> ‚Å	-0.0366579
-1.71932	<unk> ‚æ	-0.0366579
-1.71932	<unk> ‚ë	-0.0366579

\3-grams:
-0.27984	‚¿ ‚ç </unk>
-0.526476	<unk> ‚¿ ‚ç
-0.389686	<unk> ‚É </unk>
-0.626387	<unk> ‚É ‚«
-0.389686	<unk> ‚ª </unk>
-0.640859	<unk> ‚ª ‚¬‚å
-0.1773	<unk> ‚± </unk>
-0.865275	<unk> ‚± ‚È
-0.196595	‚¹ ‚« </unk>
-0.571594	‚É ‚« ‚Ü
-0.573157	‚Æ ‚« ‚Î
-0.259989	<unk> ‚¹ ‚«
-0.188552	‚«‚å ‚ä </unk>
-0.240345	<unk> ‚ä </unk>
-0.240345	‚¨ ‚ä </unk>
-0.526476	<unk> ‚¯ ‚¢
-0.731533	<unk> ‚«‚å ‚¨
-0.431916	<unk> ‚«‚å ‚ä
-0.260561	‚Å ‚· </unk>
-0.260561	<unk> ‚· </unk>
-0.207924	<unk> ‚¬‚ã </unk>
-0.27984	<unk> ‚Ì </unk>
-0.524675	<unk> ‚É‚á ‚È
-0.27984	<unk> ‚¶‚å </unk>
-0.27984	<unk> ‚½ </unk>
-0.27984	<unk> ‚² </unk>
-0.522881	‚¾ ‚è ‚Ü
-0.526476	<unk> ‚ë ‚Ú
-0.357206	‚Ü ‚¦ ‚í
-0.27984	‚ª ‚¬‚å </unk>
-0.526476	‚ë ‚Ú ‚Æ
-0.267275	<unk> ‚í </unk>
-0.354899	‚¦ ‚í </unk>
-0.662441	‚¦ ‚í ‚í
-0.267275	‚í ‚í </unk>
-0.510598	‚«‚å ‚¨ ‚ä
-0.512341	‚Ú ‚Æ ‚«
-0.260561	<unk> ‚Î </unk>
-0.260561	‚« ‚Î </unk>
-0.27984	‚¯ ‚¢ </unk>
-0.203328	<unk> ‚µ </unk>
-0.524675	<unk> ‚Å ‚·
-0.346186	‚É‚á ‚È ‚Ü
-0.346186	‚± ‚È ‚Ü
-0.27984	<unk> ‚æ </unk>
-0.378174	‚È ‚Ü ‚¦
-0.281058	‚« ‚Ü </unk>
-0.281058	‚è ‚Ü </unk>
-0.389686	<unk> ‚¾ </unk>
-0.640859	<unk> ‚¾ ‚è
