[unifb]
-0.230069

\data\
ngram 1=43
ngram 2=90
ngram 3=70

\1-grams:
-0.445966	</unk>
-1.83042	‚±	-0.0264486
-1.85144	‚Ì	-0.0148297
-1.83042	‚Î	-0.0209713
-1.85144	‚µ‚å	-0.0148297
-1.79121	‚í	-0.0209713
-1.79121	‚È	-0.223938
-1.81037	‚Ü	-0.0913542
-1.83042	‚«‚å	-0.0243303
-1.85144	‚ä	-0.0148297
-1.85144	‚¹	-0.0148297
-1.81037	‚«	-0.0243303
-1.85144	‚Ó‚§	-0.0148297
-1.85144	‚ª	-0.0148297
-1.81037	‚É	-0.0209713
-1.83042	‚µ	-0.0209713
-1.85144	‚½	-0.0148297
-1.81037	‚¿	-0.0243303
-1.81037	‚ç	-0.0243303
-1.81037	‚è	-0.0243303
-1.47993	‚·	-0.188393
-1.83042	‚¬‚ã	-0.0209713
-1.85144	‚¯	-0.0148297
-1.85144	‚¢	-0.0243303
-1.85144	‚¶‚å	-0.0148297
-1.83042	‚Å	-0.0209713
-1.85144	‚Ö	-0.0148297
-1.85144	‚¾	-0.0148297
-1.85144	‚æ	-0.0148297
-1.85144	‚ë	-0.0209713
-1.85144	‚Ú	-0.0148297
-1.85144	‚Æ	-0.0148297
-1.85144	‚Ç	-0.0148297
-1.85144	‚Ý	-0.0148297
-1.85144	‚Å‚¡	-0.0148297
-1.83042	‚ñ	-0.0209713
-1.83042	‚®	-0.168417
-1.85144	‚Ø	-0.0148297
-1.85144	‚Ñ	-0.0148297
-1.85144	‚¨	-0.0148297
-1.85144	‚¤	-0.0148297
-1.85144	‚°	-0.0148297
-1.85144	‚Â	-0.0148297

\2-grams:
-0.426469	‚É </unk>
-1.14117	‚É ‚È	-0.0343052
-1.15244	‚µ ‚½	-0.0343052
-1.15244	‚µ ‚Â	-0.0343052
-0.396327	‚è </unk>
-1.22078	‚è ‚Ü	-0.0343052
-0.246192	‚· </unk>
-1.37041	‚· ‚Ø	-0.151779
-0.426469	‚¬‚ã </unk>
-1.14865	‚¬‚ã ‚µ	-0.0343052
-0.390538	‚ª </unk>
-1.04766	‚Ó‚§ ‚±	-0.0343052
-0.396327	‚ç </unk>
-1.22513	‚ç ‚Å	-0.0343052
-0.396327	‚« </unk>
-1.22513	‚« ‚Î	-0.0343052
-1.04455	‚¹ ‚«	-0.0343052
-0.450212	‚¿ </unk>
-0.970631	‚¿ ‚ç	-0.0534997
-1.38144	‚Ü ‚í	-0.0343052
-1.39222	‚Ü ‚µ	-0.0343052
-1.3868	‚Ü ‚è	-0.0343052
-0.755539	‚Ü ‚·	-0.151779
-1.39771	‚Ü ‚Ö	-0.0343052
-0.390538	‚½ </unk>
-0.239812	‚È </unk>
-1.31339	‚È ‚è	-0.0343052
-0.363995	‚í </unk>
-0.390538	‚µ‚å </unk>
-0.363995	‚Î </unk>
-0.390538	‚Ì </unk>
-0.377007	‚± </unk>
-1.28103	‚± ‚¿	-0.0343052
-1.28265	<unk> ‚±	-0.0657767
-1.87198	<unk> ‚Ì	-0.0343052
-1.85818	<unk> ‚Î	-0.0343052
-1.87198	<unk> ‚µ‚å	-0.0343052
-1.61809	<unk> ‚í	-0.244147
-1.61809	<unk> ‚È	-0.0657767
-1.14421	<unk> ‚Ü	-0.0743079
-1.42372	<unk> ‚«‚å	-0.0657767
-1.87198	<unk> ‚ä	-0.0343052
-1.87198	<unk> ‚¹	-0.0343052
-1.8448	<unk> ‚«	-0.0343052
-1.87198	<unk> ‚Ó‚§	-0.0343052
-1.87198	<unk> ‚ª	-0.0343052
-1.62597	<unk> ‚É	-0.145868
-1.8448	<unk> ‚¿	-0.0343052
-1.8448	<unk> ‚ç	-0.0343052
-1.8448	<unk> ‚è	-0.0343052
-1.30902	<unk> ‚·	-0.145868
-1.73179	<unk> ‚¬‚ã	-0.0534997
-1.87198	<unk> ‚¯	-0.0343052
-1.28627	<unk> ‚¢	-0.0657767
-1.85818	<unk> ‚Å	-0.0343052
-1.87198	<unk> ‚¾	-0.0343052
-1.48707	<unk> ‚ë	-0.0534997
-1.87198	<unk> ‚Ú	-0.0343052
-1.87198	<unk> ‚Ý	-0.0343052
-1.85818	<unk> ‚®	-0.0343052
-1.87198	<unk> ‚Ñ	-0.0343052
-1.87198	<unk> ‚¨	-0.0343052
-1.87198	<unk> ‚¤	-0.0343052
-1.87198	<unk> ‚°	-0.0343052
-0.348396	‚«‚å </unk>
-0.390538	‚Â </unk>
-0.390538	‚° </unk>
-1.04766	‚Ñ ‚ñ	-0.0343052
-0.97243	‚Ø ‚·	-0.151779
-0.497166	‚® ‚·	-0.151779
-0.426469	‚ñ </unk>
-1.14865	‚ñ ‚®	-0.0343052
-1.04766	‚Å‚¡ ‚ñ	-0.0343052
-1.0508	‚Ý ‚Å‚¡	-0.0343052
-1.04455	‚¨ ‚¿	-0.0343052
-0.390538	‚¤ </unk>
-1.04455	‚Ç ‚Ü	-0.0343052
-0.390538	‚ä </unk>
-1.04455	‚Æ ‚«	-0.0343052
-1.0508	‚Ú ‚Æ	-0.0343052
-0.363995	‚ë </unk>
-0.390538	‚æ </unk>
-0.390538	‚¯ </unk>
-0.450212	‚¢ </unk>
-1.22953	‚¢ ‚¶‚å	-0.0343052
-1.22953	‚¢ ‚Ç	-0.0343052
-0.390538	‚¶‚å </unk>
-0.363995	‚Å </unk>
-0.390538	‚Ö </unk>
-1.0508	‚¾ ‚æ	-0.0343052

\3-grams:
-0.31078	<unk> ‚É </unk>
-0.804085	<unk> ‚É ‚È
-0.672112	‚¬‚ã ‚µ ‚Â
-0.672112	‚Ü ‚µ ‚½
-0.690203	‚È ‚è ‚Ü
-0.307025	‚Ü ‚è </unk>
-0.307025	<unk> ‚è </unk>
-0.159637	‚Ø ‚· </unk>
-0.159637	‚Ü ‚· </unk>
-0.140848	<unk> ‚· </unk>
-0.495605	‚® ‚· ‚Ø
-0.390602	<unk> ‚¬‚ã </unk>
-0.741592	<unk> ‚¬‚ã ‚µ
-0.303026	<unk> ‚ª </unk>
-0.640117	<unk> ‚Ó‚§ ‚±
-0.691285	<unk> ‚ç ‚Å
-0.255424	‚¿ ‚ç </unk>
-0.691285	‚Æ ‚« ‚Î
-0.307025	<unk> ‚« </unk>
-0.307025	‚¹ ‚« </unk>
-0.639082	<unk> ‚¹ ‚«
-0.613051	‚± ‚¿ ‚ç
-0.34345	<unk> ‚¿ </unk>
-0.613051	‚¨ ‚¿ ‚ç
-0.911248	<unk> ‚Ü ‚í
-0.913456	<unk> ‚Ü ‚µ
-0.689223	<unk> ‚Ü ‚·
-0.914565	<unk> ‚Ü ‚Ö
-0.726082	‚Ç ‚Ü ‚è
-0.52024	‚è ‚Ü ‚·
-0.303026	‚µ ‚½ </unk>
-0.144677	<unk> ‚È </unk>
-0.711534	‚É ‚È ‚è
-0.185468	<unk> ‚í </unk>
-0.284478	‚Ü ‚í </unk>
-0.303026	<unk> ‚µ‚å </unk>
-0.284478	‚« ‚Î </unk>
-0.284478	<unk> ‚Î </unk>
-0.303026	<unk> ‚Ì </unk>
-0.299473	<unk> ‚± </unk>
-0.836485	<unk> ‚± ‚¿
-0.293613	‚Ó‚§ ‚± </unk>
-0.19953	<unk> ‚«‚å </unk>
-0.303026	‚µ ‚Â </unk>
-0.303026	<unk> ‚° </unk>
-0.640117	<unk> ‚Ñ ‚ñ
-0.437834	‚· ‚Ø ‚·
-0.373973	‚ñ ‚® ‚·
-0.373973	<unk> ‚® ‚·
-0.671047	‚Å‚¡ ‚ñ ‚®
-0.327581	‚Ñ ‚ñ </unk>
-0.640117	‚Ý ‚Å‚¡ ‚ñ
-0.641154	<unk> ‚Ý ‚Å‚¡
-0.639082	<unk> ‚¨ ‚¿
-0.303026	<unk> ‚¤ </unk>
-0.639082	‚¢ ‚Ç ‚Ü
-0.303026	<unk> ‚ä </unk>
-0.639082	‚Ú ‚Æ ‚«
-0.641154	<unk> ‚Ú ‚Æ
-0.237761	<unk> ‚ë </unk>
-0.303026	‚¾ ‚æ </unk>
-0.303026	<unk> ‚¯ </unk>
-0.45897	<unk> ‚¢ </unk>
-0.823562	<unk> ‚¢ ‚¶‚å
-0.823562	<unk> ‚¢ ‚Ç
-0.303026	‚¢ ‚¶‚å </unk>
-0.284478	‚ç ‚Å </unk>
-0.284478	<unk> ‚Å </unk>
-0.303026	‚Ü ‚Ö </unk>
-0.641154	<unk> ‚¾ ‚æ
