[unifb]
-0.256169

\data\
ngram 1=44
ngram 2=87
ngram 3=66

\1-grams:
-0.379001	</unk>
-1.89233	‚²	-0.011449
-1.86011	‚Ì	-0.136794
-1.87592	‚Î	-0.0177474
-1.87592	‚µ‚å	-0.0156016
-1.87592	‚È	-0.0156016
-1.87592	‚Ü	-0.0199416
-1.89233	‚¦	-0.011449
-1.89233	‚í	-0.0967237
-1.89233	‚«‚å	-0.011449
-1.89233	‚ä	-0.011449
-1.89233	‚¹	-0.011449
-1.64205	‚«	-0.019058
-1.89233	‚Ó‚§	-0.011449
-1.87592	‚±	-0.0156016
-1.87592	‚ª	-0.395982
-1.89233	‚Ð	-0.011449
-1.89233	‚É	-0.011449
-1.87592	‚µ	-0.0156016
-1.89233	‚½	-0.011449
-1.89233	‚¿	-0.0156016
-1.87592	‚ç	-0.0156016
-1.87592	‚è	-0.0156016
-1.86011	‚·	-0.019058
-1.87592	‚¬‚ã	-0.0156016
-1.89233	‚¯	-0.011449
-1.87592	‚¢	-0.019058
-1.89233	‚¶‚å	-0.011449
-1.87592	‚Å	-0.0156016
-1.89233	‚¾	-0.011449
-1.89233	‚æ	-0.011449
-1.87592	‚Á	-0.0156016
-1.89233	‚ë	-0.011449
-1.89233	‚Ú	-0.011449
-1.89233	‚Æ	-0.011449
-1.89233	‚¨	-0.011449
-1.89233	‚Ç	-0.011449
-1.87592	‚Ý	-0.0156016
-1.89233	‚Å‚¡	-0.011449
-1.89233	‚ñ	-0.011449
-1.89233	‚®	-0.011449
-1.89233	‚Ø	-0.011449
-1.89233	‚°	-0.011449
-1.89233	‚Â	-0.011449

\2-grams:
-0.372171	‚± </unk>
-1.28334	‚± ‚¿	-0.0364933
-0.209915	‚ª </unk>
-0.351838	‚É </unk>
-1.28334	‚µ ‚½	-0.0205986
-1.28334	‚µ ‚Â	-0.0205986
-1.22905	‚Ó‚§ ‚±	-0.0205986
-0.336941	‚« </unk>
-1.36068	‚« ‚Î	-0.0205986
-0.332781	‚ç </unk>
-0.351838	‚¹ </unk>
-1.23253	‚ä ‚¹	-0.0205986
-1.89455	<unk> ‚²	-0.0205986
-1.72434	<unk> ‚Ì	-0.0364933
-1.88523	<unk> ‚µ‚å	-0.0205986
-1.73076	<unk> ‚È	-0.0364933
-1.1746	<unk> ‚Ü	-0.0594415
-1.89455	<unk> ‚¦	-0.0205986
-1.07275	<unk> ‚í	-0.0680008
-1.89455	<unk> ‚«‚å	-0.0205986
-1.89455	<unk> ‚ä	-0.0205986
-1.53055	<unk> ‚«	-0.0491382
-1.89455	<unk> ‚Ó‚§	-0.0205986
-1.50889	<unk> ‚±	-0.0811125
-1.26358	<unk> ‚ª	-0.0594415
-1.89455	<unk> ‚Ð	-0.0205986
-1.89455	<unk> ‚É	-0.0205986
-1.88523	<unk> ‚ç	-0.0205986
-1.50503	<unk> ‚·	-0.0364933
-1.88523	<unk> ‚¬‚ã	-0.0205986
-1.89455	<unk> ‚¯	-0.0205986
-1.26358	<unk> ‚¢	-0.0594415
-1.73076	<unk> ‚Å	-0.0364933
-1.89455	<unk> ‚¾	-0.0205986
-1.73076	<unk> ‚Á	-0.0364933
-1.89455	<unk> ‚ë	-0.0205986
-1.89455	<unk> ‚Ú	-0.0205986
-1.89455	<unk> ‚¨	-0.0205986
-1.73076	<unk> ‚Ý	-0.0364933
-1.89455	<unk> ‚ñ	-0.0205986
-0.372171	‚¿ </unk>
-1.27958	‚¿ ‚ç	-0.0205986
-0.351838	‚½ </unk>
-1.27958	‚È ‚Ü	-0.0205986
-1.27958	‚È ‚è	-0.0205986
-0.351838	‚¦ </unk>
-0.381695	‚Ü </unk>
-1.39399	‚Ü ‚µ	-0.0205986
-1.39399	‚Ü ‚è	-0.0205986
-1.38948	‚Ü ‚·	-0.0205986
-0.372171	‚µ‚å </unk>
-1.27584	‚µ‚å ‚Ì	-0.0205986
-0.352177	‚Î </unk>
-1.32291	‚Î ‚µ‚å	-0.0205986
-0.425275	‚Ì </unk>
-0.791606	‚Ì ‚Î	-0.0364933
-0.351838	‚² </unk>
-0.267768	‚í </unk>
-0.351838	‚«‚å </unk>
-0.351838	‚Æ </unk>
-1.23253	‚Ú ‚Æ	-0.0205986
-1.2256	‚Ø ‚·	-0.0205986
-0.351838	‚® </unk>
-0.332781	‚Ý </unk>
-0.351838	‚Ç </unk>
-0.351838	‚¨ </unk>
-0.351838	‚Å‚¡ </unk>
-1.16706	‚Ð ‚«	-0.0205986
-1.23253	‚ñ ‚®	-0.0205986
-1.22905	‚° ‚¬‚ã	-0.0205986
-0.351838	‚Â </unk>
-0.351838	‚ë </unk>
-0.332781	‚Á </unk>
-0.351838	‚æ </unk>
-1.23253	‚¾ ‚æ	-0.0205986
-0.351838	‚¶‚å </unk>
-0.332781	‚è </unk>
-0.336941	‚· </unk>
-1.36498	‚· ‚Ø	-0.0205986
-0.372171	‚¬‚ã </unk>
-1.27958	‚¬‚ã ‚µ	-0.0205986
-0.351838	‚¯ </unk>
-1.36498	‚¢ ‚¶‚å	-0.0205986
-1.36498	‚¢ ‚Ç	-0.0205986
-1.36498	‚¢ ‚Å‚¡	-0.0205986
-1.36498	‚¢ ‚°	-0.0205986
-0.332781	‚Å </unk>

\3-grams:
-0.580103	<unk> ‚± ‚¿
-0.353895	‚Ó‚§ ‚± </unk>
-0.190638	<unk> ‚ª </unk>
-0.334987	<unk> ‚É </unk>
-1.08553	‚Ü ‚µ ‚½
-1.08553	‚¬‚ã ‚µ ‚Â
-1.05139	<unk> ‚Ó‚§ ‚±
-0.324697	<unk> ‚« </unk>
-1.20715	<unk> ‚« ‚Î
-0.321095	‚Ð ‚« </unk>
-0.31721	<unk> ‚ç </unk>
-0.31721	‚¿ ‚ç </unk>
-0.334987	‚ä ‚¹ </unk>
-1.05363	<unk> ‚ä ‚¹
-0.368254	‚± ‚¿ </unk>
-1.12315	‚± ‚¿ ‚ç
-0.334987	‚µ ‚½ </unk>
-1.12315	<unk> ‚È ‚Ü
-1.12315	<unk> ‚È ‚è
-0.334987	<unk> ‚¦ </unk>
-0.394504	<unk> ‚Ü </unk>
-1.25434	<unk> ‚Ü ‚µ
-1.25434	<unk> ‚Ü ‚è
-1.2513	<unk> ‚Ü ‚·
-0.36273	‚È ‚Ü </unk>
-1.08091	‚Î ‚µ‚å ‚Ì
-0.353895	<unk> ‚µ‚å </unk>
-0.349423	‚Ì ‚Î </unk>
-1.15135	‚Ì ‚Î ‚µ‚å
-0.335303	‚« ‚Î </unk>
-0.402974	‚µ‚å ‚Ì </unk>
-0.689815	<unk> ‚Ì ‚Î
-0.334987	<unk> ‚² </unk>
-0.23912	<unk> ‚í </unk>
-0.334987	<unk> ‚«‚å </unk>
-0.334987	‚Ú ‚Æ </unk>
-1.05363	<unk> ‚Ú ‚Æ
-1.04917	‚· ‚Ø ‚·
-0.334987	‚ñ ‚® </unk>
-0.308039	<unk> ‚Ý </unk>
-0.334987	‚¢ ‚Ç </unk>
-0.334987	<unk> ‚¨ </unk>
-0.334987	‚¢ ‚Å‚¡ </unk>
-1.01052	<unk> ‚Ð ‚«
-1.05363	<unk> ‚ñ ‚®
-1.05139	‚¢ ‚° ‚¬‚ã
-0.334987	‚µ ‚Â </unk>
-0.334987	<unk> ‚ë </unk>
-0.308039	<unk> ‚Á </unk>
-0.334987	‚¾ ‚æ </unk>
-1.05363	<unk> ‚¾ ‚æ
-0.334987	‚¢ ‚¶‚å </unk>
-0.31721	‚Ü ‚è </unk>
-0.31721	‚È ‚è </unk>
-0.321095	‚Ø ‚· </unk>
-0.335039	<unk> ‚· </unk>
-1.17778	<unk> ‚· ‚Ø
-0.321095	‚Ü ‚· </unk>
-0.353895	<unk> ‚¬‚ã </unk>
-1.08321	‚° ‚¬‚ã ‚µ
-0.334987	<unk> ‚¯ </unk>
-1.23463	<unk> ‚¢ ‚¶‚å
-1.23463	<unk> ‚¢ ‚Ç
-1.23463	<unk> ‚¢ ‚Å‚¡
-1.23463	<unk> ‚¢ ‚°
-0.308039	<unk> ‚Å </unk>
